<?xml version="1.0"?>
<opencv_storage>
<opencv_ml_svm>
  <format>3</format>
  <svmType>C_SVC</svmType>
  <kernel>
    <type>LINEAR</type></kernel>
  <C>1.</C>
  <term_criteria><epsilon>1.1920928955078125e-07</epsilon>
    <iterations>1000</iterations></term_criteria>
  <var_count>10</var_count>
  <class_count>6</class_count>
  <class_labels type_id="opencv-matrix">
    <rows>6</rows>
    <cols>1</cols>
    <dt>i</dt>
    <data>
      0 1 2 3 4 5</data></class_labels>
  <sv_total>15</sv_total>
  <support_vectors>
    <_>
      8.86672278e-05 2.27212353e-04 -5.82079956e-05 -1.83336932e-04
      -9.46330474e-05 1.56776550e-05 7.24716811e-05 8.15398598e-05
      2.26639313e-05 2.86274862e-05</_>
    <_>
      1.04867737e-03 1.52026361e-03 4.81011055e-04 -1.69405932e-04
      -8.58523417e-04 1.64459599e-03 1.97783302e-05 -9.14219883e-04
      -1.06124186e-04 1.32714049e-04</_>
    <_>
      3.72121198e-04 2.82504800e-04 2.96849204e-04 -3.59639271e-05
      -3.14327481e-04 6.82676735e-04 3.68801062e-04 1.86301011e-04
      -1.39278432e-04 5.12813509e-04</_>
    <_>
      -3.24416505e-05 -4.44389443e-05 -3.79023368e-05 1.24460406e-04
      2.60684155e-05 -1.97565605e-04 -1.27156673e-04 -2.44169292e-04
      1.71739506e-04 -1.31446533e-04</_>
    <_>
      -7.27748906e-04 1.47970929e-03 7.20745767e-04 5.21156937e-04
      1.46291670e-04 3.85786407e-04 1.31111054e-04 -1.52990877e-04
      3.52708186e-04 2.26674383e-04</_>
    <_>
      -2.37720105e-05 8.00798225e-05 9.71620175e-05 -1.64628545e-05
      -1.97863425e-04 2.61871319e-05 3.93511891e-06 3.23204222e-05
      -9.60084435e-05 6.02545006e-05</_>
    <_>
      4.67696460e-04 2.43054252e-04 7.08404477e-05 8.44777314e-05
      -2.86772178e-04 3.08131217e-04 3.21149011e-04 2.89225980e-04
      -1.04477971e-04 2.61575842e-05</_>
    <_>
      -4.89332946e-04 3.51646158e-05 -6.50556321e-05 1.10775882e-05
      2.35749889e-04 -4.09668341e-04 -2.36086930e-06 -4.28226776e-04
      -1.10597166e-05 2.08610189e-04</_>
    <_>
      -1.40642445e-03 1.06412976e-03 5.40309469e-04 5.26070886e-04
      1.11888698e-03 1.57224815e-04 7.76899629e-04 6.62597158e-05
      -9.90285698e-05 -4.84872930e-04</_>
    <_>
      1.30998931e-04 -1.42385863e-04 -3.26462177e-05 -2.40489971e-05
      -7.05451384e-05 2.67154421e-04 1.24997707e-04 1.79967639e-04
      3.65516644e-05 3.50557020e-05</_>
    <_>
      -9.87222069e-04 -5.49976656e-04 -5.28310658e-04 2.61784240e-04
      4.19844029e-04 -1.60738907e-03 -5.35371597e-04 -6.91286637e-04
      -3.91515496e-04 -2.27196098e-04</_>
    <_>
      -8.71544005e-04 2.17514636e-04 -5.53249993e-05 1.36584567e-04
      5.44335227e-04 -3.27287300e-04 -3.41249048e-04 1.45175829e-04
      -2.77992367e-04 -1.89150785e-04</_>
    <_>
      -2.10692524e-04 -1.42476623e-04 -1.34381859e-04 5.41739864e-05
      1.40080796e-04 -4.47105500e-04 -2.79624626e-04 -2.64643371e-04
      6.30944305e-06 -2.81571974e-05</_>
    <_>
      -4.84593067e-04 -3.45849585e-05 -1.25240229e-04 2.45342293e-04
      4.50664054e-04 -2.53055478e-04 -2.82935507e-04 -1.72777043e-04
      -1.89633967e-04 -3.34218610e-04</_>
    <_>
      -6.92064117e-04 1.64618809e-03 1.04407652e-03 3.00216547e-04
      4.13412090e-05 9.17811296e-04 9.28753871e-04 1.11018994e-03
      -1.86338904e-04 -5.14983782e-04</_></support_vectors>
  <uncompressed_sv_total>150</uncompressed_sv_total>
  <uncompressed_support_vectors>
    <_>
      4.52673193e+03 7.49326855e+03 -6.17084814e+03 -9.09204163e+02
      -2.45670117e+03 3.41851624e+02 -2.55193115e+03 -3.14532178e+03
      -1.08292798e+03 1.18714087e+03</_>
    <_>
      -2.92134216e+02 4.26262012e+03 2.96640698e+03 -6.24393896e+03
      3.37122485e+03 1.49992273e+03 1.41625684e+03 6.97956726e+02
      2.26044098e+02 -2.21305389e+02</_>
    <_>
      -1.61978198e+03 5.56303320e+03 3.95489844e+03 -1.49957214e+03
      -2.59285962e+03 -2.42212427e+03 -1.12851709e+03 1.26690601e+03
      1.47006311e+03 1.45168152e+02</_>
    <_>
      -8.74569336e+02 6.75214209e+03 2.91229102e+03 -2.89431494e+03
      3.01455469e+03 -1.58151880e+03 5.45233398e+03 1.20836194e+03
      -8.23285828e+02 -1.25722168e+03</_>
    <_>
      7.69905176e+03 4.32000635e+03 1.76629468e+03 -3.68058258e+02
      4.12909851e+02 -3.59517944e+03 4.57403809e+03 -1.52916614e+03
      -1.86833704e+03 2.28869458e+03</_>
    <_>
      6.16418262e+03 4.00541455e+03 -4.19996924e+03 2.08886792e+03
      5.68617432e+02 2.07327808e+03 2.92246240e+03 -4.47486230e+03
      -1.02463013e+03 2.70975677e+02</_>
    <_>
      -2.92079529e+02 6.38062158e+03 -6.60507324e+02 -5.57850732e+03
      2.79093579e+03 1.60855225e+03 -1.48179236e+03 1.95012695e+03
      -2.25532813e+03 1.40188586e+03</_>
    <_>
      -4.22248383e+02 3.03678564e+03 3.75181519e+03 -2.82376807e+03
      -2.36088013e+03 1.72204016e+03 8.83772705e+02 -2.02442676e+03
      2.55077051e+03 -6.30523193e+02</_>
    <_>
      4.02253296e+03 4.69886719e+03 2.16985425e+03 3.91145532e+03
      3.86166626e+02 -2.00862109e+03 4.00075000e+03 -1.02288612e+02
      9.68955505e+02 -6.33132385e+02</_>
    <_>
      -1.37526917e+03 2.35360376e+03 3.47266895e+03 -6.38260620e+02
      1.89601611e+03 2.57813965e+03 2.12675991e+01 3.17005100e+01
      1.55424341e+03 4.46090149e+02</_>
    <_>
      1.90043958e+03 3.09992383e+03 5.94108643e+03 9.68852905e+02
      1.51208191e+03 3.73562793e+03 6.42237366e+02 -1.50109155e+03
      -8.33610413e+02 8.58457520e+02</_>
    <_>
      -3.47980688e+03 3.88819336e+03 1.26871605e+02 4.42654688e+03
      -7.26924121e+03 6.53364990e+02 -2.05224194e+03 1.57495142e+03
      1.47684277e+03 -1.66388770e+03</_>
    <_>
      -2.21578540e+03 -5.49896774e+01 5.82690674e+03 1.46645239e+03
      -1.74475754e+02 2.84976172e+03 -4.20725525e+02 1.76141708e+02
      -2.42023022e+03 -1.46298181e+03</_>
    <_>
      3.87654102e+03 6.75669739e+02 3.71669995e+03 1.06636060e+03
      5.96714722e+02 1.30560043e+02 2.15617920e+02 -2.06526318e+03
      9.42583618e+02 5.16268494e+02</_>
    <_>
      -2.44190967e+03 3.14849683e+03 4.08264551e+03 -7.50907669e+01
      -1.36231216e+02 9.39754150e+02 -7.89114441e+02 -1.25472485e+03
      2.39226343e+03 -2.59665863e+02</_>
    <_>
      7.56799500e+02 -1.15398218e+03 4.56087793e+03 1.96597549e+02
      -8.63617859e+02 4.15821991e+02 -2.19659570e+03 -2.74109985e+02
      6.43395691e+02 -3.57611771e+01</_>
    <_>
      -1.01594135e+03 4.28253369e+03 4.41452148e+03 1.35945877e+02
      -1.96830212e+03 -3.83425781e+02 -1.47226001e+03 1.78858261e+02
      1.17443506e+03 -1.81822180e+03</_>
    <_>
      3.00526953e+03 2.02763965e+03 -3.25575439e+02 1.98859973e+03
      4.50734961e+03 5.65330994e+02 -9.29645508e+02 4.69969177e+02
      -3.39929736e+03 3.47809143e+02</_>
    <_>
      3.16565308e+03 3.29712598e+03 -3.04537842e+03 9.24039648e+03
      -9.84768066e+02 -8.82810120e+02 2.46785352e+03 1.68425049e+03
      2.96777393e+03 -9.78758057e+02</_>
    <_>
      5.44640820e+03 9.53186426e+03 -8.76095410e+03 -4.44180664e+03
      -2.28967822e+03 2.78270538e+02 -1.69532068e+03 1.12457080e+03
      1.05151355e+03 -3.75092316e+02</_>
    <_>
      3.83755786e+03 7.15899951e+03 -2.86261963e+02 -4.28363428e+03
      2.05002026e+03 -2.87712402e+03 1.04930408e+03 3.54474219e+03
      6.12367249e+02 1.72895782e+02</_>
    <_>
      1.17073865e+03 9.67218359e+03 -9.11726367e+03 -7.43868896e+03
      -4.74065479e+03 -1.64488440e+03 -2.34441675e+03 3.88637177e+02
      -9.52081543e+02 8.81214722e+02</_>
    <_>
      4.65155127e+03 1.14180840e+04 -9.62297754e+03 -2.08490796e+03
      -1.34210522e+03 3.67281586e+02 -2.39246680e+03 1.52693225e+03
      7.06133850e+02 -1.67485535e+03</_>
    <_>
      1.43808850e+03 -8.07301575e+02 3.06630444e+03 1.62161182e+03
      1.51035193e+03 1.31382971e+03 -4.77990479e+02 -6.72589905e+02
      1.92469543e+03 1.00423813e+02</_>
    <_>
      -2.24413354e+03 2.62270093e+03 -4.28939404e+03 -2.24291797e+03
      2.17031128e+03 1.83541980e+03 6.84140137e+02 -1.07885181e+03
      2.12768967e+02 4.11868652e+02</_>
    <_>
      -2.54004224e+03 1.77191174e+03 -4.49190918e+03 -1.88603564e+03
      2.44314624e+03 4.08190601e+03 -1.11514000e+02 -1.43405310e+03
      4.22707245e+02 1.63527368e+03</_>
    <_>
      3.54349585e+03 -5.72776367e+02 2.90718994e+03 -1.42088281e+03
      3.14255786e+03 2.25540991e+03 -2.70854893e+01 -1.49626068e+02
      -1.69515735e+03 -4.89391266e+02</_>
    <_>
      -8.34050217e+01 -1.39554358e+03 4.10667450e+02 -2.09069702e+03
      3.71851001e+03 2.81872681e+03 -2.39813940e+03 1.24274438e+03
      -9.78561951e+02 6.46116211e+02</_>
    <_>
      -5.12812549e+03 3.64511475e+03 3.31934180e+03 -2.03866931e+03
      -5.41461792e+02 -4.20924268e+03 7.24831238e+02 3.26908154e+03
      -1.14802820e+03 1.80954468e+02</_>
    <_>
      -5.21383252e+03 4.52795361e+03 1.78789771e+03 -1.60235620e+03
      2.25977197e+03 3.25529907e+03 1.57779285e+03 4.17096875e+03
      1.89064490e+03 3.68577759e+03</_>
    <_>
      -5.88684863e+03 3.93794287e+03 -2.61253833e+03 -5.88587793e+03
      2.49898486e+03 4.81211517e+02 -9.45159302e+02 1.44485046e+03
      -1.95286377e+03 9.90057251e+02</_>
    <_>
      -4.12320557e+03 -3.65124829e+03 1.15004395e+03 5.13275330e+02
      -3.81319238e+03 -1.03006824e+03 1.31534875e+03 -1.16632751e+03
      -1.86213098e+03 6.26963158e+01</_>
    <_>
      -3.77503662e+02 1.61541260e+03 4.00460632e+02 1.78899963e+03
      -4.01656152e+03 -2.01385010e+03 -5.88951233e+02 -1.08922388e+03
      -8.14716309e+02 -2.73764282e+03</_>
    <_>
      -9.84799072e+02 -3.49891309e+03 5.71738220e+02 2.07738940e+03
      8.05338013e+02 2.53595850e+03 7.11839966e+02 9.91032654e+02
      1.57954639e+03 2.78522437e+03</_>
    <_>
      -3.72344238e+03 -7.06552124e+02 1.62703418e+03 3.67066498e+02
      3.99452332e+02 1.82007837e+03 -3.56980225e+02 -5.37551155e+01
      1.62621875e+03 3.86923828e+03</_>
    <_>
      -5.46291553e+03 -2.46765381e+03 -1.21948438e+03 -1.13634326e+03
      -1.75968408e+03 2.09378494e+02 1.85543152e+03 6.30200195e+02
      -2.45161304e+03 1.85513403e+03</_>
    <_>
      -4.11559131e+03 -1.04616150e+03 2.58896149e+02 -1.46375464e+03
      -1.40105750e+03 1.49266785e+03 3.68055103e+03 -1.37356125e+02
      -2.58415192e+02 2.67193506e+03</_>
    <_>
      2.06687012e+03 3.22467163e+03 1.03803992e+03 3.70362915e+03
      3.04063867e+03 -1.26008350e+03 4.34503967e+02 5.76409607e+02
      1.37743530e+03 -5.05503052e+02</_>
    <_>
      3.23632666e+03 6.31892236e+03 3.58570099e+02 3.68223315e+03
      1.69180359e+03 -3.51598413e+03 -5.05639153e+01 3.21138037e+03
      -3.10218848e+03 1.88588806e+03</_>
    <_>
      -3.50970728e+03 8.75510010e+02 3.64343286e+03 -2.93130310e+02
      -1.27645679e+03 2.52474072e+03 -2.27310840e+03 -7.75211914e+02
      -1.02698792e+03 -7.05939636e+02</_>
    <_>
      -8.89408386e+02 4.06827539e+03 4.96561377e+03 1.69985641e+02
      1.11220642e+03 -1.55180588e+02 -2.10275293e+03 -3.80769409e+02
      9.67180969e+02 -2.58297339e+03</_>
    <_>
      -2.47266797e+03 -2.01583997e+03 -6.35363098e+02 -1.04670129e+03
      -1.98413559e+02 4.27572461e+03 3.10996191e+03 -1.81363281e+03
      -2.59804871e+02 -9.57328613e+02</_>
    <_>
      -7.55096558e+02 -3.73403979e+03 -1.84724426e+03 3.87625580e+02
      1.74699329e+03 3.41971094e+03 1.04076196e+03 -3.87039495e+00
      7.86719116e+02 -9.35055298e+02</_>
    <_>
      -3.15132568e+03 3.26943970e+02 2.19596851e+03 1.08036780e+03
      1.77028271e+03 5.57728516e+02 -8.52815918e+02 -5.39233765e+02
      2.57578833e+03 1.98779382e+03</_>
    <_>
      -2.98423730e+03 -2.05135815e+03 -8.37860046e+02 2.38823755e+03
      -7.47026917e+02 4.56970215e+03 7.79939636e+02 -2.79677124e+02
      -1.34827820e+03 4.32423859e+02</_>
    <_>
      4.03008766e+01 5.77750916e+02 -2.84100513e+03 5.68379639e+03
      1.51705188e+03 -1.55984021e+03 3.27545190e+03 1.40933215e+03
      -2.13820313e+03 -2.89543848e+03</_>
    <_>
      2.72294482e+03 3.07422803e+03 4.21870313e+03 1.16326978e+03
      -3.29138763e+02 -1.47297156e+03 2.79977264e+02 -1.38813867e+03
      1.91268835e+03 -8.05674011e+02</_>
    <_>
      -5.21943481e+02 1.02977234e+03 4.36690088e+03 3.99929443e+02
      1.42096631e+03 -9.21135235e+00 -1.73542004e+03 -1.03963721e+03
      1.50228235e+03 -5.94207397e+02</_>
    <_>
      -2.70087085e+03 -4.22896191e+03 4.99375439e+03 2.15652539e+03
      1.85166968e+03 3.25750366e+03 3.44303735e+03 2.22410254e+03
      -2.68998511e+03 -3.02231836e+03</_>
    <_>
      -5.34154834e+03 1.34658472e+03 3.26649194e+03 -2.08463208e+03
      -2.12997925e+03 -2.27617661e+02 2.04564600e+03 9.70351135e+02
      4.18787109e+02 1.26114429e+03</_>
    <_>
      -4.89435742e+03 3.39476343e+03 4.80173291e+03 1.04840247e+03
      -2.68213843e+03 3.33751147e+03 2.64979346e+03 -5.06283020e+02
      3.54238037e+02 -2.10735611e+02</_>
    <_>
      -9.57071387e+03 -2.92330298e+03 1.65433459e+03 1.92603035e+01
      9.17206787e+02 -1.04950610e+03 1.96176111e+03 6.84450562e+02
      -1.46229782e+02 2.40245947e+03</_>
    <_>
      -5.55384473e+03 2.59125708e+03 -1.77660388e+03 2.95868823e+03
      -7.02182471e+03 1.71876892e+03 -3.49513208e+03 1.93810181e+02
      -9.02926941e+02 -9.97249939e+02</_>
    <_>
      -4.38110547e+03 4.30252832e+03 9.44714966e+02 3.78726746e+02
      -5.89709082e+03 -1.13121448e+03 -9.27940674e+02 1.63973730e+03
      1.67678687e+03 1.81268640e+03</_>
    <_>
      -1.25303247e+03 4.53233008e+03 4.42119775e+03 -1.14442078e+03
      -2.92789673e+03 -1.16720251e+03 -1.29609055e+02 8.83723816e+02
      8.71481262e+02 4.50622070e+02</_>
    <_>
      -2.45319580e+03 5.91089844e+03 1.34338367e+03 1.73424637e+02
      -3.58454004e+03 -1.61251855e+03 2.53464966e+03 2.90723000e+01
      1.22275745e+03 -1.19303406e+03</_>
    <_>
      -3.04572583e+03 -1.31587732e+03 3.43588647e+03 -2.33682520e+03
      -2.57764038e+02 2.91799365e+03 -2.73081635e+02 9.43689087e+02
      -1.74489209e+03 9.57707336e+02</_>
    <_>
      -2.21425708e+03 3.05405884e+03 -1.17613904e+03 4.65204102e+03
      -3.28832617e+03 -1.60629163e+03 -3.93457568e+03 4.30226660e+03
      -6.46793518e+02 4.25132861e+03</_>
    <_>
      -1.74302637e+03 3.96446582e+03 2.06597949e+03 -4.05244580e+03
      -4.80856836e+03 -3.21161719e+03 -5.66074829e+02 9.48349304e+02
      2.73722839e+02 -1.64464465e+03</_>
    <_>
      -2.96491943e+03 3.26875122e+03 3.14929907e+03 -5.57547546e+02
      6.06168457e+02 2.36056665e+03 1.34790039e+02 -1.22241382e+03
      8.93031555e+02 -1.84816003e+03</_>
    <_>
      -2.92178613e+03 1.12729785e+03 1.40899133e+03 -1.06940308e+03
      -1.08657703e+03 3.77814160e+03 1.46976550e+03 -1.10809790e+03
      -1.11462915e+03 -3.64587097e+02</_>
    <_>
      1.09111951e+03 3.80219141e+03 2.52637427e+03 2.19964990e+03
      1.91382813e+03 3.79406830e+02 -2.38467944e+03 -6.25091370e+02
      -2.85280884e+03 -1.50985352e+03</_>
    <_>
      -1.23956335e+03 4.73230286e+02 -1.29378027e+03 3.01159668e+03
      4.53898877e+03 1.91108081e+03 1.25753162e+03 9.75130310e+02
      6.36384583e+02 1.18184155e+03</_>
    <_>
      -1.72037878e+03 -2.44613525e+03 2.30085352e+03 -1.50975754e+02
      -6.24478394e+02 1.92691541e+03 -2.90724792e+02 -2.12940109e+02
      -2.96725647e+02 -2.26670239e+03</_>
    <_>
      -1.03667480e+03 5.77913635e+02 -6.49780078e+03 1.38775623e+03
      3.25887695e+03 3.72425928e+03 -1.85363867e+03 -1.50142139e+03
      2.35109448e+03 -6.38045593e+02</_>
    <_>
      2.85071143e+03 -1.98465869e+03 -1.25376929e+03 -2.87975171e+03
      3.44183008e+03 1.60593518e+03 -3.68544385e+03 2.28054761e+03
      -1.50103528e+03 -7.33348816e+02</_>
    <_>
      3.67879932e+03 8.72765930e+02 2.61641211e+03 -1.36885339e+03
      3.54080005e+03 -2.80877637e+03 -9.53956970e+02 -1.47669946e+03
      -2.86723267e+03 8.15846313e+02</_>
    <_>
      -3.00634961e+03 -2.47993994e+03 -1.15783167e+03 3.28733105e+03
      -1.33043958e+03 2.72585602e+02 -2.20872461e+03 4.87273407e+02
      -7.57906494e+02 -1.96081802e+02</_>
    <_>
      -3.55311450e+03 -1.83491272e+03 8.89204468e+02 6.00864624e+02
      2.91212378e+03 3.39616180e+02 -2.92413770e+03 -1.05590747e+03
      2.36666650e+03 -1.35698242e+03</_>
    <_>
      1.19670337e+03 -2.44278345e+03 1.40569226e+03 -4.50295380e+02
      1.11113416e+03 2.58083691e+03 -8.30286987e+02 1.01211774e+03
      -4.52559082e+03 -2.73614429e+03</_>
    <_>
      2.88633276e+03 3.06932715e+03 -1.01158195e+02 6.52020898e+03
      1.50095447e+03 -1.50813501e+03 3.01865753e+02 2.77167432e+03
      -7.71040955e+02 3.27827124e+03</_>
    <_>
      9.48254395e+02 4.24446930e+02 3.38078906e+03 8.34575256e+02
      4.66755811e+03 7.95397705e+02 -3.64863599e+03 -6.39804504e+02
      1.69653229e+02 -1.21000354e+03</_>
    <_>
      -2.11183643e+03 5.63646301e+02 1.94713354e+03 1.15132971e+03
      5.14847778e+02 7.11014832e+02 1.61953760e+03 2.46141650e+03
      -9.09366394e+02 6.64569702e+02</_>
    <_>
      -6.59746240e+03 -4.75998340e+03 1.11542017e+03 4.02928857e+03
      1.59165784e+03 5.62233643e+02 -2.70638924e+01 -2.18894974e+02
      -3.96272186e+02 -3.27001636e+03</_>
    <_>
      -2.85561377e+03 -2.28328784e+03 2.40505566e+03 1.72144556e+03
      -8.78340210e+02 -5.34204224e+02 3.33259033e+02 1.65560779e+03
      2.50042090e+03 1.57030481e+03</_>
    <_>
      -1.53234534e+03 -8.45194092e+02 -4.13596001e+01 5.79996729e+03
      -8.09344604e+02 -7.14213379e+02 -4.42612842e+03 2.71183276e+03
      1.65375525e+03 2.04684595e+03</_>
    <_>
      -2.85119751e+03 -5.68821533e+03 -9.23959167e+02 1.89998608e+03
      1.65440088e+03 9.55137085e+02 -4.27710059e+03 1.33686841e+03
      -2.30725006e+02 -1.50449060e+03</_>
    <_>
      -3.77982361e+02 -1.80280139e+03 -6.40925098e+03 5.19563818e+03
      1.04438916e+03 1.79506213e+03 -2.67855151e+03 2.67680371e+03
      -1.65175549e+03 6.77579651e+02</_>
    <_>
      1.22462585e+03 -4.58078125e+03 -1.59049573e+03 3.56924854e+03
      3.52829285e+02 2.32489673e+03 -2.14358252e+03 2.35002344e+03
      -2.01497949e+03 -3.57755249e+03</_>
    <_>
      1.67367157e+02 1.52040451e+02 -3.40670435e+03 4.91211426e+03
      5.23013330e+03 -8.98460632e+02 8.05559265e+02 9.59501831e+02
      1.39973889e+03 -9.23422791e+02</_>
    <_>
      -3.23994263e+03 -3.45563696e+03 -1.33930786e+03 2.16432373e+03
      3.59205396e+03 2.51036087e+02 -5.22380957e+03 5.33611389e+02
      -7.52023071e+02 -1.39904736e+03</_>
    <_>
      -4.59486084e+03 -1.15871973e+03 -1.61080795e+02 2.48706982e+03
      -1.96275110e+03 7.02236633e+02 6.64115356e+02 -8.77857727e+02
      9.78413940e+02 1.82114771e+03</_>
    <_>
      -9.06639709e+02 1.92519153e+03 -1.02980579e+03 -3.62598877e+03
      6.53600928e+03 2.58012695e+02 2.13826123e+03 1.82587073e+03
      6.05894592e+02 -1.18979053e+03</_>
    <_>
      -6.97815552e+02 6.90640640e+01 -1.14823555e+04 -3.38750659e+03
      1.74255151e+03 4.25402539e+03 -1.87783478e+02 1.63404456e+03
      -1.15882837e+03 -5.18952759e+02</_>
    <_>
      1.82108887e+03 6.99630615e+02 -1.27250410e+04 -3.81683569e+03
      3.28310669e+03 3.61843823e+03 -2.24862402e+03 3.62001636e+03
      1.38537231e+03 -2.17729639e+03</_>
    <_>
      -4.15973828e+03 -5.02114014e+03 -2.96567773e+03 3.61763062e+03
      -4.33365860e+01 1.14168042e+03 -2.53837964e+03 -8.25515594e+01
      8.01273254e+02 4.24241455e+02</_>
    <_>
      -1.63006119e+02 -4.61893164e+03 -7.82025439e+03 -2.23425830e+03
      1.09545776e+02 8.84055847e+02 -3.64279590e+03 3.40081421e+02
      9.69373703e+01 -1.33077652e+02</_>
    <_>
      -5.21419043e+03 1.32581079e+03 -5.73826172e+03 -2.92249048e+03
      2.12613306e+03 2.55927872e+02 1.53793320e+02 -1.84572998e+03
      9.17626587e+02 8.47725601e+01</_>
    <_>
      -6.16417725e+03 -3.43091766e+02 -1.49973499e+03 -5.15397803e+03
      3.17403394e+03 -2.12547827e+03 1.99086475e+03 5.41315186e+02
      -6.62404114e+02 -1.15784348e+02</_>
    <_>
      2.05541748e+03 1.53066211e+03 8.30161377e+02 -1.69667053e+03
      4.85153076e+03 6.78607056e+02 -4.16126318e+03 2.01282440e+02
      -1.15258899e+03 -4.24602661e+02</_>
    <_>
      -5.98110742e+03 -2.97021680e+03 -4.82093018e+03 -1.46587524e+03
      -6.46518127e+02 -1.40814722e+03 4.66421973e+03 -1.77600754e+02
      -3.59853816e+00 -4.22980461e+01</_>
    <_>
      -1.36333521e+03 -3.88035950e+02 -4.36549561e+03 3.40386572e+03
      2.95338647e+03 -3.93790161e+02 2.63944702e+03 -3.48164380e+03
      1.85601855e+03 -1.39225464e+03</_>
    <_>
      -7.70095557e+03 -1.30382129e+03 -2.80131299e+03 -1.69293958e+03
      3.52898242e+03 9.53740788e+00 2.77162750e+02 8.32934265e+02
      2.38969727e+03 3.27678418e+03</_>
    <_>
      -5.26696582e+03 -3.58846460e+03 -2.85496460e+03 1.28580945e+03
      -7.72505798e+02 3.53255524e+02 -1.41437231e+03 -1.12652295e+03
      -1.05003003e+03 2.54054932e+03</_>
    <_>
      -4.01517285e+03 -2.84485425e+03 -2.15273291e+03 1.98479944e+03
      -1.79137793e+03 7.00124084e+02 1.18935071e+03 -3.46215527e+03
      -1.34450562e+03 9.82270447e+02</_>
    <_>
      -4.76372412e+03 -4.09555249e+03 -1.30419336e+03 3.53423553e+02
      5.66747704e+01 -1.22203137e+03 1.19545630e+03 1.31664880e+03
      -1.03230457e+03 -5.26515320e+02</_>
    <_>
      -4.75395215e+03 1.08819238e+03 -6.70202698e+02 -2.36397144e+03
      -1.90905774e+03 -1.17001550e+03 -5.60990051e+02 -7.08765320e+02
      -4.95243652e+03 -2.36216040e+03</_>
    <_>
      -4.11613330e+03 -2.13008325e+03 4.62316589e+02 1.52994592e+03
      1.02916736e+03 4.40176270e+02 1.92679482e+01 -5.23823914e+02
      3.02921436e+03 2.25946045e+03</_>
    <_>
      -2.61832947e+02 4.46473340e+03 -1.36109131e+03 4.78697119e+03
      1.31463550e+03 -2.73437354e+03 -1.72523169e+03 1.55601929e+03
      -1.63583740e+03 1.36390405e+03</_>
    <_>
      -1.83485718e+03 1.00713812e+03 -9.89522034e+02 3.37686768e+03
      3.00433319e+02 -1.99466382e+03 3.16427905e+03 -7.36313599e+02
      -4.05051117e+02 -7.68873169e+02</_>
    <_>
      -1.44294019e+03 -4.89358301e+03 -3.18670361e+03 -7.95130920e+02
      1.01569855e+03 -5.60409355e+01 2.54994604e+03 -2.28433716e+03
      1.04195251e+03 -1.41705652e+03</_>
    <_>
      -3.48334076e+02 -3.36680084e+02 -2.62676978e+03 1.55620227e+03
      5.80283252e+03 -4.53853711e+03 4.52722510e+03 6.67519958e+02
      -1.32966565e+03 -1.06958020e+03</_>
    <_>
      -8.90412695e+03 -3.93434814e+03 -1.62354749e+03 -1.25701917e+03
      -7.44818054e+02 -2.63773706e+03 3.21433521e+03 -2.82191162e+03
      -7.59248840e+02 2.63110376e+03</_>
    <_>
      -6.60217676e+03 -4.08341040e+03 -4.89243530e+02 -4.73999969e+02
      3.65126648e+02 -3.60028412e+02 1.09873120e+03 -1.40724829e+03
      2.72901215e+02 1.66158411e+03</_>
    <_>
      -5.18686377e+03 -3.08683301e+03 -1.48694922e+03 4.56968811e+02
      -1.32622266e+03 -1.23325085e+03 1.70220813e+03 1.39057983e+02
      -1.46179626e+03 -3.08822601e+02</_>
    <_>
      -5.12802930e+03 -3.01163428e+03 -3.35333179e+03 2.90131909e+03
      -5.17006104e+02 -9.68025024e+02 8.84511475e+02 -1.08593567e+02
      7.85211060e+02 2.25544824e+03</_>
    <_>
      -5.60829980e+03 -3.70958081e+03 -1.34958838e+03 1.31456873e+03
      6.68286362e+01 1.19225903e+03 -1.06045190e+03 -1.70002600e+03
      -1.40273767e+03 -4.38249695e+02</_>
    <_>
      -3.60140454e+03 3.82976367e+03 -4.66175079e+02 -6.86134216e+02
      -1.62325366e+03 -3.38126001e+03 1.34788110e+03 -1.95840637e+03
      8.33076294e+02 -2.37333521e+03</_>
    <_>
      -2.34756152e+03 -6.70132080e+03 -5.48757666e+03 2.73533716e+03
      -1.99548660e+02 -3.32681000e+02 -2.84968848e+03 2.26402734e+03
      4.25834045e+02 -4.28252625e+02</_>
    <_>
      -1.43649890e+03 3.62974634e+03 2.67649121e+03 1.20557593e+03
      6.11491699e+02 -3.51044312e+03 -2.89185938e+03 1.02097638e+03
      3.79551605e+02 -5.74348450e+02</_>
    <_>
      -3.24294312e+03 4.44313660e+02 3.01620581e+03 5.47754028e+02
      1.60310095e+03 -6.86470215e+02 -2.41268945e+03 -2.80020935e+02
      8.69948608e+02 -2.25372510e+03</_>
    <_>
      4.28779541e+03 3.31165186e+03 -9.86149658e+02 2.54317505e+03
      3.42655322e+03 -1.70864233e+03 -3.83190269e+01 -1.69378943e+03
      -7.55960022e+02 -1.54126538e+03</_>
    <_>
      -4.70335107e+03 9.45228088e+02 8.31060425e+02 -8.34600403e+02
      -1.72934668e+03 -5.15317230e+01 -5.54635864e+02 4.60447121e+01
      -1.16780957e+03 -7.40941895e+02</_>
    <_>
      -2.83853912e+02 3.59113184e+03 -6.20417334e+03 8.99302344e+03
      -1.34745166e+03 -3.29563501e+03 7.74164612e+02 1.92828455e+03
      2.24496045e+03 -1.90583606e+03</_>
    <_>
      -8.85417843e+00 7.52197083e+02 -6.02536963e+03 9.06519592e+02
      1.77212146e+03 6.06038818e+03 1.48912964e+03 2.29514297e+02
      1.97332922e+03 8.07433472e+02</_>
    <_>
      -2.65255322e+03 -2.30755859e+03 -1.59370361e+03 -3.99759692e+03
      4.46780127e+03 3.88041846e+03 2.24049731e+03 4.09101660e+03
      -1.75116321e+03 9.73553467e+02</_>
    <_>
      4.46725891e+02 4.35383496e+03 3.83634204e+03 -9.79025208e+02
      2.83086609e+02 -4.96276428e+02 -1.95274634e+03 3.30337207e+03
      -2.05474121e+02 4.42771423e+02</_>
    <_>
      5.43665674e+03 5.23243066e+03 -4.26389404e+03 2.69610376e+03
      -2.73787689e+01 2.68640405e+03 3.68916504e+03 -2.81830786e+03
      -1.48859473e+03 6.43972839e+02</_>
    <_>
      2.04893018e+03 -2.49185864e+03 3.97806982e+03 1.04882568e+03
      -2.03971500e+01 7.95740662e+02 7.38797546e+02 9.09800049e+02
      -1.29738245e+03 -1.84369003e+02</_>
    <_>
      -1.33681873e+03 2.67511499e+03 3.97911328e+03 9.46572083e+02
      -1.38474963e+03 8.46023865e+02 1.31006335e+03 1.43727380e+03
      2.88692651e+03 1.10023279e+03</_>
    <_>
      1.81445825e+03 1.08707507e+03 -7.70589233e+02 4.67295215e+03
      3.14413843e+03 9.34042847e+02 4.00024341e+03 2.72959302e+03
      -1.99577185e+03 2.44258209e+02</_>
    <_>
      -1.42689038e+03 3.69727808e+03 3.26989233e+03 1.39243933e+03
      -1.61854050e+02 1.95584143e+03 6.66091370e+02 7.94896545e+02
      3.10957886e+03 6.30224976e+02</_>
    <_>
      -4.31391846e+03 -1.45127991e+02 -1.38215381e+03 3.54641431e+03
      -2.14907739e+03 3.17274365e+03 2.07383740e+03 3.23555859e+03
      9.25459290e+02 2.32252515e+03</_>
    <_>
      -2.37086328e+03 4.59859326e+03 2.69069238e+03 1.69122485e+03
      -3.04509058e+03 -8.38035583e+01 -8.01085999e+02 3.45620483e+03
      2.42120215e+03 7.88694580e+02</_>
    <_>
      2.14437073e+02 1.12968408e+03 2.09922827e+03 -1.99738708e+03
      1.56991809e+03 2.26444067e+03 -2.37314926e+02 3.21962219e+02
      -2.02951062e+03 -2.03159888e+03</_>
    <_>
      1.22984045e+03 4.32031445e+03 3.63767603e+03 -2.10869067e+03
      3.09948639e+02 5.52939880e+02 -4.25518860e+02 1.29676843e+03
      -1.03512988e+03 -1.99350513e+03</_>
    <_>
      8.10372925e+02 1.84886694e+03 5.02145996e+03 -2.77004395e+02
      8.43404968e+02 1.39091760e+03 -1.15575342e+03 4.44800140e+02
      -2.04113391e+03 -3.30017609e+02</_>
    <_>
      3.03260620e+03 3.15518359e+03 3.84671753e+02 2.54561816e+03
      4.63092578e+03 1.17724719e+03 7.58138855e+02 2.16884692e+03
      2.40759674e+02 8.19219604e+02</_>
    <_>
      -1.06430933e+03 4.33179150e+03 4.21758301e+03 6.59848572e+02
      -6.56002274e+01 1.52771863e+03 -1.00787805e+03 5.19492920e+02
      2.60290588e+02 -5.78995605e+02</_>
    <_>
      -3.66214941e+03 9.06073792e+02 1.60241052e+03 1.85470886e+03
      -5.53232727e+02 3.91760571e+03 -7.72434814e+02 9.43431030e+02
      3.56598949e+00 1.00544324e+03</_>
    <_>
      4.19976025e+03 3.70773560e+03 -2.92754297e+03 8.85874707e+03
      -1.60352551e+03 -1.65668469e+03 2.02730444e+03 3.41858936e+03
      1.91689111e+03 -9.37457371e+00</_>
    <_>
      1.16845117e+03 3.03076367e+03 -1.34951208e+03 6.01019325e+01
      5.94295425e+01 3.56636816e+03 3.49589453e+03 -1.52437646e+03
      1.23633484e+03 -1.88633276e+03</_>
    <_>
      4.12075928e+03 6.71982471e+03 9.07953735e+02 -2.55978491e+03
      1.01258063e+03 -2.70814966e+03 2.64237085e+03 3.00369849e+03
      1.54086401e+03 -1.39334790e+03</_>
    <_>
      2.15425488e+03 6.59781494e+03 1.70522354e+02 -3.73467407e+03
      1.12721387e+03 -3.73308008e+03 1.68434555e+02 5.85477979e+03
      -9.03176956e+01 -9.18344543e+02</_>
    <_>
      9.50083008e+02 9.63760938e+03 -1.01632842e+04 -6.54419971e+03
      -4.46843750e+03 3.71746979e+02 -7.87441467e+02 5.53969666e+02
      -1.85681104e+03 2.52356567e+03</_>
    <_>
      4.87132520e+03 1.00945576e+04 -1.02171484e+04 -6.15118469e+02
      -2.53343384e+03 1.04626782e+03 -1.44013721e+03 2.73598413e+03
      5.29019104e+02 -2.41987793e+03</_>
    <_>
      5.81625977e+03 1.08176953e+04 -1.10068145e+04 -5.70399719e+02
      -2.02404333e+03 -1.60547073e+02 -2.11225757e+03 1.59598242e+03
      -1.52932892e+02 1.69900303e+01</_>
    <_>
      1.24320679e+03 1.60879883e+03 -6.74956543e+03 -6.68930420e+02
      1.25188110e+03 5.21517773e+03 -1.31235168e+03 -1.37153918e+03
      1.77558313e+03 1.36062408e+02</_>
    <_>
      4.23717316e+02 -1.53267639e+03 4.11846588e+02 -6.11596680e+03
      1.98195703e+03 2.58738940e+03 1.28138501e+03 1.27823511e+03
      6.97491028e+02 1.93579517e+03</_>
    <_>
      3.56256934e+03 5.88389282e+02 2.50602295e+03 -1.57832629e+03
      -1.18093155e+02 3.79053467e+02 -2.43799414e+03 -3.23782837e+02
      -9.17000549e+02 1.58048364e+03</_>
    <_>
      4.83748926e+03 1.12439502e+03 4.69378265e+02 -2.10783911e+03
      1.73117078e+03 1.03467297e+03 -6.79372986e+02 -1.01164868e+03
      5.29521240e+02 3.97430103e+03</_>
    <_>
      1.13078320e+03 -3.86790723e+03 2.53378906e+03 -8.62184814e+02
      1.26689941e+03 2.57472876e+03 -3.51519653e+02 1.12369531e+03
      1.81040359e+02 -1.36159668e+03</_>
    <_>
      1.72298145e+03 -3.91185852e+02 2.49995679e+03 -6.86621643e+02
      -6.94412781e+02 1.39778125e+03 -1.04045618e+03 -1.97064026e+03
      -2.16176465e+03 -1.25211377e+03</_>
    <_>
      6.00182861e+03 1.67671875e+03 6.42584290e+02 3.76661719e+03
      2.39055957e+03 -2.66892676e+03 4.29549255e+02 1.78827527e+03
      -2.94354541e+03 2.46572925e+03</_>
    <_>
      7.08188086e+03 3.28656323e+03 1.31526624e+03 -1.13198083e+03
      1.95182434e+03 -2.97301880e+03 3.32398560e+03 -1.83324866e+03
      -3.15938501e+03 1.58733630e+03</_>
    <_>
      -4.12364746e+02 -2.11686987e+03 -2.05967139e+03 5.54536230e+03
      -5.55702295e+03 2.60419604e+03 -2.19169824e+03 2.16743237e+03
      6.72879456e+02 -1.93729468e+03</_>
    <_>
      3.50495313e+03 -2.31399829e+03 -1.41472522e+03 2.60220020e+03
      -1.75647498e+03 3.11317090e+03 2.36570532e+03 6.80035889e+02
      -9.81625854e+02 -1.41479834e+03</_>
    <_>
      4.97842334e+03 -2.66694922e+03 -2.67979907e+03 -1.15365222e+03
      1.23399255e+03 -4.52672314e+03 2.99612701e+02 2.24041199e+02
      -6.68974426e+02 -1.68578186e+02</_>
    <_>
      2.93305908e+03 -1.12754044e+02 1.48588696e+03 4.24651184e+02
      9.25240723e+02 2.86868378e+02 -1.66331543e+03 -1.97745166e+03
      -1.52230249e+03 1.35337939e+03</_>
    <_>
      6.52103809e+03 3.12743921e+03 -2.52803491e+03 2.00659705e+03
      1.36087878e+03 -9.79334351e+02 1.73899976e+03 -3.17708081e+03
      -1.05022327e+03 -3.60190155e+02</_></uncompressed_support_vectors>
  <decision_functions>
    <_>
      <sv_count>1</sv_count>
      <rho>7.7126667832525120e-01</rho>
      <alpha>
        1.</alpha>
      <index>
        0</index></_>
    <_>
      <sv_count>1</sv_count>
      <rho>1.7596222186216459e+00</rho>
      <alpha>
        1.</alpha>
      <index>
        1</index></_>
    <_>
      <sv_count>1</sv_count>
      <rho>-1.1135458210531686e-01</rho>
      <alpha>
        1.</alpha>
      <index>
        2</index></_>
    <_>
      <sv_count>1</sv_count>
      <rho>-5.0913644596032381e-01</rho>
      <alpha>
        1.</alpha>
      <index>
        3</index></_>
    <_>
      <sv_count>1</sv_count>
      <rho>1.6752351969658089e-01</rho>
      <alpha>
        1.</alpha>
      <index>
        4</index></_>
    <_>
      <sv_count>1</sv_count>
      <rho>-2.3655370106756307e-01</rho>
      <alpha>
        1.</alpha>
      <index>
        5</index></_>
    <_>
      <sv_count>1</sv_count>
      <rho>-1.4269390987542019e+00</rho>
      <alpha>
        1.</alpha>
      <index>
        6</index></_>
    <_>
      <sv_count>1</sv_count>
      <rho>-6.3504787645592509e-01</rho>
      <alpha>
        1.</alpha>
      <index>
        7</index></_>
    <_>
      <sv_count>1</sv_count>
      <rho>-1.5248930584518294e+00</rho>
      <alpha>
        1.</alpha>
      <index>
        8</index></_>
    <_>
      <sv_count>1</sv_count>
      <rho>-1.3121087590859715e-01</rho>
      <alpha>
        1.</alpha>
      <index>
        9</index></_>
    <_>
      <sv_count>1</sv_count>
      <rho>-3.2423785838140389e+00</rho>
      <alpha>
        1.</alpha>
      <index>
        10</index></_>
    <_>
      <sv_count>1</sv_count>
      <rho>-7.4754649849382826e-01</rho>
      <alpha>
        1.</alpha>
      <index>
        11</index></_>
    <_>
      <sv_count>1</sv_count>
      <rho>-3.6341421081245501e-01</rho>
      <alpha>
        1.</alpha>
      <index>
        12</index></_>
    <_>
      <sv_count>1</sv_count>
      <rho>4.9365586161091612e-01</rho>
      <alpha>
        1.</alpha>
      <index>
        13</index></_>
    <_>
      <sv_count>1</sv_count>
      <rho>7.1689180899448890e-01</rho>
      <alpha>
        1.</alpha>
      <index>
        14</index></_></decision_functions></opencv_ml_svm>
</opencv_storage>
