<?xml version="1.0"?>
<opencv_storage>
<opencv_ml_svm>
  <format>3</format>
  <svmType>C_SVC</svmType>
  <kernel>
    <type>LINEAR</type></kernel>
  <C>1.</C>
  <term_criteria><epsilon>1.1920928955078125e-07</epsilon>
    <iterations>1000</iterations></term_criteria>
  <var_count>20</var_count>
  <class_count>8</class_count>
  <class_labels type_id="opencv-matrix">
    <rows>8</rows>
    <cols>1</cols>
    <dt>i</dt>
    <data>
      0 1 2 3 4 5 6 7</data></class_labels>
  <sv_total>28</sv_total>
  <support_vectors>
    <_>
      -2.46997719e-04 -2.58313230e-04 1.25834253e-04 -3.89019027e-04
      -4.76971065e-04 1.53683417e-04 3.91200010e-05 -1.06898333e-04
      8.20559871e-05 -1.19984579e-04 -1.05460378e-04 -5.93565113e-04
      -4.16145602e-04 -8.41105881e-04 5.45995019e-04 5.31225523e-04
      -1.86316407e-04 2.87490184e-05 -5.84492991e-05 -4.63329234e-05</_>
    <_>
      4.56746693e-06 -2.92626966e-04 -2.02788506e-04 -6.89507055e-04
      -3.96412710e-04 -5.17081528e-04 2.88169191e-04 -9.31643939e-04
      3.27487542e-05 -3.55825614e-04 -6.05229521e-04 -1.20333128e-03
      -3.33120086e-04 -1.13543065e-03 9.08812683e-04 3.94858565e-04
      7.86013668e-04 -7.60254159e-04 -9.08647373e-04 -1.84803393e-05</_>
    <_>
      -9.46347936e-05 -1.10877023e-04 -9.53272756e-05 -3.77187862e-05
      -3.93330236e-04 1.79428389e-05 1.43185076e-07 -7.16446593e-05
      -1.62065073e-04 -1.22220939e-04 -3.69324407e-05 -2.61302601e-04
      -2.02469106e-04 -1.65894526e-04 -6.64139880e-05 1.96809415e-04
      1.67456528e-04 -2.79536180e-04 -1.98510112e-04 4.04966668e-05</_>
    <_>
      5.13889916e-07 -2.74781138e-04 -1.96889596e-04 -4.03057265e-06
      -3.72407434e-04 -1.69099912e-05 1.04639794e-05 3.79719240e-05
      -2.37778786e-05 -2.48149358e-04 -4.64209006e-05 -7.76243105e-04
      -1.96863664e-04 -1.31382010e-04 6.37244593e-05 -2.76308507e-04
      1.44295293e-04 -5.48509415e-04 -3.54350690e-04 1.27933046e-04</_>
    <_>
      -1.61290416e-04 -1.94781387e-04 -2.47269607e-04 -6.13723023e-06
      -6.63336425e-04 -3.31340270e-05 -5.69408294e-05 1.25951628e-04
      -6.20249557e-05 -3.16210324e-04 -2.58086166e-05 -7.53816392e-04
      -4.43837082e-04 -3.69756570e-04 2.75296115e-05 8.43703674e-05
      3.98454868e-04 -2.06657438e-04 -4.87382495e-04 5.98270097e-04</_>
    <_>
      -2.68029125e-05 -2.10473547e-04 -6.37696285e-05 7.24010824e-05
      -3.95442708e-04 2.69737007e-04 -2.15077816e-04 -9.76404499e-06
      1.72632656e-06 -2.54682091e-04 2.41521018e-04 -8.17169377e-04
      -8.34942184e-05 -1.60319163e-04 4.33318142e-04 2.68827833e-04
      -1.84965349e-04 -2.50003854e-04 3.91860049e-05 4.27196006e-04</_>
    <_>
      -8.08693949e-05 -4.62800585e-04 -4.04059596e-04 1.75973200e-05
      -8.39368673e-04 -7.82931893e-05 2.46870099e-04 6.79675795e-05
      -1.84040095e-04 -4.96718683e-04 4.79098671e-05 -1.11754588e-03
      -2.36200023e-04 1.65029505e-05 -1.39602553e-05 5.84494614e-04
      8.03082439e-05 -5.51207922e-04 -1.25134573e-03 2.57095206e-04</_>
    <_>
      2.14704996e-04 -8.34063976e-05 -4.40893520e-04 -1.85786790e-04
      -1.36999486e-04 -6.84120809e-04 -1.46933235e-04 -6.95991548e-05
      -1.13224529e-03 8.74427613e-04 4.50518157e-04 1.01617712e-03
      7.98677444e-04 8.57384352e-04 2.77488551e-04 -1.85532088e-03
      9.49893612e-04 -6.91822846e-04 -8.89392919e-04 3.46990069e-04</_>
    <_>
      -3.60651284e-05 3.75799209e-05 -4.30159307e-05 -1.45331171e-06
      -1.71111406e-05 6.74665062e-05 -4.51412097e-06 -2.30715741e-05
      1.28020529e-05 -4.31282060e-05 6.14593155e-05 -6.67695394e-06
      4.18045965e-05 2.60909619e-05 1.29740110e-05 -1.57325812e-05
      -2.40742975e-05 9.27130532e-05 -1.99991409e-05 1.29350356e-05</_>
    <_>
      -3.80147430e-05 -9.15642231e-05 -1.63101460e-04 9.94276998e-05
      6.35816104e-05 -5.52509082e-05 1.44801554e-04 1.21651305e-04
      1.09735913e-04 1.11226778e-04 1.84326652e-07 1.05877254e-04
      1.01130237e-04 7.04049307e-05 1.28818108e-04 -2.02698051e-04
      1.66472149e-04 1.49959975e-04 3.15132525e-06 3.96410651e-05</_>
    <_>
      3.85127496e-05 7.36665243e-06 -9.87409076e-05 -3.45210974e-05
      5.07854784e-05 -1.19989509e-05 -5.19520836e-06 1.67766630e-05
      5.96162863e-05 3.72935574e-05 5.04527052e-05 1.77231977e-05
      2.81249922e-05 5.92559845e-05 7.05982966e-05 -4.37641102e-05
      7.67189849e-05 1.31641398e-04 -1.09884626e-04 6.60845180e-05</_>
    <_>
      -4.31127955e-06 7.95793167e-05 -1.10449226e-04 6.52836979e-06
      -8.15690364e-05 -9.57124394e-06 -1.04419851e-04 5.40883302e-05
      1.44806763e-04 1.00489859e-04 7.04317499e-05 6.83091785e-05
      7.98405017e-05 6.45895343e-05 1.09633860e-04 -8.23277223e-05
      -4.27062114e-05 6.77033022e-05 -9.00930972e-05 1.15025934e-04</_>
    <_>
      -6.71390881e-05 1.65416695e-05 -3.70612106e-05 -1.33796120e-05
      7.48706516e-05 -5.72496938e-05 9.82997444e-05 2.55897085e-05
      -2.38406283e-05 2.89267937e-05 5.60039662e-05 7.50253957e-06
      1.29145643e-04 1.64327557e-05 2.66550287e-05 -9.34791024e-05
      6.28014750e-05 -1.37050220e-05 -1.12017187e-04 7.77961031e-05</_>
    <_>
      -1.75557871e-05 2.28736841e-04 -2.38323264e-05 7.09942717e-04
      -1.42949299e-04 6.25900982e-04 -6.13919474e-05 -3.26134788e-04
      -1.02633913e-03 -1.14168366e-03 5.15901425e-04 3.10329313e-04
      5.06701588e-04 3.55422788e-04 -3.55577329e-04 9.57101991e-04
      -2.13175709e-03 1.06396037e-03 -3.13490775e-04 -5.71439392e-04</_>
    <_>
      -3.23787506e-04 -2.11647624e-04 -1.53603600e-04 3.41009028e-04
      -3.61157028e-04 5.43168804e-04 -4.22368350e-04 3.10380623e-04
      1.18059594e-04 -3.64297332e-04 -3.43129912e-04 -3.56897770e-04
      -6.56293123e-04 -5.33452949e-05 2.30450110e-04 1.00165998e-05
      -9.46399232e-05 3.70213005e-04 -7.35496229e-04 4.69727878e-04</_>
    <_>
      -1.01236430e-04 5.98076076e-06 -8.62601810e-05 9.04151675e-05
      -1.35105656e-04 5.43095666e-05 8.61843364e-05 7.19354794e-05
      -8.87753704e-05 -1.34137968e-04 9.96999952e-05 -3.79278499e-05
      -4.04965795e-05 -1.24041631e-04 1.01072816e-04 -4.53849088e-06
      -1.89369006e-04 1.53471818e-04 4.23029487e-05 5.18142188e-05</_>
    <_>
      -1.17451615e-04 -2.94694299e-04 3.46717388e-05 6.75865624e-04
      -3.26048612e-04 1.16160023e-03 -1.01864419e-03 7.98567606e-04
      2.29333484e-04 -7.69390725e-04 -5.31069090e-05 -2.71000637e-04
      2.29492332e-04 3.40351427e-04 -6.63951680e-04 5.47608477e-04
      -1.69299450e-03 1.92707186e-04 -1.32533663e-03 7.53727509e-04</_>
    <_>
      -1.44351492e-04 -2.71705517e-06 -1.41726909e-04 1.07586544e-04
      -1.52523338e-04 8.42141744e-05 -6.93707698e-05 -1.22541649e-04
      -8.06403768e-05 -3.73812101e-04 -7.35864796e-06 -2.40799433e-04
      -1.33150543e-05 3.17918573e-04 -3.12742515e-04 2.42408525e-04
      -1.11989531e-04 -2.07760109e-04 -1.19957040e-04 4.23831050e-04</_>
    <_>
      -5.05598327e-05 2.45060869e-06 2.87099556e-05 5.63199901e-05
      5.77892206e-05 -2.79961550e-05 5.82381699e-06 2.34278195e-05
      -2.66235129e-05 4.62214994e-05 -7.52934866e-05 -3.70044727e-05
      1.53330566e-05 6.26908950e-05 1.31262132e-04 -4.59845978e-05
      3.21605767e-05 7.71809355e-05 -4.85352975e-05 -2.62516514e-05</_>
    <_>
      6.96430507e-05 7.92333958e-06 -3.35896584e-05 -7.01254112e-06
      1.22391166e-05 5.16140644e-05 -4.15699287e-06 2.55820923e-05
      1.67474209e-05 1.21776839e-05 7.04194122e-07 2.12866216e-05
      -5.28438177e-05 -3.55379307e-05 1.99614969e-05 -2.83401132e-05
      3.04642199e-05 2.01081161e-06 3.31478659e-05 4.16590447e-05</_>
    <_>
      5.45252697e-05 3.32173440e-05 -9.93219783e-06 5.14240310e-06
      -9.27012079e-05 1.51756194e-05 -7.25065984e-05 -4.37302260e-05
      -8.50983124e-05 7.53372733e-05 -1.38950099e-05 9.40499649e-06
      3.31354822e-05 -2.26254329e-07 -4.19826538e-05 -6.96707502e-05
      -1.08998909e-04 -5.50014483e-05 3.81645987e-05 -1.08243512e-05</_>
    <_>
      -5.92300057e-05 2.75006059e-05 -1.46590319e-05 1.76043231e-05
      1.29550735e-05 -2.94572128e-05 -1.90842093e-05 -1.53470648e-06
      -1.78659120e-05 6.14705496e-05 -2.19402518e-05 1.32894074e-05
      -5.30314683e-05 2.00367831e-05 -3.85830608e-05 -2.84310681e-05
      7.20625685e-05 -1.70887579e-05 -5.78403924e-05 4.26809820e-05</_>
    <_>
      7.09568776e-05 6.74773946e-06 -2.43146769e-05 -3.40162769e-05
      2.45380470e-05 5.05005883e-05 -3.44253385e-05 2.17441066e-05
      -8.70092299e-06 4.24520340e-06 -1.93704655e-05 -6.14864348e-06
      2.35271418e-05 -1.87399303e-06 8.72863748e-05 -4.43585232e-05
      -9.53605741e-06 -5.29105782e-05 -3.93562077e-05 -3.51183880e-05</_>
    <_>
      -2.60000434e-05 -8.61634617e-05 1.28265383e-04 5.30280413e-05
      -1.38336036e-05 -4.56045655e-06 -1.07994900e-04 -2.84187399e-06
      -3.86669599e-05 8.33068189e-05 8.72783057e-05 -3.95940187e-05
      8.07527467e-05 1.01436344e-05 -2.65493381e-05 8.15868189e-05
      -8.90705487e-05 -2.64897176e-06 1.46238808e-05 -1.16265501e-05</_>
    <_>
      7.51067710e-05 -1.50072156e-05 -5.22165246e-05 -2.47145745e-05
      -6.18566046e-05 -2.40259615e-05 -1.15501234e-05 -4.24472819e-05
      -8.56393672e-06 7.97902248e-06 4.98098007e-06 -6.39691498e-05
      -2.63044403e-05 4.68462713e-05 -5.43233655e-05 2.75875409e-05
      7.09890737e-05 -4.83225522e-05 -1.36402195e-05 2.65222861e-05</_>
    <_>
      -2.38126831e-05 7.94575462e-05 -4.42882811e-06 -2.72631041e-05
      -3.07745322e-05 -3.31345109e-05 -3.57517420e-05 -1.91484219e-06
      -3.07563168e-05 -1.81220712e-05 1.77664515e-05 2.24915239e-05
      6.01068641e-05 -1.43582906e-06 1.85026020e-05 7.98616213e-07
      -6.08961491e-05 -1.35710116e-05 1.07063552e-05 -3.61728162e-05</_>
    <_>
      6.77836870e-05 1.37083944e-05 -2.78268180e-05 1.89989514e-05
      -1.12152075e-05 -2.43597096e-05 -2.14796837e-05 7.63426669e-06
      2.85646456e-05 1.53047338e-07 8.31091984e-06 2.65082945e-05
      3.73797484e-05 1.46903385e-05 -1.67417249e-06 5.72005683e-06
      -2.91150918e-05 -3.16100013e-05 3.30287148e-05 5.58765678e-05</_>
    <_>
      5.21183829e-05 4.80554954e-05 -3.22873639e-05 2.39337951e-05
      2.50881694e-05 -7.78652611e-06 7.45621655e-05 3.26654044e-05
      5.38505333e-07 1.44337400e-05 -2.60706329e-05 -2.86406666e-05
      -2.09245136e-05 2.55414543e-05 -3.98693846e-05 -7.48708990e-05
      8.27008771e-05 -7.09461383e-05 -8.70994554e-05 5.73944526e-05</_></support_vectors>
  <uncompressed_sv_total>347</uncompressed_sv_total>
  <uncompressed_support_vectors>
    <_>
      9.90597461e+03 -2.56592358e+03 -3.98321997e+03 6.50300903e+02
      -2.69646753e+03 1.53982019e+03 2.81415234e+03 1.14825562e+03
      -2.24027686e+03 -9.32595367e+01 -3.46652496e+02 -2.13165665e+01
      4.04198425e+02 -1.91731738e+03 -8.21752472e+01 -9.98772461e+02
      4.92257261e+00 -1.78669525e+02 2.92075317e+03 -3.93124176e+02</_>
    <_>
      -9.51929785e+03 -4.31858447e+03 9.61973999e+02 2.01559106e+03
      -1.82145129e+03 -2.29209009e+03 9.59004822e+01 -1.83431726e+03
      -5.73888306e+02 -8.99745117e+02 -2.59556549e+02 -7.95327393e+02
      -1.08475700e+02 8.15041016e+02 -3.33802856e+02 -1.69679041e+03
      1.43568823e+03 1.31846619e+03 -3.20669250e+02 -2.08819678e+03</_>
    <_>
      -5.45120361e+03 -3.73352637e+03 -2.72006079e+03 1.11025110e+03
      -2.37923438e+03 -3.74375854e+02 -1.57828888e+02 2.61247070e+02
      -6.81874268e+02 7.90867249e+02 4.33989532e+02 7.79452057e+01
      4.63663239e+02 7.82866955e+00 -7.22666504e+02 -3.05649109e+02
      -3.25027351e+01 5.79266090e+01 7.71341309e+02 -1.07066032e+02</_>
    <_>
      -8.23823047e+03 2.46625928e+03 -7.69645996e+02 -5.06384717e+03
      -2.41069287e+03 3.86077051e+03 2.87059814e+03 1.12815201e+02
      -2.67692188e+03 -2.00230664e+03 -4.54657562e+02 5.73379822e+02
      1.56232227e+03 -1.16307507e+03 -1.00661511e+03 -4.66236084e+02
      -1.56115417e+03 7.09723694e+02 8.89811951e+02 4.56700836e+02</_>
    <_>
      -1.18067256e+04 -9.54415527e+02 -1.90503210e+03 1.92868481e+03
      -4.77248877e+03 7.98737366e+02 1.23945935e+03 -1.90684497e+03
      -2.66347778e+03 1.64619299e+03 1.59430054e+03 -4.39388916e+02
      -2.43810867e+02 4.31755066e+02 1.53136749e+01 -2.17937915e+03
      8.65382629e+02 -6.15894104e+02 2.32815247e+02 -3.11251221e+02</_>
    <_>
      4.50018730e+01 2.03169922e+03 -4.40622510e+03 4.21476807e+03
      -1.89680957e+03 -1.90085864e+03 1.21536856e+01 2.03827820e+03
      -1.26504980e+03 -2.22147461e+03 2.95231079e+03 -6.98582458e+02
      -1.66029871e+03 -1.08746155e+03 2.67420258e+02 6.87432129e+02
      8.73042236e+02 -5.50961853e+02 1.07517017e+03 -2.40723145e+03</_>
    <_>
      -1.07907217e+04 -2.57673242e+03 -1.08425330e+03 -1.61722107e+03
      1.53882715e+03 -2.25100366e+03 -2.64915967e+03 4.68569550e+02
      -1.01818481e+03 -2.71238129e+02 3.45146777e+03 -3.93902466e+02
      -1.02061285e+03 -8.83239563e+02 1.23058006e+02 2.66052051e+03
      9.17542725e+01 5.39811859e+01 -2.16671799e+02 -2.47354297e+03</_>
    <_>
      1.60261113e+04 -4.55180322e+03 -6.55969666e+02 5.40950317e+02
      -7.37742554e+02 -1.36621912e+03 -4.37515015e+02 -1.09410010e+03
      3.84498596e+02 -1.55881873e+03 -6.93042114e+02 -9.47437897e+01
      -3.09872070e+02 1.28490097e+02 -7.58156967e+01 -2.61831787e+02
      -8.53701019e+01 -2.01610687e+02 -5.19249329e+02 -7.97818146e+01</_>
    <_>
      -7.03327295e+03 -2.48696265e+03 -4.04642847e+03 2.98927795e+02
      -3.37198682e+03 -2.05618970e+03 4.17364960e+02 1.52685400e+03
      1.53377808e+03 -4.64540466e+02 -4.48936127e+02 -2.67402039e+02
      7.70395851e+00 5.08956177e+02 7.79382935e+02 -1.35727563e+03
      1.31925610e+03 -1.59908240e+03 1.51437610e+03 2.32833923e+02</_>
    <_>
      -2.78475317e+03 -3.11865186e+03 -1.81432458e+03 -3.17452051e+03
      -1.79678613e+03 2.06959155e+03 3.11746338e+03 1.30895959e+03
      9.58006897e+02 -1.99965382e+01 -3.16589282e+03 -3.48512482e+02
      3.89155960e+01 -3.08778961e+02 -1.83667004e+03 -2.43598557e+02
      1.03799828e+02 9.44206970e+02 2.90617584e+02 -3.08398285e+02</_>
    <_>
      -8.17112842e+03 -2.50159692e+03 -3.51337744e+03 6.12833374e+02
      -2.69509473e+03 -1.16861646e+03 -1.42444275e+03 4.14474060e+02
      -1.71517456e+03 -1.40792801e+02 9.50841125e+02 1.26189072e+02
      -8.39361267e+02 1.00549955e+01 -1.07755481e+03 -1.02376263e+03
      -7.51729187e+02 -2.70860977e+01 -9.18408386e+02 -3.01502289e+02</_>
    <_>
      -6.29603857e+03 -8.10320898e+03 1.94679127e+01 -2.18281421e+03
      -2.61603418e+03 -1.80612122e+03 -7.35590088e+02 -1.74780396e+03
      -2.51246606e+03 7.34673584e+02 -1.22436279e+03 2.20689185e+03
      1.08288684e+03 -1.46540186e+03 -6.05564270e+02 7.66508484e+02
      -1.97527664e+02 -1.91078583e+02 1.80286560e+03 -9.01314331e+02</_>
    <_>
      1.13348467e+04 -5.17597070e+03 -3.24025537e+03 -1.70443985e+02
      -2.27516797e+03 -1.08024805e+03 5.91039734e+01 1.48905640e+02
      -7.51589203e+01 -1.27891992e+03 -1.44585339e+03 7.62241211e+02
      -8.20849304e+02 -9.61144043e+02 -5.28357605e+02 -9.43338196e+02
      -4.31943817e+02 3.49663574e+02 8.98431091e+02 -2.52152996e+01</_>
    <_>
      -1.26071729e+04 -7.11459766e+03 -5.22305847e+02 -6.24711243e+02
      -4.63607819e+02 -1.07024463e+03 -3.66890869e+03 -8.85047424e+02
      -5.99096008e+02 2.22892487e+02 -6.90241821e+02 -1.27421790e+03
      -6.93996399e+02 1.55894470e+03 -1.34352051e+02 1.38761124e+02
      -7.69249344e+01 2.49647144e+03 -9.57777832e+02 1.57181732e+02</_>
    <_>
      -1.38230342e+04 8.28947632e+02 -1.39270776e+03 -1.59439331e+03
      -2.70249976e+03 2.34423413e+03 3.81663208e+01 -8.41248108e+02
      1.16699753e+02 1.24603113e+03 1.86219043e+03 3.70841064e+02
      1.29420898e+03 8.04433105e+02 2.89564667e+02 7.80683044e+02
      1.72722534e+02 -4.92321686e+02 2.11737122e+02 -1.23277979e+03</_>
    <_>
      -1.41655869e+04 -3.02528540e+03 -1.03879187e+03 8.61571533e+02
      -2.62730762e+03 -3.12510840e+03 -4.13851123e+03 -1.04661072e+03
      -5.86534119e+02 -1.39911072e+02 1.24954919e+03 6.52885437e+02
      -4.87872192e+02 8.80973572e+02 9.17197144e+02 1.93714615e+02
      6.26805359e+02 6.85261597e+02 -6.06931519e+02 -8.29093506e+02</_>
    <_>
      -1.39598340e+04 -4.23771289e+03 -7.30419739e+02 -1.56245032e+03
      -2.68272876e+03 -1.05565515e+03 -3.14559033e+03 -1.16864270e+03
      -1.38833771e+02 3.51619141e+02 5.11359222e+02 -3.67824287e+01
      5.02020172e+02 1.89121375e+03 -6.95880066e+02 1.69136572e+03
      -6.91661377e+02 1.25180432e+03 -8.45025024e+02 -3.42427216e+02</_>
    <_>
      2.10215729e+02 -1.77215442e+03 -4.00324780e+03 -1.32085083e+03
      -2.41516870e+03 3.72675073e+03 -4.43797089e+02 -4.27417297e+02
      3.02968689e+02 1.11984155e+03 1.03643201e+03 -5.14024353e+02
      -8.60483154e+02 5.11626923e+02 -1.07010706e+03 5.76209534e+02
      -3.51367493e+02 4.44912445e+02 4.45452118e+02 -3.87937897e+02</_>
    <_>
      -7.02311426e+03 -6.35989380e+02 -1.27820361e+03 -4.48077637e+03
      -4.21574121e+03 1.94335352e+03 1.29106201e+02 3.02730133e+02
      2.64203125e+03 -1.04125354e+03 -8.51972046e+01 1.03305847e+03
      2.13390186e+03 1.43762769e+03 -1.05243431e+02 -6.48660400e+02
      3.13939819e+02 -6.32726807e+02 2.13027637e+03 -2.94500549e+02</_>
    <_>
      -6.79909180e+03 -1.90384326e+03 -4.99747894e+02 -3.48045020e+03
      -2.73802344e+03 3.49575537e+03 2.00536560e+03 -1.77861353e+03
      8.70414734e+02 -1.33430457e+03 -2.26376416e+03 9.57681763e+02
      1.85033484e+03 -8.56476990e+02 -4.68043976e+02 -3.91816467e+02
      -7.48468018e+02 -1.03913770e+03 2.07323096e+03 -3.91055756e+02</_>
    <_>
      1.43004336e+04 -5.47081592e+03 -2.86969995e+03 8.82001343e+02
      -8.74288940e+02 -2.93649756e+03 -3.56998383e+02 -4.67519562e+02
      -3.35161682e+02 -1.53453870e+03 -1.73342969e+03 -3.82248810e+02
      -8.41663940e+02 -5.96092041e+02 3.97875061e+02 -8.53212585e+02
      -4.65854126e+02 6.08823425e+02 2.46881149e+02 4.56063171e+02</_>
    <_>
      -1.93872925e+03 -4.01282935e+03 -3.68843799e+03 -5.47508430e+01
      -1.35535840e+03 -4.02253479e+02 7.17064209e+02 1.75418079e+03
      -8.22272034e+02 -4.02098145e+02 -6.79129822e+02 5.92780762e+02
      3.15396423e+02 5.73219849e+02 1.21716408e+02 -1.99412659e+02
      -1.25494482e+03 9.04884766e+02 -7.96240662e+02 1.40548584e+02</_>
    <_>
      7.32971826e+03 -2.06731934e+03 -1.16867017e+03 -1.74981494e+03
      -2.59966187e+03 -8.49783813e+02 -7.37665405e+02 -8.43546753e+02
      1.08455481e+03 -2.48209564e+02 -3.73989014e+02 9.81666504e+02
      7.79292053e+02 1.24499585e+03 -2.75042908e+02 3.18487366e+02
      1.12711511e+03 -1.14110071e+03 9.91118469e+02 9.30925598e+01</_>
    <_>
      -2.60967578e+03 -3.79014990e+03 1.86863867e+03 -2.15016821e+03
      -2.59669824e+03 -3.70149719e+02 1.90675684e+03 -1.93431555e+03
      3.53584473e+02 -5.91507141e+02 -5.20802429e+02 -7.55643005e+02
      8.47548462e+02 -1.81987183e+02 -1.25294055e+03 -5.82953064e+02
      -9.28656494e+02 -1.44744400e+02 2.63161652e+02 -1.88946606e+03</_>
    <_>
      -4.19528906e+03 -1.33253638e+03 -3.23244458e+03 -1.13466492e+03
      -2.19169092e+03 2.01823132e+03 2.69358716e+03 1.81955005e+03
      2.62381439e+02 3.33204773e+02 -2.28799731e+03 -6.79014099e+02
      -1.12357690e+03 -4.29949005e+02 -2.07837988e+03 -1.71944153e+03
      -6.65013184e+02 6.31964905e+02 4.91700470e+02 6.47757629e+02</_>
    <_>
      -7.17013867e+03 6.30628906e+03 3.44433838e+02 1.40790588e+03
      1.46331519e+03 3.07242706e+02 -6.67065063e+02 1.13940918e+03
      3.38325012e+02 2.83304370e+03 1.80983841e+02 -2.32510132e+03
      6.88065491e+02 -9.53004761e+01 1.69935837e+02 1.54309094e+03
      1.31720935e+03 -1.11327441e+03 -2.16433057e+03 3.97660919e+02</_>
    <_>
      -1.10257629e+03 1.80163330e+03 -3.06637939e+02 -7.12924902e+03
      -1.80465637e+02 5.68127197e+03 -1.95093152e+03 -3.10054907e+03
      -7.43679749e+02 -9.65946838e+02 -7.62220093e+02 -4.12808960e+02
      -1.39285706e+03 -4.29340210e+02 -2.51116919e+03 -2.66045624e+02
      -1.14636848e+02 -6.03801392e+02 -1.18721301e+03 -6.22478088e+02</_>
    <_>
      5.36120996e+03 1.67963196e+03 -6.71023193e+02 3.24836353e+03
      2.51563168e+01 5.03010406e+02 -7.20961487e+02 -8.73312439e+02
      1.12069092e+03 -1.01758179e+03 -1.21430679e+02 -4.50784302e+02
      -6.15689278e+01 -3.19234406e+02 -6.27186340e+02 7.15515808e+02
      -4.69262360e+02 -2.61232513e+02 -9.03116028e+02 2.83625885e+02</_>
    <_>
      1.28201318e+03 2.69342236e+03 -2.15277588e+03 -3.01503125e+03
      -4.43181030e+02 2.56039844e+03 1.36463293e+03 1.09878711e+03
      -3.56035156e+02 -1.91146106e+03 -1.12563135e+03 -6.38283020e+02
      7.06715881e+02 -1.17718091e+03 2.86062592e+02 -3.45695831e+02
      -3.52803375e+02 1.54303308e+03 -1.02574365e+03 1.16996960e+03</_>
    <_>
      -4.78215186e+03 9.85032324e+03 4.99912793e+03 2.94698413e+03
      -9.81283264e+02 -2.58010767e+03 -6.68475281e+02 2.00392212e+03
      -2.12466943e+03 6.81162048e+02 4.94696442e+02 -3.39749707e+03
      1.35140601e+03 -4.10688446e+02 6.21215942e+02 -4.07869034e+01
      -5.15335815e+02 -5.96424316e+02 -1.81643042e+03 1.41806970e+03</_>
    <_>
      -3.02969141e+03 1.79968604e+03 -1.41620093e+03 2.86143115e+03
      -1.66684570e+02 1.02526932e+02 3.90570862e+02 -4.99062653e+02
      1.64119116e+03 -6.09368958e+02 1.80339063e+03 1.44272575e+01
      -4.67548859e+02 -7.97037842e+02 -1.34897949e+02 5.07355865e+02
      -8.83480164e+02 -6.23042297e+02 -1.02139404e+03 -3.58519135e+02</_>
    <_>
      4.45789111e+03 3.93430151e+03 1.94491577e+03 4.04102058e+01
      -1.08831543e+03 -3.56006470e+02 -1.62101575e+03 5.59246582e+02
      -1.36335449e+02 1.76572534e+03 -1.47621118e+03 -1.43763477e+03
      7.95337891e+02 -5.05970840e+01 6.95449585e+02 7.35155945e+01
      4.71962646e+02 -4.29888031e+02 -1.62048010e+03 8.10887268e+02</_>
    <_>
      -7.09986343e+01 1.48019272e+02 1.44298035e+03 -4.65807617e+03
      -1.10524487e+03 1.00108093e+03 3.81842682e+02 2.30948624e+02
      8.16582775e+00 4.34530182e+02 4.38781616e+02 -1.02779028e+03
      -6.25212646e+02 -5.74495178e+02 7.63235535e+02 1.32534045e+03
      -6.17443970e+02 2.77202515e+02 1.24563074e+03 -3.55926147e+02</_>
    <_>
      -1.07236758e+04 3.96241675e+03 -3.30505811e+03 -1.44553467e+03
      1.43208344e+02 1.20227222e+03 1.31278210e+01 3.23306299e+03
      8.25154480e+02 2.53025681e+02 8.06217590e+02 6.36927719e+01
      -1.96611633e+03 1.31494690e+02 9.55443298e+02 1.09368909e+03
      1.14295496e+03 -7.15540039e+02 1.48907364e+02 -3.93178040e+02</_>
    <_>
      -5.64653857e+03 6.35010596e+03 3.56037134e+03 1.26210217e+03
      -3.70853790e+02 1.30554822e+03 3.03472339e+03 -1.31240735e+03
      6.85123718e+02 -1.41943359e+03 2.80339917e+03 -1.43080469e+03
      1.47592480e+03 -1.28304785e+03 1.72994659e+02 -4.76467194e+02
      1.60980420e+03 -2.26431381e+02 -1.19069275e+03 3.39287781e+02</_>
    <_>
      1.38759583e+03 -1.12031548e+02 -9.38191162e+02 4.95441406e+02
      7.96012878e+02 7.49216492e+02 -5.45213196e+02 -3.13274475e+02
      6.44796509e+02 7.43849277e+00 1.48313269e+03 1.07064490e+03
      -1.12613623e+03 -4.16071358e+01 1.81072906e+02 4.53219116e+02
      1.59434280e+02 -7.65548523e+02 -1.31681616e+03 -1.10076820e+02</_>
    <_>
      2.83659668e+03 -1.91581384e+03 -1.03609473e+03 3.16954004e+03
      -2.38734131e+03 -2.84748682e+03 -1.71122119e+03 2.01332809e+02
      7.02233276e+02 -1.17126733e+03 -7.95544128e+02 1.13441147e+02
      -1.47413831e+03 1.45400023e+00 -8.91157227e+02 -1.05104614e+02
      6.50984009e+02 -4.25916321e+02 1.44037338e+02 -6.28530518e+02</_>
    <_>
      1.46447827e+03 3.09297046e+03 -2.67509790e+03 3.55580444e+02
      -2.49055835e+03 2.12898853e+03 2.28124268e+03 1.61301135e+03
      -2.27149243e+03 6.25885193e+02 -8.89068726e+02 -5.50075928e+02
      -1.13242566e+03 -3.01378082e+02 -6.95130066e+02 1.09610083e+03
      9.14021778e+00 8.73046021e+02 1.50398773e+02 -1.03956520e+02</_>
    <_>
      2.81358398e+03 4.81576660e+02 -2.47836719e+03 2.32994556e+03
      -1.52903198e+03 -2.29306274e+03 -7.90372070e+02 7.45711182e+02
      -1.63454395e+03 -1.40279065e+03 5.93767212e+02 -5.12571167e+02
      -7.65389771e+02 -2.91842556e+00 -1.11031226e+03 1.33757654e+03
      -1.58835632e+02 9.81701233e+02 -5.95155640e+02 -4.83232208e+02</_>
    <_>
      7.41431689e+03 6.16128613e+03 -5.33521680e+03 1.36156897e+03
      -1.46156995e+03 2.06484180e+03 3.03743677e+03 3.73808521e+03
      -2.25702051e+03 -2.60835303e+03 6.98091919e+02 -4.18704651e+02
      -1.85377185e+03 -2.98700073e+02 1.27327844e+03 6.33227966e+02
      1.87281860e+02 -4.94688950e+01 -5.76061829e+02 8.84137878e+01</_>
    <_>
      2.98913574e+03 2.62979956e+03 -3.12588477e+03 1.37903015e+03
      -3.62226465e+03 2.59979150e+03 2.06376270e+03 3.45691833e+02
      1.37357224e+02 1.18265942e+03 -1.07200012e+03 -8.02484497e+02
      -6.96683533e+02 -2.76420593e+02 -1.08078662e+03 8.85705662e+00
      -9.40157349e+02 -3.81242065e+02 4.23536102e+02 5.30880976e+00</_>
    <_>
      3.54264063e+03 -9.90760437e+02 1.15109900e+03 5.55197266e+03
      2.27642163e+03 -4.17909058e+02 -8.68883484e+02 1.26242729e+02
      -1.03442651e+03 -5.86796753e+02 -1.39769177e+03 -1.43980688e+03
      -1.93159595e+03 9.49886230e+02 1.40595691e+03 7.54424805e+02
      5.63192139e+02 9.46508179e+02 -1.02866882e+03 -4.17189972e+02</_>
    <_>
      -3.60709668e+03 3.57709155e+03 4.15846094e+03 3.58557422e+03
      -1.79413867e+03 -1.25198975e+03 2.19207959e+03 -7.56056152e+02
      -2.20537903e+02 1.75772852e+03 1.36990649e+03 -7.93416382e+02
      3.54581207e+02 -2.31366479e+03 -2.90851379e+02 -1.16557703e+03
      -1.08677014e+03 -7.63867249e+02 -1.24154065e+03 1.07743909e+03</_>
    <_>
      4.37895313e+03 1.46388662e+04 -4.80920703e+03 1.70087622e+03
      -4.98574170e+03 -1.99220410e+03 3.44814728e+02 -5.11231982e+03
      -2.62154468e+03 1.95761353e+02 5.96382263e+02 5.26292725e+03
      3.33642822e+02 2.24264868e+03 1.18094897e+03 1.14272253e+03
      -1.31901355e+03 3.17956421e+03 -1.84163196e+03 -9.00358398e+02</_>
    <_>
      8.97608887e+02 1.40511582e+04 -4.54265479e+03 2.72921631e+03
      -5.16523975e+03 -2.69392139e+03 -3.76447296e+02 -3.26007690e+03
      -3.53258398e+03 -2.56143097e+02 -1.39957916e+02 1.63919214e+03
      -2.00618091e+03 2.82141406e+03 1.48081982e+03 1.70163171e+03
      2.81561865e+03 2.71871411e+03 -9.85291626e+02 -6.99986755e+02</_>
    <_>
      2.76739282e+03 1.11919795e+04 -7.14557568e+03 3.51119995e+03
      -3.07198200e+01 -7.92575977e+03 1.25558557e+03 -1.18968164e+03
      1.66616797e+03 8.83642334e+02 -1.05137256e+03 8.44003357e+02
      -2.83269116e+03 7.60487366e+02 2.55854688e+03 4.35739380e+02
      1.52770581e+03 2.30246362e+03 -1.28655859e+03 1.04288184e+03</_>
    <_>
      1.16564023e+04 -8.88227539e+02 -7.91217383e+03 2.04955425e+01
      2.73048828e+03 1.84912521e+02 -1.69592114e+03 2.13570786e+02
      2.14952759e+03 1.15658362e+03 1.51908582e+03 3.33051172e+03
      1.80358301e+03 -1.31170605e+03 -8.88831055e+02 -7.32767944e+02
      -1.22281807e+02 1.56161169e+03 4.80176758e+02 -1.23642554e+03</_>
    <_>
      9.59196387e+03 3.38783081e+02 -5.94742725e+03 5.44704529e+02
      1.05386951e+03 1.86980444e+03 8.78278259e+02 1.08526453e+03
      5.33329285e+02 3.01764136e+03 1.97351099e+03 1.52554883e+03
      1.19900488e+03 -8.32507202e+02 -1.41418774e+03 -6.98605408e+02
      8.96902344e+02 -9.65478394e+02 2.09496078e+02 -2.03367468e+03</_>
    <_>
      -1.41273938e+03 5.65920020e+03 -3.61825220e+03 -4.46139404e+03
      3.29854492e+03 -1.55361035e+03 -1.24354191e+01 -4.12225635e+03
      4.17658789e+03 5.25960876e+02 -1.11112500e+03 -9.38763611e+02
      -5.72031616e+02 1.84210193e+03 2.49205225e+03 -7.23613342e+02
      3.30003638e+03 6.49439063e+03 -5.35630554e+02 1.30905823e+03</_>
    <_>
      1.44895645e+04 3.89626660e+03 -4.25596094e+03 1.19111877e+02
      -2.41582642e+02 6.62984814e+03 1.40970020e+03 -1.65037085e+03
      -7.33553284e+02 3.28308911e+03 4.92441650e+03 1.53959180e+03
      2.51121802e+03 -2.61938812e+02 -1.54002979e+03 -2.02984543e+01
      1.30222397e+02 -4.73778442e+02 2.03780054e+03 -7.85312500e+02</_>
    <_>
      -1.79718982e+03 2.48890381e+03 3.01141968e+03 -4.79367090e+03
      7.54325439e+03 -5.52800049e+03 1.57366846e+03 7.03674805e+02
      1.58422165e+02 -3.28411523e+03 3.47685760e+02 2.36239807e+02
      3.74947144e+02 -9.68565979e+02 1.54908093e+03 -1.96165344e+03
      9.28046722e+01 -1.67191858e+03 4.38777802e+02 7.36506775e+02</_>
    <_>
      -4.72765723e+03 1.15670576e+04 -1.73334924e+03 -4.14009131e+03
      -6.68781067e+02 1.49085730e+03 1.78559692e+03 -4.18603857e+03
      -3.00484985e+02 -1.62316431e+03 -1.24310638e+02 1.00234863e+03
      -4.68556580e+02 4.56513458e+02 -3.86311890e+02 -8.39008057e+02
      1.45378735e+03 4.03805542e+03 -1.09727551e+03 -1.64558716e+03</_>
    <_>
      2.71325952e+03 3.98712817e+03 -2.93373901e+03 2.11058936e+03
      1.55583353e+01 8.99873352e+02 -3.10534668e+01 3.19491260e+03
      -1.59325684e+03 5.09738818e+03 1.90174670e+03 -3.71148468e+02
      -1.58179810e+03 2.28924121e+03 9.51777039e+02 -2.79085352e+03
      3.09474634e+03 2.77006348e+02 1.06430725e+03 -8.10501648e+02</_>
    <_>
      7.10725977e+03 1.95801221e+03 -4.59672314e+03 3.43633003e+01
      -2.09257080e+02 1.98925159e+03 -4.95632617e+03 1.60388049e+03
      3.20014014e+03 3.99784210e+02 3.77768945e+03 2.92753223e+03
      -3.46894684e+01 1.59809851e+03 1.39712634e+03 2.56978076e+03
      -1.00348578e+03 -6.36105843e+01 -1.10158691e+03 -1.24622815e+03</_>
    <_>
      -1.37796606e+03 2.23214282e+03 -5.83793896e+03 -4.75821094e+03
      3.01830249e+03 -2.05185449e+03 -3.05947705e+03 1.43562097e+03
      4.91327441e+03 2.25830615e+03 -1.47371521e+03 2.46220239e+03
      -2.94507153e+03 1.67464771e+03 2.05688950e+02 6.06347412e+02
      8.85612122e+02 3.93716064e+02 -5.66688354e+02 -5.75938225e+00</_>
    <_>
      -1.90687146e+03 -1.11416797e+03 -6.22829053e+03 3.18437927e+02
      2.25250952e+03 -1.43460059e+03 -8.71734619e+02 4.31801855e+03
      3.17113477e+03 -3.93323242e+02 -2.28603809e+03 3.19193457e+03
      2.19841089e+03 -2.79659717e+03 -7.36865051e+02 -2.45266937e+02
      8.98691040e+02 -5.10748230e+02 1.05147583e+03 -1.27440698e+03</_>
    <_>
      3.02829663e+03 -2.67330957e+03 -4.44922363e+03 -6.64330273e+03
      3.83786279e+03 -4.88847900e+03 1.61842163e+02 -1.94225818e+03
      4.70192090e+03 -1.06994580e+03 -3.80915942e+03 2.07067798e+03
      5.98514160e+02 -3.12743805e+02 -1.26177173e+03 -2.05260669e+03
      1.81514502e+03 1.77388220e+03 -1.32147900e+03 7.04451538e+02</_>
    <_>
      6.67331396e+03 -1.74422021e+03 -3.66258569e+03 -6.74215332e+03
      1.97275708e+03 -1.43298657e+03 -1.75361816e+03 -7.66400146e+02
      3.45026660e+03 2.83641675e+03 -1.09231299e+03 -1.96444962e+02
      2.50585785e+02 2.59678027e+03 -1.69815955e+03 -3.77664886e+02
      -5.27979492e+02 3.96039032e+02 9.68282349e+02 5.14526611e+02</_>
    <_>
      -7.75319824e+02 1.16740259e+03 -5.12909717e+03 -5.00887947e+01
      4.99899658e+03 9.36395813e+02 -4.20575684e+03 2.86282837e+03
      2.57922095e+03 9.76902161e+02 -3.47370575e+02 3.55547192e+03
      -7.64190002e+02 -3.38174536e+03 6.94202515e+02 -6.61211487e+02
      5.39993210e+01 -5.22750671e+02 5.64302002e+02 -1.69447302e+03</_>
    <_>
      1.44146912e+03 3.38535034e+02 -3.91528394e+03 -8.99582520e+03
      4.18086621e+03 -1.64650818e+03 -2.28768018e+03 -3.26007568e+03
      2.53496851e+03 4.30609912e+03 -2.60309399e+03 2.03855438e+02
      3.98281281e+02 1.62803552e+03 -1.91576929e+03 -1.00580750e+03
      1.21141441e+02 -8.95303406e+02 -1.47630051e+02 1.60428650e+03</_>
    <_>
      -5.44154297e+03 -3.22557324e+03 -3.12910010e+03 -5.49683716e+02
      -1.15595996e+03 -4.20692169e+02 2.38261475e+03 1.90272241e+03
      -1.02051514e+02 -9.89358276e+02 -1.15866980e+03 -4.94771957e+00
      2.12728760e+03 1.49469531e+03 1.14774695e+03 3.93755829e+02
      5.70217712e+02 7.81971436e+02 -1.06183728e+03 -2.40336960e+02</_>
    <_>
      -1.00476045e+04 4.55515015e+02 -3.86346045e+03 -3.70732886e+03
      2.72236108e+03 2.33163770e+03 -2.27789990e+03 2.75707593e+03
      1.93726782e+03 -9.32195187e+00 -1.91334137e+02 1.39903040e+03
      3.75024854e+03 -1.64265796e+03 -1.01433209e+03 1.00887524e+03
      1.09912927e+03 -9.15962463e+02 8.29792099e+01 -7.61132446e+02</_>
    <_>
      4.93978638e+02 3.85766577e+03 -4.82094629e+03 -1.60721313e+03
      5.30169983e+02 7.15781201e+03 9.67217712e+02 3.71148560e+03
      5.33250061e+02 3.50821533e+03 -3.03793848e+03 -5.71141602e+02
      -1.22088293e+03 -1.89917786e+03 -2.42762671e+03 -1.47003027e+03
      3.58112640e+02 9.22878113e+01 -2.61660034e+03 1.17595764e+03</_>
    <_>
      -1.09863701e+04 1.79598404e+02 -7.16595398e+02 2.20341138e+03
      4.73230371e+03 2.55792773e+03 -8.07185547e+02 -4.22628448e+02
      -3.23129234e+01 -8.68348511e+02 -1.25135460e+02 6.45333313e+02
      4.07794456e+01 8.22569824e+02 2.58887207e+03 4.45098755e+02
      7.66959167e+02 -7.44822144e+02 -5.38887939e+02 2.44949365e+03</_>
    <_>
      6.50470020e+03 7.35019836e+02 -3.21381689e+03 8.58418213e+02
      4.87671826e+03 3.78686157e+03 4.31479553e+02 1.75891516e+03
      -2.89629761e+03 7.54385400e+03 5.23311182e+03 -9.00778503e+02
      2.35230005e+03 -1.30093457e+03 -4.46522156e+02 -2.75178070e+02
      -1.75467029e+03 4.04240021e+02 3.27250146e+03 3.66769727e+03</_>
    <_>
      -4.64197607e+03 -3.08118213e+03 -1.53117212e+03 3.52536987e+02
      2.08821362e+03 -5.17169312e+02 2.51037573e+03 2.06009351e+03
      -9.94364319e+01 -9.10700928e+02 -4.01527740e+02 8.59528625e+02
      7.91116516e+02 2.92931061e+02 8.75478149e+02 -1.21135239e+02
      1.90562012e+02 -6.40183350e+02 -1.01817328e+03 -2.62558167e+02</_>
    <_>
      -2.57152802e+02 -3.19164307e+03 -3.64430225e+03 2.69262524e+03
      3.86184644e+03 1.41240234e+03 -4.77272461e+03 1.42873242e+03
      7.56482666e+02 1.18330640e+03 -1.35866614e+03 6.96778931e+02
      1.82525684e+03 -2.63840649e+03 1.46547107e+03 -3.73501038e+02
      7.15454651e+02 7.55670105e+02 -1.02823755e+03 -3.04027519e+01</_>
    <_>
      -1.87780225e+03 -2.78001270e+03 -2.60236206e+03 2.84522046e+03
      4.61193359e+03 4.54197168e+03 1.57682813e+03 1.48634888e+03
      -9.75767761e+02 2.26166333e+03 6.37356377e+01 3.45083344e+02
      1.98869739e+03 -1.53680261e+03 1.80604297e+03 6.96107483e+02
      1.04830786e+03 1.59421570e+02 7.18339478e+02 -8.05657959e+02</_>
    <_>
      8.38383105e+03 -4.16482959e+03 -3.73825879e+03 3.21365552e+03
      3.95042822e+03 3.55713062e+03 3.32158661e+02 1.06228052e+03
      -1.20351791e+02 2.10059326e+03 -8.47889832e+02 1.18927719e+02
      2.10250269e+03 -1.57935120e+03 1.30155603e+03 -4.62056061e+02
      7.89837097e+02 1.03392224e+03 -2.28257126e+02 -1.06974280e+03</_>
    <_>
      1.21671436e+04 -3.24813184e+03 -4.09479565e+03 1.03860583e+03
      2.52468628e+03 -1.12879799e+02 -3.95301172e+03 9.50409668e+02
      2.84426978e+03 9.63490906e+01 1.26007607e+02 9.38172546e+02
      -8.49412415e+02 -1.26457935e+03 2.90205963e+02 -1.03191086e+02
      1.90732162e+02 -5.95489258e+02 -1.53032141e+03 -4.60291870e+02</_>
    <_>
      -5.41716943e+03 -3.60781665e+03 -3.06721680e+03 2.81866699e+03
      2.81022095e+03 9.39286194e+02 -2.49519189e+03 -2.22152893e+02
      6.76055725e+02 -8.17505981e+02 -3.80896655e+03 1.23585522e+03
      2.34428149e+03 -1.15013281e+03 2.41119092e+03 -3.63932587e+02
      1.43210403e+02 5.41758911e+02 -1.66747498e+03 1.95212463e+03</_>
    <_>
      -1.49624316e+03 -3.20796509e+03 -4.13780127e+03 2.60830371e+03
      4.53118799e+03 2.42745190e+03 -3.78970264e+03 7.98387817e+02
      -4.07648132e+02 1.26777905e+03 -1.36768433e+03 -1.83684479e+02
      2.27361401e+03 -2.68582227e+03 1.86018481e+03 -9.13554504e+02
      1.34570471e+03 1.03630957e+03 -1.82665723e+03 -3.17456299e+02</_>
    <_>
      6.88065723e+03 -3.25371948e+03 3.17095154e+02 -1.43222092e+02
      1.53761011e+03 9.34840698e+02 -2.13794250e+02 -6.11789246e+02
      -1.87049301e+02 -7.71575195e+02 -5.22177551e+02 5.48081970e+02
      2.45152954e+03 -5.69082458e+02 5.43764893e+02 1.32912280e+03
      3.32437103e+02 -6.47146606e+02 -5.14241333e+02 -2.50517029e+02</_>
    <_>
      1.12890166e+04 -1.18435828e+03 -6.13270996e+02 -4.75742279e+02
      -2.82434883e+01 2.33271289e+03 9.86577393e+02 -1.46596100e+02
      -2.56081268e+02 8.88411987e+02 1.33480566e+03 1.13518970e+03
      1.11486194e+03 1.70842456e+03 -6.05556824e+02 -7.20112793e+02
      1.82901111e+03 -7.56309128e+01 1.00018420e+03 -4.46648041e+02</_>
    <_>
      8.14098438e+03 -4.32437207e+03 -1.23111829e+03 -4.67514648e+03
      2.44047852e+03 -3.55494214e+03 -1.14550769e+03 -1.12037927e+03
      6.42828613e+02 5.41867004e+02 3.37509430e+02 -1.44428589e+03
      1.06365686e+03 1.49899133e+03 2.51950027e+02 -3.99294098e+02
      -1.00184796e+03 -3.73192749e+02 -5.48451721e+02 -4.68639832e+02</_>
    <_>
      3.37781909e+03 -4.48720898e+03 7.41758484e+02 -8.85197693e+02
      2.10746460e+03 -2.13775293e+03 3.13998755e+03 1.63740100e+03
      -1.04243787e+03 -6.48777344e+02 3.65894348e+02 1.69172592e+02
      8.52211365e+02 3.81308289e+02 3.54005310e+02 8.41335237e-01
      4.87382721e+02 -4.23282593e+02 -2.11793762e+02 -6.99138306e+02</_>
    <_>
      5.49757129e+03 -4.73743311e+03 5.27849121e+02 -7.04352844e+02
      -3.63965515e+02 -1.43956079e+03 3.27051392e+03 2.50993134e+02
      -5.35342285e+02 1.06505115e+03 4.21477448e+02 -4.40330322e+02
      -5.17434692e+01 1.27849854e+03 3.38336334e+01 1.00351051e+02
      -3.25239624e+02 7.49655090e+02 -4.01259430e+02 2.16211884e+02</_>
    <_>
      6.35002734e+03 2.38168335e+03 4.91374847e+02 -6.51217822e+03
      1.68966296e+03 -6.46114380e+02 1.21175183e+03 3.28374268e+02
      -1.55235510e+03 -1.83144556e+03 -1.77355542e+03 -1.36391907e+02
      1.63881805e+02 -1.14389233e+03 7.83749390e+02 -2.88597388e+03
      -1.59510107e+03 1.53949438e+03 -3.70453613e+02 1.96162146e+03</_>
    <_>
      8.04909668e+03 -3.04942944e+03 -5.31389307e+03 2.18672021e+03
      3.01195117e+03 1.58830273e+03 -1.79289001e+03 8.45790649e+02
      4.37706024e+02 1.76103406e+03 -9.05128967e+02 6.70298096e+02
      1.70404797e+03 -3.11224683e+03 3.35366058e+02 -1.04265938e+02
      9.02050598e+02 -2.26074066e+02 1.04234863e+02 -4.95353180e+02</_>
    <_>
      2.86152417e+03 -1.68058533e+03 -1.40502185e+03 3.51023999e+03
      -2.41352417e+03 -3.07990454e+03 -1.76693103e+03 3.05965424e+02
      9.36735291e+02 -1.40149744e+03 -6.88672729e+02 9.43672867e+01
      -1.52257739e+03 1.58724854e+02 -7.64654663e+02 -2.52157990e+02
      8.41315186e+02 -6.19958984e+02 -2.23567841e+02 -7.66581665e+02</_>
    <_>
      2.15557910e+03 2.85291528e+03 -3.46576514e+03 1.55404517e+03
      -3.30329907e+03 1.99766919e+03 2.03674060e+03 1.29321362e+03
      -1.18430640e+03 8.93933899e+02 -1.63808032e+03 -3.46986359e+02
      -1.03197717e+03 -4.54542046e+01 -7.49784119e+02 2.08962097e+01
      -9.62819290e+01 2.38713623e+02 2.04641144e+02 7.12692810e+02</_>
    <_>
      2.56029785e+03 2.85156738e+02 -2.36111377e+03 2.42091016e+03
      -1.85952344e+03 -2.40885254e+03 -1.00571631e+03 6.66800354e+02
      -1.21309387e+03 -1.24138110e+03 5.76238464e+02 -4.80657318e+02
      -8.12536926e+02 -9.76384640e+00 -1.14089331e+03 1.13889771e+03
      2.79150219e+01 8.42429382e+02 -6.71468262e+02 -2.43714966e+02</_>
    <_>
      7.81123193e+03 4.95688770e+03 -4.82269922e+03 1.44384644e+03
      -1.70176196e+03 1.89302771e+03 2.80130933e+03 3.82388354e+03
      -1.30131335e+03 -1.74902966e+03 1.22124500e+03 -4.65575439e+02
      -2.42832666e+03 3.99678253e+02 6.10286194e+02 2.04534225e+02
      1.45853882e+02 -3.03364746e+02 -5.39660950e+02 -1.55784805e+02</_>
    <_>
      5.87333691e+03 2.69708350e+03 -2.96287256e+03 1.21794287e+03
      -4.39582227e+03 2.62187939e+03 2.36382251e+03 8.23107849e+02
      -4.84112274e+02 6.68924988e+02 -9.75050903e+02 -1.11933850e+03
      -9.25748352e+02 9.83545166e+02 -1.00952966e+03 2.25718979e+02
      -7.09599609e+01 -4.33760956e+02 -3.28751617e+02 4.88071503e+02</_>
    <_>
      -1.70859497e+03 8.41428125e+03 3.03041895e+03 4.70327441e+03
      -2.46742212e+03 -1.16084119e+03 8.80326538e+02 9.84743896e+02
      -2.79971094e+03 -6.12430847e+02 1.23477246e+03 -3.46115918e+03
      2.17580298e+03 -5.06335297e+01 -7.10515320e+02 -4.23450043e+02
      -1.45532300e+03 -2.13873566e+02 -9.47568542e+02 5.23784180e+02</_>
    <_>
      -1.53508203e+03 -3.53221997e+03 2.74465063e+03 4.53588965e+03
      2.98210767e+03 1.99049316e+03 -1.63730743e+02 -2.27263428e+03
      -2.02731213e+03 1.40483972e+03 -1.62936963e+03 5.10283325e+02
      -1.61093750e+03 -8.79059219e+01 4.89946350e+02 -1.92157669e+02
      -1.00853821e+03 -5.49175354e+02 -4.90993622e+02 8.26788086e+02</_>
    <_>
      -5.23442188e+03 6.13840430e+03 -4.54022705e+02 3.16933423e+03
      -5.39293152e+02 -1.46696692e+03 -6.29179321e+02 1.38778931e+03
      3.77096436e+02 4.94984818e+01 1.55032434e+03 -2.02962439e+03
      9.49671448e+02 -5.24116760e+02 2.33654099e+02 1.31717010e+02
      -5.35285095e+02 -3.17183990e+02 -1.07609668e+03 -1.41060059e+02</_>
    <_>
      -2.22983813e+03 1.64702087e+03 2.38322144e+03 -3.69542358e+03
      1.41248523e+03 4.15030811e+03 3.93723633e+02 -5.99059265e+02
      -4.63541504e+02 -2.62025122e+03 -1.65322900e+03 3.17796118e+03
      2.10064316e+01 4.96024109e+02 -9.50218430e+01 -6.68077148e+02
      -6.83881348e+02 9.14553146e+01 -6.51773758e+01 8.12758057e+02</_>
    <_>
      6.20075098e+03 2.65805322e+03 -1.46577112e+03 1.57829944e+03
      4.87707336e+02 1.90047156e+03 -2.31578833e+03 -6.81064209e+02
      7.78896301e+02 1.25168983e+02 1.70530054e+03 -1.81886243e+03
      4.36194572e+01 5.80485718e+02 7.81395447e+02 5.23090088e+02
      9.33613815e+01 6.02663330e+02 2.39991547e+02 1.81580307e+02</_>
    <_>
      1.27141980e+03 5.09740869e+03 -1.80608179e+03 -6.58767273e+02
      2.90837915e+03 4.00053491e+03 7.58246841e+01 1.71208044e+03
      1.87570923e+03 -1.39679761e+03 -3.08462769e+03 -1.01027423e+03
      -3.30385956e+02 8.52528015e+02 1.79982227e+03 9.80446899e+02
      -7.37038391e+02 1.11999133e+03 -3.96423309e+02 7.45281006e+02</_>
    <_>
      -1.76914905e+03 9.31167871e+03 9.86312744e+02 6.56637207e+03
      -1.72399451e+03 -9.25153137e+02 -1.46303223e+03 2.90480493e+03
      -1.26627905e+03 -3.43597339e+03 -6.38252678e+01 -2.81408618e+03
      2.15431348e+03 1.12538293e+03 9.28757813e+02 9.66656616e+02
      3.73319305e+02 7.87685013e+01 1.02333038e+03 -4.97658356e+02</_>
    <_>
      -3.36318909e+02 3.66599976e+03 -9.72356384e+02 3.46788623e+03
      2.44769263e+03 1.22348206e+03 -2.34827026e+03 -4.73425598e+02
      -1.97836487e+02 -4.37786346e+02 2.12922897e+02 -1.58859155e+03
      -2.71757965e+02 -1.98835129e+02 -5.76097534e+02 7.20583618e+02
      -7.94456482e+02 9.85647095e+02 3.33179352e+02 -4.17127045e+02</_>
    <_>
      4.63375439e+03 3.42901929e+03 1.16058510e+02 3.32648706e+03
      -1.28829883e+03 6.68346882e+00 -1.12992639e+03 -4.09400116e+02
      2.63495239e+02 -1.36206946e+03 5.67007019e+02 -1.73450244e+03
      1.99062219e+03 9.18628357e+02 2.15185013e+02 6.89688660e+02
      5.91799744e+02 1.68035446e+02 -3.22716949e+02 1.03970447e+03</_>
    <_>
      -4.90413361e+02 1.51046179e+03 1.04302258e+03 2.37090332e+03
      1.90705078e+03 3.64182861e+03 6.22069946e+02 -9.34962524e+02
      1.01163190e+03 -6.96994385e+02 1.64233093e+02 -2.20082291e+02
      3.02830109e+02 3.01085846e+02 5.89052246e+02 1.22318091e+03
      -1.39081116e+02 -6.02979065e+02 1.13143237e+03 7.47932495e+02</_>
    <_>
      -8.69850977e+03 4.45931396e+03 -2.96119482e+03 2.57790991e+03
      3.19785913e+03 1.89810376e+03 -1.72063733e+03 7.63237122e+02
      1.23604590e+03 -4.27934235e+02 -6.30860718e+02 1.27356491e+01
      -8.61986938e+02 -1.01819656e+02 4.42579315e+02 8.65766479e+02
      -2.12907944e+02 5.87847229e+02 3.65887222e+01 -8.69127197e+02</_>
    <_>
      -4.25028027e+03 7.81129736e+03 1.98046924e+03 2.17533521e+03
      1.62773987e+03 1.64533435e+03 -1.46091333e+03 3.75101288e+02
      1.33725403e+03 -2.62635986e+03 -1.82936569e+02 -3.10705640e+03
      -4.05680511e+02 -4.16176910e+02 -2.01509743e+01 1.70155200e+03
      -4.27566345e+02 2.14207593e+03 3.91643219e+02 -8.59719299e+02</_>
    <_>
      2.11322827e+03 1.92087744e+03 -3.04899078e+02 1.27476160e+03
      1.96459241e+03 2.48970874e+03 -2.20843677e+03 -2.06845917e+02
      1.00657483e+03 1.80436691e+02 1.67514050e+03 -9.23885437e+02
      -1.75234528e+02 5.05002213e+01 -3.87234283e+02 1.33996902e+02
      -3.85799133e+02 2.37864227e+02 5.15174744e+02 1.26082134e+00</_>
    <_>
      1.35903809e+03 3.84166577e+03 -3.73983179e+03 2.10500961e+02
      -1.96197339e+03 1.32265601e+03 2.07602734e+03 1.76883691e+03
      -2.69019775e+03 4.10956207e+02 -1.24989001e+03 4.14427109e+01
      -1.22362228e+02 -5.66083984e+02 -1.16972450e+02 1.34009473e+03
      -8.38202576e+02 1.59975513e+03 -1.79884521e+02 9.44707275e+02</_>
    <_>
      3.78713647e+03 5.59270691e+02 -2.69739160e+03 1.84408069e+03
      -9.21095642e+02 -1.98663525e+03 -1.23645825e+03 1.03927856e+03
      -9.44410217e+02 -1.51270349e+03 9.55539673e+02 -4.72371033e+02
      -8.92856995e+02 -9.83910751e+00 -1.43449976e+03 8.28666626e+02
      -9.99980621e+01 8.29858154e+02 -5.15873840e+02 -7.26094666e+02</_>
    <_>
      7.38374072e+03 5.51392480e+03 -4.81351074e+03 1.49061682e+03
      -1.09661182e+03 2.26302539e+03 2.67322363e+03 3.69433252e+03
      -1.80218201e+03 -2.67973267e+03 6.87862976e+02 -2.90812378e+02
      -2.38683398e+03 -2.64481293e+02 1.24090442e+03 4.87764038e+02
      3.24625580e+02 -2.48577103e+02 -4.05411560e+02 -6.42829742e+01</_>
    <_>
      3.11153613e+03 2.69508447e+03 -2.97567554e+03 1.36351001e+03
      -3.69615942e+03 2.56103491e+03 2.22508447e+03 3.69391449e+02
      2.61660950e+02 1.26876721e+03 -9.26071472e+02 -8.76500488e+02
      -5.68519592e+02 -1.25530373e+02 -1.30020972e+03 1.03615837e+02
      -1.06050244e+03 -1.81781235e+02 3.71502319e+02 -8.93776550e+01</_>
    <_>
      5.25122070e+03 2.84695435e+03 -2.50999658e+03 4.37677765e+02
      -4.04926978e+03 3.17762744e+03 2.68608594e+03 1.26350220e+03
      -9.03353210e+02 5.89778320e+02 -3.29348297e+02 -7.74895691e+02
      -8.83114319e+02 1.11507227e+03 -5.29582703e+02 6.42009766e+02
      -1.12184555e+02 -1.16372231e+02 -1.38249649e+02 -7.96789703e+01</_>
    <_>
      3.36567261e+03 4.69833496e+03 1.79197400e+03 6.65787744e+03
      -3.55471741e+02 -1.63993066e+03 -6.47520813e+02 -8.76851929e+02
      1.52001660e+03 -2.55665527e+03 -4.95082397e+02 -1.27423682e+03
      -2.15668793e+02 3.03190765e+02 -7.78332367e+01 8.43856201e+02
      -3.86322113e+02 -5.05186951e+02 -5.32442131e+01 -2.00311264e+02</_>
    <_>
      1.26563076e+04 -1.26525610e+03 -4.28254541e+03 -7.28387939e+02
      -2.27485764e+02 -7.81739014e+02 9.96632629e+02 2.25286182e+03
      -1.77144788e+03 -3.71076843e+02 -2.46554855e+02 1.42856860e+03
      2.74570351e+01 -3.03078583e+02 -2.06024292e+03 4.25940765e+02
      -2.03532776e+02 7.95382263e+02 7.71838684e+01 1.57537158e+03</_>
    <_>
      5.39507520e+03 1.24544893e+04 -6.89628125e+03 -5.10120697e+02
      -1.27927771e+03 -4.15939746e+03 1.63781958e+03 -4.03884888e+03
      -2.64530664e+03 2.67408228e+03 -1.48296130e+03 1.34144836e+03
      -1.79064575e+02 -1.76805652e+03 -1.24004443e+03 4.34543945e+02
      -9.81822815e+02 -1.42650403e+03 -2.13167130e+02 6.60793640e+02</_>
    <_>
      1.18867275e+04 -5.85137402e+03 -3.45958472e+03 -2.84969055e+02
      3.31607373e+03 -2.84149878e+03 1.47835657e+03 3.21756836e+02
      -1.12511879e+02 -1.49146879e+00 4.46844421e+02 4.37882141e+02
      2.27328369e+03 -1.46055774e+03 -2.83495605e+02 -7.78830017e+02
      5.66092896e+02 -2.19420319e+02 2.85526184e+02 -6.50319153e+02</_>
    <_>
      2.66276343e+03 3.30353125e+03 7.24359924e+02 -4.30383789e+03
      4.20448584e+03 -1.99033228e+03 -3.12514801e+02 -1.33272791e+03
      1.41259375e+01 -3.94650818e+02 3.60583203e+03 -9.34898254e+02
      3.72902039e+02 3.05997681e+02 8.46252502e+02 -2.97317847e+03
      -6.51256531e+02 -8.83178223e+02 2.04346985e+02 -4.01756714e+02</_>
    <_>
      -5.79797607e+03 5.01227197e+03 5.20547168e+03 -6.53635742e+02
      -3.24295410e+02 -3.87867661e+01 -7.35993118e+01 5.52940576e+03
      -2.03320154e+03 2.44244568e+02 2.37963608e+02 2.35139258e+03
      2.40482471e+03 6.44452576e+02 -9.06547668e+02 1.59100024e+03
      5.90420410e+02 1.39990967e+03 3.18769092e+03 2.48428833e+03</_>
    <_>
      -4.35775635e+03 8.73559473e+03 1.03211157e+03 -5.45609473e+03
      4.88175684e+03 -4.37928101e+02 1.08065540e+03 -1.82093628e+03
      -3.74051544e+02 -9.54349854e+02 2.02543091e+03 8.33442200e+02
      -1.66299255e+03 4.81877838e+02 8.32838501e+02 -3.20908911e+03
      -8.36497253e+02 -3.36760913e+03 6.91460571e+02 3.61391846e+02</_>
    <_>
      -5.21478418e+03 2.89909326e+03 2.86812891e+03 -1.29520410e+03
      4.98653809e+03 -3.30447681e+03 -1.31592847e+03 5.18582666e+03
      -3.18183014e+02 -1.11956494e+03 2.87625220e+03 1.19606848e+03
      -2.67252930e+03 9.99186096e+02 -2.13039648e+03 -3.12249786e+02
      1.15474011e+03 -2.97790466e+02 -8.90093201e+02 3.23142603e+03</_>
    <_>
      1.70165215e+04 -5.52933289e+02 4.86620209e+02 5.37007568e+02
      -6.39495300e+02 -1.10337799e+02 -4.27803809e+03 1.69122827e+03
      2.33385425e+03 -1.38326245e+03 -8.98122559e+02 1.15936316e+03
      -2.04072546e+03 2.07418152e+02 2.13155670e+02 7.33829407e+02
      -5.01100677e+02 -7.83195007e+02 -8.32168274e+02 1.12670929e+02</_>
    <_>
      -6.57224219e+03 -2.52060327e+03 1.34988379e+03 -1.80833728e+03
      2.70112610e+02 -2.02009924e+03 1.18967078e+03 1.43904565e+03
      -1.60273535e+03 -1.04602654e+02 1.27349377e+03 -1.02548706e+03
      -1.04088306e+03 -6.39443848e+02 8.07981079e+02 8.56813538e+02
      -1.43930103e+03 7.65895691e+02 -4.11693176e+02 -6.09503601e+02</_>
    <_>
      8.19596985e+02 1.30320728e+03 2.93826538e+03 -6.67357568e+03
      3.69211157e+03 4.22217627e+03 -2.67362329e+03 -2.38513623e+03
      -9.36196228e+02 -1.53818665e+03 -1.28615894e+03 -1.74833777e+03
      4.36135559e+02 -2.00178540e+03 -7.27172119e+02 3.35348022e+03
      2.59782379e+02 -9.08706970e+02 -1.32163477e+03 7.40819031e+02</_>
    <_>
      -4.11442773e+03 4.28343323e+02 -3.37841797e+03 -5.81318408e+03
      3.63469043e+03 -2.44303003e+03 -2.44719897e+03 5.06365967e+02
      2.18687695e+03 2.85536084e+03 -1.03501343e+03 -1.90184985e+03
      -5.87074623e+01 1.18117529e+03 -1.84042163e+03 1.21408069e+03
      -1.46046753e+03 -1.72990173e+03 5.46206909e+02 -2.10848450e+02</_>
    <_>
      -6.01253052e+02 1.35765393e+03 6.52614600e+03 -5.80325500e+02
      -2.29407690e+03 -3.23889380e+03 5.59282410e+02 3.15128076e+03
      2.59931860e+03 3.07497778e+03 -1.44387329e+03 1.65692163e+03
      4.69837646e+01 -2.44264673e+03 2.64900146e+02 -6.97865967e+02
      -1.60138733e+03 8.52148666e+01 -2.19858292e+02 -9.81332458e+02</_>
    <_>
      -4.88554980e+03 -2.44735327e+03 -2.43183716e+03 -4.19403809e+03
      1.63618640e+03 -2.45933496e+03 2.37964697e+03 2.85962891e+03
      -6.64738403e+02 2.68065674e+02 -9.42469116e+02 -1.03472498e+03
      2.30852539e+03 9.17150757e+02 1.38797998e+03 9.27183777e+02
      -9.11931458e+02 1.24753564e+03 -3.57318542e+02 -1.30089453e+03</_>
    <_>
      -3.83588306e+03 -2.85016943e+03 -2.37780786e+03 -6.71823059e+02
      -3.60712677e+02 -2.33660498e+03 2.58191284e+03 2.83929932e+03
      9.09376343e+02 4.31138763e+02 -1.27427808e+03 8.60028442e+02
      1.37960962e+03 2.92800977e+03 1.92737732e+03 -1.05954626e+03
      1.11172131e+03 1.27230293e+02 6.32168213e+02 -2.58602234e+02</_>
    <_>
      5.51045593e+02 -2.08722021e+03 3.09110693e+03 -8.00779590e+03
      4.56456104e+03 3.00928223e+02 -1.22589343e+03 -1.95023096e+03
      -1.16827637e+03 8.66171875e+02 -1.66980957e+03 -1.69304456e+03
      -6.18595581e+02 1.42482568e+03 -6.53013367e+02 2.58667407e+03
      1.18538666e+02 -1.14048096e+03 2.47613869e+01 6.00925720e+02</_>
    <_>
      2.28773389e+03 -2.16861060e+03 5.34574707e+03 -7.31323145e+03
      3.22742969e+03 -4.03367218e+02 -3.07017261e+03 -3.96979517e+03
      -3.28041577e+03 -1.16318542e+03 1.84408521e+03 -1.64152722e+03
      8.96887268e+02 -1.05733704e+03 7.03063843e+02 1.91822083e+03
      6.18451118e+01 -4.63120789e+02 4.57963638e+01 -7.62474854e+02</_>
    <_>
      -6.40305127e+03 4.14368311e+03 4.31832520e+03 5.54563599e+02
      -6.23804871e+02 -1.83410425e+03 1.46772864e+03 5.77511292e+02
      3.34155884e+03 1.90843433e+03 1.91955396e+03 -2.40722046e+03
      1.16326599e+03 -3.75389160e+03 1.65726587e+03 5.69397339e+02
      -9.08178528e+02 1.91094006e+03 -2.83367676e+03 1.48280249e+01</_>
    <_>
      8.89523438e+03 -6.74106812e+02 8.66614844e+03 -1.14780798e+03
      -3.32239722e+03 1.08307410e+03 -3.48726563e+03 -4.23208435e+02
      -3.38313330e+03 2.68739075e+02 -3.88157806e+01 1.60703418e+03
      -7.00465271e+02 6.30751404e+02 -7.11354431e+02 -4.43449066e+02
      5.30257141e+02 2.56778961e+02 -5.04393616e+02 -8.94264221e+01</_>
    <_>
      5.13485156e+03 -4.04497046e+03 1.22396838e+03 -5.33111035e+03
      2.53485046e+02 -2.33669629e+03 1.43412024e+03 3.11972107e+02
      1.65637436e+02 8.07079712e+02 8.65039597e+01 -1.01297113e+03
      -1.74676987e+02 2.36452930e+03 8.71444092e+02 1.55345300e+03
      -3.12435852e+02 1.05998303e+03 6.55573486e+02 -1.34137854e+03</_>
    <_>
      7.39866028e+02 6.73242139e+03 6.38237305e+03 1.85556897e+03
      -4.78597852e+03 6.19959900e+02 -4.00913940e+03 2.61085474e+03
      -3.29781665e+03 2.61968896e+03 -4.63706982e+03 -1.41351294e+03
      2.34895605e+03 3.19203833e+03 1.53801172e+03 -1.27221619e+03
      -1.57152747e+03 -2.58465918e+03 -1.09470715e+03 -1.16309253e+03</_>
    <_>
      2.56445557e+03 1.26734058e+03 4.56812695e+03 -6.42751221e+03
      4.04473145e+02 3.78014185e+03 1.10057935e+03 6.24397705e+02
      -7.14861267e+02 1.07554309e+03 -1.35752722e+03 -1.08476477e+03
      -2.95810571e+03 -4.87864471e+02 -1.46614917e+03 -4.25996216e+02
      1.94527234e+03 1.09369287e+03 6.25403404e+01 6.68537292e+02</_>
    <_>
      4.90591846e+03 -4.77061890e+02 -1.15721643e+03 -5.25318457e+03
      2.49959888e+03 -1.68606348e+03 3.56903052e+03 9.42268677e+02
      -6.85660278e+02 -2.20117456e+03 -1.61319519e+03 1.40288818e+02
      7.47581116e+02 1.45586548e+02 1.46357446e+03 -3.19880225e+03
      -1.50915759e+03 4.30076874e+02 3.30640076e+02 8.28893250e+02</_>
    <_>
      -3.42759790e+03 -1.18097717e+03 -4.30710498e+03 1.34636670e+03
      3.90880640e+03 3.79752563e+02 -1.94812061e+03 2.73779517e+03
      -1.11451953e+03 6.15801147e+02 -2.55964282e+03 6.30625305e+02
      1.73486292e+03 -3.44107495e+03 -1.58312286e+02 -5.23701782e+02
      1.88872607e+03 -8.69640747e+02 -6.18997314e+02 -2.61455627e+02</_>
    <_>
      6.85493848e+03 -8.76583862e+02 4.03806494e+03 -3.89377368e+03
      -1.83027966e+03 6.30074463e+02 -1.72974686e+02 -1.20546484e+03
      1.09505542e+03 3.42158081e+02 7.09175293e+02 8.60196594e+02
      -2.25444116e+03 -7.42763489e+02 2.41476746e+02 -1.56406348e+03
      -1.71444000e+02 1.77747449e+03 -1.38895157e+02 5.47725464e+02</_>
    <_>
      -1.27175574e+03 -1.45359253e+02 9.51181641e+03 -1.13319214e+03
      -1.04185571e+03 -2.96819751e+03 -1.04614612e+03 -1.20265430e+03
      -8.03366760e+02 4.74378955e+03 -1.54321057e+03 2.92444977e+02
      -6.53016663e+02 -2.28055273e+03 8.50849792e+02 8.30114929e+02
      2.65636133e+03 9.03424927e+02 8.91813278e+01 -3.03647919e+02</_>
    <_>
      -2.55875439e+03 4.32812549e+03 6.83983643e+03 -3.82465649e+03
      -1.91188452e+03 -5.50134644e+02 2.22198071e+03 -5.38062256e+02
      3.52902026e+03 4.35952686e+03 -8.42386230e+02 -4.15284607e+02
      -1.60745923e+03 9.29169678e+02 2.57308813e+03 3.57898041e+02
      1.96639294e+03 -2.34037186e+02 -3.67543884e+02 -6.66257751e+02</_>
    <_>
      4.60927826e+02 9.13888550e+02 5.90814551e+03 -7.21919800e+02
      -3.41131641e+03 2.15086987e+03 -2.76116235e+03 -1.78939734e+03
      1.02678894e+03 -1.48277222e+03 1.27595642e+03 2.20500122e+03
      -1.28937390e+03 -1.07197681e+03 1.74433191e+03 -3.25203857e+02
      1.09527138e+02 1.60119781e+02 -1.87036584e+03 -1.03536011e+03</_>
    <_>
      4.97669556e+02 -6.54735498e+03 3.29903662e+03 4.91155322e+03
      6.12322559e+03 -1.27761829e+03 2.81055969e+02 1.10412430e+02
      -3.36412866e+03 1.50633740e+03 -3.89808179e+03 8.02381836e+02
      -1.15926407e+02 -3.00903442e+02 3.52788757e+02 -3.41446045e+02
      -7.17282593e+02 8.26614258e+02 4.57953064e+02 -1.22235535e+03</_>
    <_>
      3.04586841e+03 -4.46349902e+03 6.47863623e+03 1.31382227e+03
      3.25210052e+02 -2.06704443e+03 2.99161523e+03 1.03998059e+03
      -5.16454895e+02 1.93954620e+02 9.69266174e+02 2.47715674e+03
      -9.22395859e+01 5.16490723e+02 -1.39447498e+03 1.30747168e+03
      -7.12432617e+02 -1.66104172e+02 3.45038147e+02 -2.90207123e+02</_>
    <_>
      1.44759863e+04 -9.18086060e+02 2.06096729e+03 -4.01450378e+02
      -1.82667603e+03 -2.93321381e+02 -1.15576099e+03 1.47412952e+03
      2.04407788e+03 9.48166199e+01 -1.00986865e+03 -8.02235168e+02
      -9.26066589e+01 -7.26245850e+02 5.86741455e+02 -8.26617249e+02
      -4.93292297e+02 3.42354858e+02 2.15554138e+02 -1.80721054e+02</_>
    <_>
      -7.87619873e+03 -6.46334375e+03 4.10523291e+03 2.62592847e+03
      2.98938086e+03 -1.68497668e+03 2.55244678e+03 6.30069695e+01
      -1.83805408e+03 -9.16182739e+02 -1.55630640e+03 3.06572296e+02
      -1.56219971e+03 1.92561328e+03 -9.35598877e+02 -1.39630090e+03
      1.69057556e+03 1.16934985e+03 -2.07211548e+03 6.40433960e+02</_>
    <_>
      -9.65995703e+03 -7.66310181e+02 -3.32692261e+03 1.08857239e+03
      3.35941895e+02 3.03625903e+03 1.37576917e+03 8.89313354e+02
      -1.35569482e+03 3.93212067e+02 -1.98841541e+03 9.81266174e+02
      1.90330774e+03 1.46689966e+03 1.51376733e+03 -1.18222229e+03
      2.99421899e+03 -5.84218140e+02 -7.42690308e+02 8.66793335e+02</_>
    <_>
      -1.15176670e+04 6.10247559e+02 8.24315491e+02 -2.46991455e+03
      -3.24885651e+02 2.06964380e+03 1.66554565e+03 9.39812195e+02
      -4.67271729e+02 9.33268311e+02 1.51621948e+03 1.79307190e+03
      8.60046753e+02 1.99938123e+03 1.08841589e+03 7.60716064e+02
      4.79862549e+02 -7.79523621e+02 -8.90469055e+02 -8.13152161e+02</_>
    <_>
      -7.85252295e+03 3.10058203e+03 2.93166797e+03 8.99209863e+03
      4.41538184e+03 -2.37765894e+03 -8.02399475e+02 -1.50448035e+03
      -1.87798462e+03 1.86525977e+03 -1.21747119e+03 1.39038879e+03
      -8.95781128e+02 1.06315125e+03 -1.37492737e+03 -2.23710718e+03
      8.51570984e+02 -8.97670227e+02 2.83698315e+03 -3.70318140e+03</_>
    <_>
      3.79940613e+02 3.39157300e+03 -2.66979419e+03 -5.34891724e+02
      1.95660657e+03 8.05689648e+03 1.99370300e+03 -6.16267029e+02
      1.73224097e+03 2.14261426e+03 1.84659927e+02 -2.83378687e+03
      -2.94830225e+03 8.14945801e+02 -2.46450513e+03 -3.45741791e+02
      -4.63565430e+02 7.30128967e+02 -1.26408057e+03 -1.58791443e+03</_>
    <_>
      -2.11493677e+03 5.95487012e+03 4.47932666e+03 -2.65695996e+03
      -1.55898560e+03 1.37067700e+03 -9.61277222e+02 1.54305420e+03
      2.26063721e+03 5.68392822e+02 5.00493073e+02 1.53026477e+03
      2.25511499e+03 1.23567932e+03 -8.59898926e+02 -1.97766028e+03
      2.18588898e+02 1.60006946e+03 -3.76428604e+01 1.25110266e+03</_>
    <_>
      6.80204639e+03 -7.06182251e+02 7.13670044e+02 5.30445703e+03
      4.50337939e+03 2.04418213e+03 5.06889130e+02 2.26166309e+03
      -1.88591284e+03 2.86109399e+03 1.52164111e+03 -3.82165918e+03
      -1.47284583e+03 2.36036896e+02 4.63670837e+02 -2.15613818e+03
      -8.44749207e+02 2.02156860e+03 2.70403516e+03 -2.82572498e+01</_>
    <_>
      -6.84900830e+03 1.62985339e+03 -1.37383636e+02 6.71345093e+02
      8.30458496e+02 1.95502844e+03 1.92543933e+03 2.21884003e+02
      2.05196948e+03 -7.93577271e+02 -4.46555817e+02 5.26437805e+02
      4.68185520e+00 1.08410217e+03 8.16692505e+02 1.13935144e+03
      5.23481323e+02 -7.95096313e+02 -3.99720520e+02 2.88442810e+02</_>
    <_>
      -5.41054688e+03 -4.71440277e+02 -6.18617310e+02 4.80982129e+03
      4.36927295e+03 2.54429492e+03 -1.42468835e+03 -9.14081543e+02
      -8.27922607e+02 4.99825478e+01 -2.11725562e+03 5.32099426e+02
      -8.75630493e+02 2.42139938e+02 2.58651050e+03 -6.28606720e+01
      -1.04570410e+03 -1.43369507e+03 -1.92592525e+01 2.08947021e+03</_>
    <_>
      7.41675781e+03 2.00509717e+03 4.68081390e+02 4.97253271e+03
      3.76632813e+02 1.02348090e+03 -4.75365356e+02 -1.94911499e+02
      4.12416260e+03 -4.96722412e+03 -2.34913477e+03 -3.56907349e+03
      1.04639722e+03 -7.44279327e+01 -1.07657959e+03 3.83828186e+02
      2.09790186e+03 6.06063232e+02 1.00673224e+03 -1.37663464e+03</_>
    <_>
      -5.01216602e+03 1.14348926e+03 -2.20157745e+02 6.08439307e+03
      3.19851733e+03 -7.71645325e+02 1.78382593e+03 -6.92418640e+02
      1.16818933e+03 1.85878601e+02 -3.40877563e+02 -5.26551636e+02
      -8.41174316e+02 2.50370377e+02 -1.36445447e+03 -6.18232971e+02
      1.95147937e+03 -6.84324219e+02 1.65145630e+03 7.24300232e+02</_>
    <_>
      8.38102441e+03 -3.18677466e+03 -1.63286865e+02 1.34582898e+03
      1.89798682e+03 3.17681177e+03 -2.84586230e+03 -2.11521072e+02
      -1.58094263e+03 2.49753052e+03 2.01021912e+03 -1.58746811e+02
      9.89424011e+02 -2.59486885e+01 -1.00308911e+03 -7.72182434e+02
      -1.49643219e+02 2.88840485e+02 -1.92526245e+03 2.38054871e+02</_>
    <_>
      -3.83147510e+03 2.43313110e+03 -1.09684036e+02 3.31360620e+03
      4.59029346e+03 2.38783887e+03 -7.44101257e+02 -1.37234680e+03
      3.08169946e+03 -3.68077911e+02 -2.62053564e+03 -2.12702319e+03
      -2.38875342e+03 -8.81376221e+02 2.37056763e+03 9.04025696e+02
      -1.87259680e+03 6.43824707e+02 1.16137036e+03 -3.42040497e+02</_>
    <_>
      -1.29894397e+03 -1.78017761e+03 -4.76750275e+02 4.47160254e+03
      1.88564685e+03 6.81293213e+02 2.34744458e+03 -6.91074646e+02
      1.86500024e+03 -3.88240906e+02 -1.00459204e+03 -3.10022278e+02
      -8.62167969e+02 1.06297620e+03 -7.74291325e+00 1.40735184e+02
      8.22133789e+02 -1.32689636e+03 -7.02466370e+02 1.45551233e+03</_>
    <_>
      -2.18945386e+03 7.29608337e+02 2.97848804e+03 5.95223291e+03
      8.60699341e+02 9.52084473e+02 1.79059131e+03 -1.28375830e+03
      2.47027295e+03 -4.79168518e+02 1.04275061e+03 -1.77699438e+03
      1.43726514e+03 -1.32899658e+02 -1.54516943e+03 -2.25331482e+02
      1.02602002e+03 -2.90993042e+02 2.48205493e+03 2.07301538e+03</_>
    <_>
      8.65609766e+03 -3.08329102e+03 1.53387000e+03 5.10416846e+03
      1.87215210e+03 1.10833093e+03 1.83780640e+03 -1.96707666e+03
      2.13186768e+03 -4.54731567e+02 2.50925999e+01 -2.48123596e+02
      -1.17267494e+02 8.50082153e+02 4.41803986e+02 2.11664581e+02
      3.59277527e+02 -1.38631992e+01 1.43802466e+03 1.61496185e+02</_>
    <_>
      -1.38561816e+03 1.00727765e+03 2.67856616e+03 3.33290771e+03
      -4.52765869e+02 -4.87269073e+02 2.21683643e+03 2.23146439e+02
      2.95147095e+03 8.49387054e+01 1.39529163e+03 -1.00042831e+02
      2.26393872e+03 -6.76341248e+01 -1.96510400e+03 3.36586060e+02
      3.40999298e+02 -6.73109192e+02 4.79655228e+01 6.80963989e+02</_>
    <_>
      1.01244355e+04 1.43816956e+03 2.65407764e+03 4.04206201e+03
      -3.14673901e+03 1.98479590e+03 -2.90423950e+03 -1.90482068e+03
      1.81668884e+03 -2.18491138e+03 2.96016260e+03 -2.63180469e+03
      3.79698853e+03 2.73922314e+03 1.23830835e+03 1.18997536e+02
      2.59828125e+03 -7.14271545e+01 8.10709290e+02 2.32741943e+03</_>
    <_>
      2.21669702e+03 -3.68565186e+03 2.12454321e+03 -3.50274414e+03
      3.06934131e+03 -1.65411182e+03 3.22613257e+03 1.90131091e+03
      -3.35654834e+03 -1.11930347e+03 1.64213892e+03 -6.86664856e+02
      6.45308960e+02 1.18907684e+02 -1.33451123e+03 -3.62033691e+02
      1.93586755e+03 2.23107559e+02 -8.08731384e+02 -1.62716565e+03</_>
    <_>
      1.37646143e+04 -7.38211365e+02 2.74549585e+03 1.40154272e+03
      -3.03137842e+03 -1.08363562e+03 -2.36481421e+03 9.90034729e+02
      -3.03657898e+02 3.69307800e+02 -2.13310107e+03 -3.70046265e+02
      3.83168701e+02 1.34570605e+03 1.20453625e+03 -1.03116833e+03
      -3.97155212e+02 -1.46169174e+02 -4.97391052e+02 -2.78171173e+02</_>
    <_>
      6.61430029e+03 4.22885803e+02 5.87399121e+03 3.71405060e+02
      -2.19406250e+03 -1.71744836e+03 1.41758020e+03 -3.56556030e+02
      1.63162524e+03 3.06970605e+03 -2.38736710e+02 -2.16921069e+03
      -5.01848373e+01 -1.25698975e+03 1.07164124e+03 -7.41543091e+02
      -5.22112183e+02 -2.93524109e+02 -1.18747351e+03 -1.32504059e+02</_>
    <_>
      -5.14835645e+03 -4.58050439e+03 -4.66757294e+02 7.18607483e+02
      2.15203564e+03 2.14611618e+02 3.16004321e+03 1.54565076e+03
      -9.48122803e+02 4.11782806e+02 -7.43916992e+02 1.40800781e+02
      8.61273376e+02 1.00554492e+03 4.12978027e+02 3.93247772e+02
      -4.68910889e+02 1.28720215e+02 -5.27556335e+02 5.65431213e+02</_>
    <_>
      6.81729297e+03 -3.56536084e+03 4.05259460e+02 1.36392346e+03
      4.55984772e+02 -3.84136322e+02 3.74804102e+03 6.14156067e+02
      1.03295337e+03 -4.88365540e+02 3.81096313e+02 3.95653931e+02
      1.68070908e+02 1.19041150e+03 1.15115654e+02 8.41543518e+02
      6.41995911e+02 1.93133011e+01 -2.79916656e+02 -2.78420906e+01</_>
    <_>
      4.88926514e+03 1.12743301e+04 -7.55116113e+03 -2.62503948e+01
      -2.56944238e+03 -3.49666455e+03 2.15166919e+03 -3.38201270e+03
      -2.15324829e+03 5.50364990e+02 1.40850189e+02 2.27937183e+03
      1.84034473e+03 -2.96820337e+03 -1.09589136e+03 1.42117325e+02
      -9.22931152e+02 -1.81220667e+03 -1.66583862e+02 1.36494849e+03</_>
    <_>
      3.34528394e+03 2.70472168e+03 3.64310669e+02 -4.37196338e+03
      4.03192139e+03 -2.12153125e+03 2.42535599e+02 -1.35532764e+03
      1.60813004e+02 -3.99635284e+02 3.68456128e+03 -9.37524353e+02
      7.30979980e+02 6.87183533e+02 6.26243896e+02 -2.98346021e+03
      -7.06711060e+02 -8.08468445e+02 -1.37085007e+02 -3.75526642e+02</_>
    <_>
      -4.11140479e+03 2.30537109e+03 2.20200952e+03 -7.33720276e+02
      4.69567627e+03 -3.10095972e+03 -2.81309937e+02 5.08375342e+03
      2.48245182e+01 -1.74698547e+03 3.25691528e+03 1.33542310e+03
      -2.28713013e+03 1.39047473e+03 -2.56593848e+03 1.60770386e+02
      1.11347058e+03 -7.81776733e+02 -1.22619116e+03 3.33224731e+03</_>
    <_>
      7.03145947e+03 1.24099121e+03 -5.46767920e+03 -7.72864624e+02
      2.47587479e+02 1.46467810e+03 -3.61162061e+03 7.99270386e+02
      3.47973901e+03 -4.58675041e+01 2.30179321e+03 2.45544189e+03
      -5.43889122e+01 2.10942651e+03 1.40785461e+03 2.53614868e+03
      -6.51290161e+02 2.02822479e+02 -1.06783728e+03 -1.56914392e+03</_>
    <_>
      9.16763783e+00 1.33719275e+03 3.39379810e+03 -7.67482129e+03
      2.83571655e+03 3.13465039e+03 -2.25747876e+03 -1.46187427e+03
      -1.00521790e+03 1.03114670e+02 -1.01793433e+03 -2.79402637e+03
      -5.83225037e+02 -1.97403162e+03 5.33813286e+01 3.20529688e+03
      1.56362396e+02 -3.41309357e+02 2.79608612e+02 2.66224213e+02</_>
    <_>
      -3.33788721e+03 1.01791675e+03 -2.88849927e+03 -6.01674854e+03
      3.37692603e+03 -2.08856372e+03 -2.64058960e+03 4.10802917e+01
      2.24681641e+03 3.34980664e+03 -4.97165192e+02 -1.42661121e+03
      -1.28942719e+02 1.49208960e+03 -1.67652808e+03 1.52646118e+03
      -1.30938928e+03 -1.96991565e+03 1.30980237e+03 4.33573395e+02</_>
    <_>
      -5.43703662e+03 2.64227386e+02 -4.64377295e+03 -4.82019824e+03
      2.30292554e+03 -1.40003369e+03 -1.75163916e+03 8.28827087e+02
      2.94276636e+03 1.39357520e+03 -8.20677673e+02 2.62575439e+02
      7.93368378e+01 8.33973877e+02 -2.41608228e+03 -2.86368195e+02
      -3.14670801e+03 4.77247772e+01 -3.87828430e+02 1.25178516e+03</_>
    <_>
      -7.75100732e+03 3.78266016e+03 3.70233740e+03 -3.20188354e+02
      -8.91377991e+02 -8.94247559e+02 2.66007715e+03 -4.67464539e+02
      3.73560522e+03 1.66950439e+03 2.20993481e+03 -1.62260083e+03
      6.18573486e+02 -4.19310742e+03 1.84205359e+03 1.42119031e+03
      5.67712952e+02 4.55564209e+02 -1.59098315e+03 1.89139069e+02</_>
    <_>
      7.93116455e+03 -1.26921021e+03 8.24650391e+03 4.30358696e+01
      -4.06084399e+03 2.93199097e+02 -1.71053552e+03 -1.80983612e+02
      -2.05065308e+03 -8.59974304e+02 2.84419434e+02 2.16297437e+03
      -1.88482697e+02 1.43080957e+03 -1.44093909e+03 -8.06452637e+02
      4.64755127e+02 -7.39904541e+02 -3.19142883e+02 2.88803009e+02</_>
    <_>
      9.36602844e+02 6.92282275e+03 6.16076318e+03 1.30399622e+03
      -4.88196826e+03 8.64516602e+02 -3.82495947e+03 2.96883374e+03
      -3.43906177e+03 3.61124170e+03 -4.02287109e+03 -1.24859802e+03
      2.78804370e+03 2.58510645e+03 1.88950659e+03 -1.50295959e+03
      -2.06993164e+03 -2.73643384e+03 -1.10863586e+03 -9.80104675e+02</_>
    <_>
      -1.12755750e+03 7.47192871e+02 9.18701074e+03 -1.32279163e+03
      -2.48975439e+03 -3.68040942e+03 -7.10335236e+01 -1.46009534e+03
      -1.07793060e+02 4.95143701e+03 -5.25674133e+02 6.16084778e+02
      -3.34709747e+02 -2.59845752e+03 5.55894775e+02 -4.15096741e+02
      2.99278271e+03 -5.66226149e+00 1.78898895e+02 3.61550293e+02</_>
    <_>
      -8.15678516e+03 1.57779333e+03 3.98290552e+03 5.53589355e+03
      5.11141895e+03 5.27398621e+02 -1.76734055e+02 -3.59092334e+03
      9.23420898e+02 -6.63676697e+02 -4.31443298e+02 4.11116058e+02
      -1.12553479e+03 1.65173352e+03 -8.62288940e+02 -9.09403748e+02
      6.62908936e+02 -3.10183197e+02 2.83034424e+03 -2.90025977e+03</_>
    <_>
      -6.36728809e+03 7.79862402e+03 2.40222095e+03 5.79226514e+03
      2.02977795e+03 -2.46295850e+03 3.21140167e+02 -3.78133118e+02
      -1.55914001e+03 -2.13857495e+03 -2.83302808e+03 -2.87534033e+03
      6.85646667e+02 -1.32227808e+03 -2.20567578e+03 9.67631897e+02
      -2.22907455e+02 2.49126733e+03 5.99635315e+02 -6.13309021e+02</_>
    <_>
      8.16240771e+03 -2.45903882e+03 -4.31543823e+02 1.59976978e+03
      1.70876208e+03 4.83470996e+03 -1.96057629e+03 -5.88585266e+02
      -1.51176526e+03 2.75239453e+03 2.18902905e+03 -8.20066589e+02
      2.89637421e+02 5.78425232e+02 -1.30382727e+03 -9.00996521e+02
      -1.30024994e+02 5.01347321e+02 -1.84061584e+03 -5.99158203e+02</_>
    <_>
      -2.05479932e+03 -9.40604553e+02 6.16302795e+02 6.05175000e+03
      4.47768896e+03 8.34756165e+02 -6.55106262e+02 -4.92484033e+03
      -6.19949890e+02 -9.46095963e+01 -1.38905798e+03 1.91228195e+02
      -1.20346094e+03 2.05353134e+02 -1.08315826e+02 -4.39006500e+02
      2.85469757e+02 -1.70628467e+03 -6.97943970e+02 -1.70298813e+02</_>
    <_>
      1.17343154e+04 -7.29109192e+02 2.44054639e+03 3.20389185e+03
      -6.97237671e+02 7.32205017e+02 -9.78738770e+02 -2.40640625e+03
      3.99558929e+02 -9.94436340e+02 -1.12345349e+03 -2.10780029e+01
      1.95324280e+02 7.27097290e+02 -4.11427429e+02 1.26246353e+02
      -3.17931328e+01 -7.26381836e+02 7.45027695e+01 7.48326843e+02</_>
    <_>
      8.46688867e+03 2.42287305e+03 2.78567139e+03 2.88950586e+03
      -2.98171118e+03 3.29943530e+03 -3.24721948e+03 -2.30831787e+03
      1.27667761e+03 -2.34321313e+03 3.35553198e+03 -2.04961011e+03
      4.09325537e+03 1.88102917e+03 1.49483423e+03 -4.49211914e+02
      2.42467651e+03 1.18636620e+02 8.35198059e+02 2.29530103e+03</_>
    <_>
      2.80216968e+03 -3.84661548e+03 1.94138501e+03 -3.07996118e+03
      2.98628271e+03 -3.52238068e+02 2.28642334e+03 9.25812134e+02
      -3.54796484e+03 -1.89645850e+03 7.71684143e+02 4.23959122e+01
      1.60043896e+03 6.72422333e+01 -1.58553979e+03 -1.86284363e+02
      2.44776978e+03 4.95792480e+02 -2.00639160e+03 -1.54210193e+03</_>
    <_>
      6.68610352e+03 -2.95494946e+03 2.32418701e+03 7.48824097e+02
      9.52084732e+01 -2.27320557e+02 1.77351941e+03 -6.39912720e+02
      2.86671356e+02 -7.53833984e+02 -4.74853607e+02 1.06780115e+03
      2.65461273e+02 2.06430640e+03 -4.95896301e+02 9.37911377e+02
      9.26966492e+02 -9.57064941e+02 -1.06808997e+03 1.08015308e+03</_>
    <_>
      -1.26633118e+03 -3.44511157e+03 3.77840283e+03 4.10464990e+03
      1.23377161e+03 1.99177478e+03 2.52787451e+03 -2.06420972e+03
      -7.02596985e+02 1.05421913e+02 -2.61435913e+02 1.27464026e+03
      -1.35498157e+03 2.76311798e+02 -1.18636670e+03 1.17257837e+03
      -8.11532776e+02 -1.99464233e+03 -8.30557983e+02 7.95618774e+02</_>
    <_>
      3.40680298e+03 -1.77115125e+03 -6.97700256e+02 2.35925171e+03
      -2.31088672e+03 -2.77053589e+03 -1.40986340e+03 -3.96315918e+01
      -9.47153854e+01 -6.41503418e+02 -1.00104205e+03 3.88444275e+02
      -9.82057556e+02 4.03262726e+02 -1.22514514e+03 6.25603882e+02
      7.69666672e+01 3.49715424e+02 -2.88910828e+02 -6.26153198e+02</_>
    <_>
      2.72894507e+03 5.09318115e+03 -3.48320166e+03 -9.44636353e+02
      -1.92942590e+03 1.49749512e+03 2.43928564e+03 1.57080554e+03
      -3.62796948e+03 -5.54257935e+02 -3.98532654e+02 -4.24407616e+01
      8.54453674e+02 -4.23311432e+02 -2.57700958e+02 2.70538428e+03
      -3.89195862e+02 2.06950684e+03 3.10983337e+02 2.64836609e+02</_>
    <_>
      7.68433008e+03 7.52056494e+03 -5.01093018e+03 8.60308289e+02
      -9.37359314e+02 2.28933716e+03 2.66775146e+03 4.04981689e+03
      -1.81573547e+03 -3.30213330e+03 1.00096515e+03 -1.67084366e+02
      -1.68225488e+03 -6.51766724e+02 1.86786841e+03 1.28347070e+03
      -5.21018219e+01 1.70181351e+02 -2.22883972e+02 -6.03485352e+02</_>
    <_>
      6.36817236e+03 3.51933105e+03 -2.37019678e+03 -2.17997284e+02
      -3.70999146e+03 3.54960913e+03 2.39953467e+03 1.07390027e+03
      -1.90129089e+03 2.96563446e+02 -4.91608826e+02 -4.37138062e+02
      -5.85095459e+02 1.11351270e+03 -6.72553955e+02 8.90008667e+02
      -2.08326874e+02 4.77579834e+02 -5.06309448e+02 -1.07909256e+02</_>
    <_>
      -1.06867993e+03 8.23987988e+03 3.59536230e+03 3.59118262e+03
      -3.00136963e+03 -5.39979004e+02 -3.39847351e+02 1.61394714e+03
      -2.24052319e+03 5.01888000e+02 1.32808411e+03 -2.81122852e+03
      1.94959277e+03 6.72528992e+02 8.94255005e+02 -5.53828918e+02
      -1.30687732e+03 -4.93756775e+02 -1.08747485e+03 -3.22393379e+01</_>
    <_>
      8.51133398e+03 1.18500439e+04 -7.35376172e+03 -1.48748853e+03
      -2.10258154e+03 -3.92754907e+03 2.08500171e+03 -4.55083984e+03
      -1.80911719e+03 9.24187012e+02 -5.52469055e+02 3.41471631e+03
      1.36385657e+03 -6.06502747e+02 -2.79878906e+02 1.26836084e+03
      -1.04837207e+03 1.15078040e+03 2.96999976e+03 9.20819824e+02</_>
    <_>
      4.66506445e+03 1.32442168e+04 -7.20052734e+03 5.39169006e+02
      -3.02082935e+03 -4.57429932e+03 1.12395483e+03 -4.57322168e+03
      -2.27256348e+03 2.48833325e+03 1.21225494e+02 2.23314673e+03
      -8.86694885e+02 -1.23140186e+03 -2.16134644e+02 3.41928558e+02
      6.88018799e+02 -3.93807526e+02 4.06027496e+02 8.45055054e+02</_>
    <_>
      4.30640430e+03 7.31645508e+03 -6.35114404e+03 2.62019501e+01
      3.55348169e+03 -8.72975684e+03 2.48578552e+02 5.98348877e+02
      9.95083801e+02 8.60856750e+02 -1.19758313e+03 -1.30537024e+03
      2.71134453e+01 -2.84058472e+02 1.30497253e+03 1.97718372e+03
      -1.22062476e+03 -1.22765125e+03 4.17158813e+02 8.01859863e+02</_>
    <_>
      9.86885742e+03 -1.14561841e+03 -3.02456909e+03 5.71925049e+02
      2.27775684e+03 6.90600037e+02 3.02743066e+03 2.42384277e+03
      8.81728027e+02 8.24038879e+02 1.87203076e+03 -5.72914917e+02
      2.00985229e+03 -3.19797180e+02 -2.38350082e+02 -2.87848755e+02
      3.75031708e+02 -1.77793689e+03 -5.57677307e+02 -2.12956470e+03</_>
    <_>
      2.37142822e+03 2.61829785e+03 -1.67425949e+02 -4.12102100e+03
      4.04124487e+03 -2.61738867e+03 6.49430481e+02 -1.38841235e+03
      4.83430939e+02 -1.34761002e+02 3.60213354e+03 -7.72835693e+02
      9.33029907e+02 1.10783923e+03 6.38871704e+02 -3.07634009e+03
      -5.67726501e+02 -7.67977234e+02 -1.43121109e+02 -4.90914063e+02</_>
    <_>
      -2.74634033e+03 3.17220435e+03 7.42183008e+03 -2.07143896e+03
      1.45259131e+03 -2.30756274e+03 -3.98945483e+03 6.17366748e+03
      -2.25614600e+03 -3.14986279e+03 -8.83827271e+02 1.82507654e+03
      -6.27292053e+02 3.11975647e+02 -2.52168384e+03 1.50092920e+03
      1.06089050e+03 7.87788635e+02 4.09242065e+02 7.15989990e+02</_>
    <_>
      -5.01842920e+03 5.73591162e+03 4.61498193e+03 -1.86183398e+03
      6.18379761e+02 -6.08919312e+02 2.34609329e+02 5.57705420e+03
      -1.93674280e+03 -4.51611376e+00 8.08533203e+02 2.62392383e+03
      2.24001465e+03 2.40986389e+02 -1.39368921e+03 1.71208472e+03
      -1.74748459e+01 1.14759241e+03 2.84690918e+03 2.06472632e+03</_>
    <_>
      -7.82391113e+03 5.44293799e+03 -4.17117041e+03 -4.29768799e+03
      2.26689722e+03 -1.67035263e+02 5.89983887e+02 -2.11907153e+03
      2.78045044e+02 -9.12341370e+02 3.90108368e+02 1.40606482e+03
      2.50935278e+03 5.34563599e+02 -1.69190198e+03 -1.15283582e+03
      1.42227142e+02 1.12000282e+02 -7.51038696e+02 -1.35965759e+03</_>
    <_>
      -3.66604614e+03 1.31077793e+04 -4.42938110e+02 -6.35256641e+03
      -1.69792557e+02 2.63824292e+03 -1.27624657e+02 -2.26271436e+03
      -1.92530005e+03 -3.25820557e+03 5.52028259e+02 4.92983765e+02
      -7.90534241e+02 -2.09160449e+03 4.02846008e+02 -3.66397186e+02
      -3.15862274e+02 -2.01312415e+03 -8.74058655e+02 -1.43602979e+03</_>
    <_>
      -3.50735522e+03 8.53423438e+03 3.47518799e+02 -4.89445166e+03
      4.24517871e+03 -1.03118286e+03 1.33129163e+03 -1.82432764e+03
      -2.98540131e+02 -6.96958923e+02 2.28920313e+03 4.98277588e+02
      -1.82478845e+03 1.27360229e+03 1.00691138e+03 -3.54518457e+03
      -1.22636926e+03 -2.53833521e+03 1.19861557e+02 3.51972839e+02</_>
    <_>
      7.11508252e+03 1.35746191e+03 -5.55589551e+03 -2.80211060e+02
      3.29033051e+02 5.94908142e+02 -3.50359741e+03 1.28002795e+03
      3.45739063e+03 -1.05177643e+02 2.00034485e+03 2.47775610e+03
      -3.21453735e+02 2.37666992e+03 1.06115906e+03 2.53585791e+03
      -5.18764832e+02 -1.92751427e+01 -1.22506067e+03 -1.67558167e+03</_>
    <_>
      -5.34461328e+03 -1.95428186e+03 1.72981531e+03 -2.30413867e+03
      6.67854004e+01 -1.89823352e+03 6.00972839e+02 1.16281763e+03
      -8.65908447e+02 6.65129456e+02 1.84960596e+03 -1.15722595e+03
      -4.78972229e+02 -1.02959021e+03 9.87309937e+02 1.81064551e+03
      -2.08025317e+03 1.19622852e+03 5.07745514e+02 -8.09051270e+02</_>
    <_>
      -1.98146863e+03 -2.84732715e+03 3.93296478e+02 -7.00920801e+03
      -3.36557544e+03 1.44894580e+03 -2.10422180e+02 -7.08846558e+02
      2.15946704e+03 -4.33310425e+02 1.49054352e+02 8.98323669e+02
      1.46448035e+03 1.39910095e+03 -1.38166370e+03 -6.52566345e+02
      -1.97699390e+03 1.39317456e+03 2.94012427e+03 3.46364441e+02</_>
    <_>
      -3.48093823e+03 6.57712585e+02 -3.23368506e+03 -5.60891357e+03
      3.74883545e+03 -2.30929639e+03 -2.73714868e+03 1.89150848e+02
      2.72974048e+03 3.23297729e+03 -3.75312042e+02 -4.85064270e+02
      -3.01188904e+02 1.76778491e+03 -1.86894067e+03 1.39688110e+03
      -2.03517065e+03 -1.23022583e+03 4.00091431e+02 1.02534070e+03</_>
    <_>
      -1.73236951e+03 4.39242371e+02 5.60210400e+03 2.54014063e+03
      -2.69067920e+03 -2.83746997e+03 1.52236523e+03 2.44585425e+03
      3.92230811e+03 5.93647339e+02 8.77051514e+02 2.15245068e+03
      1.33755176e+03 -2.01040918e+03 -1.14743445e+03 -5.60879700e+02
      -2.53586865e+03 -3.63968262e+02 -4.82342834e+02 -6.45255066e+02</_>
    <_>
      -4.54603320e+03 -2.36699463e+03 -2.72121802e+03 -3.34678003e+03
      1.80588196e+03 -2.34915771e+03 2.49025537e+03 2.82519482e+03
      -5.74226501e+02 -1.88202286e+02 -7.56673706e+02 -1.71826706e+02
      3.05897095e+03 1.12295935e+03 7.21926453e+02 6.78053101e+02
      -1.21106970e+03 9.35240601e+02 -8.55554260e+02 -1.12602759e+03</_>
    <_>
      4.95125854e+02 -1.96794727e+03 2.31861694e+03 -8.12356396e+03
      3.48649219e+03 -1.19505322e+03 -9.14205750e+02 -1.75234326e+03
      -2.01077490e+03 1.92555310e+03 -1.08978748e+03 -1.80077832e+03
      -3.95538391e+02 1.68763464e+03 -7.35488037e+02 2.81853345e+03
      -1.00805444e+03 -1.25297400e+03 6.37920959e+02 -1.88655319e+02</_>
    <_>
      1.99795618e+03 -2.29436548e+03 4.82548389e+03 -7.73038086e+03
      3.66892163e+03 -9.27993713e+02 -3.13145337e+03 -4.11541602e+03
      -2.69616968e+03 -8.48315063e+02 2.27200684e+03 -1.80006775e+03
      1.10462927e+03 -3.59350006e+02 4.08551300e+02 1.90180200e+03
      -1.00193396e+03 7.00573959e+01 4.23282898e+02 -9.24878601e+02</_>
    <_>
      -4.84101709e+03 2.20152173e+03 4.31489551e+03 -2.62947083e+02
      -7.89864197e+02 -1.90870483e+03 2.34308545e+03 -3.07143092e-01
      3.90282422e+03 2.98248706e+03 1.94483936e+03 -2.04666699e+03
      -9.16074142e+01 -3.78758887e+03 2.18766553e+03 1.43036096e+03
      -6.65697083e+02 1.64233911e+03 -2.03738928e+03 -8.10957397e+02</_>
    <_>
      -3.76009229e+03 -3.48235107e+03 3.10173438e+03 -3.90066925e+02
      -1.84591187e+03 -1.21198413e+03 4.69341602e+03 -7.72251282e+02
      2.22948779e+03 2.23388135e+03 4.78650879e+02 1.00564252e+03
      7.37929443e+02 1.00669263e+03 -1.60653308e+03 -6.19670898e+02
      3.82681335e+02 -3.16219543e+02 -2.99088525e+03 -1.45896204e+03</_>
    <_>
      -5.21035156e+03 1.08659680e+03 2.26588940e+03 6.70129053e+03
      3.16172144e+03 7.04277466e+02 -8.26357605e+02 -2.33780493e+03
      -9.58371830e+00 -8.37124634e+02 -2.26188208e+03 -2.90657288e+02
      -5.38377197e+02 1.00529767e+03 -1.66758765e+03 1.23031479e+02
      -9.72530823e+02 -9.63467163e+02 -1.69237900e+02 -8.56065613e+02</_>
    <_>
      8.03522168e+03 -1.59348853e+03 8.64723340e+03 -1.05529993e+03
      -3.38080103e+03 2.80633545e+02 -2.27823682e+03 4.45817200e+02
      -2.63304590e+03 -3.33667419e+02 7.53338501e+02 1.59003662e+03
      -5.36419373e+02 1.31311243e+03 -8.64959778e+02 -4.64430420e+02
      3.27527863e+02 -9.72934418e+01 -1.94623428e+02 4.36197754e+02</_>
    <_>
      1.66156995e+03 -4.27787305e+03 2.33671411e+03 -8.60556738e+03
      3.16881055e+03 -3.45793774e+03 -3.17258514e+02 -1.51977417e+03
      -7.03724243e+02 -2.12022729e+03 -8.17276306e+01 -2.21415967e+03
      1.30962927e+03 4.65175659e+02 -5.14861633e+02 -1.27218396e+03
      -1.95242188e+03 1.28110852e+03 -1.53734070e+03 1.36061417e+02</_>
    <_>
      5.71798193e+03 -3.36797705e+03 9.53841553e+02 -6.29409766e+03
      5.36843933e+02 -2.17608179e+03 2.87900116e+02 -4.47430481e+02
      3.96275299e+02 1.10723242e+03 3.51611694e+02 -1.41592664e+03
      -1.74574753e+02 1.83546008e+03 4.40811066e+02 1.93592578e+03
      -9.28200745e+02 9.25744873e+02 2.13440332e+03 -1.14907593e+03</_>
    <_>
      5.46190857e+02 5.96558008e+03 7.16132275e+03 1.36690771e+03
      -4.55970508e+03 1.62820099e+02 -3.29634595e+03 3.48193823e+03
      -2.50575146e+03 3.69215625e+03 -3.36056250e+03 -8.50370789e+02
      2.99763477e+03 1.40619397e+03 1.08246619e+03 -1.20051257e+03
      -2.47049072e+03 -2.10551392e+03 -7.25746399e+02 -3.45552856e+02</_>
    <_>
      3.41345776e+03 6.08310730e+02 4.27333496e+03 -6.45275244e+03
      1.16667679e+02 3.09763721e+03 1.35954138e+03 4.60128174e+02
      -1.11614172e+03 1.15182996e+03 -1.00884918e+02 -3.80538147e+02
      -2.05188843e+03 -3.09334290e+02 -1.91571265e+03 -6.07738953e+02
      5.24844604e+02 1.76119641e+03 -2.49519226e+02 8.55184937e+02</_>
    <_>
      5.40193701e+03 -3.22154602e+02 -1.07432751e+03 -5.09106299e+03
      2.21954077e+03 -1.57284949e+03 3.40225586e+03 4.62702911e+02
      -6.27564819e+02 -2.14455762e+03 -9.94505798e+02 6.35737854e+02
      1.60665173e+03 5.34772583e+02 1.13405872e+03 -3.34941455e+03
      -2.25585889e+03 7.70965820e+02 -1.19405945e+03 9.89486633e+02</_>
    <_>
      -2.65015552e+03 -1.05865381e+03 -4.60383740e+03 1.48382471e+03
      4.28219971e+03 6.23326660e+02 -2.60618311e+03 2.51703979e+03
      -9.10264587e+02 4.28676544e+02 -2.91997949e+03 7.91352417e+02
      2.02182153e+03 -3.56161377e+03 -4.16927887e+02 -1.49046646e+02
      1.82689539e+03 -1.14920239e+03 -7.42889465e+02 -2.41062546e+02</_>
    <_>
      3.55482971e+02 -2.27059814e+03 2.20347192e+03 -8.81427246e+03
      4.43437207e+03 -7.87485046e+02 4.91938263e+02 -8.75430359e+02
      -1.78423120e+03 1.82545190e+03 9.84088379e+02 -2.42742554e+03
      -1.26930374e+02 1.56927185e+03 -6.11754951e+01 2.80218237e+03
      -2.49721899e+03 -6.06572083e+02 9.66104187e+02 -1.41723596e+03</_>
    <_>
      -1.09879565e+03 -9.65264343e+02 8.75232617e+03 -1.20094690e+03
      -1.13582092e+03 -3.38728369e+03 -7.65631561e+01 -9.99857910e+02
      -3.66385468e+02 5.09354590e+03 -3.26513153e+02 7.48849564e+01
      -9.07752319e+02 -2.07939600e+03 1.28937134e+03 1.31145081e+03
      1.67507788e+03 7.42776978e+02 6.08517151e+02 -4.18753845e+02</_>
    <_>
      -2.00892932e+03 2.53689600e+03 5.95014209e+03 -3.56382568e+03
      -2.17099219e+03 -5.99290222e+02 2.85933398e+03 -2.47775970e+02
      3.16186890e+03 4.18599023e+03 7.31780701e+01 -3.56013306e+02
      -1.45152002e+03 2.02494897e+03 2.10886157e+03 7.14251587e+02
      6.03548340e+02 -4.29574738e+02 2.81867065e+01 -1.02982483e+03</_>
    <_>
      3.36738586e+02 -1.02144580e+03 5.48349316e+03 -1.38460205e+03
      -3.22664282e+03 1.85616541e+03 -2.26137378e+03 -1.36730530e+03
      -9.15713120e+01 -2.39525073e+03 1.75181787e+03 1.37426428e+03
      -7.24005127e+02 -6.45989807e+02 2.37874756e+03 1.44184677e+02
      -1.64371826e+03 8.19216980e+02 -1.50979773e+03 -1.51530920e+03</_>
    <_>
      3.08529004e+03 -5.11835449e+03 5.60404248e+03 8.73579773e+02
      6.98165161e+02 -2.13550732e+03 3.28186816e+03 1.07884705e+03
      -9.35699524e+02 -3.19201385e+02 1.40510095e+03 2.90022876e+03
      1.05533615e+02 8.16102539e+02 -1.44060449e+03 1.49817871e+03
      -8.92131531e+02 -1.75749161e+02 -3.94303711e+02 -2.44688614e+02</_>
    <_>
      7.60798096e+03 7.47354431e+02 3.26802197e+03 -7.80338440e+02
      -2.87223242e+03 6.14493958e+02 -3.45571472e+02 2.94837036e+03
      2.17811914e+03 -1.34140030e+02 4.02109480e+00 -2.30700897e+02
      1.17423120e+03 -2.76849487e+02 2.35245163e+02 -1.39084485e+03
      -1.43747302e+03 4.75015488e+01 5.77329956e+02 -4.63221619e+02</_>
    <_>
      -5.14640283e+03 6.32648193e+03 6.62261719e+03 -1.03361890e+03
      -4.70874365e+03 2.41885107e+03 -2.44516968e+02 1.01562219e+03
      1.17683411e+03 -2.18213135e+03 -1.51707043e+03 1.01188391e+03
      2.59012665e+02 1.61460669e+03 -3.78781616e+02 -1.66040454e+03
      6.88686951e+02 -3.23739746e+02 -1.50717261e+03 -1.15984448e+03</_>
    <_>
      -7.60801270e+03 1.59022913e+03 2.71091577e+03 8.87706250e+03
      4.53652148e+03 -2.38442212e+03 -9.98656982e+02 -1.34637048e+03
      -2.12468140e+03 1.67522083e+03 -1.69933838e+03 1.53893030e+03
      -1.47153943e+03 1.49250635e+03 -1.36919934e+03 -2.19790381e+03
      2.02642126e+03 -1.21992615e+03 2.03268323e+03 -3.25658716e+03</_>
    <_>
      -6.69022656e+03 8.07650635e+03 3.75658398e+03 7.37169238e+03
      2.56343140e+03 -3.78382056e+03 -1.02039410e+03 3.80063843e+02
      3.75867859e+02 -3.33557837e+03 -2.13630127e+03 -2.19159277e+03
      2.24801196e+03 1.76041809e+02 -1.99855383e+03 1.89813086e+03
      1.37588318e+02 3.94011200e+02 2.12999072e+03 -1.14842700e+03</_>
    <_>
      3.20483429e+02 3.40661035e+03 -3.27411157e+03 -5.74452209e+02
      1.75917493e+03 7.90534668e+03 1.70411572e+03 1.49430420e+02
      3.44418213e+02 2.93280615e+03 -9.30532227e+02 -2.65832422e+03
      -3.79968945e+03 9.94483032e+02 -2.09130884e+03 -1.14721082e+03
      7.29146500e+01 1.04927600e+03 -1.92778906e+03 -1.48484961e+03</_>
    <_>
      -1.04042148e+04 3.84111694e+03 2.14497876e+03 4.83531396e+03
      1.84780188e+03 1.33178882e+03 -9.71386780e+02 -1.83983801e+03
      1.70236267e+03 -2.07212671e+03 1.98108887e+03 -1.34090057e+02
      1.29222351e+03 -5.40136475e+02 -3.66900928e+03 -2.83921326e+02
      -3.38570343e+02 -1.09105579e+03 6.29880920e+02 -5.71703735e+02</_>
    <_>
      -6.65668945e+03 7.44363867e+03 2.60263257e+03 6.16887500e+03
      2.09783398e+03 -2.33580127e+03 4.18362122e+02 -1.03481995e+03
      -1.47691589e+03 -2.28896582e+03 -1.68596802e+03 -2.94977100e+03
      1.56448853e+03 -1.47894873e+03 -3.23902490e+03 1.76101672e+03
      7.91203079e+01 1.63795654e+03 2.03733856e+02 -7.13234131e+02</_>
    <_>
      -2.12525070e+02 1.69574585e+03 -9.65748657e+02 1.69131824e+03
      3.72313452e+03 1.73965186e+03 -3.21072046e+03 -4.05890625e+02
      -1.42066919e+03 3.28152295e+03 -2.85259652e+00 -1.55283569e+03
      -1.46336462e+03 -3.21521637e+02 1.83659106e+03 -1.74879065e+03
      -1.45626550e+03 2.64880762e+03 1.97564343e+03 1.30912927e+03</_>
    <_>
      7.24036230e+03 -2.01440466e+03 -1.05560706e+03 3.62147437e+03
      2.93034521e+03 5.17302783e+03 -8.17095825e+02 -1.31212891e+03
      -5.65244873e+02 2.04626428e+03 2.03882947e+03 2.89891815e+02
      4.04675873e+02 5.04035522e+02 -5.27237061e+02 -5.74924927e+02
      9.07412537e+02 -3.65863739e+02 7.83480774e+02 -4.64930115e+02</_>
    <_>
      3.09402148e+03 -4.76236719e+03 -9.21333557e+02 2.65719263e+03
      1.06211523e+03 1.20632935e+03 -1.78124109e+03 -1.18330164e+03
      -2.81139111e+03 1.10813220e+03 -3.73899765e+01 1.26818506e+03
      1.42339368e+03 -2.97852997e+02 -4.05095673e+01 2.09025269e+02
      1.20650806e+03 -6.94310120e+02 -1.63905627e+03 7.94540039e+02</_>
    <_>
      -4.96145508e+03 -3.25754980e+03 7.08851563e+02 1.44712952e+03
      1.36534827e+03 2.01870642e+03 3.22095459e+03 -1.84218491e+02
      1.49347742e+03 -1.94787012e+03 -1.76241174e+03 9.05880249e+02
      1.02796033e+03 1.99161804e+03 6.60247986e+02 1.54765381e+03
      4.71004425e+02 -1.07819958e+03 -1.63801147e+03 4.81001038e+02</_>
    <_>
      -4.23734033e+03 -5.67552124e+02 -2.03114136e+02 4.12215869e+03
      5.38994043e+03 2.65823560e+03 -2.28039307e+03 -5.24354248e+02
      -2.01378284e+03 -2.29771255e+02 -2.65989282e+03 5.05805878e+02
      -4.05802704e+02 2.31203491e+02 1.84410437e+03 -6.03810310e+00
      -5.24438904e+02 -1.06266113e+03 -1.04451416e+03 2.47962891e+03</_>
    <_>
      7.28344775e+03 1.78415015e+03 6.84371338e+02 5.16512891e+03
      2.11810474e+03 1.43737231e+03 -1.05565479e+03 -5.43324097e+02
      3.45082715e+03 -4.33865674e+03 -3.22960156e+03 -4.08198438e+03
      2.59534668e+02 -2.26963272e+02 -1.52348914e+03 8.65864441e+02
      2.14894263e+03 -2.78083363e+01 6.52532104e+02 -2.35467261e+03</_>
    <_>
      -3.92861865e+03 1.69741650e+03 -5.63438049e+02 6.56608350e+03
      5.36468506e+03 1.16299854e+03 -9.66056763e+02 -2.07531396e+03
      -3.71492767e+02 1.25516223e+03 -1.90414258e+03 -1.21663916e+03
      -1.58946252e+03 1.53046753e+02 -5.67360291e+02 -3.84874939e+02
      7.97638550e+02 -3.82876282e+02 1.06417407e+03 8.00042510e-01</_>
    <_>
      -1.37274744e+03 -2.07413550e+03 -8.46337830e+02 5.68215820e+03
      3.27626709e+03 3.29706787e+02 -1.87611938e+03 -2.78296240e+03
      -1.24649426e+03 6.34103333e+02 -2.11627881e+03 4.32193176e+02
      -9.73081589e+01 7.49474487e+02 3.77632141e+01 1.26161224e+02
      1.16484119e+03 -1.83345923e+03 -1.17439624e+03 8.98808655e+02</_>
    <_>
      -4.98152496e+02 -1.52137341e+03 -9.36225220e+02 4.90076807e+03
      2.89663452e+03 1.78506641e+03 6.33315002e+02 -1.58022119e+03
      4.82908081e+02 -5.62538879e+02 -2.34867480e+03 -2.60906403e+02
      -8.65847656e+02 1.51265063e+03 -3.03530212e+02 1.57426987e+02
      1.32175732e+03 -1.90332886e+03 -9.63020996e+02 1.40680481e+03</_>
    <_>
      3.14876984e+02 -3.32588013e+03 -3.34881909e+03 -2.59408321e+01
      3.01223242e+03 -3.69063171e+02 2.54837476e+03 2.43546777e+03
      -8.95979309e+02 1.90529678e+02 1.43870691e+03 -8.00213257e+02
      2.81729834e+03 3.94304260e+02 6.18657341e+01 -4.56640625e+02
      5.14375610e+01 -5.65775566e+01 -9.40725586e+02 -8.42296509e+02</_>
    <_>
      -1.89765442e+03 -7.68041382e+02 2.28329980e+03 5.67969824e+03
      1.01921924e+03 1.64911658e+03 2.71852075e+03 -1.11480115e+03
      2.20477222e+03 -5.88282532e+02 1.36215784e+03 -8.26129761e+02
      1.00057330e+03 4.68892242e+02 -2.16016675e+03 -2.38088379e+02
      9.71598633e+02 -4.88243896e+02 1.68217896e+03 2.23932300e+03</_>
    <_>
      -6.68835400e+03 6.30343140e+02 1.57395190e+03 3.38102515e+03
      2.26457565e+02 -1.04066516e+03 2.19649609e+03 5.47773560e+02
      1.90314038e+03 -8.50029755e+01 2.05370825e+03 4.48522461e+02
      -9.65511902e+02 6.88802673e+02 -1.13066492e+03 -7.63759094e+02
      -6.15057129e+02 7.87043715e+00 -1.69910925e+03 3.62713654e+02</_>
    <_>
      2.39049243e+03 -6.35696289e+03 9.06006714e+02 5.72558057e+03
      1.20834131e+03 -2.28849390e+03 1.94798010e+03 -4.29502777e+02
      2.82063843e+02 -8.31334229e+02 1.18362036e+03 8.96290161e+02
      -5.77456482e+02 1.51052026e+03 -8.98834076e+01 4.20008209e+02
      -2.59728699e+02 -1.23776624e+03 -1.68694299e+03 1.23883008e+03</_>
    <_>
      8.84491895e+03 4.37035431e+02 3.18956177e+03 4.80467676e+03
      -1.51509070e+03 3.49358765e+03 -2.65921777e+03 -2.07225488e+03
      1.47883435e+03 -1.80932153e+03 2.07315698e+03 -3.27748999e+03
      2.94287769e+03 1.50193506e+03 -2.31309082e+02 9.58042786e+02
      1.63437231e+03 -1.49167310e+03 2.10077979e+03 1.75159521e+03</_>
    <_>
      2.39788721e+03 -3.48488184e+03 6.47375793e+02 -3.96471948e+03
      3.99222144e+03 -1.68323792e+03 2.55458691e+03 1.34399548e+03
      -3.25407080e+03 -1.11139709e+03 1.22293188e+03 -8.68896179e+02
      2.23817041e+03 3.24125122e+02 -2.08176855e+03 -5.00511902e+02
      1.72559595e+03 3.59421631e+02 -2.00061597e+03 -1.59515674e+03</_>
    <_>
      7.90170557e+03 -3.41834302e+03 4.06055591e+03 -2.98650317e+03
      3.31630066e+02 -2.75171582e+03 -9.18881775e+02 -8.40705383e+02
      -1.08552405e+03 1.07211816e+03 8.80750366e+02 -1.38843246e+02
      -9.19448242e+02 2.17908218e+02 4.49833862e+02 1.98515967e+03
      1.26515503e+02 3.68149139e+02 5.53112305e+02 -5.57136719e+02</_>
    <_>
      1.30316123e+04 -1.12233875e+03 3.12562451e+03 1.06374341e+03
      -2.86730078e+03 -1.27999524e+03 -1.97243774e+03 1.53272363e+03
      -4.26809578e+01 2.82494751e+02 -1.57496289e+03 -1.37176926e+02
      6.82422180e+02 7.79890198e+02 7.69623535e+02 -6.87616882e+02
      -8.84538086e+02 6.45679016e+01 -2.28710770e+02 -1.56677399e+02</_>
    <_>
      7.18524463e+03 -1.33095963e+02 5.57032129e+03 4.37071991e+02
      -2.56955420e+03 -1.73090356e+03 1.53084338e+03 -1.75394089e+02
      1.55309705e+03 2.85387988e+03 5.06766479e+02 -1.59712964e+03
      3.13169575e+01 -1.11321472e+03 1.00833618e+03 -6.81046753e+02
      -1.55180310e+03 -5.39319992e+01 -1.10884485e+03 -2.53322891e+02</_>
    <_>
      -4.81555225e+03 -4.91621436e+03 -8.92679749e+02 1.46978784e+03
      2.27049316e+03 9.50927979e+02 2.70486426e+03 1.26716113e+03
      -7.58322571e+02 -3.98979980e+02 -1.07044946e+03 5.61202087e+02
      1.72178137e+03 1.38898315e+03 -1.20028191e+02 6.50356079e+02
      9.48767471e+01 -5.88735840e+02 -1.63291431e+03 9.57586121e+02</_>
    <_>
      5.37918018e+03 1.63754968e+03 4.30331982e+03 -4.78524756e+03
      1.20843376e+02 3.26247656e+03 -2.70650220e+03 2.71236816e+03
      -1.39690381e+03 -1.81281091e+03 -1.28273645e+03 8.23731262e+02
      -3.69441528e+03 -3.13198059e+02 -5.68203186e+02 -1.32844727e+03
      -1.48254028e+03 -2.25034122e+01 -1.12294055e+03 -9.10684631e+02</_>
    <_>
      7.21324023e+03 -4.08036792e+03 -1.34654138e+03 3.66578516e+03
      2.49072852e+03 1.08711511e+03 1.99905481e+03 -5.10350800e+02
      -9.36779861e+01 -7.41779358e+02 -1.02451794e+03 -4.24549675e+01
      5.54029663e+02 5.02525085e+02 1.94139053e+02 1.09866028e+03
      1.35778821e+03 -7.36826721e+02 -7.80627747e+02 6.30943970e+02</_>
    <_>
      -6.16628027e+03 2.80195703e+03 -1.30585766e+01 3.37531079e+03
      -6.71778336e+01 -3.39456299e+03 -1.18877344e+03 2.16140308e+03
      -1.12613147e+03 1.57964551e+03 3.23079932e+03 3.17442047e+02
      -2.66194702e+02 -7.96721558e+02 -7.61601563e+02 -8.70279663e+02
      -4.97654083e+02 9.35000061e+02 -4.80535248e+02 9.37399841e+02</_>
    <_>
      8.91756445e+03 -2.71828735e+03 1.07514746e+03 -1.14660107e+03
      1.23249878e+03 3.13498486e+03 -1.44027307e+03 -1.06154724e+03
      -1.66581836e+03 -1.18959241e+03 6.46252869e+02 1.96466760e+03
      1.39476306e+03 -2.44077866e+02 2.57522003e+02 3.45968140e+02
      7.96174500e+02 3.92423035e+02 -7.54250122e+02 -6.39985535e+02</_>
    <_>
      -2.69603760e+02 2.75791406e+03 3.65546777e+03 -1.91459412e+03
      -1.50529578e+03 1.63209424e+03 1.16041602e+03 3.68894067e+03
      3.76753247e+03 -1.52179187e+03 -2.73945251e+02 -1.71481186e+02
      -2.39191357e+03 8.36290039e+02 -1.82298584e+02 -4.44936218e+02
      -2.68694946e+03 -3.41672699e+02 -4.66416656e+02 -1.67413831e+03</_>
    <_>
      -1.55437207e+03 -5.02466699e+03 3.42000928e+03 2.69326416e+03
      1.63972290e+03 1.72778516e+03 3.21940112e+03 -6.47019775e+02
      -1.60138037e+03 5.17038330e+02 1.03796341e+02 1.60255383e+03
      -5.98418640e+02 6.47797974e+02 -1.31053809e+03 1.81191943e+03
      -5.06183807e+02 -1.47208618e+03 -1.14530591e+03 1.17932324e+03</_>
    <_>
      5.10001953e+03 1.33364678e+04 -6.64982471e+03 1.74670685e+02
      -3.49092603e+03 -3.88563135e+03 1.52398767e+03 -5.03831494e+03
      -2.53746875e+03 2.13709277e+03 -6.99067322e+02 1.92758472e+03
      -1.03634839e+03 -7.51534973e+02 -1.40495081e+03 8.04701477e+02
      8.67833984e+02 -6.32787048e+02 -1.72212927e+03 7.16665710e+02</_>
    <_>
      5.27014063e+03 8.46586816e+03 -5.03561914e+03 -9.97409302e+02
      2.97266089e+03 -7.74812598e+03 -8.83289871e+01 -1.07929150e+03
      7.95547119e+02 5.02073639e+02 -2.25721753e+03 -2.70818506e+03
      -1.14168564e+02 1.98070154e+03 5.01816193e+02 1.61213708e+03
      -9.35306091e+02 -1.09486060e+03 -4.58483673e+02 7.18931702e+02</_>
    <_>
      1.07134482e+04 -6.52451538e+02 -2.24391943e+03 -2.89522034e+02
      1.95937195e+03 6.49925415e+02 2.63793750e+03 2.45244873e+03
      1.08073218e+03 4.78544403e+02 1.84717944e+03 -6.62315002e+02
      1.58655664e+03 7.21806412e+01 3.71978271e+02 1.41180664e+02
      2.83695953e+02 -1.78386743e+03 2.61595734e+02 -2.29336279e+03</_>
    <_>
      -2.84112964e+03 1.33651797e+04 -9.80206665e+02 -6.24697949e+03
      -6.46865234e+01 2.48640454e+03 -5.59146881e+01 -1.90587268e+03
      -1.61061670e+03 -3.49590845e+03 -7.12108521e+02 1.39185120e+02
      -1.27210168e+03 -2.59241284e+03 1.05602832e+03 -5.79848694e+02
      1.12002222e+03 -2.97833105e+03 6.39527283e+02 -1.52175354e+03</_>
    <_>
      -4.55590137e+03 2.95547314e+03 2.50817236e+03 -1.32169458e+03
      4.98416064e+03 -3.38116333e+03 -1.15823120e+03 5.17177344e+03
      -2.88541534e+02 -1.49376221e+03 2.59023193e+03 1.11548718e+03
      -2.72645630e+03 1.10159375e+03 -1.93655835e+03 -5.24548828e+02
      8.76084778e+02 -3.48422974e+02 -5.70079285e+02 3.66334448e+03</_>
    <_>
      -5.78211377e+03 1.17805151e+03 3.96339551e+03 2.99465479e+03
      -5.88603760e+02 -2.56348053e+02 2.09079102e+03 -3.92046356e+02
      2.00641089e+03 -1.30942249e+03 -5.24305176e+02 2.33055835e+03
      1.43103479e+03 2.02476111e+03 -1.82071399e+03 8.41306458e+01
      2.57271454e+02 -1.18013281e+03 3.51514931e+01 -1.52209091e+02</_>
    <_>
      2.42334717e+03 -3.77596533e+03 7.66591309e+02 -8.80861328e+03
      3.26923315e+03 -3.65332397e+03 -3.01736755e+02 -1.83485254e+03
      3.13512909e+02 -2.76918066e+03 -1.41705005e+03 -1.90161450e+03
      1.65658960e+03 -4.63471527e+01 -1.26425806e+03 -2.52178271e+03
      -4.31935059e+02 7.67333313e+02 -2.25847095e+03 2.48633194e+02</_>
    <_>
      -2.64529175e+03 -1.25726807e+03 -5.14267725e+03 7.70156616e+02
      3.51350415e+03 2.31462555e+02 -2.29469922e+03 2.56897778e+03
      -4.91798981e+02 -1.82017853e+02 -2.62150122e+03 1.20760413e+03
      1.95823938e+03 -4.20391064e+03 -3.38870209e+02 -6.65096680e+02
      1.43777588e+03 -5.79859009e+02 -3.39399048e+02 -3.94430389e+02</_>
    <_>
