<?xml version="1.0"?>
<opencv_storage>
<opencv_ml_svm>
  <format>3</format>
  <svmType>C_SVC</svmType>
  <kernel>
    <type>LINEAR</type></kernel>
  <C>1.</C>
  <term_criteria><epsilon>1.1920928955078125e-07</epsilon>
    <iterations>1000</iterations></term_criteria>
  <var_count>20</var_count>
  <class_count>6</class_count>
  <class_labels type_id="opencv-matrix">
    <rows>6</rows>
    <cols>1</cols>
    <dt>i</dt>
    <data>
      0 1 2 3 4 5</data></class_labels>
  <sv_total>15</sv_total>
  <support_vectors>
    <_>
      8.11399659e-05 6.87029315e-05 -6.73821414e-05 2.84119724e-05
      -1.59567553e-05 4.76443392e-06 8.67188355e-05 -5.19504538e-05
      2.63565817e-05 -2.42307624e-06 -2.43020040e-05 -1.83836255e-05
      -4.66765450e-05 -6.84711704e-05 6.24221366e-06 4.93886982e-05
      -2.30038040e-05 -7.28392552e-05 9.14577322e-06 -7.48356470e-05</_>
    <_>
      -5.53819773e-05 7.97679750e-05 -2.02993557e-04 -7.13288391e-05
      1.18138487e-04 -1.31730412e-04 9.67965971e-05 5.94758385e-05
      4.94559972e-05 -1.12190231e-04 1.14754494e-05 -1.38199961e-04
      1.88859804e-06 -4.24638783e-05 2.18180779e-04 2.52772152e-04
      1.95669985e-04 -2.41078218e-04 6.63333412e-05 -1.68467232e-04</_>
    <_>
      1.46007922e-04 9.88931879e-06 1.39760377e-05 4.13614225e-06
      4.55720328e-06 -7.10315944e-05 1.02870763e-05 4.45944825e-05
      -4.80370409e-06 -1.18992102e-06 -2.94374277e-05 -7.20877433e-05
      -3.00767679e-05 -4.16948342e-06 -8.59049305e-06 2.48229655e-04
      6.01405191e-05 1.16829051e-05 6.25291068e-05 -1.83063807e-04</_>
    <_>
      -5.38159984e-05 7.84404765e-05 2.51487054e-05 -1.44680835e-05
      -5.00082861e-05 -1.25833059e-04 3.88822082e-05 -1.25151870e-04
      -3.59259707e-06 6.22562447e-06 -1.17013617e-04 -9.41441831e-05
      -3.01307791e-05 -9.60269535e-05 2.89764255e-04 5.03398041e-05
      1.76265366e-05 -6.43828535e-05 7.79909460e-05 -4.19484377e-06</_>
    <_>
      -5.82003522e-05 3.32993004e-05 -4.67502141e-05 8.30875506e-05
      4.51441592e-05 -4.11638848e-06 4.30252985e-05 4.87198085e-05
      4.39866963e-05 2.44691601e-05 -2.06654295e-05 -3.85090316e-05
      -3.79088342e-05 1.26557952e-05 9.25400018e-05 1.18414704e-04
      1.23234749e-05 6.25906841e-06 -1.80936622e-05 -5.42716516e-05</_>
    <_>
      -2.05794390e-06 -4.67989848e-05 -2.81633083e-06 7.22596451e-05
      1.41466171e-06 1.09277962e-05 -1.37644256e-05 -7.00049077e-06
      -3.00086449e-05 -4.70450941e-05 1.04650717e-04 4.03043450e-05
      -9.57556404e-05 -1.02901875e-04 2.11152055e-05 6.58873760e-05
      5.89890478e-05 -2.71442277e-05 -2.48498163e-05 4.96249668e-05</_>
    <_>
      4.11974761e-05 -3.36572111e-06 3.08779818e-05 -9.72657217e-05
      -2.14227857e-05 3.39556937e-05 1.29316486e-05 -1.57054728e-05
      1.67071103e-05 -5.67471307e-06 3.20021463e-05 -6.92300318e-06
      -1.71407992e-05 -4.12355530e-06 -1.35386199e-05 2.89556538e-05
      -1.23778718e-05 3.56298224e-05 6.24554232e-05 -1.64084649e-05</_>
    <_>
      9.25552085e-05 4.16167641e-05 7.86263081e-06 2.89556847e-05
      -5.75078448e-05 3.87993759e-06 5.45517942e-05 -6.04696424e-06
      -8.92494882e-06 -6.75975825e-05 -1.12829484e-05 -5.71308083e-05
      -3.60617778e-05 6.87540087e-05 4.81078459e-05 -4.69328188e-05
      -2.51364290e-05 3.12995908e-05 3.66476743e-05 8.52945741e-05</_>
    <_>
      -4.87665529e-05 2.32675084e-05 -1.08356453e-05 3.06415131e-05
      8.24964627e-06 2.81359235e-06 1.56851384e-05 5.57234052e-05
      1.37511015e-05 -4.63804390e-05 3.15990792e-06 -2.22261497e-05
      2.84432826e-06 4.37568560e-05 -4.73026812e-05 3.68579203e-05
      -1.45998638e-05 1.09857654e-04 9.76012598e-06 6.04344204e-05</_>
    <_>
      -7.78226604e-05 6.78536935e-06 -3.39533253e-05 -4.94812994e-05
      -3.08871313e-05 2.18113855e-05 -2.48905253e-05 -4.60644005e-05
      3.51594826e-05 9.60650414e-06 3.10301220e-05 -1.55113958e-05
      -1.91782310e-05 -4.72618522e-05 -3.63920008e-05 3.56332457e-05
      -2.99026960e-05 -2.67642863e-05 1.74517518e-05 -7.27668084e-05</_>
    <_>
      3.52521711e-05 -6.12859731e-05 7.93684812e-05 -8.17387991e-05
      2.97291681e-05 -2.41987054e-05 9.88452884e-05 5.57638887e-05
      -6.60849255e-05 -1.62181695e-05 -1.63192846e-04 -9.18949154e-05
      1.67002618e-05 -7.63259668e-05 -8.88783470e-05 -1.95114961e-04
      -3.19368264e-05 -1.87839632e-05 -4.69240258e-05 1.91986066e-04</_>
    <_>
      -5.64772345e-05 5.79182815e-05 7.80499104e-05 -6.49079957e-05
      1.36002182e-05 -2.62283447e-05 1.13664537e-05 6.66820779e-05
      -1.56088881e-05 -3.35614004e-06 -1.25740980e-05 -2.90008302e-05
      -8.72760356e-05 -1.54497156e-05 -1.09257817e-04 -2.38899884e-05
      -1.04166465e-04 6.50623915e-05 -1.81612195e-05 1.32472807e-04</_>
    <_>
      3.51321069e-05 8.67443014e-05 4.83392323e-05 9.77002674e-06
      -1.23674763e-05 8.95203993e-06 4.50598600e-05 -2.25644217e-05
      1.09581870e-05 -4.43242170e-05 -7.68150712e-05 -5.70920674e-05
      -7.31364753e-06 3.23998320e-05 3.10660034e-05 -7.33348352e-05
      3.34998840e-05 -3.63015556e-06 2.99632825e-06 1.01878482e-04</_>
    <_>
      -5.67122479e-05 2.87457024e-05 4.81256357e-05 -1.43296074e-05
      4.00108047e-06 -2.24860341e-05 -3.54807489e-05 2.66155130e-05
      -2.94354086e-05 -6.40590497e-06 -2.53479334e-06 -4.15047398e-05
      -5.39490102e-05 2.97955212e-05 -4.82459618e-05 -1.96397505e-05
      -1.66335140e-05 2.79409524e-05 -4.11779411e-06 6.01743668e-05</_>
    <_>
      -8.44297465e-05 -2.11863771e-05 -7.69158796e-05 1.75612058e-05
      -7.91972161e-06 -8.34941488e-07 -5.66187300e-05 2.60249653e-05
      -9.06364676e-06 -2.69080538e-05 5.74705300e-05 -6.79785035e-06
      -1.87509449e-05 6.88855216e-05 -2.01969979e-05 1.18884323e-04
      -3.37605779e-05 1.00449390e-04 3.94711933e-05 2.42165861e-05</_></support_vectors>
  <uncompressed_sv_total>273</uncompressed_sv_total>
  <uncompressed_support_vectors>
    <_>
      1.79210852e+03 1.58097139e+04 7.70235901e+01 -4.95030078e+03
      1.20976868e+03 -1.74592236e+03 -3.42016357e+03 4.84654785e+02
      -4.78290430e+03 8.75814941e+02 -4.14676709e+03 1.46392932e+03
      -1.31747913e+03 -1.33913721e+03 1.54390308e+03 -3.41095734e+02
      9.51591553e+02 -3.00158521e+03 -1.50343921e+03 -1.84080542e+03</_>
    <_>
      -1.54912915e+03 1.47419648e+04 -4.84390945e+01 -5.37894482e+03
      1.51038220e+03 -1.51609509e+03 -1.92917114e+03 1.51712903e+03
      -4.63240576e+03 6.38147339e+02 -1.22928210e+03 1.99057068e+03
      -2.52366235e+03 -2.66515771e+03 -2.44272778e+03 2.75911987e+03
      2.25761182e+03 -1.03461023e+03 -1.17132971e+03 4.01868622e+02</_>
    <_>
      2.43572678e+02 1.28166816e+04 -4.37918701e+03 -2.93513062e+03
      7.55612402e+03 -8.24554016e+02 -2.54416656e+02 -1.44786121e+03
      4.54871399e+02 -6.62726318e+02 5.92943359e+02 3.12479883e+03
      -1.95699097e+02 -2.63695337e+03 -6.85474670e+02 2.34452686e+03
      1.42215283e+03 -3.02231567e+02 2.83811035e+02 -1.04950134e+03</_>
    <_>
      8.95346289e+03 2.81354761e+03 -5.49658789e+03 8.96373596e+02
      -1.42717517e+03 -1.65028979e+03 7.42481384e+02 7.62019287e+02
      1.42694617e+03 -2.22346558e+03 -2.01581604e+03 -4.35050171e+02
      1.00795197e+03 2.03794019e+03 1.41541199e+02 -8.53892593e+01
      -5.16612000e+02 7.34040222e+02 -2.18207617e+03 7.87556335e+02</_>
    <_>
      1.33209521e+04 5.63815381e+03 -3.02051367e+03 -1.25880798e+03
      -5.76578271e+03 -5.02108459e+02 -2.74854297e+03 2.34974365e+03
      2.17751050e+03 -2.54086133e+03 -4.45298291e+03 -2.30037158e+03
      5.03686737e+02 2.38204956e+03 6.78767700e+02 -1.21002539e+03
      1.07534424e+03 2.91107483e+02 -1.07657739e+03 6.29633850e+02</_>
    <_>
      -3.90110669e+03 1.38890045e+02 2.25036230e+03 5.45381494e+03
      5.42814941e+03 5.12381934e+03 -9.04945908e+01 1.31809888e+03
      2.87857568e+03 2.89825317e+03 5.90378906e+02 2.12803909e+02
      1.68240503e+03 -5.65354248e+02 2.69823291e+03 6.23932251e+02
      5.09618225e+02 2.02262939e+03 1.35068039e+02 -6.87718262e+02</_>
    <_>
      -6.92072070e+03 1.07842383e+04 2.26345850e+03 1.70633630e+03
      -2.12871948e+03 -4.00416168e+02 -4.55203418e+03 2.50138092e+02
      -3.42956329e+02 1.54660962e+03 -4.24575409e+02 5.20114929e+02
      1.48604889e+02 5.54578247e+02 3.13505005e+02 2.44752344e+03
      1.12108447e+03 -3.18151733e+03 -2.78639111e+03 -9.13651733e+02</_>
    <_>
      6.49118213e+03 3.77950098e+03 -3.16250586e+03 3.98038025e+02
      -3.03242114e+03 -4.66308960e+02 3.49488550e+03 -3.86720117e+03
      8.14705139e+02 8.48589050e+02 -4.92036865e+03 5.10180817e+02
      -1.89637366e+03 -2.10142529e+03 -7.51463074e+02 -1.59837061e+03
      2.80526154e+02 6.18959534e+02 -1.90733215e+03 -3.43817963e+02</_>
    <_>
      -2.12130493e+03 4.30602295e+03 -3.19375806e+03 6.69473340e+03
      7.08856323e+02 -7.23666199e+02 3.25896802e+03 -5.32225781e+03
      9.61010559e+02 -1.56090747e+03 -3.64987396e+02 4.08295361e+03
      -1.54848499e+03 -1.64415741e+01 -8.15907898e+02 5.44209167e+02
      1.11769128e+03 1.20459656e+02 -5.66176880e+02 -3.51652283e+02</_>
    <_>
      -2.35665747e+03 6.08299011e+02 -6.59420654e+03 3.14467651e+03
      9.48608398e+02 -2.93890308e+03 5.41010742e+03 -2.33573218e+03
      2.90026154e+02 1.47839417e+03 1.17042892e+02 4.25250793e+02
      3.48692285e+03 1.63581641e+03 7.23415771e+02 -3.42552948e+02
      9.00937561e+02 7.34211731e+01 -9.20877563e+02 6.38790283e+02</_>
    <_>
      2.62007080e+03 1.84514633e+02 -2.67344775e+03 9.05351855e+03
      4.62474756e+03 -8.48132935e+02 -3.35120361e+02 -5.36169238e+03
      -7.52524597e+02 1.59221130e+03 1.72234692e+03 1.45825891e+03
      1.06921008e+03 3.13139917e+03 1.39344275e+03 2.98385669e+03
      -8.41971970e+01 -1.44577380e+03 8.33751099e+02 -1.13540308e+03</_>
    <_>
      6.46508936e+03 1.05296179e+03 -1.04063428e+03 7.60761816e+03
      9.17025146e+02 -3.10455139e+02 8.20727295e+02 -4.13652881e+03
      2.88542999e+02 -2.37237549e+03 2.87519135e+02 1.58447601e+02
      -2.82189526e+03 1.96701941e+03 3.54509827e+02 -4.02401581e+02
      3.36687347e+02 -3.80960480e+02 6.96763855e+02 3.97441437e+02</_>
    <_>
      -1.79251331e+03 1.98473901e+03 -5.81659570e+03 2.92383423e+03
      -2.08336499e+03 1.86077759e+03 4.77940137e+03 -3.31094751e+03
      1.15432715e+03 -4.73079254e+02 -1.86859949e+03 2.13321265e+03
      3.35647095e+03 -3.86244446e+02 1.01705499e+03 4.24166679e+00
      4.00541138e+02 6.71316223e+02 -1.29871790e+03 7.12354248e+02</_>
    <_>
      9.69634399e+02 2.74493311e+03 -8.14809937e+02 1.01280752e+04
      7.08313232e+02 1.70160889e+03 -8.06880798e+02 -4.76981250e+03
      -1.40620154e+03 -4.03568042e+03 8.76145813e+02 2.17957825e+02
      -1.52596753e+03 3.56450366e+03 9.12620911e+02 -3.05357635e+02
      -4.06745941e+02 1.08133752e+03 1.59954309e+03 -1.18601770e+03</_>
    <_>
      -5.24691992e+03 -2.32188257e+03 -3.47127881e+03 2.83323877e+03
      5.54459290e+02 -5.46636133e+03 1.15686108e+03 8.64528687e+02
      -1.90632581e+03 1.63924268e+03 9.23511780e+02 -1.35317566e+03
      -8.81708618e+02 -7.42029724e+02 -2.95958527e+02 4.88230591e+02
      5.29703430e+02 -3.13407745e+02 -4.29060577e+02 -1.03484753e+03</_>
    <_>
      -1.03054678e+04 5.91580750e+02 -3.40779907e+03 6.09551367e+03
      -3.53984814e+03 -1.68219214e+03 3.88592993e+03 -1.85011401e+03
      -4.00575958e+02 8.84089233e+02 -1.04087183e+03 -2.57765454e+03
      1.71365723e+03 1.55333118e+03 -7.99073914e+02 -8.49857788e+02
      2.49562210e+02 6.68813354e+02 -1.03822400e+03 -9.63067780e+01</_>
    <_>
      -5.21231934e+02 4.43652393e+03 -3.38088867e+03 2.04916504e+03
      -7.34481689e+03 -3.18741357e+03 2.18086084e+03 1.54956482e+03
      1.60205078e+03 -3.12890381e+03 3.17430200e+03 1.71767932e+03
      1.91247070e+03 2.31192993e+03 -4.01504395e+02 8.37152283e+02
      -1.96098279e+03 -9.12695923e+02 1.75027051e+03 -6.79388489e+02</_>
    <_>
      -1.20348037e+04 -2.01869421e+03 -4.48039014e+03 6.16138855e+02
      -2.62867212e+03 1.52286987e+03 -1.59562561e+02 -3.62650940e+02
      -6.70892822e+02 7.50305359e+02 -4.64747467e+02 7.47780151e+01
      -7.76369751e+02 -2.17111230e+03 6.61159729e+02 1.00452686e+03
      1.39003198e+03 2.33291382e+03 1.59346008e+03 -2.60332611e+02</_>
    <_>
      5.50990479e+03 1.03265369e+03 -4.89912842e+03 8.67712280e+02
      -3.19054688e+03 2.47496924e+03 8.05127380e+02 4.31411572e+03
      3.23335986e+03 -7.40087354e+03 -4.28300977e+03 -3.37505884e+03
      9.03457825e+02 9.91710999e+02 5.23397766e+02 -1.75485120e+03
      2.05697046e+03 -2.73207947e+02 3.76471313e+03 -1.79749496e+02</_>
    <_>
      -5.06395068e+03 -3.38825879e+03 -3.66225049e+03 2.25348193e+03
      9.39731750e+02 -2.54975391e+03 8.44811401e+02 1.50978967e+03
      -1.71926956e+02 1.26898425e+03 3.04787628e+02 7.08396378e+01
      7.18776245e+01 -6.86192871e+02 6.85438354e+02 3.19807190e+02
      -3.63107849e+02 1.07379468e+03 1.40613754e+02 -5.19763428e+02</_>
    <_>
      -2.47524463e+03 -3.41688110e+03 -6.73600586e+03 4.32393463e+02
      -3.64880762e+03 -2.81738617e+02 3.22747284e+02 2.04265454e+03
      5.39781311e+02 -2.17526660e+03 -4.56458702e+01 -1.36288208e+03
      2.23515747e+03 -7.16784363e+02 5.89923218e+02 -2.36433182e+02
      1.84865869e+03 1.03273560e+03 -9.65619080e+02 -1.22126355e+03</_>
    <_>
      7.88436084e+03 -3.06982251e+03 -7.30004150e+03 -2.27778351e+02
      -2.51003198e+03 3.16500183e+02 9.24371033e+02 5.14531494e+02
      3.65311462e+02 -1.88629236e+03 6.01917236e+02 -1.15697571e+03
      2.40760522e+03 -2.94653381e+02 1.07219824e+03 6.05850952e+02
      8.92746643e+02 1.39975998e+02 -1.24246021e+03 -6.64680847e+02</_>
    <_>
      1.16999404e+04 -8.52143982e+02 -4.98847949e+03 9.78877075e+02
      -1.73940720e+02 1.46971045e+03 2.87096875e+03 -3.82323169e+03
      7.43488037e+02 4.15992706e+02 -5.43240479e+02 1.29031372e+03
      9.82816772e+02 -6.31361938e+02 -2.44453186e+02 6.09431519e+02
      -1.23905310e+03 8.19694031e+02 -4.95337891e+02 5.87599670e+02</_>
    <_>
      -5.71280176e+03 -3.44618066e+03 -6.46219336e+03 7.97024658e+02
      -1.18398840e+03 -2.82415009e+02 2.08848975e+03 -2.97187231e+03
      -3.82506177e+03 1.20053235e+03 1.30401587e+03 -8.64574463e+02
      1.85793591e+03 -1.38728723e+03 1.04614880e+03 6.74710388e+02
      4.00741180e+02 2.37389603e+02 1.05195142e+03 -1.18907068e+03</_>
    <_>
      -1.78805798e+03 -2.59416455e+03 -7.44641357e+03 1.26288599e+03
      -2.90825562e+03 1.78049573e+03 3.00870996e+03 -1.62802527e+03
      -2.06124292e+03 -1.10492432e+03 2.65732697e+02 -1.90917090e+03
      2.86680664e+03 -1.38114673e+03 2.86541534e+02 2.12483716e+03
      -4.00325562e+02 2.97449585e+02 -6.04799927e+02 -3.11500397e+02</_>
    <_>
      6.24877246e+03 -3.03306323e+03 -1.46142273e+03 7.87370056e+02
      -5.13293640e+02 2.72267517e+02 -1.98774490e+02 -3.00315979e+02
      -1.24573608e+03 1.14870789e+03 1.27801727e+02 -1.50096191e+03
      1.24260254e+03 1.63481766e+02 2.27503586e+02 -9.27139404e+02
      5.89806335e+02 9.67828979e+02 -6.01875549e+02 -1.83931332e+01</_>
    <_>
      1.05313633e+04 -3.40042786e+02 -8.75003784e+02 -6.84632797e+01
      -1.76530139e+03 -7.15974670e+02 -9.46881897e+02 1.11374146e+03
      4.22941498e+02 -4.01079559e+02 -1.12312378e+03 -2.87277222e+02
      -1.00081604e+03 1.78635986e+03 3.87261993e+02 7.19659424e+02
      1.44572925e+03 9.53725952e+02 -6.07923401e+02 -9.03040466e+02</_>
    <_>
      7.98053125e+03 -2.29070215e+03 -5.30418335e+02 5.84216992e+03
      3.32984131e+03 1.23112195e+03 7.88679962e+01 -1.73965833e+03
      -5.66473511e+02 -3.84082092e+02 2.17577988e+02 -1.49084583e+03
      -1.78468860e+03 -5.01000427e+02 4.82404968e+02 -1.56623856e+02
      -9.88492004e+02 7.88627100e+00 -2.79574402e+02 4.76867218e+02</_>
    <_>
      2.81492065e+03 -4.60942969e+03 -1.15805579e+03 2.32932861e+03
      2.89994238e+03 -1.25737097e+03 4.25553207e+01 2.67996509e+03
      3.03261841e+02 8.85457642e+02 2.54209045e+02 -2.69396851e+02
      9.20813141e+01 -2.64367554e+02 4.74668854e+02 2.69010437e+02
      3.38623871e+02 4.69981262e+02 -6.19289185e+02 5.51332947e+02</_>
    <_>
      5.19874707e+03 -4.15810303e+03 -5.86760620e+02 1.36059155e+03
      2.32833105e+03 -2.92778076e+03 -1.20949939e+03 1.70989539e+03
      -2.50487106e+02 -7.81126709e+02 1.37063751e+02 1.54653013e-01
      -1.19974316e+03 -3.38382111e+02 -2.10268631e+02 3.31302490e+02
      -4.15818367e+01 -8.08617554e+02 5.54454163e+02 1.29838049e+03</_>
    <_>
      5.00051904e+03 2.65525146e+03 3.15983472e+03 5.12130273e+03
      3.83748901e+02 1.25590454e+03 -4.66749573e+02 1.86349878e+03
      1.09146339e+02 1.61162195e+03 1.92761633e+03 3.37140594e+02
      1.72734180e+03 6.55358963e+01 3.06711841e+03 1.04002966e+03
      2.92952518e+01 -2.21600195e+03 1.93440857e+03 -9.40596863e+02</_>
    <_>
      7.65541211e+03 -9.00502502e+02 -7.15429980e+03 7.32507568e+02
      -1.38920593e+03 5.31183350e+02 2.16681421e+03 -1.26912048e+03
      -5.87531128e+02 -1.36278198e+03 7.40663910e+01 -8.31595398e+02
      3.41160864e+03 3.69846558e+02 -2.72753113e+02 8.66220322e+01
      -1.77802162e+01 4.08673645e+02 -5.56322815e+02 -2.79735504e+02</_>
    <_>
      8.10518457e+03 -5.34341003e+02 -1.78914771e+03 3.46940332e+03
      -3.33803589e+03 1.68574524e+03 3.17586578e+02 -1.28362317e+03
      1.82145065e+02 -2.62383881e+02 -1.11061670e+03 -1.81198523e+03
      9.92480957e+02 1.32809900e+03 5.68340027e+02 6.19803406e+02
      -8.34827393e+02 -7.63047241e+02 -3.18234924e+02 5.31031189e+01</_>
    <_>
      2.30150269e+03 -7.81601196e+02 -2.24165601e+03 -2.69653613e+03
      2.64091113e+03 -1.71485889e+03 1.89434167e+03 -2.08246167e+03
      -1.73537122e+03 1.66025903e+03 2.74037109e+02 1.33207349e+03
      -9.26872498e+02 -6.67042542e+02 -1.52463135e+03 1.43495825e+03
      -1.55372534e+03 2.50812012e+02 7.30647850e+00 2.09931860e+03</_>
    <_>
      1.27029578e+03 3.72681812e+03 -2.21188940e+03 -1.80107617e+03
      -1.78741650e+03 -4.09254272e+03 3.35564331e+02 1.87499365e+03
      -1.02876611e+03 -6.78747498e+02 1.44412268e+03 1.06797742e+03
      -1.45286514e+02 2.67934227e+01 -8.74151306e+02 1.91894180e+02
      -7.35900085e+02 -5.02337830e+02 1.19999292e+03 7.49859131e+02</_>
    <_>
      1.85018689e+03 1.25707922e+03 -2.27443726e+03 -1.71868945e+03
      2.02320520e+03 -1.34175793e+03 1.57768225e+03 4.05917023e+02
      -1.70776978e+03 1.45662427e+03 -5.31983337e+02 2.87550171e+02
      -7.45323792e+02 -8.97406006e+02 -2.26923804e+03 7.11884949e+02
      -1.24564258e+03 -7.51648132e+02 6.19056580e+02 1.50938428e+03</_>
    <_>
      6.40968164e+03 6.13289063e+03 -2.76988159e+03 -1.65903833e+03
      -1.57825757e+03 -2.88325024e+03 1.22034119e+03 4.09214771e+03
      2.26515112e+03 1.75044897e+03 5.97961670e+02 2.01014685e+03
      -5.09410797e+02 -1.64840247e+03 -1.12325732e+03 2.86479034e+02
      -8.67243835e+02 4.74670624e+02 -4.28962631e+01 2.46402573e+02</_>
    <_>
      5.01931836e+03 3.85407080e+03 -1.21117358e+03 -2.27770020e+03
      -2.22787817e+03 -4.50577490e+03 -5.10316559e+02 1.65637720e+03
      -2.98071991e+02 -3.53764771e+02 1.66600635e+03 5.96132324e+02
      -1.19307178e+03 1.09416138e+02 -1.28544910e+03 -1.80368820e+02
      -9.19008118e+02 1.56994537e+02 6.69314819e+02 1.81080475e+02</_>
    <_>
      -4.10671680e+03 5.27681592e+03 2.45826611e+03 -7.11212500e+03
      1.05336499e+03 3.62745697e+02 5.99254944e+02 3.68178101e+03
      3.05370178e+02 4.32354218e+02 8.86519592e+02 -3.70862988e+03
      -8.96711914e+02 -9.89145020e+02 -3.16400208e+02 -8.46168747e+01
      -2.00599707e+03 -6.92298645e+02 1.06153430e+03 -5.45320801e+02</_>
    <_>
      1.20685205e+04 1.43301831e+03 -3.07117554e+03 1.44004150e+03
      1.17030505e+03 -1.64229932e+03 1.90740613e+03 2.37028882e+03
      -7.22682312e+02 1.03851892e+03 -5.24450439e+02 1.29831506e+03
      5.44723816e+02 1.41643359e+03 -8.53143799e+02 -1.08095688e+02
      -4.27202850e+02 -1.14797656e+03 1.89260632e+03 1.83663269e+02</_>
    <_>
      3.02328589e+03 1.47339111e+04 -1.99810425e+03 -7.95833496e+02
      3.83262451e+03 1.01235817e+02 -2.75509790e+03 1.26928149e+03
      -2.67163696e+03 -2.30228760e+03 7.20314636e+01 8.15306580e+02
      2.00696948e+03 1.26344617e+03 -1.27772675e+01 -1.61837842e+03
      -1.57037402e+03 6.73400696e+02 9.34614258e+02 1.09043372e+03</_>
    <_>
      1.16522363e+04 -3.32311035e+03 -4.97425830e+03 3.00250317e+03
      3.73230933e+03 9.44645844e+01 3.26061462e+02 6.07196350e+02
      1.91065048e+02 4.53631256e+02 -2.61560089e+02 -1.29700024e+03
      1.97467078e+03 1.18556567e+03 9.18544556e+02 3.86178955e+02
      -2.34235352e+02 -1.97156296e+02 -4.54859039e+02 -2.44931549e+02</_>
    <_>
      1.09244666e+03 2.64749072e+03 1.65693323e+03 3.96150366e+03
      1.51293616e+03 4.05685010e+03 -1.42765955e+03 5.62707642e+02
      2.86520581e+03 1.31811768e+02 -1.92014844e+03 -1.56518262e+03
      -5.27731873e+02 -5.07887787e+02 2.55818652e+03 1.10359741e+03
      -4.68659943e+02 6.90805115e+02 -9.18112366e+02 7.05458557e+02</_>
    <_>
      -7.71674707e+03 1.17826648e+03 4.81827002e+03 -1.65884521e+03
      -6.01877258e+02 -6.65303955e+02 4.82329883e+03 3.59347388e+03
      4.69455505e+02 3.94462830e+02 -1.63285669e+03 -7.02609070e+02
      3.68367920e+02 1.96645642e+03 -6.02644958e+01 -1.22810864e+03
      4.88076123e+03 5.64968834e+01 1.83396814e+03 2.05129736e+03</_>
    <_>
      -6.78548291e+03 6.56465723e+03 2.88588916e+03 4.32138721e+03
      -2.75954956e+02 4.21059180e+03 -2.73016333e+03 1.44950110e+03
      2.97296436e+03 4.85409760e+02 -1.12569543e+03 1.25615613e+03
      -3.30334076e+02 2.58828583e+02 3.77004297e+03 2.86825562e+01
      -3.52400452e+02 3.15043213e+03 4.94709167e+02 9.19068848e+02</_>
    <_>
      -7.08691016e+03 -5.30112076e+01 1.57302551e+03 1.81451221e+03
      2.47553223e+03 3.58412476e+03 4.69689893e+03 2.23461890e+03
      3.62606519e+03 1.25903564e+03 -2.91386548e+03 2.73546021e+03
      -1.38930920e+03 4.91959320e+02 -1.88941760e+03 1.49601953e+03
      -5.12983032e+02 1.34985754e+03 1.56669067e+03 -2.09590039e+03</_>
    <_>
      1.58343164e+04 4.68119232e+02 8.35235352e+02 -1.96347583e+03
      -3.93246429e+02 1.62289270e+03 3.23888135e+03 -3.14790259e+03
      4.86450684e+02 1.78422363e+03 4.88022247e+02 2.83708301e+03
      -9.01924515e+01 -6.61643616e+02 -4.66190521e+02 -7.67015625e+02
      -4.75598969e+02 5.18469482e+02 1.52045059e+02 1.82856339e+02</_>
    <_>
      -6.91121631e+03 -3.49165015e+03 6.14420898e+02 2.84450391e+03
      1.72056458e+03 -1.66922229e+03 6.38458313e+02 1.83545837e+03
      -6.27977844e+02 -8.56670303e+01 -8.09797729e+02 -9.90489120e+01
      -8.84550629e+01 -2.88981323e+03 -1.51116296e+03 -2.15928253e+02
      -1.18947656e+03 -1.27571643e+03 -2.49151627e+02 1.37246704e+03</_>
    <_>
      -3.15996674e+02 -1.57009766e+02 3.58409424e+03 5.35711719e+03
      -4.95621826e+03 4.42387549e+03 -1.82895972e+03 -7.46096558e+02
      -1.11417200e+03 1.06580237e+03 1.95917029e+03 -1.02850757e+03
      1.92775684e+03 1.78183914e+02 -2.87563623e+03 -2.28015918e+03
      -4.45210449e+02 3.09753265e+02 -1.34391785e+02 -1.54021667e+03</_>
    <_>
      -4.62070557e+03 1.57834583e+03 -1.58110022e+03 7.73754883e+03
      1.32845911e+03 9.06958130e+02 2.29160303e+03 -3.14907153e+03
      2.59860260e+02 -2.77037329e+03 1.03809021e+03 -7.73926697e+02
      -2.22122583e+03 6.73100769e+02 -1.45234961e+03 -2.29802026e+03
      -1.43894922e+03 1.12920349e+03 6.00634033e+02 1.03059326e+03</_>
    <_>
      -5.05314941e+03 -1.71782275e+03 -1.80138196e+03 6.42568066e+03
      2.25513843e+03 -3.40476416e+03 1.89507983e+03 1.81838708e+03
      -9.18681458e+02 -2.74720173e+01 1.23926501e+03 -2.08721899e+03
      -7.74979065e+02 -1.61917554e+03 -6.99626846e+01 -4.52597412e+02
      2.63026306e+02 -1.69228076e+03 -2.56776611e+02 3.05304810e+02</_>
    <_>
      -3.94623047e+03 -2.20436279e+03 -2.78584766e+03 2.74423633e+03
      2.46627148e+03 -5.11290283e+03 1.91170349e+03 5.77060303e+02
      -8.59033508e+02 1.87416595e+02 9.21593567e+02 -1.35936325e+02
      -2.05042603e+03 -3.50845520e+02 1.27067151e+03 1.23964856e+03
      2.05122876e+03 4.88190613e+02 -2.04959503e+02 1.54111542e+02</_>
    <_>
      -1.71111542e+02 -2.96912378e+03 3.46517432e+03 7.84984570e+03
      -8.88555481e+02 3.57578442e+03 -1.63498535e+03 -4.46904083e+02
      -1.42894446e+03 -1.39197156e+03 2.05064185e+03 4.00029449e+01
      -1.23828479e+03 8.28455872e+02 -2.06079297e+03 -2.25507178e+03
      8.60241333e+02 1.80085190e+02 3.26534851e+02 -1.39630286e+03</_>
    <_>
      1.56729382e+03 -3.44730322e+03 5.60127100e+03 5.96671582e+03
      -6.40770630e+02 5.64196484e+03 -2.69879688e+03 -1.80751820e+01
      -2.86013354e+03 4.70238220e+02 -1.33192334e+03 -2.65393262e+03
      3.90671326e+02 -1.63911462e+03 -2.03145239e+03 -9.65151611e+02
      -5.72945313e+02 -1.35754257e+02 -7.81318420e+02 4.16520508e+02</_>
    <_>
      -8.13088428e+03 8.66164795e+02 3.40325977e+03 -2.00282800e+03
      1.72604834e+03 -1.77234778e+03 -2.15907089e+02 -1.59570117e+03
      3.36421704e+03 -1.84454688e+03 -4.88926300e+02 -2.98913354e+03
      2.98637305e+03 -3.11328491e+03 -7.69386108e+02 8.69612915e+02
      -2.00620593e+03 -9.31050354e+02 -3.64344299e+02 -6.12198242e+02</_>
    <_>
      7.70804541e+03 -3.04093213e+03 8.23359766e+03 -3.35670947e+03
      -1.83677185e+03 2.08035864e+03 7.82255615e+02 6.72615662e+02
      -3.75996729e+03 -1.01034386e+02 -1.49953650e+03 9.79186829e+02
      -5.78924194e+02 7.61019958e+02 -3.61789703e+02 8.94533752e+02
      -9.95753418e+02 -4.19375610e+02 -4.32257019e+02 2.47454559e+02</_>
    <_>
      4.92351855e+03 -3.23339746e+03 2.20606860e+03 5.20509912e+03
      2.39354028e+03 -1.70919958e+03 -4.32276855e+02 2.96588440e+02
      -3.08502716e+02 -7.53346619e+02 6.07097107e+02 -1.15641479e+02
      -2.18617090e+03 -1.04858789e+03 -5.98895142e+02 -5.60231201e+02
      1.60387341e+03 -1.15949146e+03 -1.32965662e+03 1.33274768e+03</_>
    <_>
      -1.29942554e+03 3.37760474e+03 6.89782764e+03 -6.49870752e+03
      -2.04785901e+03 4.03773987e+02 4.64256738e+03 1.04935852e+03
      -4.65467773e+03 -2.55779395e+03 3.74823828e+03 -1.89750708e+03
      -3.05337012e+03 -7.67316162e+02 2.98901929e+03 -1.11881274e+03
      -1.38744019e+03 1.28622375e+03 -9.02734375e+02 -1.72777490e+03</_>
    <_>
      1.38680518e+03 -5.22084229e+02 6.01103564e+03 3.67070557e+03
      -4.08691699e+03 3.72663361e+02 -1.39038013e+03 1.60700928e+03
      1.16794336e+03 -1.64793176e+03 2.23453467e+03 2.30190527e+03
      6.54705383e+02 1.78789978e+03 -1.68781165e+03 1.15072559e+03
      1.91333527e+02 -1.30803674e+03 -5.41903038e+01 -1.17840955e+03</_>
    <_>
      3.96669409e+03 3.54498962e+02 2.15058701e+02 5.68736279e+03
      2.10546948e+03 -5.43382141e+02 -7.55746094e+02 2.43575513e+03
      9.60759888e+02 2.06401245e+03 2.20022754e+03 3.78972748e+02
      7.83541687e+02 -4.04469543e+02 3.80949561e+03 6.32481934e+02
      6.19137817e+02 -1.20749829e+03 3.44261169e+02 -7.27251892e+02</_>
    <_>
      -4.06766479e+03 -6.96998535e+02 -6.23821631e+03 2.12390942e+03
      -9.44705566e+02 6.12084961e+02 4.14491162e+03 1.33157074e+02
      -1.89405591e+03 -3.24101898e+02 1.22667200e+03 -7.43517822e+02
      3.78402319e+03 7.51650330e+02 -7.23424622e+02 9.55978455e+02
      -3.88743164e+02 9.52964844e+02 -8.33871689e+01 -5.04272552e+02</_>
    <_>
      6.01961475e+03 -1.40135718e+03 5.10485791e+03 1.29875623e+03
      -9.67624878e+02 -7.49946350e+02 -1.57057544e+03 -1.38736011e+03
      4.10259918e+02 -2.30660049e+02 -8.66835449e+02 1.93204041e+03
      5.03419067e+02 -5.31341675e+02 4.68986725e+02 1.98426831e+03
      -5.38728699e+02 -1.53877271e+03 1.42048157e+03 2.04000757e+03</_>
    <_>
      -2.72279272e+03 -3.93438062e+03 7.78231396e+03 -1.91806995e+03
      2.44811377e+03 1.11999585e+03 -2.50231644e+02 -1.41765430e+03
      -2.28832617e+03 -4.97145117e+03 4.17041922e+00 2.72139618e+02
      2.75820679e+03 3.77867340e+02 -1.41112256e+03 1.32932373e+03
      1.27942517e+03 4.81246552e+02 -9.47737732e+02 -1.22425500e+03</_>
    <_>
      -4.35167236e+03 1.01811938e+03 7.84152295e+03 6.70828247e+01
      2.91700470e+02 -2.59150049e+03 -2.02468738e+03 -2.10169043e+03
      2.06355591e+03 -4.37614355e+03 1.37300232e+03 1.00891821e+03
      -3.50701355e+02 -1.14923169e+03 2.16527786e+02 1.01608771e+03
      1.90218591e+03 1.93343237e+03 -1.39634204e+03 -3.76206970e+02</_>
    <_>
      -5.98707275e+02 -1.38613733e+03 5.70444385e+03 -2.47345410e+03
      -3.06822168e+03 -4.28018524e+02 -8.75253052e+02 -2.99794067e+03
      -1.80604089e+03 1.83920581e+03 -2.51347266e+03 1.08018762e+03
      6.63845947e+02 -2.24676367e+03 -9.57077942e+01 1.18266162e+03
      -1.76299902e+03 4.34279266e+02 -1.36909814e+03 6.49562744e+02</_>
    <_>
      -5.40123230e+02 -8.76262891e+03 -3.85216284e+03 -1.97775378e+03
      2.35969922e+03 3.87540332e+03 7.01869690e+02 1.88741748e+03
      -2.50600806e+03 -1.97055872e+03 2.15385425e+03 1.43851282e+03
      1.24856104e+03 4.98002228e+02 1.95699011e+03 -5.33303406e+02
      5.80947693e+02 -1.18455786e+03 -1.38453528e+03 -1.28050317e+03</_>
    <_>
      2.04799194e+03 -7.02949268e+03 2.78304639e+03 -1.99633276e+03
      3.19469385e+03 -1.13851709e+03 -4.70335052e+02 1.92514294e+03
      5.14733032e+02 3.47766022e+02 -1.78669434e+03 1.42118555e+03
      1.57719543e+02 1.35366650e+03 1.62163345e+02 -1.62850000e+03
      3.71968597e+02 -2.92322540e+02 -7.56142578e+02 6.52130615e+02</_>
    <_>
      1.34371973e+04 -4.87907318e+02 2.45644507e+03 -1.64552344e+03
      2.84481415e+02 -5.26041382e+02 1.72352356e+03 -1.66431506e+03
      1.28001611e+03 7.76021957e+01 1.84517004e+03 2.97508118e+02
      8.12994141e+02 -4.31882690e+02 7.45076843e+02 9.58914795e+01
      -1.17654770e+02 -5.58160645e+02 5.64929138e+02 8.50220215e+02</_>
    <_>
      -8.42487012e+03 -9.20327344e+03 -1.48402417e+03 -1.95127380e+02
      2.53629272e+03 -2.29433182e+02 -1.02064856e+03 1.87189392e+03
      -1.82717041e+03 6.45611877e+02 9.58399536e+02 1.88986133e+03
      -1.65036035e+03 9.34347412e+02 -1.98035217e+02 2.87342090e+03
      -1.29686169e+03 -2.00115189e+02 2.15405075e+02 -9.87651794e+02</_>
    <_>
      -9.89315039e+03 -9.92985107e+02 -4.81345166e+03 1.35090601e+03
      -3.08762280e+03 -3.77822803e+03 4.78859406e+02 1.40375000e+03
      -2.94519580e+03 -1.84177625e+00 1.06488440e+03 -7.84444946e+02
      -4.80264221e+02 6.77393066e+02 5.08291687e+02 2.05550586e+03
      1.46814368e+03 1.94733838e+03 -3.10582916e+02 -6.57483032e+02</_>
    <_>
      -1.19928232e+04 -1.14192065e+03 5.58440430e+02 2.87705518e+03
      -2.53086621e+03 -3.89212012e+03 -2.84982513e+02 1.36637622e+03
      -1.04909741e+03 -3.14645599e+02 -2.05475903e+03 -3.74669525e+02
      -1.64935938e+03 -5.33300476e+02 3.02215668e+02 -1.86460419e+02
      4.34878479e+02 1.56961633e+03 -2.24531372e+02 8.97133179e+02</_>
    <_>
      -1.02238408e+04 -9.89539246e+02 -3.46653369e+03 -7.38460596e+03
      2.71216382e+03 4.56377734e+03 4.44470329e+01 6.02548950e+02
      -1.11846265e+03 -2.36232397e+03 -1.38140087e+01 1.29072498e+03
      -9.11422668e+02 2.24057080e+03 1.61521362e+03 7.70775574e+02
      7.72974243e+02 -8.80347900e+01 -2.90655884e+03 1.84925330e+03</_>
    <_>
      -7.97539795e+02 2.91595703e+03 -2.93861011e+03 7.63999146e+02
      -7.51089160e+03 -8.92551331e+02 -2.92119922e+03 7.51669617e+02
      3.92248633e+03 -2.47006714e+03 2.41043555e+03 1.21999219e+03
      -1.76033423e+03 8.75959290e+02 -1.87327051e+03 -2.44773270e+02
      -2.33193530e+03 -1.96055505e+03 -1.04175635e+03 -6.35321533e+02</_>
    <_>
      -3.91892651e+03 3.17287964e+03 5.71133057e+03 -6.87926575e+02
      -2.27824194e+03 -1.17810376e+03 1.58006641e+03 -1.33306995e+03
      1.53714551e+03 2.33800568e+02 -1.09938538e+03 -1.54614307e+03
      -9.59575623e+02 2.18949683e+03 1.83475244e+03 1.31937842e+03
      7.83488586e+02 -8.65268982e+02 1.71730115e+03 -8.38372742e+02</_>
    <_>
      5.32708203e+03 -2.33374463e+03 -3.76583301e+03 -3.85047095e+03
      -1.02988684e+03 3.64480664e+03 9.19821838e+02 3.46616431e+03
      3.70708228e+03 -3.81736963e+03 1.37127869e+03 -4.20603699e+02
      -9.05694519e+02 -1.32426794e+03 2.34721039e+02 1.43852893e+03
      5.61153442e+02 -2.50776514e+03 1.66561096e+03 4.95640991e+02</_>
    <_>
      -6.64362500e+03 -2.31892725e+03 -5.29323682e+03 -2.20173291e+03
      -2.28821118e+03 2.67300073e+03 1.16105623e+01 -4.98490814e+02
      -1.62450818e+03 -3.71753601e+02 1.05916479e+03 1.26581970e+03
      -1.86542099e+02 -2.42954785e+03 1.58280188e+03 -3.61693481e+02
      3.72660858e+02 1.75061475e+03 1.61781580e+03 6.73339172e+02</_>
    <_>
      5.68899268e+03 9.68773438e+02 -1.86316443e+03 -5.24934229e+03
      -3.91155029e+02 1.02436340e+03 -6.37947655e+01 -2.77094409e+03
      3.08416968e+03 4.69460010e+03 5.20879150e+03 -1.35060327e+03
      3.57555878e+02 9.24173462e+02 -1.72082349e+03 3.23712769e+02
      1.74104565e+03 -4.61348236e+02 -2.06743506e+03 -4.73081329e+02</_>
    <_>
      -6.62676221e+03 -9.60222351e+02 -4.65806348e+03 -3.94273804e+03
      1.60733411e+03 9.01045044e+02 -1.16269556e+03 -1.16276779e+02
      1.58267700e+03 -3.87931976e+02 1.03862109e+03 4.99000854e+02
      -5.93957947e+02 1.40868738e+03 -1.34318848e+03 1.05248267e+03
      5.33927246e+02 6.36973267e+02 9.87000977e+02 -4.57262573e+02</_>
    <_>
      7.92850342e+03 -2.88768872e+03 -2.45477417e+03 -6.45826599e+02
      -3.11232593e+03 2.21875146e+03 8.43182007e+02 2.88025055e+02
      -7.84484192e+02 -2.09615405e+03 -2.09760742e+03 -1.25942346e+03
      -3.46367279e+02 3.98055786e+02 -4.37153137e+02 7.22767395e+02
      -2.11297827e+03 -1.25165070e+02 -2.76976135e+02 -2.80673798e+02</_>
    <_>
      -5.63748486e+03 2.32894302e+02 -3.51335303e+03 -1.72106152e+03
      -2.03553540e+03 2.71475586e+03 -1.14893384e+03 -3.03296191e+03
      2.07665747e+03 -5.26889954e+02 3.41135791e+03 1.29301917e+03
      3.50658173e+02 -3.08878784e+03 2.59463531e+02 -1.08161292e+03
      6.46484070e+02 -1.44885144e+03 5.93579956e+02 3.08869598e+02</_>
    <_>
      -2.15317947e+02 -2.87912744e+03 -3.54311401e+03 3.26507764e+03
      1.24947168e+03 -1.95912756e+03 4.55243286e+02 3.25955518e+03
      1.31256299e+03 1.66214966e+02 8.21131516e+01 -2.30193579e+03
      -8.82191589e+02 -1.01143292e+03 1.79169464e+02 5.72087097e+02
      1.69459122e+02 -4.08659668e+02 -7.74238586e+02 2.73172516e+02</_>
    <_>
      -3.75522998e+03 -2.17840137e+03 -1.48129102e+03 -5.69807275e+03
      1.12677498e+02 7.67344360e+01 -1.97998254e+03 -9.01864319e+02
      2.89524194e+03 5.19517273e+02 6.05786011e+02 -2.39638477e+03
      -1.90162445e+02 1.87736462e+03 -1.31563049e+03 -1.29092712e+02
      1.63458374e+03 6.12649048e+02 2.31511670e+03 -4.20887817e+02</_>
    <_>
      7.48540381e+03 -4.01102490e+03 -2.93897241e+03 -4.33451953e+03
      4.65893188e+02 7.19582947e+02 -2.80453687e+03 -1.08607690e+03
      1.95502356e+03 4.88443634e+02 9.21059143e+02 3.20647644e+02
      -2.48360321e+02 2.58046722e+02 3.62419342e+02 -7.42049683e+02
      1.85524048e+03 3.32788361e+02 -2.87306885e+02 -8.04889404e+02</_>
    <_>
      -2.79430005e+03 -1.23823584e+03 6.50708389e+01 -3.71139673e+03
      1.20285132e+03 -2.17162256e+03 -6.77740112e+02 -8.71139465e+02
      2.53692725e+03 6.55136475e+02 -5.50944214e+02 -2.36325171e+03
      -1.80439590e+02 2.02074487e+03 -9.69105835e+02 -6.07915955e+02
      -5.23783752e+02 4.21632996e+02 8.39355103e+02 -4.25904327e+02</_>
    <_>
      8.97719434e+03 5.36811035e+02 1.43642407e+03 -6.35218555e+03
      -2.01032239e+03 6.33686035e+02 -8.28157532e+02 -2.56369751e+03
      3.03556152e+02 2.79132886e+03 -6.92223450e+02 -5.36228711e+03
      -3.20964087e+03 -8.32052124e+02 -1.71693274e+03 1.92081555e+03
      1.93604102e+03 1.87495093e+03 1.76604736e+03 -8.07433167e+02</_>
    <_>
      1.57753979e+03 -4.41212109e+03 9.62269470e+02 4.32332715e+03
      2.14602979e+03 3.28922119e+02 -2.30875046e+02 5.07061523e+03
      4.74628632e+02 1.05761841e+03 -2.46403732e+02 -7.32647888e+02
      1.23600456e+02 9.00815796e+02 -9.04391663e+02 1.66357715e+03
      -6.20943665e+02 -2.53669662e+01 -1.81119775e+03 -3.04608643e+02</_>
    <_>
      1.26801348e+04 -5.79698608e+02 2.69710083e+03 -3.71496875e+03
      7.82715027e+02 -9.15962601e+01 2.24676538e+03 -1.00475037e+03
      -1.98593945e+03 -1.24493996e+02 1.84878833e+03 8.22581787e+01
      -1.15833972e+03 -7.84645508e+02 1.39846008e+03 4.47298492e+02
      -4.10806030e+02 -1.71692429e+01 2.54491058e+02 -5.39965393e+02</_>
    <_>
      5.18789014e+03 -1.55821155e+03 4.99844385e+03 -3.11813281e+03
      2.15321680e+03 -1.06859033e+03 -9.39062378e+02 -9.12161011e+02
      1.50856140e+03 -3.16389648e+03 1.43348926e+03 -9.53109375e+02
      1.10808142e+03 -1.00875305e+03 6.05999634e+02 3.47646240e+02
      -1.27207434e+03 3.55260529e+02 -3.71161194e+02 1.36864586e+01</_>
    <_>
      6.12943701e+03 -3.56191260e+03 -1.74867383e+03 -6.24075256e+02
      1.68669641e+03 -2.61174390e+03 -1.39216309e+03 1.24132410e+03
      1.45419043e+03 8.98274231e+02 5.03390778e+02 5.97303345e+02
      -4.86060730e+02 1.97032425e+02 -1.17306671e+02 -2.68089111e+02
      7.16337708e+02 4.35857758e+02 -2.33907776e+02 -2.21537018e+01</_>
    <_>
      2.87775854e+03 1.39058350e+04 -2.66582178e+03 -1.03256653e+03
      3.26934033e+03 -1.73650391e+03 -2.45449316e+03 1.41121399e+03
      -2.58588647e+03 2.97758881e+02 -1.56378162e+03 -9.15183411e+02
      3.01644409e+03 1.20368005e+03 2.78535095e+02 -1.29481946e+03
      -2.01505322e+03 9.17517700e+02 1.76088818e+03 1.09722009e+03</_>
    <_>
      1.89616919e+03 2.34723291e+03 1.30748413e+03 4.19087939e+03
      1.82786279e+03 3.43176733e+03 -1.62826685e+03 6.85822876e+02
      2.90168701e+03 2.64872864e+02 -1.91658936e+03 -1.80276428e+03
      -8.88162476e+02 -2.95401703e+02 2.64850391e+03 1.18940771e+03
      -6.86752258e+02 5.64955322e+02 -8.79647461e+02 8.86369568e+02</_>
    <_>
      -5.87973242e+03 -3.27475311e+02 7.09711853e+02 1.54909180e+03
      2.63031226e+03 2.60164966e+03 4.09875293e+03 2.51442944e+03
      3.99342480e+03 2.07171167e+03 -2.92338745e+03 2.57734082e+03
      -1.69194104e+03 9.14025208e+02 -2.00481006e+03 1.02172552e+03
      -5.76019836e+02 1.69571191e+03 1.78277881e+03 -1.85141394e+03</_>
    <_>
      6.51993555e+03 3.59070532e+03 -3.88798462e+03 1.70792358e+03
      -2.21693726e+03 -1.05330872e+03 2.38039282e+03 -3.88179956e+03
      4.92924164e+02 1.17414063e+03 -3.34700879e+03 7.68881409e+02
      -2.21081152e+03 -1.98121265e+03 -6.73592468e+02 -1.47289819e+03
      7.06987732e+02 -9.10150986e+01 -2.45700659e+03 -9.96557556e+02</_>
    <_>
      -1.06498547e+03 -6.65723343e+01 4.84500146e+03 5.96696436e+03
      -4.07171338e+03 3.66070190e+03 -1.23746313e+03 -2.93270081e+02
      -5.17210144e+02 -9.28711975e+02 2.08834595e+03 -8.51661438e+02
      1.51355261e+03 -9.69860046e+02 -3.06572119e+03 -1.98107092e+03
      5.78365417e+02 -2.65284454e+02 -4.05151337e+02 7.30882034e+01</_>
    <_>
      -3.93334888e+03 2.02738330e+03 -8.91158386e+02 7.40871582e+03
      9.81664185e+02 1.21156677e+03 1.89613745e+03 -3.26451685e+03
      3.18626190e+02 -3.22307153e+03 2.12733810e+02 -6.20739929e+02
      -2.45012500e+03 8.54005859e+02 -1.43258044e+03 -2.66792334e+03
      -7.45915527e+02 1.27361902e+03 6.81508728e+02 4.56962097e+02</_>
    <_>
      -5.75887598e+03 1.78265698e+03 -2.82645337e+03 6.98724756e+03
      5.10864319e+02 -1.23603064e+03 2.38078833e+03 -3.32849805e+03
      2.06963379e+02 -8.33123840e+02 -3.70867523e+02 2.17910812e+02
      -1.79108118e+03 1.06383850e+03 1.21521248e+02 -1.49150549e+03
      -2.70567603e+03 -1.15726965e+03 2.14839258e+03 1.41549060e+03</_>
    <_>
      -9.32738477e+03 7.64111389e+02 3.13014966e+03 -9.75317383e+02
      9.32711975e+02 -2.83325073e+03 -1.90054614e+03 -1.76884241e+03
      3.15542090e+03 -1.60573938e+03 -9.15895813e+02 -2.49644702e+03
      3.25788745e+03 -2.93501416e+03 -1.72667456e+03 9.00954712e+02
      -1.30762708e+03 4.95061096e+02 -1.20276886e+02 -3.14804199e+02</_>
    <_>
      6.82169531e+03 -3.55207495e+03 7.36125439e+03 -4.15519043e+03
      -6.13802673e+02 1.93429642e+02 3.39293030e+02 5.83543152e+02
      -2.68290649e+03 1.35567542e+03 -1.47060999e+03 9.53874878e+02
      -1.22857043e+03 1.87751941e+03 1.91117722e+02 3.53561768e+02
      -8.30799988e+02 5.40075928e+02 1.77178665e+02 -1.16447311e+02</_>
    <_>
      -1.05270386e+03 3.70168652e+03 7.03308691e+03 -6.03913916e+03
      -2.33063086e+03 4.43027077e+01 4.86015820e+03 1.38757959e+03
      -4.43475830e+03 -3.48179004e+03 3.06651172e+03 -2.38084351e+03
      -2.53022656e+03 -9.47257080e+02 3.55171313e+03 -1.37040479e+03
      -1.62220935e+03 1.32537012e+03 -4.52090240e+02 -2.24811670e+03</_>
    <_>
      -2.59631958e+03 -2.72493237e+03 8.31504980e+03 -2.21667139e+03
      3.19232861e+03 -3.08929382e+02 -7.80291199e+02 -1.52933984e+03
      -1.71240222e+03 -4.91229443e+03 -8.36965454e+02 -1.78326447e+02
      2.74135913e+03 9.24823669e+02 -9.20893433e+02 2.26451245e+03
      7.19413330e+02 1.38508057e+03 2.65924225e+01 -3.51115692e+02</_>
    <_>
      -1.01971748e+04 -2.62345923e+03 -1.97784021e+03 -4.29885303e+03
      5.11366882e+01 4.49241602e+03 -2.96347412e+03 -1.48768335e+03
      7.04044128e+02 1.66896118e+02 2.16034225e+02 8.56505859e+02
      -1.48221375e+03 1.50404529e+03 8.01756836e+02 -3.07101669e+01
      1.51280774e+03 -1.20249374e+02 -2.99295435e+03 2.38970386e+03</_>
    <_>
      -9.17015723e+03 4.04396680e+03 -3.91469940e+02 -6.16000928e+03
      2.63552100e+03 3.23014673e+03 2.37975357e+02 1.53761426e+03
      -9.13829899e+00 1.47550964e+03 3.67178247e+03 -1.31549609e+03
      1.12549207e+03 7.66814880e+02 -1.64806555e+03 -1.18248131e+02
      2.28731400e+02 -3.35686548e+03 -9.86267334e+02 1.34004382e+03</_>
    <_>
      7.63235986e+03 -2.26900732e+03 -2.73057275e+03 -1.07247363e+03
      -4.57309229e+03 1.76507678e+03 -1.83484512e+02 8.54393921e+02
      1.57732477e+01 -2.50906177e+03 -1.58109546e+03 -9.86233765e+02
      -1.12508801e+03 4.10484711e+02 -6.55127991e+02 8.29103271e+02
      -2.24109521e+03 -5.19856628e+02 -8.94417419e+02 -2.09965515e+02</_>
    <_>
      -3.48546558e+03 -2.79078247e+03 -4.92745313e+03 -3.79622559e+03
      -4.52206230e+01 3.95865967e+03 -3.62480908e+03 -1.44746594e+03
      -1.85242236e+03 -1.34058945e+02 8.99699097e+02 1.02646228e+03
      -3.16893738e+02 5.97272072e+01 3.42129822e+02 4.24150421e+02
      -1.06785828e+03 1.34829333e+03 -3.71691437e+02 2.25885742e+03</_>
    <_>
      1.04001426e+04 -1.24113049e+03 3.69802368e+02 -4.50731494e+03
      -1.34014496e+02 1.44477576e+03 -1.54736548e+03 -1.47008704e+03
      -9.17735474e+02 1.23339880e+03 1.11725427e+03 1.15013359e+02
      -4.55933563e+02 6.15023254e+02 4.13926201e+01 -4.49835022e+02
      1.83444046e+02 3.74194214e+02 5.96374451e+02 1.08235278e+03</_>
    <_>
      7.27299854e+03 1.29639819e+03 2.05414038e+03 -5.55924023e+03
      -3.58756470e+03 1.00755151e+03 -1.21571143e+03 -2.32818896e+03
      5.75724297e+01 2.99936987e+03 -1.36800476e+03 -5.58787842e+03
      -2.37532227e+03 -1.01865100e+03 -1.20705115e+03 2.20193164e+03
      1.80469531e+03 1.70392407e+03 1.78846973e+03 -2.33225357e+02</_>
    <_>
      2.20133618e+03 -4.46670313e+03 4.81804108e+02 3.84666455e+03
      7.97163757e+02 6.45841797e+02 -5.30993713e+02 4.35279248e+03
      -9.10303284e+02 2.02207361e+03 -1.30981186e+02 -1.13319971e+03
      4.84493927e+02 1.59314368e+03 -8.19028259e+02 1.96007922e+03
      -8.34914978e+02 -4.69177818e+01 -2.08980713e+03 -1.05279907e+03</_>
    <_>
      5.84842969e+03 -3.57256812e+03 2.86154266e+02 -9.97821289e+02
      1.09182092e+03 -1.14798401e+03 -1.40883887e+03 3.15916718e+02
      -4.66896301e+02 1.26167188e+03 4.96810730e+02 8.88924866e+02
      -1.27317078e+03 1.23280042e+03 3.61242447e+01 -2.42067001e+02
      5.03054291e+02 1.51909766e+03 5.01088928e+02 4.53775635e+02</_>
    <_>
      -2.21450732e+03 -5.93615967e+03 -1.18532617e+03 -3.45345654e+03
      -6.52048035e+02 -2.51144577e+02 -3.16161963e+03 9.14416016e+02
      -5.85389709e+02 -4.55705357e+00 -1.52153091e+02 1.81532153e+03
      -1.31152588e+02 1.08481287e+03 -3.80519043e+02 -1.99328638e+03
      -1.51674207e+03 1.12028833e+03 4.25719025e+02 -2.61703186e+02</_>
    <_>
      2.83938721e+03 -9.69825195e+02 -1.30222095e+03 -1.98622803e+03
      2.44689282e+03 -1.56565881e+03 1.46912769e+03 -1.37433325e+03
      -2.47387256e+03 9.60263550e+02 -2.76289654e+01 1.07637085e+03
      -9.55229431e+02 -1.72113220e+02 -1.31348486e+03 5.32393250e+02
      -1.33728992e+03 -5.66288025e+02 -7.38202095e+00 1.57986340e+03</_>
    <_>
      1.48145618e+03 5.83152344e+03 -1.00028839e+03 2.20561127e+02
      -1.39754016e+03 -2.68263916e+03 2.07960526e+02 4.28949658e+03
      -1.63031311e+03 7.39512817e+02 1.51471359e+02 -6.02021912e+02
      6.09351501e+02 -6.32461060e+02 -1.54023523e+03 -1.06497168e+03
      7.51567505e+02 -1.61417883e+03 4.06867462e+02 -1.73480453e+01</_>
    <_>
      5.83345361e+03 8.36852832e+03 -2.34265991e+03 -1.50756372e+03
      -2.12999854e+03 -1.84738953e+03 1.36095483e+03 4.65207715e+03
      2.34001563e+03 3.18477734e+03 7.56277710e+02 1.65871790e+03
      8.55139587e+02 -2.73745801e+03 -9.05185730e+02 -5.14815247e+02
      2.98456146e+02 3.85723907e+02 -5.84575745e+02 -6.60968506e+02</_>
    <_>
      5.36462061e+03 4.36309570e+03 -1.82731644e+02 -1.32340662e+03
      -3.24373975e+03 -3.75843652e+03 -6.01401062e+02 2.95449414e+03
      -5.82835510e+02 -3.54098206e+01 9.10643250e+02 4.93302460e+02
      -9.61397522e+02 1.59735764e+02 -8.89907349e+02 -5.57530029e+02
      -2.99761261e+02 -2.12404083e+02 -1.50701141e+02 -3.33723236e+02</_>
    <_>
      -3.32621680e+03 5.12510645e+03 3.60949219e+03 -6.57741602e+03
      3.19622650e+01 1.29931519e+02 1.48313782e+03 2.75596338e+03
      4.37301445e+01 -5.42587708e+02 3.00882782e+02 -3.41388965e+03
      -1.52985620e+03 -2.17227979e+03 2.78606171e+02 1.21624031e+02
      -1.71744946e+03 -5.26252937e+00 2.76762268e+02 -1.30646240e+03</_>
    <_>
      6.34052686e+03 1.48780186e+04 -1.74669629e+03 -2.08293304e+02
      3.74652637e+03 -9.24883240e+02 -3.39481445e+03 6.69664124e+02
      -2.87529175e+03 -2.20127136e+02 -1.78852100e+03 3.99384003e+02
      1.53462451e+03 1.28400232e+03 6.52708313e+02 -2.50318042e+03
      2.46051611e+03 -1.57486853e+03 1.45222437e+03 -1.79411331e+02</_>
    <_>
      2.37496216e+03 1.56852861e+04 -1.87695264e+03 -2.19180225e+03
      3.92139795e+03 -9.04811829e+02 -3.08794629e+03 5.53221558e+02
      -2.94093896e+03 -1.99590088e+03 -1.75639819e+03 1.26537891e+03
      1.49254895e+03 3.72770447e+02 -7.75060303e+02 1.02887299e+02
      -2.51139221e+02 9.30736877e+02 9.88680786e+02 1.54974121e+03</_>
    <_>
      2.24287695e+03 9.12318457e+03 -4.11552686e+03 1.63173450e+03
      8.46577148e+03 2.04133276e+03 1.92333252e+03 -6.40761780e+02
      1.04935486e+03 -8.47378662e+02 1.69730139e+03 2.05084229e+02
      3.44026947e+02 -2.13319727e+03 -9.50838135e+02 -2.35136426e+03
      -8.40769958e+01 1.03670898e+03 3.43804901e+02 -1.95539148e+03</_>
    <_>
      9.01689551e+03 -4.19184532e+01 -3.98816602e+03 7.92290588e+02
      4.33068481e+02 -1.40621301e+03 5.29951111e+02 2.36880981e+03
      3.37854810e+03 -2.32147415e+02 1.28070480e+02 -1.48705762e+03
      6.60788269e+02 4.42089203e+02 8.10502930e+02 -3.92489258e+02
      -6.38209717e+02 1.49654480e+03 -2.44347559e+03 8.55658447e+02</_>
    <_>
      9.88124329e+02 2.39076904e+03 6.94425720e+02 4.28022412e+03
      2.42080737e+03 2.88878198e+03 -1.67470374e+03 4.57217224e+02
      2.91308936e+03 8.77816696e+01 -1.93188867e+03 -1.82858154e+03
      -1.21360852e+03 -3.01395187e+01 2.87136035e+03 1.34294092e+03
      -6.07435730e+02 7.47373474e+02 -1.02330481e+03 8.82700684e+02</_>
    <_>
      -4.71868213e+03 -9.21401306e+02 6.83852100e+03 -3.79367035e+02
      8.05953979e+02 3.54117383e+03 6.98384717e+03 2.07643994e+03
      -3.11635345e+02 3.23094336e+03 -3.82218018e+02 2.12207935e+03
      7.33766785e+01 1.76034827e+03 -1.85883093e+03 -2.92138123e+02
      9.16156616e+02 -5.30765137e+02 -1.55056564e+02 4.32837769e+02</_>
    <_>
      -7.09533887e+03 2.13784790e+03 4.84225098e+03 -3.44573456e+02
      -7.00247879e+01 -9.65982666e+01 4.66530225e+03 3.90260400e+03
      1.07889307e+03 6.14005981e+02 -2.08975342e+03 -5.42160950e+02
      6.40160767e+02 2.00359973e+03 -7.04405365e+01 -1.78293054e+03
      4.13762402e+03 -4.02664276e+02 1.50223950e+03 2.26260376e+03</_>
    <_>
      -8.96315137e+03 5.80962744e+03 -1.99059314e+03 5.29243457e+03
      -4.83286346e+02 -3.57751343e+02 -1.36695166e+03 -5.94466064e+02
      -8.12156189e+02 1.34254395e+03 -1.47241565e+03 -1.84093030e+03
      -3.37705353e+02 2.52040723e+03 1.38283557e+03 6.13310486e+02
      -1.15581775e+03 -3.11579559e+02 -1.65997449e+03 -1.94145386e+02</_>
    <_>
      -6.08267627e+03 1.18176621e+04 4.79584570e+03 2.87444531e+03
      -4.17477734e+03 1.90987134e+03 -2.73812842e+03 1.66544910e+03
      -4.31538506e+01 2.94820044e+03 2.13939255e+02 3.97373138e+02
      2.19211572e+03 -2.60870667e+02 3.38801727e+02 -1.17993250e+03
      -1.29588159e+03 1.83262781e+03 -5.15656799e+02 2.24115143e+02</_>
    <_>
      -5.83807129e+03 6.79532617e+03 2.36034302e+03 3.92028564e+03
      4.05572632e+02 3.47862231e+03 -2.75655396e+03 1.39938110e+03
      2.98470044e+03 2.70874084e+02 -1.22686743e+03 1.15672229e+03
      -1.26249133e+03 -1.40303238e+02 4.00303833e+03 6.27411072e+02
      -7.64480042e+02 2.33056665e+03 5.71006714e+02 1.42095959e+03</_>
    <_>
      6.52177930e+03 3.67892358e+03 -4.09801025e+03 1.37697449e+03
      -1.34564124e+03 -1.09149048e+03 2.86249683e+03 -3.72004395e+03
      5.66995422e+02 1.26302051e+03 -2.99609570e+03 1.15605542e+03
      -2.42046704e+03 -1.70027209e+03 -7.84039734e+02 -1.42467297e+03
      5.45194092e+02 -3.49903846e+00 -2.41045313e+03 -9.29142639e+02</_>
    <_>
      -5.76277100e+03 -2.93649780e+03 1.37621106e+03 2.82029053e+03
      1.48969666e+03 -1.45301978e+03 6.45657288e+02 8.95980652e+02
      -2.16942383e+02 -8.68295410e+02 -1.47450208e+03 -9.72964661e+02
      5.94119492e+01 -3.17087012e+03 -1.80526025e+03 -1.31779968e+03
      -6.72701233e+02 -2.02033777e+03 -3.97907318e+02 1.78578113e+03</_>
    <_>
      -1.63248376e+03 -1.80587598e+03 3.16620166e+03 5.89943994e+03
      -2.23892456e+03 -4.48030518e+03 -4.25956970e+02 -2.44331641e+03
      -1.47321753e+03 9.90937927e+02 -1.17056250e+03 -1.27197900e+03
      -1.99240088e+03 1.25625427e+03 6.56146912e+02 -8.70154053e+02
      2.16128510e+02 -3.34111426e+03 2.03435168e+03 3.09520313e+03</_>
    <_>
      -4.06525903e+03 1.75087439e+03 -1.57331995e+03 7.37306689e+03
      1.24709033e+03 1.02000122e+03 2.14680396e+03 -3.76739453e+03
      4.66096619e+02 -2.87034961e+03 -4.52284424e+02 -1.67368774e+01
      -2.55384033e+03 9.30880676e+02 -1.10990112e+03 -2.77793506e+03
      -1.05216174e+03 9.72012939e+02 1.42728699e+03 4.22094269e+02</_>
    <_>
      -3.17184839e+03 -2.46839233e+03 3.59358301e+03 -4.25500977e+03
      3.07797095e+03 -3.63232983e+03 1.99904504e+03 -2.02501672e+03
      2.51452466e+03 3.08048584e+02 -1.85486938e+03 -5.44909363e+02
      1.89494006e+03 9.89292236e+02 1.64416577e+03 -1.77751123e+03
      -1.81483289e+03 -6.74184998e+02 -4.97670441e+02 6.28692017e+02</_>
    <_>
      -4.78440625e+03 -1.66638977e+03 -2.52280298e+03 5.76905469e+03
      2.29931958e+03 -3.46791284e+03 1.91793005e+03 1.87789966e+03
      -1.00167255e+03 6.92408447e+02 7.23359131e+02 -2.33917212e+03
      -8.24330078e+02 -7.89687195e+02 4.29614349e+02 -6.71678589e+02
      -3.56576355e+02 -1.74094470e+03 -1.01522285e+02 2.64833588e+02</_>
    <_>
      -8.98695679e+01 -2.24036377e+03 3.45205078e+03 7.93531689e+03
      5.29720154e+02 2.75017773e+03 -1.25678296e+03 1.97357056e+02
      -2.14891211e+03 -2.37279272e+03 1.24211108e+03 -5.43877380e+02
      -1.94848462e+03 2.13010559e+02 -2.15461597e+03 -3.12100659e+03
      3.35528656e+02 -4.85387543e+02 -1.07540184e+02 -1.07917505e+03</_>
    <_>
      1.35161853e+03 -3.31922437e+03 5.22599658e+03 6.68153223e+03
      -1.00240997e+02 5.71364111e+03 -2.68390112e+03 -5.72327576e+02
      -2.32524316e+03 1.60726288e+02 -1.69903174e+03 -3.04748682e+03
      -4.73860657e+02 -1.52196484e+03 -1.71065088e+03 -1.67503394e+03
      -5.25238770e+02 -9.16808472e+02 -6.64623474e+02 -2.47041046e+02</_>
    <_>
      -6.29294434e+03 -5.62343994e+02 3.44422412e+03 -1.02839771e+03
      2.03693201e+03 -2.63918262e+03 -1.28069812e+03 -2.07403516e+03
      3.43518970e+03 -3.01680054e+03 -6.30629578e+02 -1.93271924e+03
      2.92351367e+03 -3.71661597e+03 -1.34896497e+03 4.93295471e+02
      -1.64178613e+03 -7.87628723e+02 -1.05977051e+03 -1.90987305e+02</_>
    <_>
      -4.16884912e+03 -4.81931885e+03 1.31358679e+03 3.34607941e+02
      2.10388696e+03 -5.74517529e+03 -2.61255322e+03 -4.58709442e+02
      2.71101501e+02 -1.31164807e+03 -6.22087524e+02 -5.69430054e+02
      -9.44788330e+02 2.01238416e+03 2.62284729e+02 6.65060547e+02
      -2.76244873e+03 4.45385780e+01 -1.51510547e+03 -2.68646942e+02</_>
    <_>
      -6.98571191e+03 -2.03306885e+03 -3.09437891e+03 -5.40723389e+03
      -9.73992767e+01 3.09798926e+03 -1.22264124e+03 -1.10536133e+03
      -9.08566895e+02 5.84558533e+02 1.85594788e+03 5.82577271e+02
      -1.11398621e+03 1.19903162e+03 -9.27463455e+01 -1.33255908e+03
      -1.09438770e+03 -2.07930847e+02 -1.41446460e+03 8.73447998e+02</_>
    <_>
      6.98808301e+03 -3.97321191e+03 7.96805957e+03 -3.06540332e+03
      -7.77920410e+02 9.75515137e+02 9.36436218e+02 1.03869604e+03
      -2.55363306e+03 6.37852783e+02 -1.75454602e+03 8.77489807e+02
      -1.31164331e+03 8.84163879e+02 -1.77126450e+02 5.89136292e+02
      -7.40854980e+02 2.31284943e+01 1.35284424e+02 3.07373901e+02</_>
    <_>
      1.41907141e+03 -3.90927515e+03 3.46013428e+03 8.85734570e+03
      2.97048193e+03 2.03985608e+03 -1.03936121e+03 -4.23791229e+02
      -9.11429688e+02 1.81055969e+03 9.56492432e+02 -2.15300439e+03
      -1.03798462e+03 -5.36310730e+02 8.57864746e+02 6.86308472e+02
      -2.28360571e+03 -1.59340442e+03 1.01406647e+03 6.86862366e+02</_>
    <_>
      5.47340918e+03 -2.30179761e+03 2.58002930e+03 5.90302246e+03
      1.95180847e+03 -4.74324524e+02 -5.81159912e+02 -6.50495667e+02
      -3.30076019e+02 -1.28844519e+03 2.64776215e+02 -6.05316711e+02
      -2.16524561e+03 -8.84218750e+02 -1.17002319e+03 -1.63697131e+03
      1.49257715e+03 -1.77010815e+03 -9.31067505e+02 1.09227832e+03</_>
    <_>
      -1.41575610e+03 2.35871558e+03 7.42540234e+03 -6.00403564e+03
      -1.43226965e+03 -2.00397018e+02 5.14146582e+03 1.09998059e+03
      -3.06604810e+03 -3.47200269e+03 2.33881958e+03 -2.29304150e+03
      -1.14499768e+03 -1.36684448e+02 3.36741211e+03 -2.06883618e+03
      -1.17204749e+03 1.00524103e+03 -3.41738281e+01 -2.03415759e+03</_>
    <_>
      2.37787891e+03 -7.97633545e+02 5.79926855e+03 3.80106006e+03
      -3.28507520e+03 3.11002598e+01 -1.48152771e+03 1.90390527e+03
      9.78672607e+02 -1.45034131e+03 5.55880249e+02 1.45891052e+03
      2.61232880e+02 1.87357678e+03 -9.65773376e+02 5.90434204e+02
      -4.81284515e+02 -2.21989746e+03 2.28516754e+02 -1.19764221e+03</_>
    <_>
      4.46043701e+03 5.29893250e+02 2.88096985e+02 5.35987891e+03
      2.00820117e+03 -7.93730530e+02 -1.03759509e+03 2.19555078e+03
      6.48293091e+02 2.34596582e+03 1.33923645e+03 -3.33280792e+02
      3.48262115e+02 -1.11485481e+02 4.34702588e+03 6.75187988e+02
      -5.24761963e+02 -1.62069153e+03 5.80063538e+02 -5.97847412e+02</_>
    <_>
      -3.33609839e+03 -4.68997955e+02 -6.61727197e+03 2.06793994e+03
      -1.23411926e+03 1.16836340e+03 4.32011865e+03 -3.97029480e+02
      -2.15481909e+03 -8.90964355e+01 1.35229541e+03 -8.31859497e+02
      3.90385840e+03 1.01334381e+03 -9.08206360e+02 5.52046875e+02
      -5.31492432e+02 1.01609839e+03 -7.42074661e+01 -6.75613037e+02</_>
    <_>
      -1.81830322e+02 -2.67214209e+03 3.22937671e+03 8.91386230e+03
      4.87288513e+02 2.57602319e+03 -1.55377881e+03 1.32042847e+03
      4.04309540e+01 -2.43162598e+03 3.09927582e+02 -1.41455371e+03
      -2.23172778e+03 -1.22747314e+03 -1.65362939e+03 -3.76456763e+03
      -3.65320374e+02 -6.75736389e+02 -9.57475464e+02 -2.30754227e+02</_>
    <_>
      -2.35551196e+03 -4.33650439e+03 7.09907471e+03 -1.37426440e+03
      3.08578442e+03 2.29858414e+02 -6.03830505e+02 -1.20534509e+03
      -1.31774475e+03 -5.31216602e+03 -7.52360840e+02 1.88314590e+02
      2.31467310e+03 -5.12575500e+02 -1.33160828e+03 4.38713898e+02
      1.47363391e+03 5.46637573e+02 -1.03586816e+03 -5.63275146e+02</_>
    <_>
      -3.42139063e+03 -1.59017166e+02 6.73427881e+03 4.85695740e+02
      5.48678650e+02 -3.48438452e+03 -2.05924121e+03 -1.42093262e+03
      2.07603882e+03 -4.13521875e+03 5.83067993e+02 7.60499146e+02
      -1.69402209e+03 -1.08922131e+03 5.03191925e+02 -2.71272278e+02
      1.52834131e+03 1.55879517e+03 -1.37850598e+03 -1.56237778e+02</_>
    <_>
      -3.39023865e+02 -2.85911230e+03 5.22977686e+03 -1.18309680e+03
      -2.69466895e+03 -7.30443420e+02 -8.52106384e+02 -1.72529883e+03
      -2.06892065e+03 2.51542505e+03 -2.36684131e+03 2.18675995e+02
      1.07964684e+02 -3.48779370e+03 2.05956924e+02 -8.99069138e+01
      -1.77051294e+03 -8.04289795e+02 -1.33769775e+03 1.06499316e+03</_>
    <_>
      2.25614136e+03 -7.24863330e+03 2.01975916e+03 -1.05877026e+03
      3.30254346e+03 -1.36493774e+03 -5.98987854e+02 2.41096704e+03
      2.25651962e+02 9.65275269e+02 -2.31410645e+03 1.38492566e+03
      -6.48082733e+01 1.28342065e+03 1.83761810e+02 -1.76160449e+03
      -2.63069439e+01 -2.27632065e+02 -7.54389893e+02 2.37576584e+02</_>
    <_>
      -6.98195508e+03 2.49910083e+03 7.66825879e+03 -3.51142871e+03
      -3.25168555e+03 -2.49517676e+03 5.07461823e+02 -7.17245789e+02
      -4.74826721e+02 2.58017749e+03 1.03838013e+03 8.82473907e+01
      -1.38561499e+03 1.01942450e+03 1.16048474e+03 1.24239294e+03
      -1.40430347e+03 4.47537231e+02 -1.61168750e+03 -7.60663330e+02</_>
    <_>
      -9.69053223e+03 -2.20666821e+03 -3.93254077e+03 -6.82690381e+03
      2.73501050e+03 4.42572803e+03 2.44618683e+02 5.89864441e+02
      -1.70990234e+03 -2.13776880e+03 2.97329742e+02 2.10305347e+03
      -9.96034973e+02 2.60189038e+03 1.28821350e+03 1.58878857e+03
      7.74847717e+02 1.02606580e+03 -3.21366309e+03 2.28616797e+03</_>
    <_>
      -9.78348633e+03 3.44007202e+03 -1.44262329e+02 -7.71872168e+03
      3.86170483e+03 4.03523462e+03 1.84543787e+03 -8.73931274e+01
      1.10210046e+03 3.07607861e+03 3.07919092e+03 -2.18752979e+03
      7.69156036e+01 1.11911523e+03 -1.39815942e+03 -1.50205591e+03
      2.38422217e+03 -9.82325684e+02 -1.58262341e+03 1.57280261e+03</_>
    <_>
      -7.80466919e+02 3.21334521e+03 -3.24145435e+03 9.60216858e+02
      -7.58168115e+03 -9.57957214e+02 -2.04624182e+03 1.62194543e+03
      2.72037988e+03 -3.38548340e+03 3.05127271e+03 2.36310571e+03
      -1.68571204e+03 7.60185974e+02 -1.58533228e+03 8.87793823e+02
      -2.68345728e+03 -1.86798560e+03 -7.56090942e+02 -6.08491760e+02</_>
    <_>
      -1.21817539e+04 3.05700134e+02 -1.52171313e+03 -4.30048584e+03
      -1.31122351e+03 1.75043237e+03 -1.03738269e+03 -1.60442407e+03
      1.43357568e+03 2.34050317e+03 -1.44710071e+03 -2.26825366e+03
      -5.65498413e+02 2.54792871e+03 -1.51748926e+03 -5.27407166e+02
      -1.80208167e+03 -2.47613098e+02 -2.27234940e+02 2.92488574e+03</_>
    <_>
      -9.40631055e+03 3.57220215e+03 -5.97054504e+02 -6.42729443e+03
      2.67529639e+03 3.38360156e+03 -3.33537842e+02 1.52728235e+03
      1.73916260e+02 1.83171948e+03 2.72313770e+03 -2.40530933e+03
      1.17930933e+03 1.45404773e+03 -2.75015601e+03 -7.43754333e+02
      -6.81921844e+01 -2.45102319e+03 -1.59787097e+03 1.12459021e+03</_>
    <_>
      -1.48452673e+03 8.64588196e+02 -2.87915381e+03 -4.92012817e+02
      -2.34433911e+03 3.84294092e+03 1.01022614e+03 -2.54607346e+02
      -2.43420197e+02 -3.96759497e+03 1.91823578e+01 1.83412994e+02
      -4.27210938e+02 -2.46158936e+03 7.08150208e+02 1.54243506e+03
      8.41069763e+02 -2.76935474e+03 3.08656274e+03 1.09966858e+03</_>
    <_>
      6.43224072e+03 -2.19107178e+03 -4.62629590e+03 -2.39884521e+03
      -4.37892676e+03 2.02240857e+03 -1.37812708e+03 5.27808594e+02
      8.37974731e+02 -1.82365710e+03 -1.51662146e+03 -4.91089661e+02
      -4.87801025e+02 9.43007263e+02 1.88509674e+01 3.21960693e+02
      2.93234253e+02 9.02238220e+02 -8.57449341e+02 9.54957397e+02</_>
    <_>
      2.96088501e+03 -4.27776953e+03 -3.91382520e+03 -8.01500122e+02
      -1.07466064e+03 4.97854401e+02 2.41752487e+02 3.84837860e+02
      -4.05827319e+03 -5.76915527e+02 -1.35451440e+03 -8.76542053e+02
      5.56350769e+02 5.51374329e+02 -7.61954041e+02 7.07717407e+02
      -7.36195313e+02 1.03630481e+03 2.15257690e+02 3.56529205e+02</_>
    <_>
      -5.56808447e+03 -4.73490869e+03 -2.65876465e+03 3.26524628e+02
      -1.02498450e+03 -3.26478491e+03 -1.70386047e+03 -7.93660202e+01
      -4.16867615e+02 2.32222852e+03 1.69373706e+03 1.99995834e+02
      -1.11165503e+03 4.50283112e+02 4.82106750e+02 -9.99134521e+02
      5.84494690e+02 1.72285571e+03 3.72785126e+02 -2.04584717e+02</_>
    <_>
      -5.53809521e+03 -2.51753247e+03 -4.98097363e+03 -1.53783423e+03
      -2.54182764e+03 3.97556250e+03 7.91330017e+02 3.25101593e+02
      -2.26241113e+03 -5.64249573e+01 1.40712927e+03 1.19155334e+03
      1.84934753e+02 -1.61960742e+03 1.28722083e+03 1.54385193e+02
      2.87520935e+02 1.60486145e+03 1.65617090e+03 8.32696838e+02</_>
    <_>
      5.42186133e+03 4.26238525e+02 -2.46450732e+03 -5.01072949e+03
      -6.82038879e+02 2.77398413e+03 -7.70220871e+01 -2.49450781e+03
      2.86466187e+03 3.82265552e+03 6.10887305e+03 -6.09748901e+02
      5.73071045e+02 9.64595947e+02 -2.07974512e+03 2.37076664e+01
      1.21311328e+03 -6.30037308e+00 -3.28743701e+03 2.86188049e+02</_>
    <_>
      -5.72094189e+03 -5.14708862e+02 -5.74551367e+03 -4.06974829e+03
      -5.57259521e+02 4.28552100e+03 -1.08392200e+03 -5.97787354e+02
      -3.59756927e+01 -1.79412549e+03 2.05536108e+03 1.01068005e+03
      -4.98822113e+02 2.06876678e+02 -7.54189453e+02 8.24733215e+02
      1.87444992e+02 1.24477539e+02 1.39959030e+01 1.57541675e+03</_>
    <_>
      1.57918682e+01 -2.55296313e+03 -5.05496143e+03 3.10393018e+03
      9.99782837e+02 -1.87312561e+03 1.17702014e+03 2.74121851e+03
      8.20252380e+02 2.95288971e+02 -2.97695496e+02 -2.74433423e+03
      -4.42508362e+02 -2.60099609e+02 3.69588196e+02 7.03617737e+02
      -7.05455688e+02 -1.62200150e+02 -3.10000641e+02 7.23373535e+02</_>
    <_>
      -3.15096387e+03 -3.26801465e+03 -2.39787720e+03 -4.90063232e+03
      -2.69592804e+02 -8.48387817e+02 -2.38708008e+03 -1.95605484e+02
      2.96113550e+03 8.97729248e+02 1.28159134e+02 -1.38809570e+03
      -5.30376343e+02 2.53697852e+03 -1.03277161e+03 -3.59486198e+01
      1.17243494e+03 9.97738281e+02 2.40939038e+03 5.73317993e+02</_>
    <_>
      -7.85015869e+03 -1.65752832e+03 -1.15670776e+03 -2.52884937e+03
      1.45691687e+03 -2.25519531e+03 -6.06267090e+02 -1.57449738e+02
      2.13680957e+03 5.40341064e+02 -1.49961304e+03 5.44619019e+02
      -1.17468774e+03 1.50423904e+02 -9.32025757e+01 6.35296204e+02
      -2.18425586e+03 -1.69444321e+02 5.11614929e+02 5.45638306e+02</_>
    <_>
      1.90950024e+03 -6.96987695e+03 -4.19416309e+03 -3.20193604e+03
      3.51830298e+03 -1.23061707e+03 -9.43267822e+02 2.22084824e+02
      -3.28631042e+02 1.26569165e+03 -1.11077698e+03 8.39706055e+02
      -1.57085901e+03 -4.31683929e+02 -1.88745193e+02 1.39161026e+02
      -1.51410425e+03 1.45423364e+03 1.33533472e+03 4.14594666e+02</_>
    <_>
      7.66318506e+03 -1.08765771e+03 5.31201904e+02 -6.51040918e+03
      -3.08379639e+03 1.90224805e+03 -1.14958643e+03 -2.04234448e+03
      9.73611633e+02 2.12809375e+03 4.92129150e+02 -4.56331445e+03
      -2.04640796e+03 2.41966064e+02 -2.27791992e+03 -2.03032562e+02
      1.80168420e+03 2.24222314e+03 1.50914160e+03 7.80083130e+02</_>
    <_>
      1.81781628e+03 -3.62560156e+03 -3.05705933e+02 5.37727930e+03
      2.10852686e+03 8.38610229e+02 -6.30561790e+01 4.41537598e+03
      -1.72504272e+02 1.29004895e+03 -8.07494965e+01 -2.15101929e+03
      -1.30803345e+02 1.77377747e+03 -6.62247192e+02 1.84210657e+03
      -1.61004272e+03 -3.47097595e+02 -1.77231506e+03 -5.06413391e+02</_>
    <_>
      7.20637744e+03 -3.75840527e+03 3.74104858e+03 1.84918457e+03
      2.54001733e+03 1.37046655e+03 -3.89162445e+02 -2.40533752e+02
      -1.27341602e+03 -1.15727063e+03 -9.79548828e+02 3.99501465e+02
      -3.21988739e+02 -1.11399109e+03 -1.67738989e+03 -7.23419739e+02
      7.30758057e+02 -3.53705109e+02 -7.15446960e+02 7.99999756e+02</_>
    <_>
      1.19955576e+04 -1.15270203e+03 2.94685205e+03 -3.31300757e+03
      1.02892114e+03 -4.32099457e+02 2.51586646e+03 -7.78552795e+02
      -1.28408423e+03 2.15599174e+01 1.33148547e+03 -9.48528824e+01
      -5.35700500e+02 -4.81000946e+02 1.31462817e+03 -2.43027374e+02
      -2.85048798e+02 -3.56698273e+02 5.06447693e+02 -1.40827026e+02</_>
    <_>
      5.90134277e+03 -1.83424084e+03 4.77102490e+03 -3.09187964e+03
      2.18795142e+03 -1.57004590e+03 -8.44722961e+02 -7.49287292e+02
      1.57135095e+03 -2.82836206e+03 5.39537720e+02 -9.28337830e+02
      8.97439880e+02 -1.21227686e+03 1.01283685e+03 -3.35917969e+02
      -1.48115613e+03 -1.08588264e+02 -1.29941895e+02 8.35119705e+01</_>
    <_>
      -5.05278320e+03 -5.55403760e+03 -4.42254297e+03 1.50574170e+03
      -9.78239594e+01 -2.75862939e+03 1.15230225e+02 1.93291638e+03
      -1.37292566e+03 8.11281738e+02 8.03242126e+02 -6.67924255e+02
      -9.62375122e+02 4.69686920e+02 3.09641449e+02 -2.55049820e+01
      -5.64807617e+02 2.97572266e+02 1.05011267e+03 2.98879059e+02</_>
    <_>
      4.05535938e+03 1.01137939e+02 5.75446533e+03 1.91656567e+03
      -4.35739307e+03 2.21841968e+03 2.42035254e+03 9.24973633e+02
      8.83202057e+01 1.45917505e+03 1.00208826e+03 3.92190063e+03
      5.34999237e+01 -2.33906509e+02 4.68929962e+02 -1.02865883e+02
      -2.50482544e+03 -1.22193298e+03 -5.69524780e+02 3.63761101e+01</_>
    <_>
      6.48692236e+03 -3.78404517e+03 -5.03459766e+03 -1.53027856e+03
      2.72121246e+02 -2.49392136e+02 -1.29257654e+03 8.58978638e+02
      -1.89053940e+02 9.47674072e+02 1.46503369e+03 2.72080627e+02
      1.83506012e+02 3.55689850e+02 -4.92921906e+02 2.05965176e+01
      7.16955627e+02 1.34491809e+03 6.85411682e+01 -2.89785614e+02</_>
    <_>
      -7.38890674e+03 1.35319104e+03 -1.26108704e+03 -2.59793433e+03
      2.66484839e+03 -3.51221741e+02 2.96114966e+03 1.02244830e+03
      9.55869675e+01 -1.24585120e+03 -3.37084937e+03 -6.69789612e+02
      -3.98684540e+02 -6.76620789e+02 -1.12488440e+03 1.40080005e+03
      -1.73573584e+03 -1.02997083e+03 1.50263696e+03 1.53882007e+03</_>
    <_>
      8.29490430e+03 -2.57858447e+03 -1.47322632e+02 7.76951660e+02
      -3.01686230e+03 1.49578162e+03 -6.18591431e+02 4.59394318e+02
      -1.88263794e+03 1.57987964e+03 -1.59426025e+03 -3.26355042e+02
      9.60898987e+02 3.93680206e+02 4.04465424e+02 3.10224792e+02
      3.82175201e+02 2.59569092e+02 -1.02375000e+03 2.64224281e+01</_>
    <_>
      -2.18854395e+03 -7.15470459e+03 -1.35081812e+03 -1.53741370e+03
      -3.74278473e+02 -1.21223120e+03 -2.27314600e+03 2.37516724e+03
      -8.55251404e+02 -2.20437271e+02 -6.47624023e+02 1.41659192e+03
      -3.10760254e+02 1.28304102e+03 -6.46002380e+02 -1.80182861e+03
      -9.62535889e+02 9.93888306e+02 8.99954712e+02 -1.50103775e+02</_>
    <_>
      2.77693726e+03 1.56313066e+04 -1.19634387e+03 -2.26499487e+03
      3.40115454e+03 -1.22724048e+03 -3.71781714e+03 8.17915039e+02
      -3.55475122e+03 -1.52699756e+03 -8.66349915e+02 1.50228845e+03
      9.93928345e+02 1.23721082e+03 -1.41820129e+03 1.61263245e+02
      -1.57108203e+03 8.58140137e+02 4.43796387e+02 9.30825134e+02</_>
    <_>
      3.01132788e+03 9.91714746e+03 -2.22998730e+03 1.50860938e+03
      7.43415674e+03 2.86335840e+03 4.60236816e+02 -9.67970642e+02
      4.32844116e+02 -7.69855652e+02 3.30730103e+03 -7.54515915e+01
      -1.89975720e+03 -1.20324646e+03 -7.67297424e+02 -1.86688745e+03
      -2.84954681e+02 1.14095422e+03 -4.32387466e+01 -2.46172388e+03</_>
    <_>
      9.76893945e+03 2.97434784e+02 -2.66576270e+03 1.01717017e+03
      2.87836365e+02 -1.07141150e+03 5.48159302e+02 2.10582153e+03
      3.53686694e+03 -2.12348289e+01 2.63463043e+02 -1.11833203e+03
      3.74610626e+02 -1.76235794e+02 7.37043945e+02 -9.62041565e+02
      2.95157532e+02 1.62817725e+03 -2.66767651e+03 4.89370880e+02</_>
    <_>
      -5.34227930e+03 1.23063301e+04 4.43976367e+03 2.86278809e+03
      -4.04170972e+03 1.96048950e+03 -2.38057739e+03 1.53012170e+03
      -1.97762623e+01 2.95390356e+03 1.65216016e+03 1.01504742e+03
      2.85290674e+03 -2.49455948e+02 3.13992859e+02 -5.62430176e+02
      -2.18264828e+01 2.81118970e+03 -4.88676361e+02 6.86636597e+02</_>
    <_>
      -6.44618799e+03 2.15957428e+02 1.35740015e+03 1.88537219e+03
      2.57157471e+03 3.59425342e+03 4.61881104e+03 2.23999951e+03
      3.66299707e+03 1.58574402e+03 -2.55677100e+03 2.84553809e+03
      -1.47478833e+03 3.60658478e+02 -1.66614563e+03 1.26605420e+03
      -2.32461609e+02 1.39317615e+03 2.23665210e+03 -2.94199463e+03</_>
    <_>
      -7.26336768e+03 -1.90998621e+03 1.02152972e+03 -3.60996851e+03
      7.70808228e+02 -2.15354663e+03 -1.02432312e+03 -8.30970337e+02
      3.66290283e+02 2.09489331e+03 -2.88129700e+02 -9.78677521e+01
      -1.36070593e+03 2.86681128e+03 4.80383484e+02 -1.38980347e+03
      4.69186951e+02 8.79963806e+02 -7.14771729e+02 -1.53886536e+03</_>
    <_>
      2.14702002e+03 -2.69646851e+03 2.39300513e+03 9.40418848e+03
      3.12078003e+03 1.59667468e+03 -9.84090210e+02 -1.42673401e+03
      -1.07668481e+03 2.62585181e+03 2.04977100e+03 -1.90183374e+03
      -2.66753937e+02 1.07911816e+03 1.38989282e+03 2.22053052e+03
      -2.61615112e+03 -7.30895081e+02 1.20143359e+03 5.90321777e+02</_>
    <_>
      -3.17870142e+03 -1.83475952e+02 -6452. 2.72094946e+03
      -9.39066223e+02 2.80321381e+02 4.28945215e+03 -7.35318604e+02
      -1.99762634e+03 5.27623901e+02 8.65192688e+02 -7.30211548e+02
      4.43391406e+03 7.41877991e+02 -5.82168823e+02 7.35823181e+02
      -7.17674683e+02 5.20714661e+02 1.69525620e+02 -3.07707062e+02</_>
    <_>
      -8.04307764e+03 -9.29223633e+03 -1.11621777e+03 -3.56671570e+02
      2.59902734e+03 1.20855927e+02 -1.55094556e+03 1.48718408e+03
      -9.91507813e+02 1.04858801e+03 1.03018164e+03 2.14262476e+03
      -1.34263892e+03 1.89289993e+02 -3.79253723e+02 2.74905811e+03
      -1.11187830e+03 -4.06751648e+02 1.05409935e+02 -2.05249707e+03</_>
    <_>
      -8.67802344e+03 -7.70779175e+02 -4.10250342e+03 2.80154150e+03
      -3.31294165e+03 -4.57065674e+03 2.33476364e+02 1.55795825e+03
      -3.72671167e+03 1.03016211e+03 1.15152234e+03 -8.26007324e+02
      3.37924408e+02 2.83173157e+02 1.47515411e+02 2.15916211e+03
      1.79490601e+03 8.25301758e+02 -8.10323303e+02 -9.70572937e+02</_>
    <_>
      -1.77408228e+03 6.59796021e+02 -3.85342554e+03 -1.86593823e+03
      -2.53774023e+03 4.09708252e+03 -5.17759644e+02 -4.34964752e+02
      1.77998505e+02 -1.91806384e+03 4.22185516e+01 5.44419250e+02
      -1.06218420e+03 -1.29838477e+03 1.00442169e+03 9.53268494e+02
      6.39508850e+02 -3.70738354e+03 2.65412256e+03 6.34738708e+02</_>
    <_>
      -1.24614819e+03 -1.67380859e+02 -2.90054004e+03 -4.56162384e+02
      -1.74049744e+03 -4.39391785e+02 3.19420197e+02 4.74409882e+02
      -2.14306787e+03 -3.54776154e+02 -1.45796057e+03 -3.34471252e+02
      -4.40145531e+01 -5.91420959e+02 -6.14478394e+02 2.00395035e+02
      -3.67283875e+02 1.00911108e+03 9.37484360e+01 2.86843414e+02</_>
    <_>
      -5.15377319e+02 -2.92690308e+03 -3.86487573e+03 -6.55198486e+02
      3.66664978e+02 -3.00971680e+03 -8.19372314e+02 2.36062500e+02
      3.64108810e+01 1.37645483e+03 6.72572754e+02 1.29459302e+03
      -7.20901062e+02 -1.88236649e+02 4.85876434e+02 8.02463684e+01
      5.27349915e+02 1.16003430e+03 1.46489612e+03 -1.08980212e+03</_>
    <_>
      1.55345374e+03 -1.70975134e+03 -1.47715668e+02 4.36583447e+03
      1.23974939e+03 -7.67194519e+02 -5.15651550e+01 2.02166565e+03
      2.38273853e+03 -1.20620605e+03 9.89455322e+02 -1.90951709e+03
      -1.25001892e+03 -1.97645251e+03 4.87198944e+02 1.32458054e+02
      9.31678101e+02 -1.55606110e+02 -1.60189111e+03 1.03889844e+03</_>
    <_>
      -8.46286035e+03 -2.26368335e+03 -1.71513599e+03 -2.15318408e+03
      -7.98880981e+02 -1.20617798e+02 -4.32198096e+03 -2.40645996e+03
      -1.98349670e+03 2.56979443e+03 -1.08608656e+01 7.54168030e+02
      -6.32168823e+02 7.63217163e+02 5.77648376e+02 -6.13202637e+02
      -1.14796826e+03 4.53645599e+02 -4.29481773e+01 -7.83763245e+02</_>
    <_>
      4.26271027e+02 -4.81096875e+03 -1.40257764e+03 -5.25999121e+03
      4.06757617e+03 1.67510513e+02 -2.05578418e+03 -1.28684607e+03
      2.01299414e+03 1.46276343e+03 -1.23520203e+03 2.44548874e+02
      1.58429813e+01 3.01039490e+02 -9.37697021e+02 -2.29373856e+02
      -1.05017664e+03 3.01931519e+02 1.33402942e+03 -9.98207275e+02</_>
    <_>
      2.13682031e+03 -3.37583960e+03 4.22265045e+02 5.11090479e+03
      2.24982568e+03 1.51878540e+03 -3.32820953e+02 4.53924072e+03
      2.08882507e+02 1.73335364e+03 -2.23173309e+02 -1.13622339e+03
      5.76550842e+02 7.02823669e+02 -8.45559143e+02 1.67910779e+03
      -5.35023926e+02 3.08329712e+02 -2.10903540e+03 -9.23186340e+02</_>
    <_>
      6.21056787e+03 -1.75470068e+03 5.62188623e+03 -2.17032007e+03
      1.89605298e+03 -1.20987207e+03 -8.48159119e+02 -1.07837073e+03
      1.12835339e+03 -3.00182861e+03 1.45140576e+03 -1.37458038e+02
      1.26520667e+03 -4.32842590e+02 1.33196899e+02 1.20696631e+03
      -6.26853821e+02 4.33778656e+02 -2.09549561e+02 4.11402222e+02</_>
    <_>
      -4.55911328e+03 -4.58360156e+03 -1.78736316e+03 4.82955322e+03
      1.18026599e+03 -3.14344604e+03 2.05507446e+02 2.32582251e+03
      -1.23849585e+03 1.25140198e+02 1.36641187e+03 -7.91625732e+02
      -2.60996704e+02 -3.99961090e+02 2.86340240e+02 2.91564453e+02
      -5.04631470e+02 -1.16620583e+02 -7.33106537e+01 1.60324841e+03</_>
    <_>
      5.79864014e+03 -3.73787524e+03 -9.58434982e+01 -1.08688660e+02
      1.61532397e+03 -1.60149390e+03 -1.09136621e+03 7.59389221e+02
      -1.20647446e+02 9.60444275e+02 3.73133850e+02 8.45509705e+02
      -4.70438629e+02 5.39115219e+01 2.23214798e+02 -3.37629700e+02
      1.50706409e+03 1.02286188e+03 7.03320007e+02 3.64689560e+01</_>
    <_>
      5.97252002e+03 -2.50115381e+03 2.95273590e+02 1.38020667e+03
      -3.38081201e+03 1.62126465e+03 -5.25319031e+02 5.52976135e+02
      -1.83003308e+03 1.48109888e+03 -1.91621313e+03 -2.62683594e+02
      1.38631848e+03 6.77680206e+01 6.97832642e+02 3.00747986e+02
      4.78017059e+02 1.16000786e+02 -9.76219360e+02 -2.68341797e+02</_>
    <_>
      -2.44074316e+03 5.52027405e+02 4.49076416e+03 9.47857117e+02
      -2.23790527e+03 -3.02917798e+03 1.01130035e+03 -5.13332581e+02
      3.82959497e+03 2.12700854e+03 3.35950635e+03 3.97243286e+03
      -2.92822052e+02 -4.51882782e+02 3.81065796e+02 7.86055603e+01
      -4.78950806e+02 5.86113831e+02 -1.17074318e+02 2.09325439e+03</_>
    <_>
      -1.14877100e+03 -6.98860156e+03 -4.33240570e+02 -5.73010742e+02
      -6.45881348e+02 -8.20879150e+02 -2.37898145e+03 2.15636108e+03
      -1.39957617e+03 1.12911118e+02 -6.77556274e+02 1.75121216e+03
      7.54254944e+02 6.12638550e+02 -3.82711884e+02 -2.18845972e+03
      -5.09692932e+02 8.97471863e+02 8.04872681e+02 -1.62570911e+03</_>
    <_>
      2.60019238e+03 -5.59813171e+02 -1.51141553e+03 -2.38077393e+03
      2.43543726e+03 -1.83359009e+03 1.52724219e+03 -1.99786023e+03
      -2.26721973e+03 1.36287317e+03 6.48016785e+02 1.17232678e+03
      -7.54109802e+02 -5.18406494e+02 -1.44979663e+03 1.28381519e+03
      -1.42200305e+03 2.75676842e+01 1.91572895e+01 1.99461462e+03</_>
    <_>
      2.54673804e+03 2.11451343e+03 -2.06601831e+03 -1.17667004e+03
      1.75344946e+03 -6.00404053e+02 1.71982996e+03 -5.27981384e+02
      -1.37321814e+03 1.58762793e+03 -1.19053467e+03 -1.21824974e+02
      -4.06425262e+02 -8.82265686e+02 -2.16998511e+03 3.75946594e+02
      -1.61337781e+03 -4.00626862e+02 4.74041016e+02 1.85711743e+03</_>
    <_>
      6.11513525e+03 7.39616748e+03 -2.60402026e+03 -1.55068164e+03
      -1.91544849e+03 -2.08620947e+03 9.48364807e+02 4.80751514e+03
      1.48447620e+03 2.76713086e+03 1.05068335e+03 1.74942297e+03
      5.31781128e+02 -2.17998706e+03 -1.15514880e+03 1.68112473e+02
      -2.94370789e+02 4.69707275e+02 -1.61127182e+02 -4.25113922e+02</_>
    <_>
      2.85405322e+03 3.95115210e+03 -9.78101807e+02 -1.48591064e+03
      -2.79072241e+03 -4.74752002e+03 -8.56351196e+02 6.76880371e+02
      -2.51900909e+02 -5.15763000e+02 1.76479126e+03 3.83822998e+02
      -4.03723907e+02 4.80630585e+02 -7.19315674e+02 -4.52682495e+02
      -8.95708313e+02 -4.52800690e+02 7.89992065e+02 8.63186584e+02</_>
    <_>
      5.31979541e+03 4.14406348e+03 -3.58236877e+02 -1.19991650e+03
      -2.89186279e+03 -4.10603174e+03 -7.05573364e+02 3.10678711e+03
      -7.82646057e+02 -4.96400299e+01 1.36693909e+03 6.88431519e+02
      -1.04582739e+03 2.40209824e+02 -1.39042847e+03 -8.79837799e+01
      -2.19290375e+02 2.11675400e+02 -9.89873428e+01 1.43537207e+01</_>
    <_>
      7.81667139e+03 1.45682744e+04 -1.40217029e+03 -2.13634445e+02
      4.17183301e+03 -3.26881775e+02 -3.96615649e+03 9.17392517e+02
      -3.04846948e+03 4.95491547e+02 4.40065979e+02 2.26806831e+01
      1.19062109e+03 2.00656592e+03 4.42077141e+01 -1.75701758e+03
      1.45190784e+03 -1.24224585e+03 6.25871826e+02 -7.15630493e+02</_>
    <_>
      3.27853247e+03 1.49986836e+04 -1.84662671e+03 -9.56609070e+02
      5.01911377e+03 -9.02843994e+02 -3.09793848e+03 1.70311511e+03
      -2.66056909e+03 -1.92998450e+03 3.90430664e+02 6.95531006e+02
      1.79059412e+03 1.47271899e+03 -3.31546082e+02 -8.12084534e+02
      -2.05799561e+03 6.45403870e+02 5.21789612e+02 4.39245605e+02</_>
    <_>
      2.75818604e+03 8.91127246e+03 -2.99159351e+03 1.43234290e+03
      8.92193066e+03 1.91728259e+03 1.36152148e+03 5.09208450e+01
      3.68144684e+02 -1.02210686e+02 3.65467432e+03 3.46161842e+01
      -1.28846582e+03 -1.15354761e+03 -1.22569824e+03 -1.60752759e+03
      -4.64568748e+01 9.99640381e+02 -4.34106018e+02 -2.26018579e+03</_>
    <_>
      1.22037490e+04 -3.06188696e+03 -2.69380566e+03 2.69240747e+03
      3.25569629e+03 1.01966901e+03 -5.27578918e+02 1.44204004e+03
      8.63807983e+02 1.41421375e+03 -6.35271545e+02 -1.14845178e+03
      1.60045276e+03 1.34881653e+02 1.80749683e+03 1.91095520e+02
      6.52063965e+02 -1.99868464e+00 -6.67683899e+02 -6.91003662e+02</_>
    <_>
      1.00983633e+04 -2.15153599e+01 -4.25881689e+03 -1.40422531e+02
      1.88825409e+02 -7.88243103e+02 3.01556274e+02 1.56076221e+03
      2.89703296e+03 3.98297424e+02 1.82010376e+02 -1.06928088e+03
      1.16730017e+03 -4.82901764e+02 4.69141052e+02 -1.37244958e+03
      -8.05950928e+01 1.47101416e+03 -1.88824280e+03 3.26599121e+02</_>
    <_>
      3.23670825e+03 1.92920813e+03 1.43051270e+03 3.10122534e+03
      1.91805310e+03 2.90400073e+03 -5.46791260e+02 9.11214966e+02
      2.90325366e+03 1.11440649e+03 -2.27563647e+03 -1.18124951e+03
      -5.91851135e+02 -1.22244556e+03 2.01361438e+03 4.15290222e+02
      -1.54690598e+02 5.89327026e+02 1.59382401e+02 5.86872437e+02</_>
    <_>
      -5.77323926e+03 7.65404602e+02 7.03688135e+03 -1.07282483e+03
      -1.27002405e+03 3.15396680e+03 7.84631738e+03 7.43658997e+02
      -2.71501416e+03 2.29095142e+03 -2.49283179e+03 1.70389661e+03
      -2.19396954e+01 1.23917163e+03 -1.74417896e+03 -4.04388947e+02
      3.32392090e+02 -1.20204993e+03 -3.91174988e+02 -5.86378174e+02</_>
    <_>
      -7.40067188e+03 3.20949756e+03 4.24826318e+03 -1.20554529e+03
      -1.29000269e+03 -5.93502563e+02 5.62393262e+03 3.05595923e+03
      -6.04693359e+02 1.08948868e+02 -3.21150586e+03 -9.90839386e+01
      1.67031097e+02 1.03511182e+03 -2.42469894e+02 -1.68245239e+03
      4.10626514e+03 -1.72379761e+03 2.00595911e+03 2.35957222e+01</_>
    <_>
      -8.51814453e+03 7.47455811e+03 1.37508350e+03 5.25098340e+03
      -1.46930457e+03 1.90073022e+03 -3.25250391e+03 -7.70449829e+02
      3.95874451e+02 1.49260413e+03 -2.38942169e+02 -7.91051575e+02
      -5.31920776e+02 -7.25842102e+02 1.21674988e+03 4.61860352e+02
      3.02843964e+02 1.21211438e+03 -2.81369080e+02 9.72287903e+02</_>
    <_>
      -6.41204004e+03 1.26229297e+04 4.67628955e+03 2.45790527e+03
      -4.89050977e+03 2.44288208e+03 -1.31555908e+03 1.17279883e+03
      3.01656403e+02 3.43107935e+03 -3.24616394e+02 6.69110474e+02
      1.99602258e+03 -1.09104993e+03 4.00612602e+01 -4.97203796e+02
      -5.09485443e+02 3.12948267e+03 1.54744431e+02 5.86677612e+02</_>
    <_>
      -6.21046875e+03 7.65223145e+03 3.09209863e+03 3.04249121e+03
      -6.93552063e+02 4.48733887e+03 -1.11836121e+03 8.41474487e+02
      3.13050513e+03 8.85085144e+02 -1.14187488e+03 1.67369360e+03
      -4.78271637e+01 -1.18265784e+03 2.63615845e+03 4.98907104e+02
      -1.86533081e+03 2.32066528e+03 1.81846777e+03 1.51584534e+03</_>
    <_>
      -6.98791846e+03 6.39699646e+02 1.08076733e+03 1.04090320e+03
      2.22627759e+03 3.09167847e+03 4.94344873e+03 1.46671057e+03
      3.44315112e+03 9.23846069e+02 -3.74060669e+03 2.82287183e+03
      -1.44919482e+03 -3.55933655e+02 -1.84910596e+03 1.67466278e+02
      -3.34811218e+02 -7.03631363e+01 1.31950439e+03 -3.77728003e+03</_>
    <_>
      6.28830469e+03 3.61705469e+03 -4.31581836e+03 1.28024487e+03
      -1.67096570e+03 -9.21947815e+02 2.66317554e+03 -3.87472705e+03
      4.87049164e+02 1.42693762e+03 -2.02223877e+03 1.67875659e+03
      -1.90633533e+03 -1.70702783e+03 -3.10646667e+02 -1.42546680e+03
      6.06215881e+02 -6.06218140e+02 -2.19807275e+03 -9.87344543e+02</_>
    <_>
      1.49805059e+04 4.81032837e+02 -4.20204590e+02 -3.22409277e+03
      -6.35284309e+01 1.51124527e+02 3.94909741e+03 -2.84933936e+03
      6.53066956e+02 2.89017358e+03 1.01939648e+03 1.38865613e+03
      -9.91653015e+02 -2.48885208e+02 -1.59426392e+02 -8.48877197e+02
      -2.87628601e+02 -4.63238281e+02 -7.40894318e+01 -1.21681709e+01</_>
    <_>
      -5.75367090e+03 -2.50993091e+03 1.81567773e+03 2.08095239e+03
      6.72806274e+02 -1.77697595e+03 3.64097565e+02 1.23248975e+03
      -1.09301563e+03 6.92035645e+02 -8.42835083e+02 4.92247162e+01
      1.36100598e+03 -2.25345483e+03 -1.54617786e+03 9.78630524e+01
      1.00626880e+03 3.95884247e+02 3.72549934e+01 1.57806885e+03</_>
    <_>
      -9.58425049e+02 -1.44262048e+03 3.41437061e+03 5.27261133e+03
      -4.01881494e+03 -2.44412598e+03 -1.51898303e+03 -2.69243286e+03
      -2.75829810e+03 2.96571802e+03 1.73859814e+03 1.74468307e+02
      2.84941895e+02 1.14051501e+03 1.29031384e+03 6.68802734e+02
      1.82044458e+03 -2.20078857e+03 1.85046179e+03 3.26446899e+03</_>
    <_>
      -9.49244690e+02 8.37561264e+01 5.66835645e+03 4.81928516e+03
      -3.88177295e+03 3.02196729e+03 -6.35710571e+02 1.46485062e+02
      -5.94798470e+01 9.11519836e+02 1.63463086e+03 9.26187195e+02
      1.82584814e+03 -1.09444006e+03 -2.81681396e+03 -2.95051422e+02
      4.51689941e+02 8.29414978e+01 6.09780334e+02 7.28016052e+02</_>
    <_>
      -3.59986255e+03 2.74376807e+03 -1.04445190e+03 7.23562695e+03
      1.35054773e+03 9.33332642e+02 1.68358765e+03 -2.96709766e+03
      4.10447266e+02 -1.73424548e+03 2.67175293e+03 2.49561203e+02
      -1.88167993e+03 1.82900452e+03 -3.77222656e+02 -8.78931946e+02
      5.52839775e+01 1.49128113e+03 1.69668289e+02 5.37979553e+02</_>
    <_>
      -2.56776099e+03 -1.23000171e+03 3.68950586e+03 -3.64989331e+03
      2.22006958e+03 -3.01454150e+03 2.42321265e+03 -2.56901001e+03
      1.48202490e+03 -9.78144608e+01 -2.17619095e+02 1.79028839e+02
      3.01999341e+03 1.09128259e+03 1.27212048e+03 -9.77598511e+02
      -1.57762741e+02 -4.84455505e+02 -3.00174561e+02 5.82642700e+02</_>
    <_>
      -4.03688745e+03 -1.30862732e+03 7.61630554e+02 6.89325684e+03
      1.69904248e+03 -2.41875781e+03 2.77256317e+02 1.71517297e+03
      -6.14849792e+02 3.41264832e+02 4.87452362e+02 -1.52594824e+03
      -9.49572266e+02 -2.07449927e+03 -2.48125275e+02 -1.42323877e+03
      1.26534900e+03 -8.94246399e+02 -1.11228210e+03 3.87607574e+01</_>
    <_>
      -3.59688892e+03 -1.93034216e+03 -1.91311877e+03 2.47408862e+03
      8.78516663e+02 -4.81867285e+03 4.60353516e+02 -1.24272911e+02
      -1.85922058e+03 1.03481677e+03 2.71977448e+02 2.27563217e+02
      -8.83209412e+02 -9.70655823e+02 8.90808167e+02 2.93474640e+02
      2.50390796e+03 1.75757458e+03 -5.28462402e+02 4.83517029e+02</_>
    <_>
      -4.68300830e+03 2.68362646e+03 -2.19605249e+03 6.46758105e+03
      3.76451416e+02 -1.01392902e+03 9.61788086e+02 -3.16241333e+03
      9.12764969e+01 -6.14104858e+02 1.45543616e+03 -2.89932466e+00
      -4.80509064e+02 2.16123608e+03 4.68793121e+02 -5.42165344e+02
      -5.95983948e+02 -5.82848267e+02 7.50778992e+02 7.31280396e+02</_>
    <_>
      -1.10629407e+03 -3.24991455e+03 4.75120117e+03 6.08181494e+03
      8.68477478e+02 1.02843990e+01 -1.00629688e+03 1.65249268e+03
      -9.90483765e+02 -3.74316895e+02 1.31883093e+03 1.78558228e+03
      -3.25392395e+02 -5.70590698e+02 -2.16562964e+03 -7.45031189e+02
      2.30674805e+03 7.84075867e+02 4.58257965e+02 6.96961670e+02</_>
    <_>
      2.44649854e+03 -2.55403735e+03 5.57428564e+03 4.45789160e+03
      -7.46310303e+02 6.18547998e+03 -2.87894678e+03 3.64871674e+02
      -2.67144360e+03 1.77915198e+03 -4.09133759e+02 -1.51726074e+03
      8.64917847e+02 -9.70865479e+02 -2.53003711e+03 4.39588959e+02
      7.73871887e+02 1.47528552e+03 3.99655365e+02 2.22817795e+02</_>
    <_>
      -8.07966846e+03 9.81027222e+02 4.04632666e+03 -1.08157129e+03
      9.67422546e+02 -3.18733496e+03 -7.53510986e+02 -2.48299756e+03
      3.34337988e+03 -1.20492822e+03 3.80312347e+02 -2.25945166e+03
      3.88340161e+03 -2.11421167e+03 -1.60105359e+03 1.27073621e+03
      -1.78430420e+02 6.80305847e+02 3.08024902e+02 -2.59783722e+02</_>
    <_>
      -6.88786328e+03 -3.82175000e+03 2.16044580e+03 -7.92763672e+01
      1.74136642e+02 -3.36290356e+03 -4.31406055e+03 -1.62885803e+03
      5.79096680e+02 -1.10984521e+03 -1.30544836e+03 -7.21764648e+02
      1.14801978e+03 4.66944580e+02 -5.35356567e+02 -7.99717468e+02
      -1.34588831e+03 3.86058746e+02 -1.21549292e+03 -2.60524072e+03</_>
    <_>
      7.15990869e+03 -2.50129785e+03 7.55815234e+03 -4.92061621e+03
      -8.36973145e+02 2.97100800e+02 1.50870874e+03 -4.23172974e+02
      -2.57830322e+03 6.73341309e+02 -1.73902637e+03 9.13618103e+02
      -5.77520996e+02 2.00470471e+03 4.05073761e+02 3.09350800e+02
      -9.05055176e+02 -9.38051987e+01 -1.35750046e+02 -8.95757202e+02</_>
    <_>
      2.41764966e+03 -3.31872681e+03 3.57722974e+03 7.63381836e+03
      1.51187439e+03 2.61244604e+03 -9.78356445e+02 1.33366135e+02
      -1.50507874e+03 3.02845630e+03 2.66102020e+02 -2.38551270e+03
      3.67859161e+02 -1.21476111e+03 1.31083997e+03 1.98464929e+03
      -7.60226990e+02 -6.72814087e+02 1.00536499e+03 9.64772461e+02</_>
    <_>
      6.22486328e+03 -2.59488452e+03 3.03453198e+03 4.65670752e+03
      1.86893787e+03 -7.38074158e+02 -1.18440405e+03 -4.05790863e+02
      -2.23145782e+02 -3.48646393e+02 1.27551111e+03 6.08161194e+02
      -6.39232971e+02 -5.68171448e+02 -1.28216028e+03 1.79074402e+02
      3.02259058e+03 -1.27353020e+02 -2.86394531e+02 1.44545178e+03</_>
    <_>
      -8.02715820e+02 3.71115430e+03 5.69509668e+03 -5.26027881e+03
      -2.84352148e+03 -5.15269966e+01 4.23371338e+03 1.41599316e+03
      -4.73401416e+03 -2.34489502e+03 3.10519702e+03 -2.02310083e+03
      -3.36942700e+03 -4.38307922e+02 2.90726563e+03 -3.13910400e+02
      -1.41766736e+03 1.06023303e+03 -5.92963135e+02 -2.36456860e+03</_>
    <_>
      1.62787585e+03 -3.74236359e+02 6.27697412e+03 2.37636499e+03
      -4.44302832e+03 5.01713776e+02 -1.28368750e+03 1.51328162e+03
      1.16796240e+03 2.36500406e+00 1.77139221e+03 2.29990015e+03
      1.52587207e+03 2.28879761e+03 -1.59883691e+03 2.14954688e+03
      8.86475037e+02 -2.71496857e+02 6.39048828e+02 -1.42057214e+03</_>
    <_>
      4.37129199e+03 4.07583649e+02 1.78898669e+03 4.93887305e+03
      4.55362793e+02 2.31888733e+02 -6.59029297e+02 1.49720349e+03
      6.39586853e+02 3.14607910e+03 1.50252551e+03 9.57255737e+02
      1.21451587e+03 -1.04357825e+03 3.07362915e+03 2.48488739e+02
      4.24948151e+02 -8.02345215e+02 1.38893066e+03 -1.39409033e+03</_>
    <_>
      -2.19315405e+03 -1.03419690e+03 -6.38954346e+03 2.24695679e+03
      -5.98115540e+02 -3.21016266e+02 2.94752881e+03 8.86864624e+02
      -1.73228003e+03 1.00491754e+03 -2.26004654e+02 -9.09120483e+02
      2.56092700e+03 -2.02668198e+02 -3.83069916e+02 -1.45550766e+02
      -1.20733948e+03 3.84709091e+01 3.57727692e+02 -8.04622009e+02</_>
    <_>
      -1.83487109e+03 -3.02201831e+03 8.06041260e+03 -1.91427820e+03
      2.44255762e+03 9.95411072e+02 -9.07507782e+01 -1.22344763e+03
      -1.78539539e+03 -4.08148633e+03 5.00565063e+02 7.69225464e+02
      2.76565063e+03 1.56284460e+03 -1.90859900e+03 2.73950562e+03
      1.76588733e+03 1.46094897e+03 9.01788391e+02 -3.46009949e+02</_>
    <_>
      -7.96660034e+02 -1.24899048e+03 5.30814893e+03 -2.67538403e+03
      -2.56346948e+03 -7.84968506e+02 -9.96357788e+02 -3.45291016e+03
      -1.13925415e+03 2.04663770e+03 -1.66327393e+03 1.43013062e+03
      1.78224634e+03 -2.13898438e+03 6.44038849e+01 1.83997131e+03
      -2.48939499e+02 1.87913284e+02 -2.61469910e+02 8.63195618e+02</_>
    <_>
      -2.20871475e+02 -8.60808789e+03 -2.61870874e+03 -2.85456787e+03
      2.10477832e+03 3.20155420e+03 -4.24416885e+01 2.20508765e+03
      -1.24326514e+03 -5.83685852e+02 8.99751587e+02 2.67088086e+03
      1.28083447e+03 -2.22639221e+02 2.21596118e+03 -2.32917017e+03
      2.97242828e+02 -2.32842114e+03 -9.95470459e+02 -1.26908655e+03</_>
    <_>
      3.85128369e+03 -5.38231445e+03 4.41931885e+03 -1.66083325e+03
      2.90590576e+03 -1.48611475e+03 3.28416870e+02 8.41284668e+02
      5.52251221e+02 2.73778473e+02 -2.53258813e+03 1.88981421e+03
      1.62378577e+03 1.01753778e+03 1.79863403e+02 -1.35029785e+03
      1.69964392e+03 -7.61462280e+02 8.06883240e+01 2.51939133e+02</_>
    <_>
      1.36196992e+04 -3.37108345e+01 3.02010767e+03 -1.57783069e+03
      -1.01322433e+02 -1.80263580e+02 2.42156787e+03 -1.98296338e+03
      3.98278008e+01 7.56251465e+02 1.68967639e+03 1.88870331e+02
      4.96665131e+02 -2.47990585e+02 5.32811218e+02 2.81201233e+02
      -4.28784332e+02 -3.16285461e+02 1.26371948e+03 -5.34625549e+01</_>
    <_>
      -8.70328125e+03 -8.49651855e+03 -4.26531799e+02 -1.46786047e+03
      1.47502539e+03 6.74687317e+02 -2.32278101e+03 9.03561707e+02
      -8.11937317e+02 2.80396851e+02 -1.19608704e+03 2.39177368e+03
      -3.11271332e+02 -1.28987842e+03 -2.56376556e+02 1.02305505e+03
      -5.77254089e+02 -1.36381055e+03 -2.51443298e+02 -2.10088306e+03</_>
    <_>
      -7.88014990e+03 -5.11958557e+02 6.42965454e+02 3.26264185e+03
      -2.13904443e+03 -4.74813623e+03 -1.45332495e+03 1.50230859e+03
      -1.61725208e+03 -5.97466431e+02 1.06747668e+03 2.18511215e+02
      -6.32749519e+01 -8.52930847e+02 1.84696976e+02 7.02752502e+02
      2.80016602e+03 3.80214325e+02 -1.49936145e+03 4.14302734e+02</_>
    <_>
      -1.13399277e+04 -1.88301941e+03 -2.53347290e+02 1.78724023e+03
      -3.86939941e+03 -1.65121289e+03 -1.03544971e+03 8.01483643e+02
      -1.79294873e+03 -8.09492126e+02 -1.99478687e+03 1.84252441e+02
      2.23537918e+02 -1.33909937e+03 5.19830933e+02 -1.95977173e+03
      9.27976074e+02 1.70880591e+03 -2.66811462e+02 -1.27818581e+02</_>
    <_>
      -1.04548721e+04 -3.13970557e+03 -7.25546875e+02 -4.98120166e+03
      2.86675903e+02 2.72236108e+03 -2.48191846e+03 -1.30986963e+03
      8.91861206e+02 7.90947937e+02 -2.32600439e+03 2.72044653e+03
      -8.13077820e+02 -3.35260742e+02 1.98327112e+03 -2.28666675e+03
      3.82857666e+02 -1.30494238e+03 -2.53163281e+03 -2.84397827e+02</_>
    <_>
      -9.30185156e+03 -1.99967737e+03 -3.41989990e+03 -6.46668799e+03
      2.15589990e+03 3.95763013e+03 1.10234375e+03 1.12442114e+03
      -6.81260010e+02 -2.50304688e+03 -1.45819031e+03 2.53007422e+03
      -1.60195642e+03 1.03623303e+03 3.40439209e+03 7.59457825e+02
      8.37730530e+02 -1.92717029e+03 -2.03304822e+03 1.98895496e+03</_>
    <_>
      -1.02560527e+04 5.50880811e+03 9.03834656e+02 -7.72705664e+03
      2.55794434e+03 2.90890698e+03 3.12952856e+03 -7.43116379e+01
      5.50143494e+02 2.28415063e+03 2.06553247e+03 -2.81582886e+03
      3.53282715e+02 6.28846558e+02 1.26818018e+03 -1.59119983e+03
      1.63048364e+03 -2.54728711e+03 -5.19408264e+02 1.17446777e+03</_>
    <_>
      -8.66484756e+01 3.08103271e+03 -2.22124292e+03 1.02513501e+03
      -7.61126563e+03 -3.65675507e+02 -2.51884131e+03 1.43969043e+03
      3.64034814e+03 -2.98701318e+03 1.78567639e+03 8.17651001e+02
      -2.11655859e+03 1.23929297e+03 -1.64213293e+03 7.94602173e+02
      -1.95185693e+03 -2.22218799e+03 -2.71696167e+02 -1.37040726e+02</_>
    <_>
      -2.87721704e+03 4.00195044e+03 5.70800781e+03 -6.12062805e+02
      -4.45369971e+03 7.51471405e+01 2.01301978e+03 -1.98847949e+03
      -9.03289490e+02 8.46099304e+02 -1.23674231e+03 -1.02167426e+03
      6.23136658e+02 1.92648523e+03 2.63343164e+03 9.39362305e+02
      -1.85846451e+02 -6.95079163e+02 1.37415845e+03 -9.26623535e+02</_>
    <_>
      -1.21695205e+04 2.02363513e+03 9.63935318e+01 -4.33978369e+03
      -1.89803577e+03 2.21814600e+03 1.18361221e+02 -1.71426245e+03
      1.31789563e+03 1.36990845e+03 -2.17627539e+03 -2.93238647e+03
      9.73441467e+02 1.16997522e+03 -1.03462195e+03 -8.07838013e+02
      -6.44154053e+02 -2.49796948e+03 -2.65615463e+00 8.48740387e+01</_>
    <_>
      4.81942920e+03 -2.59378857e+03 -2.69509375e+03 -4.25926758e+03
      -1.16417004e+03 4.15089014e+03 1.44875427e+03 3.35112158e+03
      4.26253516e+03 -2.92871143e+03 2.42442358e+03 3.75700836e+01
      -9.66894165e+02 -8.41594055e+02 2.84079956e+02 7.40468506e+02
      1.60662122e+03 -1.75446436e+03 8.97511841e+02 3.67594238e+02</_>
    <_>
      7.40768262e+03 -1.75916943e+03 -3.81915869e+03 -3.05099292e+03
      -3.86723608e+03 1.31692896e+03 -1.92146143e+03 3.91797104e+01
      1.82087732e+03 -1.34749292e+03 -1.98010193e+03 -6.45651367e+02
      -2.21115097e+02 4.28001160e+02 -2.33836578e+02 -1.52362839e+02
      3.57997406e+02 7.91752472e+01 4.91541901e+02 8.13511780e+02</_>
    <_>
      3.71728589e+03 -4.40522559e+03 -2.98925024e+03 -2.25567358e+03
      -5.98746300e+01 -1.36660141e+02 -2.00248486e+03 4.60139526e+02
      -2.81164600e+03 -6.46094177e+02 -2.03991675e+03 1.05531458e+03
      5.29166870e+02 -9.39983887e+02 -1.20321083e+02 -5.99890930e+02
      -7.60277405e+02 4.72826385e+02 9.56756226e+02 -6.36104980e+02</_>
    <_>
      -5.91616162e+03 -1.62815259e+03 -2.46409424e+03 -1.27477734e+03
      -2.53055029e+03 2.84439258e+03 3.72656586e+02 5.25734062e+01
      -1.25061511e+03 -1.67447803e+03 -5.39808594e+02 1.25882153e+03
      -1.71813705e+02 -2.84370874e+03 2.94196509e+03 -1.54720728e+03
      7.52890198e+02 -1.10246069e+03 1.07574036e+03 1.21344214e+03</_>
    <_>
      -6.02108057e+03 -5.61325562e+02 -4.27467725e+03 -4.32573535e+03
      -6.11821022e+01 2.64998438e+03 -1.47843030e+03 -4.69490540e+02
      1.26301794e+03 -2.65926671e+00 9.27929688e+02 3.20586884e+02
      -1.24702492e+01 4.56915619e+02 -7.46318665e+02 -1.85783691e+01
      -5.97560730e+02 -2.00762439e+03 8.82064331e+02 -5.32051514e+02</_>
    <_>
      8.71393164e+03 -2.81418774e+03 -2.97216040e+03 -1.54252783e+03
      -3.49498438e+03 2.02595593e+03 -3.35556061e+02 6.04769775e+02
      1.71265503e+02 -2.36347217e+03 -1.66456763e+03 -7.52638306e+02
      -8.06032349e+02 -4.30039368e+01 -2.69499878e+02 5.46998291e+02
      -7.48630920e+02 -5.68540649e+02 -8.88853943e+02 -4.48472633e+01</_>
    <_>
      8.07237854e+02 -2.06274609e+03 3.11619702e+03 -5.22084534e+02
      1.39076123e+03 -4.24046631e+03 -1.96569592e+03 -6.30454895e+02
      2.16819519e+02 -7.51843201e+02 -1.30610657e+03 2.80615631e+02
      1.01576727e+03 -1.03358009e+02 1.50798996e+02 -9.04830383e+02
      1.14865430e+03 1.15999548e+03 -1.31593018e+02 -2.96534119e+02</_>
    <_>
      -2.40245654e+03 -4.99208545e+03 -4.27547949e+03 -2.41532813e+03
      -2.50960669e+03 -1.12694348e+03 -2.96625391e+03 7.41531799e+02
      1.27778418e+03 2.20891876e+02 -6.15855164e+02 6.81156067e+02
      6.32504700e+02 -2.24246387e+03 1.27861389e+03 -3.96362427e+02
      5.16715576e+02 -6.87679749e+02 2.17599243e+03 -3.46810944e+02</_>
    <_>
      8.08650195e+03 -3.77091113e+03 -2.23018311e+03 -4.20241650e+03
      7.65350708e+02 7.12844971e+02 -2.64943823e+03 -1.61486499e+03
      1.71137805e+03 1.11543164e+03 7.28125854e+02 9.91307434e+02
      5.35476440e+02 -5.80468201e+02 5.02135315e+02 -1.27680725e+03
      1.05582886e+03 -9.11109192e+02 9.87075378e+02 -1.17696167e+03</_>
    <_>
      -1.02391436e+04 -2.70883759e+02 -1.40158801e+03 -2.92955762e+03
      2.61911774e+02 -6.78643677e+02 -1.44471777e+03 -1.13119543e+03
      1.41545374e+03 1.82884094e+02 -1.52390308e+03 6.25724060e+02
      4.39353851e+02 -2.51137482e+02 -7.21903870e+02 -8.55205536e+01
      -7.31554810e+02 -7.65089722e+02 8.73307556e+02 -1.49874182e+03</_>
    <_>
      1.49606299e+03 -6.18544385e+03 -3.14802368e+03 -3.70141577e+03
      3.12589819e+03 -6.30930214e+01 -1.91004749e+03 -1.20338416e+03
      3.70661774e+02 8.35848633e+02 -1.35679456e+03 1.89178296e+03
      3.00690948e+02 -1.98162878e+03 -2.63909645e+01 -1.01707666e+03
      -5.13162537e+02 2.02441360e+02 1.20369092e+03 -1.18685681e+03</_>
    <_>
      -6.30125977e+02 -2.88072583e+03 -6.08262158e+03 -3.00033691e+03
      -1.34683435e+03 2.19041016e+03 -2.80326440e+03 -7.04385559e+02
      -1.24643542e+03 -6.47948669e+02 -1.15991028e+03 1.18470142e+03
      5.73387878e+02 -2.64661377e+03 1.79327954e+03 -3.08413910e+02
      5.32333191e+02 -1.64622101e+02 1.05241858e+03 -3.60710175e+02</_>
    <_>
      -3.49579883e+03 2.92456494e+03 3.70973291e+03 -5.66438281e+03
      1.80000659e+03 -7.85662415e+02 7.78656860e+02 -5.20496765e+02
      1.03525134e+03 1.63080969e+03 1.83571375e+03 -4.34689844e+03
      5.45198011e+00 -6.26705647e+00 6.86130432e+02 8.42156921e+02
      -4.52807800e+02 -7.14517517e+02 6.53151855e+02 -1.02022797e+03</_>
    <_>
      7.25115234e+03 1.86102954e+03 1.22184058e+03 -6.70588184e+03
      -1.34648169e+03 1.10989404e+03 3.07288116e+02 -2.71608423e+03
      -9.31606750e+02 2.71365308e+03 -3.81303772e+02 -4.21514551e+03
      -2.69574878e+03 -1.86595886e+03 -7.60284543e-01 2.42510938e+03
      1.21771228e+03 6.08062378e+02 9.81865540e+02 -1.21011401e+03</_>
    <_>
      1.74365295e+03 -3.77255396e+03 2.93696655e+03 3.85136646e+03
      1.19409863e+03 2.71357495e+03 -3.10868622e+02 4.62282129e+03
      3.13252106e+02 1.76886731e+03 -1.75931104e+03 -4.22671204e+02
      -1.66997650e+02 -2.30550644e+02 -1.13177454e+03 4.75719360e+02
      -3.80399811e+02 1.51119080e+02 -1.88633044e+03 -8.80401917e+02</_>
    <_>
      1.21701797e+04 1.04203232e+02 1.62513586e+03 -2.84920190e+03
      1.36805710e+02 2.74476044e+02 -4.19239716e+02 -8.88758789e+02
      -6.30588745e+02 5.27669678e+02 -6.53867798e+02 -9.36965637e+02
      1.41848236e+02 1.38929089e+03 8.33497070e+02 7.77435684e+01
      6.18222717e+02 -6.04174438e+02 1.14716699e+03 -4.17891785e+02</_>
    <_>
      8.86298438e+03 -3.24013037e+03 3.92821997e+03 -6.06394234e+01
      2.39896313e+03 7.59940308e+02 -1.79470642e+02 -4.51599243e+02
      -1.04156702e+03 -5.78074951e+02 -1.33973328e+02 1.21469714e+03
      1.21007678e+03 -3.61737427e+02 -1.90042993e+03 7.75171265e+02
      1.87734009e+03 5.56592407e+02 5.60658691e+02 1.09114648e+03</_>
    <_>
