<?xml version="1.0"?>
<opencv_storage>
<opencv_ml_svm>
  <format>3</format>
  <svmType>C_SVC</svmType>
  <kernel>
    <type>LINEAR</type></kernel>
  <C>1.</C>
  <term_criteria><epsilon>1.1920928955078125e-07</epsilon>
    <iterations>1000</iterations></term_criteria>
  <var_count>20</var_count>
  <class_count>6</class_count>
  <class_labels type_id="opencv-matrix">
    <rows>6</rows>
    <cols>1</cols>
    <dt>i</dt>
    <data>
      0 1 2 3 4 5</data></class_labels>
  <sv_total>15</sv_total>
  <support_vectors>
    <_>
      0. 0. 0. 0. 0. 0. 0. 0. 0. 0. 0. 0. 0. 0. 0. 0. 0. 0. 0. 0.</_>
    <_>
      0. 0. 0. 0. 0. 0. 0. 0. 0. 0. 0. 0. 0. 0. 0. 0. 0. 0. 0. 0.</_>
    <_>
      0. 0. 0. 0. 0. 0. 0. 0. 0. 0. 0. 0. 0. 0. 0. 0. 0. 0. 0. 0.</_>
    <_>
      0. 0. 0. 0. 0. 0. 0. 0. 0. 0. 0. 0. 0. 0. 0. 0. 0. 0. 0. 0.</_>
    <_>
      0. 0. 0. 0. 0. 0. 0. 0. 0. 0. 0. 0. 0. 0. 0. 0. 0. 0. 0. 0.</_>
    <_>
      0. 0. 0. 0. 0. 0. 0. 0. 0. 0. 0. 0. 0. 0. 0. 0. 0. 0. 0. 0.</_>
    <_>
      0. 0. 0. 0. 0. 0. 0. 0. 0. 0. 0. 0. 0. 0. 0. 0. 0. 0. 0. 0.</_>
    <_>
      0. 0. 0. 0. 0. 0. 0. 0. 0. 0. 0. 0. 0. 0. 0. 0. 0. 0. 0. 0.</_>
    <_>
      0. 0. 0. 0. 0. 0. 0. 0. 0. 0. 0. 0. 0. 0. 0. 0. 0. 0. 0. 0.</_>
    <_>
      0. 0. 0. 0. 0. 0. 0. 0. 0. 0. 0. 0. 0. 0. 0. 0. 0. 0. 0. 0.</_>
    <_>
      0. 0. 0. 0. 0. 0. 0. 0. 0. 0. 0. 0. 0. 0. 0. 0. 0. 0. 0. 0.</_>
    <_>
      0. 0. 0. 0. 0. 0. 0. 0. 0. 0. 0. 0. 0. 0. 0. 0. 0. 0. 0. 0.</_>
    <_>
      0. 0. 0. 0. 0. 0. 0. 0. 0. 0. 0. 0. 0. 0. 0. 0. 0. 0. 0. 0.</_>
    <_>
      0. 0. 0. 0. 0. 0. 0. 0. 0. 0. 0. 0. 0. 0. 0. 0. 0. 0. 0. 0.</_>
    <_>
      0. 0. 0. 0. 0. 0. 0. 0. 0. 0. 0. 0. 0. 0. 0. 0. 0. 0. 0. 0.</_></support_vectors>
  <uncompressed_sv_total>295</uncompressed_sv_total>
  <uncompressed_support_vectors>
    <_>
      -431602080. -431602080. -431602080. -431602080. -431602080.
      -431602080. -431602080. -431602080. -431602080. -431602080.
      -431602080. -431602080. -431602080. -431602080. -431602080.
      -431602080. -431602080. -431602080. -431602080. -431602080.</_>
    <_>
      -431602080. -431602080. -431602080. -431602080. -431602080.
      -431602080. -431602080. -431602080. -431602080. -431602080.
      -431602080. -431602080. -431602080. -431602080. -431602080.
      -431602080. -431602080. -431602080. -431602080. -431602080.</_>
    <_>
      -431602080. -431602080. -431602080. -431602080. -431602080.
      -431602080. -431602080. -431602080. -431602080. -431602080.
      -431602080. -431602080. -431602080. -431602080. -431602080.
      -431602080. -431602080. -431602080. -431602080. -431602080.</_>
    <_>
      -431602080. -431602080. -431602080. -431602080. -431602080.
      -431602080. -431602080. -431602080. -431602080. -431602080.
      -431602080. -431602080. -431602080. -431602080. -431602080.
      -431602080. -431602080. -431602080. -431602080. -431602080.</_>
    <_>
      -431602080. -431602080. -431602080. -431602080. -431602080.
      -431602080. -431602080. -431602080. -431602080. -431602080.
      -431602080. -431602080. -431602080. -431602080. -431602080.
      -431602080. -431602080. -431602080. -431602080. -431602080.</_>
    <_>
      -431602080. -431602080. -431602080. -431602080. -431602080.
      -431602080. -431602080. -431602080. -431602080. -431602080.
      -431602080. -431602080. -431602080. -431602080. -431602080.
      -431602080. -431602080. -431602080. -431602080. -431602080.</_>
    <_>
      -431602080. -431602080. -431602080. -431602080. -431602080.
      -431602080. -431602080. -431602080. -431602080. -431602080.
      -431602080. -431602080. -431602080. -431602080. -431602080.
      -431602080. -431602080. -431602080. -431602080. -431602080.</_>
    <_>
      -431602080. -431602080. -431602080. -431602080. -431602080.
      -431602080. -431602080. -431602080. -431602080. -431602080.
      -431602080. -431602080. -431602080. -431602080. -431602080.
      -431602080. -431602080. -431602080. -431602080. -431602080.</_>
    <_>
      -431602080. -431602080. -431602080. -431602080. -431602080.
      -431602080. -431602080. -431602080. -431602080. -431602080.
      -431602080. -431602080. -431602080. -431602080. -431602080.
      -431602080. -431602080. -431602080. -431602080. -431602080.</_>
    <_>
      -431602080. -431602080. -431602080. -431602080. -431602080.
      -431602080. -431602080. -431602080. -431602080. -431602080.
      -431602080. -431602080. -431602080. -431602080. -431602080.
      -431602080. -431602080. -431602080. -431602080. -431602080.</_>
    <_>
      -431602080. -431602080. -431602080. -431602080. -431602080.
      -431602080. -431602080. -431602080. -431602080. -431602080.
      -431602080. -431602080. -431602080. -431602080. -431602080.
      -431602080. -431602080. -431602080. -431602080. -431602080.</_>
    <_>
      -431602080. -431602080. -431602080. -431602080. -431602080.
      -431602080. -431602080. -431602080. -431602080. -431602080.
      -431602080. -431602080. -431602080. -431602080. -431602080.
      -431602080. -431602080. -431602080. -431602080. -431602080.</_>
    <_>
      -431602080. -431602080. -431602080. -431602080. -431602080.
      -431602080. -431602080. -431602080. -431602080. -431602080.
      -431602080. -431602080. -431602080. -431602080. -431602080.
      -431602080. -431602080. -431602080. -431602080. -431602080.</_>
    <_>
      -431602080. -431602080. -431602080. -431602080. -431602080.
      -431602080. -431602080. -431602080. -431602080. -431602080.
      -431602080. -431602080. -431602080. -431602080. -431602080.
      -431602080. -431602080. -431602080. -431602080. -431602080.</_>
    <_>
      -431602080. -431602080. -431602080. -431602080. -431602080.
      -431602080. -431602080. -431602080. -431602080. -431602080.
      -431602080. -431602080. -431602080. -431602080. -431602080.
      -431602080. -431602080. -431602080. -431602080. -431602080.</_>
    <_>
      -431602080. -431602080. -431602080. -431602080. -431602080.
      -431602080. -431602080. -431602080. -431602080. -431602080.
      -431602080. -431602080. -431602080. -431602080. -431602080.
      -431602080. -431602080. -431602080. -431602080. -431602080.</_>
    <_>
      -431602080. -431602080. -431602080. -431602080. -431602080.
      -431602080. -431602080. -431602080. -431602080. -431602080.
      -431602080. -431602080. -431602080. -431602080. -431602080.
      -431602080. -431602080. -431602080. -431602080. -431602080.</_>
    <_>
      -431602080. -431602080. -431602080. -431602080. -431602080.
      -431602080. -431602080. -431602080. -431602080. -431602080.
      -431602080. -431602080. -431602080. -431602080. -431602080.
      -431602080. -431602080. -431602080. -431602080. -431602080.</_>
    <_>
      -431602080. -431602080. -431602080. -431602080. -431602080.
      -431602080. -431602080. -431602080. -431602080. -431602080.
      -431602080. -431602080. -431602080. -431602080. -431602080.
      -431602080. -431602080. -431602080. -431602080. -431602080.</_>
    <_>
      -431602080. -431602080. -431602080. -431602080. -431602080.
      -431602080. -431602080. -431602080. -431602080. -431602080.
      -431602080. -431602080. -431602080. -431602080. -431602080.
      -431602080. -431602080. -431602080. -431602080. -431602080.</_>
    <_>
      -431602080. -431602080. -431602080. -431602080. -431602080.
      -431602080. -431602080. -431602080. -431602080. -431602080.
      -431602080. -431602080. -431602080. -431602080. -431602080.
      -431602080. -431602080. -431602080. -431602080. -431602080.</_>
    <_>
      -431602080. -431602080. -431602080. -431602080. -431602080.
      -431602080. -431602080. -431602080. -431602080. -431602080.
      -431602080. -431602080. -431602080. -431602080. -431602080.
      -431602080. -431602080. -431602080. -431602080. -431602080.</_>
    <_>
      -431602080. -431602080. -431602080. -431602080. -431602080.
      -431602080. -431602080. -431602080. -431602080. -431602080.
      -431602080. -431602080. -431602080. -431602080. -431602080.
      -431602080. -431602080. -431602080. -431602080. -431602080.</_>
    <_>
      -431602080. -431602080. -431602080. -431602080. -431602080.
      -431602080. -431602080. -431602080. -431602080. -431602080.
      -431602080. -431602080. -431602080. -431602080. -431602080.
      -431602080. -431602080. -431602080. -431602080. -431602080.</_>
    <_>
      -431602080. -431602080. -431602080. -431602080. -431602080.
      -431602080. -431602080. -431602080. -431602080. -431602080.
      -431602080. -431602080. -431602080. -431602080. -431602080.
      -431602080. -431602080. -431602080. -431602080. -431602080.</_>
    <_>
      -431602080. -431602080. -431602080. -431602080. -431602080.
      -431602080. -431602080. -431602080. -431602080. -431602080.
      -431602080. -431602080. -431602080. -431602080. -431602080.
      -431602080. -431602080. -431602080. -431602080. -431602080.</_>
    <_>
      -431602080. -431602080. -431602080. -431602080. -431602080.
      -431602080. -431602080. -431602080. -431602080. -431602080.
      -431602080. -431602080. -431602080. -431602080. -431602080.
      -431602080. -431602080. -431602080. -431602080. -431602080.</_>
    <_>
      -431602080. -431602080. -431602080. -431602080. -431602080.
      -431602080. -431602080. -431602080. -431602080. -431602080.
      -431602080. -431602080. -431602080. -431602080. -431602080.
      -431602080. -431602080. -431602080. -431602080. -431602080.</_>
    <_>
      -431602080. -431602080. -431602080. -431602080. -431602080.
      -431602080. -431602080. -431602080. -431602080. -431602080.
      -431602080. -431602080. -431602080. -431602080. -431602080.
      -431602080. -431602080. -431602080. -431602080. -431602080.</_>
    <_>
      -431602080. -431602080. -431602080. -431602080. -431602080.
      -431602080. -431602080. -431602080. -431602080. -431602080.
      -431602080. -431602080. -431602080. -431602080. -431602080.
      -431602080. -431602080. -431602080. -431602080. -431602080.</_>
    <_>
      -431602080. -431602080. -431602080. -431602080. -431602080.
      -431602080. -431602080. -431602080. -431602080. -431602080.
      -431602080. -431602080. -431602080. -431602080. -431602080.
      -431602080. -431602080. -431602080. -431602080. -431602080.</_>
    <_>
      -431602080. -431602080. -431602080. -431602080. -431602080.
      -431602080. -431602080. -431602080. -431602080. -431602080.
      -431602080. -431602080. -431602080. -431602080. -431602080.
      -431602080. -431602080. -431602080. -431602080. -431602080.</_>
    <_>
      -431602080. -431602080. -431602080. -431602080. -431602080.
      -431602080. -431602080. -431602080. -431602080. -431602080.
      -431602080. -431602080. -431602080. -431602080. -431602080.
      -431602080. -431602080. -431602080. -431602080. -431602080.</_>
    <_>
      -431602080. -431602080. -431602080. -431602080. -431602080.
      -431602080. -431602080. -431602080. -431602080. -431602080.
      -431602080. -431602080. -431602080. -431602080. -431602080.
      -431602080. -431602080. -431602080. -431602080. -431602080.</_>
    <_>
      -431602080. -431602080. -431602080. -431602080. -431602080.
      -431602080. -431602080. -431602080. -431602080. -431602080.
      -431602080. -431602080. -431602080. -431602080. -431602080.
      -431602080. -431602080. -431602080. -431602080. -431602080.</_>
    <_>
      -431602080. -431602080. -431602080. -431602080. -431602080.
      -431602080. -431602080. -431602080. -431602080. -431602080.
      -431602080. -431602080. -431602080. -431602080. -431602080.
      -431602080. -431602080. -431602080. -431602080. -431602080.</_>
    <_>
      -431602080. -431602080. -431602080. -431602080. -431602080.
      -431602080. -431602080. -431602080. -431602080. -431602080.
      -431602080. -431602080. -431602080. -431602080. -431602080.
      -431602080. -431602080. -431602080. -431602080. -431602080.</_>
    <_>
      -431602080. -431602080. -431602080. -431602080. -431602080.
      -431602080. -431602080. -431602080. -431602080. -431602080.
      -431602080. -431602080. -431602080. -431602080. -431602080.
      -431602080. -431602080. -431602080. -431602080. -431602080.</_>
    <_>
      -431602080. -431602080. -431602080. -431602080. -431602080.
      -431602080. -431602080. -431602080. -431602080. -431602080.
      -431602080. -431602080. -431602080. -431602080. -431602080.
      -431602080. -431602080. -431602080. -431602080. -431602080.</_>
    <_>
      -431602080. -431602080. -431602080. -431602080. -431602080.
      -431602080. -431602080. -431602080. -431602080. -431602080.
      -431602080. -431602080. -431602080. -431602080. -431602080.
      -431602080. -431602080. -431602080. -431602080. -431602080.</_>
    <_>
      -431602080. -431602080. -431602080. -431602080. -431602080.
      -431602080. -431602080. -431602080. -431602080. -431602080.
      -431602080. -431602080. -431602080. -431602080. -431602080.
      -431602080. -431602080. -431602080. -431602080. -431602080.</_>
    <_>
      -431602080. -431602080. -431602080. -431602080. -431602080.
      -431602080. -431602080. -431602080. -431602080. -431602080.
      -431602080. -431602080. -431602080. -431602080. -431602080.
      -431602080. -431602080. -431602080. -431602080. -431602080.</_>
    <_>
      -431602080. -431602080. -431602080. -431602080. -431602080.
      -431602080. -431602080. -431602080. -431602080. -431602080.
      -431602080. -431602080. -431602080. -431602080. -431602080.
      -431602080. -431602080. -431602080. -431602080. -431602080.</_>
    <_>
      -431602080. -431602080. -431602080. -431602080. -431602080.
      -431602080. -431602080. -431602080. -431602080. -431602080.
      -431602080. -431602080. -431602080. -431602080. -431602080.
      -431602080. -431602080. -431602080. -431602080. -431602080.</_>
    <_>
      -431602080. -431602080. -431602080. -431602080. -431602080.
      -431602080. -431602080. -431602080. -431602080. -431602080.
      -431602080. -431602080. -431602080. -431602080. -431602080.
      -431602080. -431602080. -431602080. -431602080. -431602080.</_>
    <_>
      -431602080. -431602080. -431602080. -431602080. -431602080.
      -431602080. -431602080. -431602080. -431602080. -431602080.
      -431602080. -431602080. -431602080. -431602080. -431602080.
      -431602080. -431602080. -431602080. -431602080. -431602080.</_>
    <_>
      -431602080. -431602080. -431602080. -431602080. -431602080.
      -431602080. -431602080. -431602080. -431602080. -431602080.
      -431602080. -431602080. -431602080. -431602080. -431602080.
      -431602080. -431602080. -431602080. -431602080. -431602080.</_>
    <_>
      -431602080. -431602080. -431602080. -431602080. -431602080.
      -431602080. -431602080. -431602080. -431602080. -431602080.
      -431602080. -431602080. -431602080. -431602080. -431602080.
      -431602080. -431602080. -431602080. -431602080. -431602080.</_>
    <_>
      -431602080. -431602080. -431602080. -431602080. -431602080.
      -431602080. -431602080. -431602080. -431602080. -431602080.
      -431602080. -431602080. -431602080. -431602080. -431602080.
      -431602080. -431602080. -431602080. -431602080. -431602080.</_>
    <_>
      -431602080. -431602080. -431602080. -431602080. -431602080.
      -431602080. -431602080. -431602080. -431602080. -431602080.
      -431602080. -431602080. -431602080. -431602080. -431602080.
      -431602080. -431602080. -431602080. -431602080. -431602080.</_>
    <_>
      -431602080. -431602080. -431602080. -431602080. -431602080.
      -431602080. -431602080. -431602080. -431602080. -431602080.
      -431602080. -431602080. -431602080. -431602080. -431602080.
      -431602080. -431602080. -431602080. -431602080. -431602080.</_>
    <_>
      -431602080. -431602080. -431602080. -431602080. -431602080.
      -431602080. -431602080. -431602080. -431602080. -431602080.
      -431602080. -431602080. -431602080. -431602080. -431602080.
      -431602080. -431602080. -431602080. -431602080. -431602080.</_>
    <_>
      -431602080. -431602080. -431602080. -431602080. -431602080.
      -431602080. -431602080. -431602080. -431602080. -431602080.
      -431602080. -431602080. -431602080. -431602080. -431602080.
      -431602080. -431602080. -431602080. -431602080. -431602080.</_>
    <_>
      -431602080. -431602080. -431602080. -431602080. -431602080.
      -431602080. -431602080. -431602080. -431602080. -431602080.
      -431602080. -431602080. -431602080. -431602080. -431602080.
      -431602080. -431602080. -431602080. -431602080. -431602080.</_>
    <_>
      -431602080. -431602080. -431602080. -431602080. -431602080.
      -431602080. -431602080. -431602080. -431602080. -431602080.
      -431602080. -431602080. -431602080. -431602080. -431602080.
      -431602080. -431602080. -431602080. -431602080. -431602080.</_>
    <_>
      -431602080. -431602080. -431602080. -431602080. -431602080.
      -431602080. -431602080. -431602080. -431602080. -431602080.
      -431602080. -431602080. -431602080. -431602080. -431602080.
      -431602080. -431602080. -431602080. -431602080. -431602080.</_>
    <_>
      -431602080. -431602080. -431602080. -431602080. -431602080.
      -431602080. -431602080. -431602080. -431602080. -431602080.
      -431602080. -431602080. -431602080. -431602080. -431602080.
      -431602080. -431602080. -431602080. -431602080. -431602080.</_>
    <_>
      -431602080. -431602080. -431602080. -431602080. -431602080.
      -431602080. -431602080. -431602080. -431602080. -431602080.
      -431602080. -431602080. -431602080. -431602080. -431602080.
      -431602080. -431602080. -431602080. -431602080. -431602080.</_>
    <_>
      -431602080. -431602080. -431602080. -431602080. -431602080.
      -431602080. -431602080. -431602080. -431602080. -431602080.
      -431602080. -431602080. -431602080. -431602080. -431602080.
      -431602080. -431602080. -431602080. -431602080. -431602080.</_>
    <_>
      -431602080. -431602080. -431602080. -431602080. -431602080.
      -431602080. -431602080. -431602080. -431602080. -431602080.
      -431602080. -431602080. -431602080. -431602080. -431602080.
      -431602080. -431602080. -431602080. -431602080. -431602080.</_>
    <_>
      -431602080. -431602080. -431602080. -431602080. -431602080.
      -431602080. -431602080. -431602080. -431602080. -431602080.
      -431602080. -431602080. -431602080. -431602080. -431602080.
      -431602080. -431602080. -431602080. -431602080. -431602080.</_>
    <_>
      -431602080. -431602080. -431602080. -431602080. -431602080.
      -431602080. -431602080. -431602080. -431602080. -431602080.
      -431602080. -431602080. -431602080. -431602080. -431602080.
      -431602080. -431602080. -431602080. -431602080. -431602080.</_>
    <_>
      -431602080. -431602080. -431602080. -431602080. -431602080.
      -431602080. -431602080. -431602080. -431602080. -431602080.
      -431602080. -431602080. -431602080. -431602080. -431602080.
      -431602080. -431602080. -431602080. -431602080. -431602080.</_>
    <_>
      -431602080. -431602080. -431602080. -431602080. -431602080.
      -431602080. -431602080. -431602080. -431602080. -431602080.
      -431602080. -431602080. -431602080. -431602080. -431602080.
      -431602080. -431602080. -431602080. -431602080. -431602080.</_>
    <_>
      -431602080. -431602080. -431602080. -431602080. -431602080.
      -431602080. -431602080. -431602080. -431602080. -431602080.
      -431602080. -431602080. -431602080. -431602080. -431602080.
      -431602080. -431602080. -431602080. -431602080. -431602080.</_>
    <_>
      -431602080. -431602080. -431602080. -431602080. -431602080.
      -431602080. -431602080. -431602080. -431602080. -431602080.
      -431602080. -431602080. -431602080. -431602080. -431602080.
      -431602080. -431602080. -431602080. -431602080. -431602080.</_>
    <_>
      -431602080. -431602080. -431602080. -431602080. -431602080.
      -431602080. -431602080. -431602080. -431602080. -431602080.
      -431602080. -431602080. -431602080. -431602080. -431602080.
      -431602080. -431602080. -431602080. -431602080. -431602080.</_>
    <_>
      -431602080. -431602080. -431602080. -431602080. -431602080.
      -431602080. -431602080. -431602080. -431602080. -431602080.
      -431602080. -431602080. -431602080. -431602080. -431602080.
      -431602080. -431602080. -431602080. -431602080. -431602080.</_>
    <_>
      -431602080. -431602080. -431602080. -431602080. -431602080.
      -431602080. -431602080. -431602080. -431602080. -431602080.
      -431602080. -431602080. -431602080. -431602080. -431602080.
      -431602080. -431602080. -431602080. -431602080. -431602080.</_>
    <_>
      -431602080. -431602080. -431602080. -431602080. -431602080.
      -431602080. -431602080. -431602080. -431602080. -431602080.
      -431602080. -431602080. -431602080. -431602080. -431602080.
      -431602080. -431602080. -431602080. -431602080. -431602080.</_>
    <_>
      -431602080. -431602080. -431602080. -431602080. -431602080.
      -431602080. -431602080. -431602080. -431602080. -431602080.
      -431602080. -431602080. -431602080. -431602080. -431602080.
      -431602080. -431602080. -431602080. -431602080. -431602080.</_>
    <_>
      -431602080. -431602080. -431602080. -431602080. -431602080.
      -431602080. -431602080. -431602080. -431602080. -431602080.
      -431602080. -431602080. -431602080. -431602080. -431602080.
      -431602080. -431602080. -431602080. -431602080. -431602080.</_>
    <_>
      -431602080. -431602080. -431602080. -431602080. -431602080.
      -431602080. -431602080. -431602080. -431602080. -431602080.
      -431602080. -431602080. -431602080. -431602080. -431602080.
      -431602080. -431602080. -431602080. -431602080. -431602080.</_>
    <_>
      -431602080. -431602080. -431602080. -431602080. -431602080.
      -431602080. -431602080. -431602080. -431602080. -431602080.
      -431602080. -431602080. -431602080. -431602080. -431602080.
      -431602080. -431602080. -431602080. -431602080. -431602080.</_>
    <_>
      -431602080. -431602080. -431602080. -431602080. -431602080.
      -431602080. -431602080. -431602080. -431602080. -431602080.
      -431602080. -431602080. -431602080. -431602080. -431602080.
      -431602080. -431602080. -431602080. -431602080. -431602080.</_>
    <_>
      -431602080. -431602080. -431602080. -431602080. -431602080.
      -431602080. -431602080. -431602080. -431602080. -431602080.
      -431602080. -431602080. -431602080. -431602080. -431602080.
      -431602080. -431602080. -431602080. -431602080. -431602080.</_>
    <_>
      -431602080. -431602080. -431602080. -431602080. -431602080.
      -431602080. -431602080. -431602080. -431602080. -431602080.
      -431602080. -431602080. -431602080. -431602080. -431602080.
      -431602080. -431602080. -431602080. -431602080. -431602080.</_>
    <_>
      -431602080. -431602080. -431602080. -431602080. -431602080.
      -431602080. -431602080. -431602080. -431602080. -431602080.
      -431602080. -431602080. -431602080. -431602080. -431602080.
      -431602080. -431602080. -431602080. -431602080. -431602080.</_>
    <_>
      -431602080. -431602080. -431602080. -431602080. -431602080.
      -431602080. -431602080. -431602080. -431602080. -431602080.
      -431602080. -431602080. -431602080. -431602080. -431602080.
      -431602080. -431602080. -431602080. -431602080. -431602080.</_>
    <_>
      -431602080. -431602080. -431602080. -431602080. -431602080.
      -431602080. -431602080. -431602080. -431602080. -431602080.
      -431602080. -431602080. -431602080. -431602080. -431602080.
      -431602080. -431602080. -431602080. -431602080. -431602080.</_>
    <_>
      -431602080. -431602080. -431602080. -431602080. -431602080.
      -431602080. -431602080. -431602080. -431602080. -431602080.
      -431602080. -431602080. -431602080. -431602080. -431602080.
      -431602080. -431602080. -431602080. -431602080. -431602080.</_>
    <_>
      -431602080. -431602080. -431602080. -431602080. -431602080.
      -431602080. -431602080. -431602080. -431602080. -431602080.
      -431602080. -431602080. -431602080. -431602080. -431602080.
      -431602080. -431602080. -431602080. -431602080. -431602080.</_>
    <_>
      -431602080. -431602080. -431602080. -431602080. -431602080.
      -431602080. -431602080. -431602080. -431602080. -431602080.
      -431602080. -431602080. -431602080. -431602080. -431602080.
      -431602080. -431602080. -431602080. -431602080. -431602080.</_>
    <_>
      -431602080. -431602080. -431602080. -431602080. -431602080.
      -431602080. -431602080. -431602080. -431602080. -431602080.
      -431602080. -431602080. -431602080. -431602080. -431602080.
      -431602080. -431602080. -431602080. -431602080. -431602080.</_>
    <_>
      -431602080. -431602080. -431602080. -431602080. -431602080.
      -431602080. -431602080. -431602080. -431602080. -431602080.
      -431602080. -431602080. -431602080. -431602080. -431602080.
      -431602080. -431602080. -431602080. -431602080. -431602080.</_>
    <_>
      -431602080. -431602080. -431602080. -431602080. -431602080.
      -431602080. -431602080. -431602080. -431602080. -431602080.
      -431602080. -431602080. -431602080. -431602080. -431602080.
      -431602080. -431602080. -431602080. -431602080. -431602080.</_>
    <_>
      -431602080. -431602080. -431602080. -431602080. -431602080.
      -431602080. -431602080. -431602080. -431602080. -431602080.
      -431602080. -431602080. -431602080. -431602080. -431602080.
      -431602080. -431602080. -431602080. -431602080. -431602080.</_>
    <_>
      -431602080. -431602080. -431602080. -431602080. -431602080.
      -431602080. -431602080. -431602080. -431602080. -431602080.
      -431602080. -431602080. -431602080. -431602080. -431602080.
      -431602080. -431602080. -431602080. -431602080. -431602080.</_>
    <_>
      -431602080. -431602080. -431602080. -431602080. -431602080.
      -431602080. -431602080. -431602080. -431602080. -431602080.
      -431602080. -431602080. -431602080. -431602080. -431602080.
      -431602080. -431602080. -431602080. -431602080. -431602080.</_>
    <_>
      -431602080. -431602080. -431602080. -431602080. -431602080.
      -431602080. -431602080. -431602080. -431602080. -431602080.
      -431602080. -431602080. -431602080. -431602080. -431602080.
      -431602080. -431602080. -431602080. -431602080. -431602080.</_>
    <_>
      -431602080. -431602080. -431602080. -431602080. -431602080.
      -431602080. -431602080. -431602080. -431602080. -431602080.
      -431602080. -431602080. -431602080. -431602080. -431602080.
      -431602080. -431602080. -431602080. -431602080. -431602080.</_>
    <_>
      -431602080. -431602080. -431602080. -431602080. -431602080.
      -431602080. -431602080. -431602080. -431602080. -431602080.
      -431602080. -431602080. -431602080. -431602080. -431602080.
      -431602080. -431602080. -431602080. -431602080. -431602080.</_>
    <_>
      -431602080. -431602080. -431602080. -431602080. -431602080.
      -431602080. -431602080. -431602080. -431602080. -431602080.
      -431602080. -431602080. -431602080. -431602080. -431602080.
      -431602080. -431602080. -431602080. -431602080. -431602080.</_>
    <_>
      -431602080. -431602080. -431602080. -431602080. -431602080.
      -431602080. -431602080. -431602080. -431602080. -431602080.
      -431602080. -431602080. -431602080. -431602080. -431602080.
      -431602080. -431602080. -431602080. -431602080. -431602080.</_>
    <_>
      -431602080. -431602080. -431602080. -431602080. -431602080.
      -431602080. -431602080. -431602080. -431602080. -431602080.
      -431602080. -431602080. -431602080. -431602080. -431602080.
      -431602080. -431602080. -431602080. -431602080. -431602080.</_>
    <_>
      -431602080. -431602080. -431602080. -431602080. -431602080.
      -431602080. -431602080. -431602080. -431602080. -431602080.
      -431602080. -431602080. -431602080. -431602080. -431602080.
      -431602080. -431602080. -431602080. -431602080. -431602080.</_>
    <_>
      -431602080. -431602080. -431602080. -431602080. -431602080.
      -431602080. -431602080. -431602080. -431602080. -431602080.
      -431602080. -431602080. -431602080. -431602080. -431602080.
      -431602080. -431602080. -431602080. -431602080. -431602080.</_>
    <_>
      -431602080. -431602080. -431602080. -431602080. -431602080.
      -431602080. -431602080. -431602080. -431602080. -431602080.
      -431602080. -431602080. -431602080. -431602080. -431602080.
      -431602080. -431602080. -431602080. -431602080. -431602080.</_>
    <_>
      -431602080. -431602080. -431602080. -431602080. -431602080.
      -431602080. -431602080. -431602080. -431602080. -431602080.
      -431602080. -431602080. -431602080. -431602080. -431602080.
      -431602080. -431602080. -431602080. -431602080. -431602080.</_>
    <_>
      -431602080. -431602080. -431602080. -431602080. -431602080.
      -431602080. -431602080. -431602080. -431602080. -431602080.
      -431602080. -431602080. -431602080. -431602080. -431602080.
      -431602080. -431602080. -431602080. -431602080. -431602080.</_>
    <_>
      -431602080. -431602080. -431602080. -431602080. -431602080.
      -431602080. -431602080. -431602080. -431602080. -431602080.
      -431602080. -431602080. -431602080. -431602080. -431602080.
      -431602080. -431602080. -431602080. -431602080. -431602080.</_>
    <_>
      -431602080. -431602080. -431602080. -431602080. -431602080.
      -431602080. -431602080. -431602080. -431602080. -431602080.
      -431602080. -431602080. -431602080. -431602080. -431602080.
      -431602080. -431602080. -431602080. -431602080. -431602080.</_>
    <_>
      -431602080. -431602080. -431602080. -431602080. -431602080.
      -431602080. -431602080. -431602080. -431602080. -431602080.
      -431602080. -431602080. -431602080. -431602080. -431602080.
      -431602080. -431602080. -431602080. -431602080. -431602080.</_>
    <_>
      -431602080. -431602080. -431602080. -431602080. -431602080.
      -431602080. -431602080. -431602080. -431602080. -431602080.
      -431602080. -431602080. -431602080. -431602080. -431602080.
      -431602080. -431602080. -431602080. -431602080. -431602080.</_>
    <_>
      -431602080. -431602080. -431602080. -431602080. -431602080.
      -431602080. -431602080. -431602080. -431602080. -431602080.
      -431602080. -431602080. -431602080. -431602080. -431602080.
      -431602080. -431602080. -431602080. -431602080. -431602080.</_>
    <_>
      -431602080. -431602080. -431602080. -431602080. -431602080.
      -431602080. -431602080. -431602080. -431602080. -431602080.
      -431602080. -431602080. -431602080. -431602080. -431602080.
      -431602080. -431602080. -431602080. -431602080. -431602080.</_>
    <_>
      -431602080. -431602080. -431602080. -431602080. -431602080.
      -431602080. -431602080. -431602080. -431602080. -431602080.
      -431602080. -431602080. -431602080. -431602080. -431602080.
      -431602080. -431602080. -431602080. -431602080. -431602080.</_>
    <_>
      -431602080. -431602080. -431602080. -431602080. -431602080.
      -431602080. -431602080. -431602080. -431602080. -431602080.
      -431602080. -431602080. -431602080. -431602080. -431602080.
      -431602080. -431602080. -431602080. -431602080. -431602080.</_>
    <_>
      -431602080. -431602080. -431602080. -431602080. -431602080.
      -431602080. -431602080. -431602080. -431602080. -431602080.
      -431602080. -431602080. -431602080. -431602080. -431602080.
      -431602080. -431602080. -431602080. -431602080. -431602080.</_>
    <_>
      -431602080. -431602080. -431602080. -431602080. -431602080.
      -431602080. -431602080. -431602080. -431602080. -431602080.
      -431602080. -431602080. -431602080. -431602080. -431602080.
      -431602080. -431602080. -431602080. -431602080. -431602080.</_>
    <_>
      -431602080. -431602080. -431602080. -431602080. -431602080.
      -431602080. -431602080. -431602080. -431602080. -431602080.
      -431602080. -431602080. -431602080. -431602080. -431602080.
      -431602080. -431602080. -431602080. -431602080. -431602080.</_>
    <_>
      -431602080. -431602080. -431602080. -431602080. -431602080.
      -431602080. -431602080. -431602080. -431602080. -431602080.
      -431602080. -431602080. -431602080. -431602080. -431602080.
      -431602080. -431602080. -431602080. -431602080. -431602080.</_>
    <_>
      -431602080. -431602080. -431602080. -431602080. -431602080.
      -431602080. -431602080. -431602080. -431602080. -431602080.
      -431602080. -431602080. -431602080. -431602080. -431602080.
      -431602080. -431602080. -431602080. -431602080. -431602080.</_>
    <_>
      -431602080. -431602080. -431602080. -431602080. -431602080.
      -431602080. -431602080. -431602080. -431602080. -431602080.
      -431602080. -431602080. -431602080. -431602080. -431602080.
      -431602080. -431602080. -431602080. -431602080. -431602080.</_>
    <_>
      -431602080. -431602080. -431602080. -431602080. -431602080.
      -431602080. -431602080. -431602080. -431602080. -431602080.
      -431602080. -431602080. -431602080. -431602080. -431602080.
      -431602080. -431602080. -431602080. -431602080. -431602080.</_>
    <_>
      -431602080. -431602080. -431602080. -431602080. -431602080.
      -431602080. -431602080. -431602080. -431602080. -431602080.
      -431602080. -431602080. -431602080. -431602080. -431602080.
      -431602080. -431602080. -431602080. -431602080. -431602080.</_>
    <_>
      -431602080. -431602080. -431602080. -431602080. -431602080.
      -431602080. -431602080. -431602080. -431602080. -431602080.
      -431602080. -431602080. -431602080. -431602080. -431602080.
      -431602080. -431602080. -431602080. -431602080. -431602080.</_>
    <_>
      -431602080. -431602080. -431602080. -431602080. -431602080.
      -431602080. -431602080. -431602080. -431602080. -431602080.
      -431602080. -431602080. -431602080. -431602080. -431602080.
      -431602080. -431602080. -431602080. -431602080. -431602080.</_>
    <_>
      -431602080. -431602080. -431602080. -431602080. -431602080.
      -431602080. -431602080. -431602080. -431602080. -431602080.
      -431602080. -431602080. -431602080. -431602080. -431602080.
      -431602080. -431602080. -431602080. -431602080. -431602080.</_>
    <_>
      -431602080. -431602080. -431602080. -431602080. -431602080.
      -431602080. -431602080. -431602080. -431602080. -431602080.
      -431602080. -431602080. -431602080. -431602080. -431602080.
      -431602080. -431602080. -431602080. -431602080. -431602080.</_>
    <_>
      -431602080. -431602080. -431602080. -431602080. -431602080.
      -431602080. -431602080. -431602080. -431602080. -431602080.
      -431602080. -431602080. -431602080. -431602080. -431602080.
      -431602080. -431602080. -431602080. -431602080. -431602080.</_>
    <_>
      -431602080. -431602080. -431602080. -431602080. -431602080.
      -431602080. -431602080. -431602080. -431602080. -431602080.
      -431602080. -431602080. -431602080. -431602080. -431602080.
      -431602080. -431602080. -431602080. -431602080. -431602080.</_>
    <_>
      -431602080. -431602080. -431602080. -431602080. -431602080.
      -431602080. -431602080. -431602080. -431602080. -431602080.
      -431602080. -431602080. -431602080. -431602080. -431602080.
      -431602080. -431602080. -431602080. -431602080. -431602080.</_>
    <_>
      -431602080. -431602080. -431602080. -431602080. -431602080.
      -431602080. -431602080. -431602080. -431602080. -431602080.
      -431602080. -431602080. -431602080. -431602080. -431602080.
      -431602080. -431602080. -431602080. -431602080. -431602080.</_>
    <_>
      -431602080. -431602080. -431602080. -431602080. -431602080.
      -431602080. -431602080. -431602080. -431602080. -431602080.
      -431602080. -431602080. -431602080. -431602080. -431602080.
      -431602080. -431602080. -431602080. -431602080. -431602080.</_>
    <_>
      -431602080. -431602080. -431602080. -431602080. -431602080.
      -431602080. -431602080. -431602080. -431602080. -431602080.
      -431602080. -431602080. -431602080. -431602080. -431602080.
      -431602080. -431602080. -431602080. -431602080. -431602080.</_>
    <_>
      -431602080. -431602080. -431602080. -431602080. -431602080.
      -431602080. -431602080. -431602080. -431602080. -431602080.
      -431602080. -431602080. -431602080. -431602080. -431602080.
      -431602080. -431602080. -431602080. -431602080. -431602080.</_>
    <_>
      -431602080. -431602080. -431602080. -431602080. -431602080.
      -431602080. -431602080. -431602080. -431602080. -431602080.
      -431602080. -431602080. -431602080. -431602080. -431602080.
      -431602080. -431602080. -431602080. -431602080. -431602080.</_>
    <_>
      -431602080. -431602080. -431602080. -431602080. -431602080.
      -431602080. -431602080. -431602080. -431602080. -431602080.
      -431602080. -431602080. -431602080. -431602080. -431602080.
      -431602080. -431602080. -431602080. -431602080. -431602080.</_>
    <_>
      -431602080. -431602080. -431602080. -431602080. -431602080.
      -431602080. -431602080. -431602080. -431602080. -431602080.
      -431602080. -431602080. -431602080. -431602080. -431602080.
      -431602080. -431602080. -431602080. -431602080. -431602080.</_>
    <_>
      -431602080. -431602080. -431602080. -431602080. -431602080.
      -431602080. -431602080. -431602080. -431602080. -431602080.
      -431602080. -431602080. -431602080. -431602080. -431602080.
      -431602080. -431602080. -431602080. -431602080. -431602080.</_>
    <_>
      -431602080. -431602080. -431602080. -431602080. -431602080.
      -431602080. -431602080. -431602080. -431602080. -431602080.
      -431602080. -431602080. -431602080. -431602080. -431602080.
      -431602080. -431602080. -431602080. -431602080. -431602080.</_>
    <_>
      -431602080. -431602080. -431602080. -431602080. -431602080.
      -431602080. -431602080. -431602080. -431602080. -431602080.
      -431602080. -431602080. -431602080. -431602080. -431602080.
      -431602080. -431602080. -431602080. -431602080. -431602080.</_>
    <_>
      -431602080. -431602080. -431602080. -431602080. -431602080.
      -431602080. -431602080. -431602080. -431602080. -431602080.
      -431602080. -431602080. -431602080. -431602080. -431602080.
      -431602080. -431602080. -431602080. -431602080. -431602080.</_>
    <_>
      -431602080. -431602080. -431602080. -431602080. -431602080.
      -431602080. -431602080. -431602080. -431602080. -431602080.
      -431602080. -431602080. -431602080. -431602080. -431602080.
      -431602080. -431602080. -431602080. -431602080. -431602080.</_>
    <_>
      -431602080. -431602080. -431602080. -431602080. -431602080.
      -431602080. -431602080. -431602080. -431602080. -431602080.
      -431602080. -431602080. -431602080. -431602080. -431602080.
      -431602080. -431602080. -431602080. -431602080. -431602080.</_>
    <_>
      -431602080. -431602080. -431602080. -431602080. -431602080.
      -431602080. -431602080. -431602080. -431602080. -431602080.
      -431602080. -431602080. -431602080. -431602080. -431602080.
      -431602080. -431602080. -431602080. -431602080. -431602080.</_>
    <_>
      -431602080. -431602080. -431602080. -431602080. -431602080.
      -431602080. -431602080. -431602080. -431602080. -431602080.
      -431602080. -431602080. -431602080. -431602080. -431602080.
      -431602080. -431602080. -431602080. -431602080. -431602080.</_>
    <_>
      -431602080. -431602080. -431602080. -431602080. -431602080.
      -431602080. -431602080. -431602080. -431602080. -431602080.
      -431602080. -431602080. -431602080. -431602080. -431602080.
      -431602080. -431602080. -431602080. -431602080. -431602080.</_>
    <_>
      -431602080. -431602080. -431602080. -431602080. -431602080.
      -431602080. -431602080. -431602080. -431602080. -431602080.
      -431602080. -431602080. -431602080. -431602080. -431602080.
      -431602080. -431602080. -431602080. -431602080. -431602080.</_>
    <_>
      -431602080. -431602080. -431602080. -431602080. -431602080.
      -431602080. -431602080. -431602080. -431602080. -431602080.
      -431602080. -431602080. -431602080. -431602080. -431602080.
      -431602080. -431602080. -431602080. -431602080. -431602080.</_>
    <_>
      -431602080. -431602080. -431602080. -431602080. -431602080.
      -431602080. -431602080. -431602080. -431602080. -431602080.
      -431602080. -431602080. -431602080. -431602080. -431602080.
      -431602080. -431602080. -431602080. -431602080. -431602080.</_>
    <_>
      -431602080. -431602080. -431602080. -431602080. -431602080.
      -431602080. -431602080. -431602080. -431602080. -431602080.
      -431602080. -431602080. -431602080. -431602080. -431602080.
      -431602080. -431602080. -431602080. -431602080. -431602080.</_>
    <_>
      -431602080. -431602080. -431602080. -431602080. -431602080.
      -431602080. -431602080. -431602080. -431602080. -431602080.
      -431602080. -431602080. -431602080. -431602080. -431602080.
      -431602080. -431602080. -431602080. -431602080. -431602080.</_>
    <_>
      -431602080. -431602080. -431602080. -431602080. -431602080.
      -431602080. -431602080. -431602080. -431602080. -431602080.
      -431602080. -431602080. -431602080. -431602080. -431602080.
      -431602080. -431602080. -431602080. -431602080. -431602080.</_>
    <_>
      -431602080. -431602080. -431602080. -431602080. -431602080.
      -431602080. -431602080. -431602080. -431602080. -431602080.
      -431602080. -431602080. -431602080. -431602080. -431602080.
      -431602080. -431602080. -431602080. -431602080. -431602080.</_>
    <_>
      -431602080. -431602080. -431602080. -431602080. -431602080.
      -431602080. -431602080. -431602080. -431602080. -431602080.
      -431602080. -431602080. -431602080. -431602080. -431602080.
      -431602080. -431602080. -431602080. -431602080. -431602080.</_>
    <_>
      -431602080. -431602080. -431602080. -431602080. -431602080.
      -431602080. -431602080. -431602080. -431602080. -431602080.
      -431602080. -431602080. -431602080. -431602080. -431602080.
      -431602080. -431602080. -431602080. -431602080. -431602080.</_>
    <_>
      -431602080. -431602080. -431602080. -431602080. -431602080.
      -431602080. -431602080. -431602080. -431602080. -431602080.
      -431602080. -431602080. -431602080. -431602080. -431602080.
      -431602080. -431602080. -431602080. -431602080. -431602080.</_>
    <_>
      -431602080. -431602080. -431602080. -431602080. -431602080.
      -431602080. -431602080. -431602080. -431602080. -431602080.
      -431602080. -431602080. -431602080. -431602080. -431602080.
      -431602080. -431602080. -431602080. -431602080. -431602080.</_>
    <_>
      -431602080. -431602080. -431602080. -431602080. -431602080.
      -431602080. -431602080. -431602080. -431602080. -431602080.
      -431602080. -431602080. -431602080. -431602080. -431602080.
      -431602080. -431602080. -431602080. -431602080. -431602080.</_>
    <_>
      -431602080. -431602080. -431602080. -431602080. -431602080.
      -431602080. -431602080. -431602080. -431602080. -431602080.
      -431602080. -431602080. -431602080. -431602080. -431602080.
      -431602080. -431602080. -431602080. -431602080. -431602080.</_>
    <_>
      -431602080. -431602080. -431602080. -431602080. -431602080.
      -431602080. -431602080. -431602080. -431602080. -431602080.
      -431602080. -431602080. -431602080. -431602080. -431602080.
      -431602080. -431602080. -431602080. -431602080. -431602080.</_>
    <_>
      -431602080. -431602080. -431602080. -431602080. -431602080.
      -431602080. -431602080. -431602080. -431602080. -431602080.
      -431602080. -431602080. -431602080. -431602080. -431602080.
      -431602080. -431602080. -431602080. -431602080. -431602080.</_>
    <_>
      -431602080. -431602080. -431602080. -431602080. -431602080.
      -431602080. -431602080. -431602080. -431602080. -431602080.
      -431602080. -431602080. -431602080. -431602080. -431602080.
      -431602080. -431602080. -431602080. -431602080. -431602080.</_>
    <_>
      -431602080. -431602080. -431602080. -431602080. -431602080.
      -431602080. -431602080. -431602080. -431602080. -431602080.
      -431602080. -431602080. -431602080. -431602080. -431602080.
      -431602080. -431602080. -431602080. -431602080. -431602080.</_>
    <_>
      -431602080. -431602080. -431602080. -431602080. -431602080.
      -431602080. -431602080. -431602080. -431602080. -431602080.
      -431602080. -431602080. -431602080. -431602080. -431602080.
      -431602080. -431602080. -431602080. -431602080. -431602080.</_>
    <_>
      -431602080. -431602080. -431602080. -431602080. -431602080.
      -431602080. -431602080. -431602080. -431602080. -431602080.
      -431602080. -431602080. -431602080. -431602080. -431602080.
      -431602080. -431602080. -431602080. -431602080. -431602080.</_>
    <_>
      -431602080. -431602080. -431602080. -431602080. -431602080.
      -431602080. -431602080. -431602080. -431602080. -431602080.
      -431602080. -431602080. -431602080. -431602080. -431602080.
      -431602080. -431602080. -431602080. -431602080. -431602080.</_>
    <_>
      -431602080. -431602080. -431602080. -431602080. -431602080.
      -431602080. -431602080. -431602080. -431602080. -431602080.
      -431602080. -431602080. -431602080. -431602080. -431602080.
      -431602080. -431602080. -431602080. -431602080. -431602080.</_>
    <_>
      -431602080. -431602080. -431602080. -431602080. -431602080.
      -431602080. -431602080. -431602080. -431602080. -431602080.
      -431602080. -431602080. -431602080. -431602080. -431602080.
      -431602080. -431602080. -431602080. -431602080. -431602080.</_>
    <_>
      -431602080. -431602080. -431602080. -431602080. -431602080.
      -431602080. -431602080. -431602080. -431602080. -431602080.
      -431602080. -431602080. -431602080. -431602080. -431602080.
      -431602080. -431602080. -431602080. -431602080. -431602080.</_>
    <_>
      -431602080. -431602080. -431602080. -431602080. -431602080.
      -431602080. -431602080. -431602080. -431602080. -431602080.
      -431602080. -431602080. -431602080. -431602080. -431602080.
      -431602080. -431602080. -431602080. -431602080. -431602080.</_>
    <_>
      -431602080. -431602080. -431602080. -431602080. -431602080.
      -431602080. -431602080. -431602080. -431602080. -431602080.
      -431602080. -431602080. -431602080. -431602080. -431602080.
      -431602080. -431602080. -431602080. -431602080. -431602080.</_>
    <_>
      -431602080. -431602080. -431602080. -431602080. -431602080.
      -431602080. -431602080. -431602080. -431602080. -431602080.
      -431602080. -431602080. -431602080. -431602080. -431602080.
      -431602080. -431602080. -431602080. -431602080. -431602080.</_>
    <_>
      -431602080. -431602080. -431602080. -431602080. -431602080.
      -431602080. -431602080. -431602080. -431602080. -431602080.
      -431602080. -431602080. -431602080. -431602080. -431602080.
      -431602080. -431602080. -431602080. -431602080. -431602080.</_>
    <_>
      -431602080. -431602080. -431602080. -431602080. -431602080.
      -431602080. -431602080. -431602080. -431602080. -431602080.
      -431602080. -431602080. -431602080. -431602080. -431602080.
      -431602080. -431602080. -431602080. -431602080. -431602080.</_>
    <_>
      -431602080. -431602080. -431602080. -431602080. -431602080.
      -431602080. -431602080. -431602080. -431602080. -431602080.
      -431602080. -431602080. -431602080. -431602080. -431602080.
      -431602080. -431602080. -431602080. -431602080. -431602080.</_>
    <_>
      -431602080. -431602080. -431602080. -431602080. -431602080.
      -431602080. -431602080. -431602080. -431602080. -431602080.
      -431602080. -431602080. -431602080. -431602080. -431602080.
      -431602080. -431602080. -431602080. -431602080. -431602080.</_>
    <_>
      -431602080. -431602080. -431602080. -431602080. -431602080.
      -431602080. -431602080. -431602080. -431602080. -431602080.
      -431602080. -431602080. -431602080. -431602080. -431602080.
      -431602080. -431602080. -431602080. -431602080. -431602080.</_>
    <_>
      -431602080. -431602080. -431602080. -431602080. -431602080.
      -431602080. -431602080. -431602080. -431602080. -431602080.
      -431602080. -431602080. -431602080. -431602080. -431602080.
      -431602080. -431602080. -431602080. -431602080. -431602080.</_>
    <_>
      -431602080. -431602080. -431602080. -431602080. -431602080.
      -431602080. -431602080. -431602080. -431602080. -431602080.
      -431602080. -431602080. -431602080. -431602080. -431602080.
      -431602080. -431602080. -431602080. -431602080. -431602080.</_>
    <_>
      -431602080. -431602080. -431602080. -431602080. -431602080.
      -431602080. -431602080. -431602080. -431602080. -431602080.
      -431602080. -431602080. -431602080. -431602080. -431602080.
      -431602080. -431602080. -431602080. -431602080. -431602080.</_>
    <_>
      -431602080. -431602080. -431602080. -431602080. -431602080.
      -431602080. -431602080. -431602080. -431602080. -431602080.
      -431602080. -431602080. -431602080. -431602080. -431602080.
      -431602080. -431602080. -431602080. -431602080. -431602080.</_>
    <_>
      -431602080. -431602080. -431602080. -431602080. -431602080.
      -431602080. -431602080. -431602080. -431602080. -431602080.
      -431602080. -431602080. -431602080. -431602080. -431602080.
      -431602080. -431602080. -431602080. -431602080. -431602080.</_>
    <_>
      -431602080. -431602080. -431602080. -431602080. -431602080.
      -431602080. -431602080. -431602080. -431602080. -431602080.
      -431602080. -431602080. -431602080. -431602080. -431602080.
      -431602080. -431602080. -431602080. -431602080. -431602080.</_>
    <_>
      -431602080. -431602080. -431602080. -431602080. -431602080.
      -431602080. -431602080. -431602080. -431602080. -431602080.
      -431602080. -431602080. -431602080. -431602080. -431602080.
      -431602080. -431602080. -431602080. -431602080. -431602080.</_>
    <_>
      -431602080. -431602080. -431602080. -431602080. -431602080.
      -431602080. -431602080. -431602080. -431602080. -431602080.
      -431602080. -431602080. -431602080. -431602080. -431602080.
      -431602080. -431602080. -431602080. -431602080. -431602080.</_>
    <_>
      -431602080. -431602080. -431602080. -431602080. -431602080.
      -431602080. -431602080. -431602080. -431602080. -431602080.
      -431602080. -431602080. -431602080. -431602080. -431602080.
      -431602080. -431602080. -431602080. -431602080. -431602080.</_>
    <_>
      -431602080. -431602080. -431602080. -431602080. -431602080.
      -431602080. -431602080. -431602080. -431602080. -431602080.
      -431602080. -431602080. -431602080. -431602080. -431602080.
      -431602080. -431602080. -431602080. -431602080. -431602080.</_>
    <_>
      -431602080. -431602080. -431602080. -431602080. -431602080.
      -431602080. -431602080. -431602080. -431602080. -431602080.
      -431602080. -431602080. -431602080. -431602080. -431602080.
      -431602080. -431602080. -431602080. -431602080. -431602080.</_>
    <_>
      -431602080. -431602080. -431602080. -431602080. -431602080.
      -431602080. -431602080. -431602080. -431602080. -431602080.
      -431602080. -431602080. -431602080. -431602080. -431602080.
      -431602080. -431602080. -431602080. -431602080. -431602080.</_>
    <_>
      -431602080. -431602080. -431602080. -431602080. -431602080.
      -431602080. -431602080. -431602080. -431602080. -431602080.
      -431602080. -431602080. -431602080. -431602080. -431602080.
      -431602080. -431602080. -431602080. -431602080. -431602080.</_>
    <_>
      -431602080. -431602080. -431602080. -431602080. -431602080.
      -431602080. -431602080. -431602080. -431602080. -431602080.
      -431602080. -431602080. -431602080. -431602080. -431602080.
      -431602080. -431602080. -431602080. -431602080. -431602080.</_>
    <_>
      -431602080. -431602080. -431602080. -431602080. -431602080.
      -431602080. -431602080. -431602080. -431602080. -431602080.
      -431602080. -431602080. -431602080. -431602080. -431602080.
      -431602080. -431602080. -431602080. -431602080. -431602080.</_>
    <_>
      -431602080. -431602080. -431602080. -431602080. -431602080.
      -431602080. -431602080. -431602080. -431602080. -431602080.
      -431602080. -431602080. -431602080. -431602080. -431602080.
      -431602080. -431602080. -431602080. -431602080. -431602080.</_>
    <_>
      -431602080. -431602080. -431602080. -431602080. -431602080.
      -431602080. -431602080. -431602080. -431602080. -431602080.
      -431602080. -431602080. -431602080. -431602080. -431602080.
      -431602080. -431602080. -431602080. -431602080. -431602080.</_>
    <_>
      -431602080. -431602080. -431602080. -431602080. -431602080.
      -431602080. -431602080. -431602080. -431602080. -431602080.
      -431602080. -431602080. -431602080. -431602080. -431602080.
      -431602080. -431602080. -431602080. -431602080. -431602080.</_>
    <_>
      -431602080. -431602080. -431602080. -431602080. -431602080.
      -431602080. -431602080. -431602080. -431602080. -431602080.
      -431602080. -431602080. -431602080. -431602080. -431602080.
      -431602080. -431602080. -431602080. -431602080. -431602080.</_>
    <_>
      -431602080. -431602080. -431602080. -431602080. -431602080.
      -431602080. -431602080. -431602080. -431602080. -431602080.
      -431602080. -431602080. -431602080. -431602080. -431602080.
      -431602080. -431602080. -431602080. -431602080. -431602080.</_>
    <_>
      -431602080. -431602080. -431602080. -431602080. -431602080.
      -431602080. -431602080. -431602080. -431602080. -431602080.
      -431602080. -431602080. -431602080. -431602080. -431602080.
      -431602080. -431602080. -431602080. -431602080. -431602080.</_>
    <_>
      -431602080. -431602080. -431602080. -431602080. -431602080.
      -431602080. -431602080. -431602080. -431602080. -431602080.
      -431602080. -431602080. -431602080. -431602080. -431602080.
      -431602080. -431602080. -431602080. -431602080. -431602080.</_>
    <_>
      -431602080. -431602080. -431602080. -431602080. -431602080.
      -431602080. -431602080. -431602080. -431602080. -431602080.
      -431602080. -431602080. -431602080. -431602080. -431602080.
      -431602080. -431602080. -431602080. -431602080. -431602080.</_>
    <_>
      -431602080. -431602080. -431602080. -431602080. -431602080.
      -431602080. -431602080. -431602080. -431602080. -431602080.
      -431602080. -431602080. -431602080. -431602080. -431602080.
      -431602080. -431602080. -431602080. -431602080. -431602080.</_>
    <_>
      -431602080. -431602080. -431602080. -431602080. -431602080.
      -431602080. -431602080. -431602080. -431602080. -431602080.
      -431602080. -431602080. -431602080. -431602080. -431602080.
      -431602080. -431602080. -431602080. -431602080. -431602080.</_>
    <_>
      -431602080. -431602080. -431602080. -431602080. -431602080.
      -431602080. -431602080. -431602080. -431602080. -431602080.
      -431602080. -431602080. -431602080. -431602080. -431602080.
      -431602080. -431602080. -431602080. -431602080. -431602080.</_>
    <_>
      -431602080. -431602080. -431602080. -431602080. -431602080.
      -431602080. -431602080. -431602080. -431602080. -431602080.
      -431602080. -431602080. -431602080. -431602080. -431602080.
      -431602080. -431602080. -431602080. -431602080. -431602080.</_>
    <_>
      -431602080. -431602080. -431602080. -431602080. -431602080.
      -431602080. -431602080. -431602080. -431602080. -431602080.
      -431602080. -431602080. -431602080. -431602080. -431602080.
      -431602080. -431602080. -431602080. -431602080. -431602080.</_>
    <_>
      -431602080. -431602080. -431602080. -431602080. -431602080.
      -431602080. -431602080. -431602080. -431602080. -431602080.
      -431602080. -431602080. -431602080. -431602080. -431602080.
      -431602080. -431602080. -431602080. -431602080. -431602080.</_>
    <_>
      -431602080. -431602080. -431602080. -431602080. -431602080.
      -431602080. -431602080. -431602080. -431602080. -431602080.
      -431602080. -431602080. -431602080. -431602080. -431602080.
      -431602080. -431602080. -431602080. -431602080. -431602080.</_>
    <_>
      -431602080. -431602080. -431602080. -431602080. -431602080.
      -431602080. -431602080. -431602080. -431602080. -431602080.
      -431602080. -431602080. -431602080. -431602080. -431602080.
      -431602080. -431602080. -431602080. -431602080. -431602080.</_>
    <_>
      -431602080. -431602080. -431602080. -431602080. -431602080.
      -431602080. -431602080. -431602080. -431602080. -431602080.
      -431602080. -431602080. -431602080. -431602080. -431602080.
      -431602080. -431602080. -431602080. -431602080. -431602080.</_>
    <_>
      -431602080. -431602080. -431602080. -431602080. -431602080.
      -431602080. -431602080. -431602080. -431602080. -431602080.
      -431602080. -431602080. -431602080. -431602080. -431602080.
      -431602080. -431602080. -431602080. -431602080. -431602080.</_>
    <_>
      -431602080. -431602080. -431602080. -431602080. -431602080.
      -431602080. -431602080. -431602080. -431602080. -431602080.
      -431602080. -431602080. -431602080. -431602080. -431602080.
      -431602080. -431602080. -431602080. -431602080. -431602080.</_>
    <_>
      -431602080. -431602080. -431602080. -431602080. -431602080.
      -431602080. -431602080. -431602080. -431602080. -431602080.
      -431602080. -431602080. -431602080. -431602080. -431602080.
      -431602080. -431602080. -431602080. -431602080. -431602080.</_>
    <_>
      -431602080. -431602080. -431602080. -431602080. -431602080.
      -431602080. -431602080. -431602080. -431602080. -431602080.
      -431602080. -431602080. -431602080. -431602080. -431602080.
      -431602080. -431602080. -431602080. -431602080. -431602080.</_>
    <_>
      -431602080. -431602080. -431602080. -431602080. -431602080.
      -431602080. -431602080. -431602080. -431602080. -431602080.
      -431602080. -431602080. -431602080. -431602080. -431602080.
      -431602080. -431602080. -431602080. -431602080. -431602080.</_>
    <_>
      -431602080. -431602080. -431602080. -431602080. -431602080.
      -431602080. -431602080. -431602080. -431602080. -431602080.
      -431602080. -431602080. -431602080. -431602080. -431602080.
      -431602080. -431602080. -431602080. -431602080. -431602080.</_>
    <_>
      -431602080. -431602080. -431602080. -431602080. -431602080.
      -431602080. -431602080. -431602080. -431602080. -431602080.
      -431602080. -431602080. -431602080. -431602080. -431602080.
      -431602080. -431602080. -431602080. -431602080. -431602080.</_>
    <_>
      -431602080. -431602080. -431602080. -431602080. -431602080.
      -431602080. -431602080. -431602080. -431602080. -431602080.
      -431602080. -431602080. -431602080. -431602080. -431602080.
      -431602080. -431602080. -431602080. -431602080. -431602080.</_>
    <_>
      -431602080. -431602080. -431602080. -431602080. -431602080.
      -431602080. -431602080. -431602080. -431602080. -431602080.
      -431602080. -431602080. -431602080. -431602080. -431602080.
      -431602080. -431602080. -431602080. -431602080. -431602080.</_>
    <_>
      -431602080. -431602080. -431602080. -431602080. -431602080.
      -431602080. -431602080. -431602080. -431602080. -431602080.
      -431602080. -431602080. -431602080. -431602080. -431602080.
      -431602080. -431602080. -431602080. -431602080. -431602080.</_>
    <_>
      -431602080. -431602080. -431602080. -431602080. -431602080.
      -431602080. -431602080. -431602080. -431602080. -431602080.
      -431602080. -431602080. -431602080. -431602080. -431602080.
      -431602080. -431602080. -431602080. -431602080. -431602080.</_>
    <_>
      -431602080. -431602080. -431602080. -431602080. -431602080.
      -431602080. -431602080. -431602080. -431602080. -431602080.
      -431602080. -431602080. -431602080. -431602080. -431602080.
      -431602080. -431602080. -431602080. -431602080. -431602080.</_>
    <_>
      -431602080. -431602080. -431602080. -431602080. -431602080.
      -431602080. -431602080. -431602080. -431602080. -431602080.
      -431602080. -431602080. -431602080. -431602080. -431602080.
      -431602080. -431602080. -431602080. -431602080. -431602080.</_>
    <_>
      -431602080. -431602080. -431602080. -431602080. -431602080.
      -431602080. -431602080. -431602080. -431602080. -431602080.
      -431602080. -431602080. -431602080. -431602080. -431602080.
      -431602080. -431602080. -431602080. -431602080. -431602080.</_>
    <_>
      -431602080. -431602080. -431602080. -431602080. -431602080.
      -431602080. -431602080. -431602080. -431602080. -431602080.
      -431602080. -431602080. -431602080. -431602080. -431602080.
      -431602080. -431602080. -431602080. -431602080. -431602080.</_>
    <_>
      -431602080. -431602080. -431602080. -431602080. -431602080.
      -431602080. -431602080. -431602080. -431602080. -431602080.
      -431602080. -431602080. -431602080. -431602080. -431602080.
      -431602080. -431602080. -431602080. -431602080. -431602080.</_>
    <_>
      -431602080. -431602080. -431602080. -431602080. -431602080.
      -431602080. -431602080. -431602080. -431602080. -431602080.
      -431602080. -431602080. -431602080. -431602080. -431602080.
      -431602080. -431602080. -431602080. -431602080. -431602080.</_>
    <_>
      -431602080. -431602080. -431602080. -431602080. -431602080.
      -431602080. -431602080. -431602080. -431602080. -431602080.
      -431602080. -431602080. -431602080. -431602080. -431602080.
      -431602080. -431602080. -431602080. -431602080. -431602080.</_>
    <_>
      -431602080. -431602080. -431602080. -431602080. -431602080.
      -431602080. -431602080. -431602080. -431602080. -431602080.
      -431602080. -431602080. -431602080. -431602080. -431602080.
      -431602080. -431602080. -431602080. -431602080. -431602080.</_>
    <_>
      -431602080. -431602080. -431602080. -431602080. -431602080.
      -431602080. -431602080. -431602080. -431602080. -431602080.
      -431602080. -431602080. -431602080. -431602080. -431602080.
      -431602080. -431602080. -431602080. -431602080. -431602080.</_>
    <_>
      -431602080. -431602080. -431602080. -431602080. -431602080.
      -431602080. -431602080. -431602080. -431602080. -431602080.
      -431602080. -431602080. -431602080. -431602080. -431602080.
      -431602080. -431602080. -431602080. -431602080. -431602080.</_>
    <_>
      -431602080. -431602080. -431602080. -431602080. -431602080.
      -431602080. -431602080. -431602080. -431602080. -431602080.
      -431602080. -431602080. -431602080. -431602080. -431602080.
      -431602080. -431602080. -431602080. -431602080. -431602080.</_>
    <_>
      -431602080. -431602080. -431602080. -431602080. -431602080.
      -431602080. -431602080. -431602080. -431602080. -431602080.
      -431602080. -431602080. -431602080. -431602080. -431602080.
      -431602080. -431602080. -431602080. -431602080. -431602080.</_>
    <_>
      -431602080. -431602080. -431602080. -431602080. -431602080.
      -431602080. -431602080. -431602080. -431602080. -431602080.
      -431602080. -431602080. -431602080. -431602080. -431602080.
      -431602080. -431602080. -431602080. -431602080. -431602080.</_>
    <_>
      -431602080. -431602080. -431602080. -431602080. -431602080.
      -431602080. -431602080. -431602080. -431602080. -431602080.
      -431602080. -431602080. -431602080. -431602080. -431602080.
      -431602080. -431602080. -431602080. -431602080. -431602080.</_>
    <_>
      -431602080. -431602080. -431602080. -431602080. -431602080.
      -431602080. -431602080. -431602080. -431602080. -431602080.
      -431602080. -431602080. -431602080. -431602080. -431602080.
      -431602080. -431602080. -431602080. -431602080. -431602080.</_>
    <_>
      -431602080. -431602080. -431602080. -431602080. -431602080.
      -431602080. -431602080. -431602080. -431602080. -431602080.
      -431602080. -431602080. -431602080. -431602080. -431602080.
      -431602080. -431602080. -431602080. -431602080. -431602080.</_>
    <_>
      -431602080. -431602080. -431602080. -431602080. -431602080.
      -431602080. -431602080. -431602080. -431602080. -431602080.
      -431602080. -431602080. -431602080. -431602080. -431602080.
      -431602080. -431602080. -431602080. -431602080. -431602080.</_>
    <_>
      -431602080. -431602080. -431602080. -431602080. -431602080.
      -431602080. -431602080. -431602080. -431602080. -431602080.
      -431602080. -431602080. -431602080. -431602080. -431602080.
      -431602080. -431602080. -431602080. -431602080. -431602080.</_>
    <_>
      -431602080. -431602080. -431602080. -431602080. -431602080.
      -431602080. -431602080. -431602080. -431602080. -431602080.
      -431602080. -431602080. -431602080. -431602080. -431602080.
      -431602080. -431602080. -431602080. -431602080. -431602080.</_>
    <_>
      -431602080. -431602080. -431602080. -431602080. -431602080.
      -431602080. -431602080. -431602080. -431602080. -431602080.
      -431602080. -431602080. -431602080. -431602080. -431602080.
      -431602080. -431602080. -431602080. -431602080. -431602080.</_>
    <_>
      -431602080. -431602080. -431602080. -431602080. -431602080.
      -431602080. -431602080. -431602080. -431602080. -431602080.
      -431602080. -431602080. -431602080. -431602080. -431602080.
      -431602080. -431602080. -431602080. -431602080. -431602080.</_>
    <_>
      -431602080. -431602080. -431602080. -431602080. -431602080.
      -431602080. -431602080. -431602080. -431602080. -431602080.
      -431602080. -431602080. -431602080. -431602080. -431602080.
      -431602080. -431602080. -431602080. -431602080. -431602080.</_>
    <_>
      -431602080. -431602080. -431602080. -431602080. -431602080.
      -431602080. -431602080. -431602080. -431602080. -431602080.
      -431602080. -431602080. -431602080. -431602080. -431602080.
      -431602080. -431602080. -431602080. -431602080. -431602080.</_>
    <_>
      -431602080. -431602080. -431602080. -431602080. -431602080.
      -431602080. -431602080. -431602080. -431602080. -431602080.
      -431602080. -431602080. -431602080. -431602080. -431602080.
      -431602080. -431602080. -431602080. -431602080. -431602080.</_>
    <_>
      -431602080. -431602080. -431602080. -431602080. -431602080.
      -431602080. -431602080. -431602080. -431602080. -431602080.
      -431602080. -431602080. -431602080. -431602080. -431602080.
      -431602080. -431602080. -431602080. -431602080. -431602080.</_>
    <_>
      -431602080. -431602080. -431602080. -431602080. -431602080.
      -431602080. -431602080. -431602080. -431602080. -431602080.
      -431602080. -431602080. -431602080. -431602080. -431602080.
      -431602080. -431602080. -431602080. -431602080. -431602080.</_>
    <_>
      -431602080. -431602080. -431602080. -431602080. -431602080.
      -431602080. -431602080. -431602080. -431602080. -431602080.
      -431602080. -431602080. -431602080. -431602080. -431602080.
      -431602080. -431602080. -431602080. -431602080. -431602080.</_>
    <_>
      -431602080. -431602080. -431602080. -431602080. -431602080.
      -431602080. -431602080. -431602080. -431602080. -431602080.
      -431602080. -431602080. -431602080. -431602080. -431602080.
      -431602080. -431602080. -431602080. -431602080. -431602080.</_>
    <_>
      -431602080. -431602080. -431602080. -431602080. -431602080.
      -431602080. -431602080. -431602080. -431602080. -431602080.
      -431602080. -431602080. -431602080. -431602080. -431602080.
      -431602080. -431602080. -431602080. -431602080. -431602080.</_>
    <_>
      -431602080. -431602080. -431602080. -431602080. -431602080.
      -431602080. -431602080. -431602080. -431602080. -431602080.
      -431602080. -431602080. -431602080. -431602080. -431602080.
      -431602080. -431602080. -431602080. -431602080. -431602080.</_>
    <_>
      -431602080. -431602080. -431602080. -431602080. -431602080.
      -431602080. -431602080. -431602080. -431602080. -431602080.
      -431602080. -431602080. -431602080. -431602080. -431602080.
      -431602080. -431602080. -431602080. -431602080. -431602080.</_>
    <_>
      -431602080. -431602080. -431602080. -431602080. -431602080.
      -431602080. -431602080. -431602080. -431602080. -431602080.
      -431602080. -431602080. -431602080. -431602080. -431602080.
      -431602080. -431602080. -431602080. -431602080. -431602080.</_>
    <_>
      -431602080. -431602080. -431602080. -431602080. -431602080.
      -431602080. -431602080. -431602080. -431602080. -431602080.
      -431602080. -431602080. -431602080. -431602080. -431602080.
      -431602080. -431602080. -431602080. -431602080. -431602080.</_>
    <_>
      -431602080. -431602080. -431602080. -431602080. -431602080.
      -431602080. -431602080. -431602080. -431602080. -431602080.
      -431602080. -431602080. -431602080. -431602080. -431602080.
      -431602080. -431602080. -431602080. -431602080. -431602080.</_>
    <_>
      -431602080. -431602080. -431602080. -431602080. -431602080.
      -431602080. -431602080. -431602080. -431602080. -431602080.
      -431602080. -431602080. -431602080. -431602080. -431602080.
      -431602080. -431602080. -431602080. -431602080. -431602080.</_>
    <_>
      -431602080. -431602080. -431602080. -431602080. -431602080.
      -431602080. -431602080. -431602080. -431602080. -431602080.
      -431602080. -431602080. -431602080. -431602080. -431602080.
      -431602080. -431602080. -431602080. -431602080. -431602080.</_>
    <_>
      -431602080. -431602080. -431602080. -431602080. -431602080.
      -431602080. -431602080. -431602080. -431602080. -431602080.
      -431602080. -431602080. -431602080. -431602080. -431602080.
      -431602080. -431602080. -431602080. -431602080. -431602080.</_>
    <_>
      -431602080. -431602080. -431602080. -431602080. -431602080.
      -431602080. -431602080. -431602080. -431602080. -431602080.
      -431602080. -431602080. -431602080. -431602080. -431602080.
      -431602080. -431602080. -431602080. -431602080. -431602080.</_>
    <_>
      -431602080. -431602080. -431602080. -431602080. -431602080.
      -431602080. -431602080. -431602080. -431602080. -431602080.
      -431602080. -431602080. -431602080. -431602080. -431602080.
      -431602080. -431602080. -431602080. -431602080. -431602080.</_>
    <_>
      -431602080. -431602080. -431602080. -431602080. -431602080.
      -431602080. -431602080. -431602080. -431602080. -431602080.
      -431602080. -431602080. -431602080. -431602080. -431602080.
      -431602080. -431602080. -431602080. -431602080. -431602080.</_>
    <_>
      -431602080. -431602080. -431602080. -431602080. -431602080.
      -431602080. -431602080. -431602080. -431602080. -431602080.
      -431602080. -431602080. -431602080. -431602080. -431602080.
      -431602080. -431602080. -431602080. -431602080. -431602080.</_>
    <_>
      -431602080. -431602080. -431602080. -431602080. -431602080.
      -431602080. -431602080. -431602080. -431602080. -431602080.
      -431602080. -431602080. -431602080. -431602080. -431602080.
      -431602080. -431602080. -431602080. -431602080. -431602080.</_>
    <_>
      -431602080. -431602080. -431602080. -431602080. -431602080.
      -431602080. -431602080. -431602080. -431602080. -431602080.
      -431602080. -431602080. -431602080. -431602080. -431602080.
      -431602080. -431602080. -431602080. -431602080. -431602080.</_>
    <_>
      -431602080. -431602080. -431602080. -431602080. -431602080.
      -431602080. -431602080. -431602080. -431602080. -431602080.
      -431602080. -431602080. -431602080. -431602080. -431602080.
      -431602080. -431602080. -431602080. -431602080. -431602080.</_>
    <_>
      -431602080. -431602080. -431602080. -431602080. -431602080.
      -431602080. -431602080. -431602080. -431602080. -431602080.
      -431602080. -431602080. -431602080. -431602080. -431602080.
      -431602080. -431602080. -431602080. -431602080. -431602080.</_>
    <_>
      -431602080. -431602080. -431602080. -431602080. -431602080.
      -431602080. -431602080. -431602080. -431602080. -431602080.
      -431602080. -431602080. -431602080. -431602080. -431602080.
      -431602080. -431602080. -431602080. -431602080. -431602080.</_>
    <_>
      -431602080. -431602080. -431602080. -431602080. -431602080.
      -431602080. -431602080. -431602080. -431602080. -431602080.
      -431602080. -431602080. -431602080. -431602080. -431602080.
      -431602080. -431602080. -431602080. -431602080. -431602080.</_>
    <_>
      -431602080. -431602080. -431602080. -431602080. -431602080.
      -431602080. -431602080. -431602080. -431602080. -431602080.
      -431602080. -431602080. -431602080. -431602080. -431602080.
      -431602080. -431602080. -431602080. -431602080. -431602080.</_>
    <_>
      -431602080. -431602080. -431602080. -431602080. -431602080.
      -431602080. -431602080. -431602080. -431602080. -431602080.
      -431602080. -431602080. -431602080. -431602080. -431602080.
      -431602080. -431602080. -431602080. -431602080. -431602080.</_>
    <_>
      -431602080. -431602080. -431602080. -431602080. -431602080.
      -431602080. -431602080. -431602080. -431602080. -431602080.
      -431602080. -431602080. -431602080. -431602080. -431602080.
      -431602080. -431602080. -431602080. -431602080. -431602080.</_>
    <_>
      -431602080. -431602080. -431602080. -431602080. -431602080.
      -431602080. -431602080. -431602080. -431602080. -431602080.
      -431602080. -431602080. -431602080. -431602080. -431602080.
      -431602080. -431602080. -431602080. -431602080. -431602080.</_>
    <_>
      -431602080. -431602080. -431602080. -431602080. -431602080.
      -431602080. -431602080. -431602080. -431602080. -431602080.
      -431602080. -431602080. -431602080. -431602080. -431602080.
      -431602080. -431602080. -431602080. -431602080. -431602080.</_>
    <_>
      -431602080. -431602080. -431602080. -431602080. -431602080.
      -431602080. -431602080. -431602080. -431602080. -431602080.
      -431602080. -431602080. -431602080. -431602080. -431602080.
      -431602080. -431602080. -431602080. -431602080. -431602080.</_>
    <_>
      -431602080. -431602080. -431602080. -431602080. -431602080.
      -431602080. -431602080. -431602080. -431602080. -431602080.
      -431602080. -431602080. -431602080. -431602080. -431602080.
      -431602080. -431602080. -431602080. -431602080. -431602080.</_>
    <_>
      -431602080. -431602080. -431602080. -431602080. -431602080.
      -431602080. -431602080. -431602080. -431602080. -431602080.
      -431602080. -431602080. -431602080. -431602080. -431602080.
      -431602080. -431602080. -431602080. -431602080. -431602080.</_>
    <_>
      -431602080. -431602080. -431602080. -431602080. -431602080.
      -431602080. -431602080. -431602080. -431602080. -431602080.
      -431602080. -431602080. -431602080. -431602080. -431602080.
      -431602080. -431602080. -431602080. -431602080. -431602080.</_>
    <_>
      -431602080. -431602080. -431602080. -431602080. -431602080.
      -431602080. -431602080. -431602080. -431602080. -431602080.
      -431602080. -431602080. -431602080. -431602080. -431602080.
      -431602080. -431602080. -431602080. -431602080. -431602080.</_>
    <_>
      -431602080. -431602080. -431602080. -431602080. -431602080.
      -431602080. -431602080. -431602080. -431602080. -431602080.
      -431602080. -431602080. -431602080. -431602080. -431602080.
      -431602080. -431602080. -431602080. -431602080. -431602080.</_>
    <_>
      -431602080. -431602080. -431602080. -431602080. -431602080.
      -431602080. -431602080. -431602080. -431602080. -431602080.
      -431602080. -431602080. -431602080. -431602080. -431602080.
      -431602080. -431602080. -431602080. -431602080. -431602080.</_>
    <_>
      -431602080. -431602080. -431602080. -431602080. -431602080.
      -431602080. -431602080. -431602080. -431602080. -431602080.
      -431602080. -431602080. -431602080. -431602080. -431602080.
      -431602080. -431602080. -431602080. -431602080. -431602080.</_>
    <_>
      -431602080. -431602080. -431602080. -431602080. -431602080.
      -431602080. -431602080. -431602080. -431602080. -431602080.
      -431602080. -431602080. -431602080. -431602080. -431602080.
      -431602080. -431602080. -431602080. -431602080. -431602080.</_>
    <_>
      -431602080. -431602080. -431602080. -431602080. -431602080.
      -431602080. -431602080. -431602080. -431602080. -431602080.
      -431602080. -431602080. -431602080. -431602080. -431602080.
      -431602080. -431602080. -431602080. -431602080. -431602080.</_>
    <_>
      -431602080. -431602080. -431602080. -431602080. -431602080.
      -431602080. -431602080. -431602080. -431602080. -431602080.
      -431602080. -431602080. -431602080. -431602080. -431602080.
      -431602080. -431602080. -431602080. -431602080. -431602080.</_>
    <_>
      -431602080. -431602080. -431602080. -431602080. -431602080.
      -431602080. -431602080. -431602080. -431602080. -431602080.
      -431602080. -431602080. -431602080. -431602080. -431602080.
      -431602080. -431602080. -431602080. -431602080. -431602080.</_>
    <_>
      -431602080. -431602080. -431602080. -431602080. -431602080.
      -431602080. -431602080. -431602080. -431602080. -431602080.
      -431602080. -431602080. -431602080. -431602080. -431602080.
      -431602080. -431602080. -431602080. -431602080. -431602080.</_>
    <_>
      -431602080. -431602080. -431602080. -431602080. -431602080.
      -431602080. -431602080. -431602080. -431602080. -431602080.
      -431602080. -431602080. -431602080. -431602080. -431602080.
      -431602080. -431602080. -431602080. -431602080. -431602080.</_>
    <_>
      -431602080. -431602080. -431602080. -431602080. -431602080.
      -431602080. -431602080. -431602080. -431602080. -431602080.
      -431602080. -431602080. -431602080. -431602080. -431602080.
      -431602080. -431602080. -431602080. -431602080. -431602080.</_>
    <_>
      -431602080. -431602080. -431602080. -431602080. -431602080.
      -431602080. -431602080. -431602080. -431602080. -431602080.
      -431602080. -431602080. -431602080. -431602080. -431602080.
      -431602080. -431602080. -431602080. -431602080. -431602080.</_>
    <_>
      -431602080. -431602080. -431602080. -431602080. -431602080.
      -431602080. -431602080. -431602080. -431602080. -431602080.
      -431602080. -431602080. -431602080. -431602080. -431602080.
      -431602080. -431602080. -431602080. -431602080. -431602080.</_>
    <_>
      -431602080. -431602080. -431602080. -431602080. -431602080.
      -431602080. -431602080. -431602080. -431602080. -431602080.
      -431602080. -431602080. -431602080. -431602080. -431602080.
      -431602080. -431602080. -431602080. -431602080. -431602080.</_>
    <_>
      -431602080. -431602080. -431602080. -431602080. -431602080.
      -431602080. -431602080. -431602080. -431602080. -431602080.
      -431602080. -431602080. -431602080. -431602080. -431602080.
      -431602080. -431602080. -431602080. -431602080. -431602080.</_>
    <_>
      -431602080. -431602080. -431602080. -431602080. -431602080.
      -431602080. -431602080. -431602080. -431602080. -431602080.
      -431602080. -431602080. -431602080. -431602080. -431602080.
      -431602080. -431602080. -431602080. -431602080. -431602080.</_>
    <_>
      -431602080. -431602080. -431602080. -431602080. -431602080.
      -431602080. -431602080. -431602080. -431602080. -431602080.
      -431602080. -431602080. -431602080. -431602080. -431602080.
      -431602080. -431602080. -431602080. -431602080. -431602080.</_>
    <_>
      -431602080. -431602080. -431602080. -431602080. -431602080.
      -431602080. -431602080. -431602080. -431602080. -431602080.
      -431602080. -431602080. -431602080. -431602080. -431602080.
      -431602080. -431602080. -431602080. -431602080. -431602080.</_>
    <_>
      -431602080. -431602080. -431602080. -431602080. -431602080.
      -431602080. -431602080. -431602080. -431602080. -431602080.
      -431602080. -431602080. -431602080. -431602080. -431602080.
      -431602080. -431602080. -431602080. -431602080. -431602080.</_>
    <_>
      -431602080. -431602080. -431602080. -431602080. -431602080.
      -431602080. -431602080. -431602080. -431602080. -431602080.
      -431602080. -431602080. -431602080. -431602080. -431602080.
      -431602080. -431602080. -431602080. -431602080. -431602080.</_>
    <_>
      -431602080. -431602080. -431602080. -431602080. -431602080.
      -431602080. -431602080. -431602080. -431602080. -431602080.
      -431602080. -431602080. -431602080. -431602080. -431602080.
      -431602080. -431602080. -431602080. -431602080. -431602080.</_>
    <_>
      -431602080. -431602080. -431602080. -431602080. -431602080.
      -431602080. -431602080. -431602080. -431602080. -431602080.
      -431602080. -431602080. -431602080. -431602080. -431602080.
      -431602080. -431602080. -431602080. -431602080. -431602080.</_>
    <_>
      -431602080. -431602080. -431602080. -431602080. -431602080.
      -431602080. -431602080. -431602080. -431602080. -431602080.
      -431602080. -431602080. -431602080. -431602080. -431602080.
      -431602080. -431602080. -431602080. -431602080. -431602080.</_>
    <_>
      -431602080. -431602080. -431602080. -431602080. -431602080.
      -431602080. -431602080. -431602080. -431602080. -431602080.
      -431602080. -431602080. -431602080. -431602080. -431602080.
      -431602080. -431602080. -431602080. -431602080. -431602080.</_>
    <_>
      -431602080. -431602080. -431602080. -431602080. -431602080.
      -431602080. -431602080. -431602080. -431602080. -431602080.
      -431602080. -431602080. -431602080. -431602080. -431602080.
      -431602080. -431602080. -431602080. -431602080. -431602080.</_>
    <_>
      -431602080. -431602080. -431602080. -431602080. -431602080.
      -431602080. -431602080. -431602080. -431602080. -431602080.
      -431602080. -431602080. -431602080. -431602080. -431602080.
      -431602080. -431602080. -431602080. -431602080. -431602080.</_></uncompressed_support_vectors>
  <decision_functions>
    <_>
      <sv_count>1</sv_count>
      <rho>1.</rho>
      <alpha>
        1.</alpha>
      <index>
        0</index></_>
    <_>
      <sv_count>1</sv_count>
      <rho>-1.</rho>
      <alpha>
        1.</alpha>
      <index>
        1</index></_>
    <_>
      <sv_count>1</sv_count>
      <rho>1.</rho>
      <alpha>
        1.</alpha>
      <index>
        2</index></_>
    <_>
      <sv_count>1</sv_count>
      <rho>-1.</rho>
      <alpha>
        1.</alpha>
      <index>
        3</index></_>
    <_>
      <sv_count>1</sv_count>
      <rho>1.</rho>
      <alpha>
        1.</alpha>
      <index>
        4</index></_>
    <_>
      <sv_count>1</sv_count>
      <rho>-1.</rho>
      <alpha>
        1.</alpha>
      <index>
        5</index></_>
    <_>
      <sv_count>1</sv_count>
      <rho>1.</rho>
      <alpha>
        1.</alpha>
      <index>
        6</index></_>
    <_>
      <sv_count>1</sv_count>
      <rho>-1.</rho>
      <alpha>
        1.</alpha>
      <index>
        7</index></_>
    <_>
      <sv_count>1</sv_count>
      <rho>1.</rho>
      <alpha>
        1.</alpha>
      <index>
        8</index></_>
    <_>
      <sv_count>1</sv_count>
      <rho>1.</rho>
      <alpha>
        1.</alpha>
      <index>
        9</index></_>
    <_>
      <sv_count>1</sv_count>
      <rho>1.</rho>
      <alpha>
        1.</alpha>
      <index>
        10</index></_>
    <_>
      <sv_count>1</sv_count>
      <rho>1.</rho>
      <alpha>
        1.</alpha>
      <index>
        11</index></_>
    <_>
      <sv_count>1</sv_count>
      <rho>-1.</rho>
      <alpha>
        1.</alpha>
      <index>
        12</index></_>
    <_>
      <sv_count>1</sv_count>
      <rho>1.</rho>
      <alpha>
        1.</alpha>
      <index>
        13</index></_>
    <_>
      <sv_count>1</sv_count>
      <rho>1.</rho>
      <alpha>
        1.</alpha>
      <index>
        14</index></_></decision_functions></opencv_ml_svm>
</opencv_storage>
