<?xml version="1.0"?>
<opencv_storage>
<opencv_ml_svm>
  <format>3</format>
  <svmType>C_SVC</svmType>
  <kernel>
    <type>LINEAR</type></kernel>
  <C>1.</C>
  <term_criteria><epsilon>1.1920928955078125e-07</epsilon>
    <iterations>1000</iterations></term_criteria>
  <var_count>20</var_count>
  <class_count>7</class_count>
  <class_labels type_id="opencv-matrix">
    <rows>7</rows>
    <cols>1</cols>
    <dt>i</dt>
    <data>
      0 1 2 3 4 5 6</data></class_labels>
  <sv_total>21</sv_total>
  <support_vectors>
    <_>
      -1.81096002e-05 -1.52493987e-04 1.33108784e-04 -3.16713413e-04
      -4.00866527e-04 -8.15933527e-05 3.23812901e-06 -1.10918387e-04
      1.26155297e-04 5.13311206e-05 -1.25458828e-04 6.38566271e-04
      -1.90066785e-04 7.97816610e-04 5.84635127e-04 6.38209574e-04
      1.88189515e-04 3.03092056e-05 4.71810708e-05 -1.44309932e-04</_>
    <_>
      1.51872500e-05 -1.01334306e-04 -9.08934817e-05 -2.72113666e-05
      -3.58547841e-04 7.80289429e-06 -4.54436922e-05 -1.53816974e-04
      -1.51365544e-04 1.28623709e-04 6.56995981e-05 4.11977031e-04
      -8.30580466e-05 1.20716133e-04 -1.00933656e-04 1.70440035e-04
      -8.75711194e-05 -2.60364701e-04 -2.50285928e-04 -3.63455183e-05</_>
    <_>
      -5.40844630e-05 -3.03969253e-04 -2.24881034e-04 -4.58231589e-05
      -3.68295063e-04 2.13161256e-05 -9.34619020e-05 1.35606269e-05
      -1.25327555e-04 2.52636266e-04 3.40595179e-05 7.59528542e-04
      1.94639812e-04 1.11700341e-04 6.47111810e-05 -1.56613693e-04
      -3.24897192e-05 -5.11124672e-04 -3.71419213e-04 2.05344710e-04</_>
    <_>
      -3.18072125e-05 -1.57790346e-04 -2.69956654e-04 -8.58669518e-05
      -7.55849236e-04 1.74476358e-04 9.51500188e-05 4.82446630e-05
      -1.11647081e-04 4.06834501e-04 1.09745321e-04 8.19885929e-04
      -7.77242312e-05 3.49452399e-04 8.04082811e-05 1.50469248e-04
      -3.98301665e-04 -3.02815406e-05 -3.91155190e-04 5.47214993e-04</_>
    <_>
      -9.03602850e-05 -1.78323826e-04 -1.39025187e-05 -6.49264184e-05
      -4.04581922e-04 -2.53129401e-04 6.70784211e-05 -8.63543028e-05
      9.61548940e-05 1.19131502e-04 -8.90650626e-05 7.85118144e-04
      2.99144769e-04 1.85586148e-04 3.68376437e-04 2.87049712e-04
      2.22095099e-04 -9.67503456e-06 -3.36919475e-05 4.06533218e-04</_>
    <_>
      -1.49354062e-04 -3.80133075e-04 -3.27357702e-04 -4.37718700e-05
      -9.11084237e-04 1.22583559e-04 -3.04911606e-04 7.31715700e-05
      -3.06246511e-04 3.59028927e-04 -3.09670904e-05 1.03514805e-03
      2.51283898e-04 -3.10621399e-05 -8.21488720e-05 6.58392499e-04
      -1.09904668e-05 -2.71867641e-04 -1.20817509e-03 1.49672313e-04</_>
    <_>
      -4.51752931e-05 6.51236842e-05 -6.84948172e-05 -3.73532966e-05
      8.29269775e-05 2.11958122e-05 -3.97883960e-05 -2.42403821e-05
      3.19010614e-05 6.20423307e-05 -5.48302232e-05 1.36948020e-05
      2.60768629e-05 -1.87607623e-06 5.24625284e-05 -2.81739540e-05
      -6.08629398e-06 7.35517242e-05 1.74198176e-05 -2.68844979e-05</_>
    <_>
      -3.25328983e-05 1.00594756e-04 -7.47447557e-05 1.33755108e-04
      3.85318308e-05 5.28000601e-05 -9.89548207e-05 1.58581010e-04
      -9.87859403e-06 -1.32605113e-04 7.93531653e-05 -1.33538721e-04
      1.77365277e-04 -7.71905106e-05 1.66498357e-04 -2.11541425e-04
      -1.19091295e-04 1.25474311e-04 -3.87866663e-07 -8.89166859e-06</_>
    <_>
      -1.19885062e-05 -4.37460330e-05 -1.18704393e-05 -1.97565369e-05
      6.39294230e-05 -2.44041676e-05 9.17236321e-06 3.96022442e-05
      2.16036187e-05 3.65767664e-05 -8.90561059e-05 -1.23654572e-05
      6.33330710e-05 -1.76495214e-05 1.21872807e-04 -1.02770951e-04
      -6.95620984e-05 1.07114320e-04 -7.75667650e-05 9.00857412e-05</_>
    <_>
      -2.23581319e-05 -2.29970665e-05 -4.88548176e-05 -6.79288132e-05
      1.68734769e-05 1.13801307e-05 5.94336561e-05 5.04375348e-05
      1.12184192e-04 -6.35852439e-06 -1.24707352e-04 -9.26818902e-05
      7.35459107e-05 -6.05672431e-05 2.37898625e-04 -8.86818816e-05
      7.47822287e-06 1.16234231e-04 -1.75410842e-05 9.76995652e-05</_>
    <_>
      -5.72289100e-05 5.75946870e-05 -4.69141087e-05 -2.75257366e-06
      6.98920576e-06 1.35785840e-05 -3.96193718e-06 4.38734751e-05
      3.18760140e-05 1.00897742e-05 -2.00334489e-05 -4.47262937e-05
      4.98817681e-05 -1.07743494e-04 2.64442278e-05 -8.27094482e-05
      -1.17248783e-04 9.19374506e-05 -1.74457484e-04 4.47732127e-05</_>
    <_>
      -4.37230556e-05 -2.45191459e-05 2.04766693e-05 -2.89427499e-06
      5.94609992e-05 3.33571188e-05 -1.33105605e-05 1.59990559e-05
      2.50224875e-05 -1.94733784e-05 6.45767359e-05 4.67755599e-05
      -4.85434648e-05 -8.80207299e-05 1.49220441e-05 -1.42053696e-05
      -4.70494779e-05 1.84261025e-05 6.69130441e-06 2.45421234e-05</_>
    <_>
      -5.66059425e-05 6.26649989e-06 -2.63934380e-05 5.96113132e-05
      4.78619586e-05 2.38568464e-05 2.92886089e-05 1.37143206e-05
      2.14231113e-05 -4.72153515e-05 1.64430276e-05 4.17836127e-05
      3.44107116e-06 4.83082704e-06 -2.60742727e-05 4.46464946e-06
      -3.80612692e-05 -3.12467346e-05 -1.66220507e-05 1.69955601e-05</_>
    <_>
      2.23251368e-06 -6.11649302e-05 7.08146254e-05 3.96945006e-06
      6.51876053e-06 -1.03032735e-05 5.92773722e-05 2.88441934e-05
      -4.30761611e-05 -6.90853267e-05 -1.85147201e-05 7.84227905e-06
      4.12394438e-05 1.22904521e-05 -9.96461836e-07 -6.10042334e-05
      8.41978108e-05 -2.87870298e-05 2.74269860e-05 8.01406277e-05</_>
    <_>
      1.00867574e-05 5.16081636e-05 -6.82221798e-05 2.86947306e-05
      1.21782023e-06 4.47115235e-06 1.93772644e-06 2.57108622e-05
      1.85042736e-05 -5.34266837e-05 -1.20990398e-05 -3.83546358e-05
      4.59380790e-05 -7.04988706e-05 -2.52307436e-05 8.16453539e-05
      1.73378157e-05 -2.11276911e-05 -2.46290620e-05 2.66679763e-05</_>
    <_>
      -5.59756954e-05 6.14132659e-05 -2.69709235e-05 7.85715893e-05
      3.11345029e-05 -2.18063701e-06 -5.07469895e-06 -2.88152387e-05
      2.90673415e-05 -3.14127719e-05 1.49030739e-05 1.97621866e-05
      -5.94782705e-06 8.68352231e-07 3.20054205e-05 1.04055725e-05
      5.11684339e-05 2.64038845e-05 -1.19026226e-05 -2.12533519e-06</_>
    <_>
      7.42044795e-05 3.77558645e-05 4.15081486e-05 3.56228556e-05
      -7.18175652e-05 5.95002757e-06 5.07280347e-05 8.25735333e-05
      -1.00521152e-04 6.49654030e-05 -1.21749443e-04 1.24603966e-05
      1.67446822e-04 7.78567119e-05 -2.72881844e-05 1.14584815e-04
      4.65121666e-05 -2.97889073e-05 1.05467218e-04 -2.48078959e-05</_>
    <_>
      -3.34530669e-05 -4.18764103e-05 4.21501682e-05 -2.66923439e-06
      7.95189408e-06 -4.08115775e-05 2.89503078e-05 5.72948811e-05
      -3.86020220e-05 2.60409543e-05 -9.42473343e-06 5.39053981e-05
      4.36900773e-05 2.23978095e-05 -4.46606864e-05 4.50815096e-05
      -1.33194626e-05 -1.14557770e-04 5.40596775e-05 -2.17447523e-05</_>
    <_>
      -2.97766474e-05 -8.26878750e-05 -2.76328410e-06 -2.02513056e-05
      3.98100156e-06 -3.29913310e-05 3.96968171e-05 -2.08188394e-05
      1.94466502e-05 -7.88257512e-06 -7.29625608e-05 -3.75947202e-05
      2.82769106e-05 -3.14844510e-05 4.44487996e-05 4.00318604e-05
      8.88222639e-05 1.53335550e-05 1.17816642e-04 -5.22337541e-05</_>
    <_>
      -6.22419102e-05 2.88722440e-05 1.64734479e-06 -1.97100453e-05
      -2.32985676e-05 8.69608175e-06 -2.04036569e-05 -8.48598120e-06
      -4.07374064e-05 -3.37636084e-05 7.14884254e-06 2.91191463e-05
      3.03660909e-05 -1.45383647e-05 -5.12529405e-05 8.71835346e-06
      9.96791005e-06 -5.71635319e-05 -3.02626140e-05 1.04708588e-05</_>
    <_>
      9.77645614e-05 1.35816490e-05 -1.78787559e-05 1.27438780e-05
      2.36190281e-05 5.91587450e-05 -2.91216766e-05 -6.42162922e-06
      -6.09245253e-05 8.29177734e-05 9.70435649e-05 1.04451474e-05
      6.02474393e-05 -2.42938654e-06 3.79529411e-06 8.14382838e-06
      -1.25375183e-04 -1.09950370e-05 -5.44177019e-05 1.19176788e-04</_></support_vectors>
  <uncompressed_sv_total>324</uncompressed_sv_total>
  <uncompressed_support_vectors>
    <_>
      9.89390039e+03 -2.55285571e+03 -3.91726465e+03 7.15387817e+02
      -2.71903394e+03 -1.49928882e+03 -2.53913501e+03 1.62977991e+03
      -2.53345044e+03 1.14765167e+02 4.84138458e+02 -6.86663895e+01
      2.89124146e+02 1.84992322e+03 -8.12260914e+00 -9.99529419e+02
      9.26533279e+01 -5.37606689e+02 2.83594238e+03 -3.29202026e+02</_>
    <_>
      -9.48714648e+03 -4.23292285e+03 1.10979468e+03 1.86815149e+03
      -1.65618628e+03 2.36039453e+03 -4.18621704e+02 -1.94227698e+03
      -5.19595581e+02 6.80672852e+02 3.54084869e+02 7.42415161e+02
      2.99001984e+02 -9.04749634e+02 -1.17515038e+02 -1.78743762e+03
      -1.62513403e+03 8.21203552e+02 -3.44304413e+02 -2.10825806e+03</_>
    <_>
      -8.22973047e+03 2.79732275e+03 -8.10802673e+02 -4.80046484e+03
      -2.43793677e+03 -3.79015308e+03 -2.85754248e+03 5.59301270e+02
      -2.93567017e+03 1.96177502e+03 6.16111023e+02 -1.12744678e+03
      1.09267029e+03 1.06047192e+03 -9.07467773e+02 -7.26799744e+02
      1.51282092e+03 7.42078247e+02 9.06912842e+02 4.89465729e+02</_>
    <_>
      -1.18202861e+04 -9.31688965e+02 -1.76672729e+03 2.02780505e+03
      -4.68843994e+03 -7.39306824e+02 -1.47512280e+03 -1.58689392e+03
      -2.66644727e+03 -1.79687732e+03 -1.56363647e+03 5.78288269e+02
      -2.77855701e+01 -4.09999451e+02 1.37906799e+02 -2.09088110e+03
      -9.20452148e+02 -1.03072620e+03 1.57371492e+01 -2.68783173e+02</_>
    <_>
      3.55638084e+01 1.79596814e+03 -4.38517285e+03 4.42579395e+03
      -1.83710876e+03 1.84280603e+03 3.12613953e+02 1.90000684e+03
      -1.49526074e+03 2.38525708e+03 -2.87938696e+03 1.75797937e+03
      -9.08763000e+02 1.10814575e+03 1.67617477e+02 9.25085388e+02
      -7.52127625e+02 -7.32764343e+02 9.48216064e+02 -2.52172339e+03</_>
    <_>
      -1.07461689e+04 -2.37933984e+03 -1.04096045e+03 -1.71479358e+03
      1.63961255e+03 2.08647241e+03 2.71893164e+03 -2.22055328e+02
      -8.85729736e+02 2.90227020e+02 -3.47992944e+03 8.40519287e+02
      -5.28099854e+02 9.83006592e+02 -1.26581245e+02 2.63661182e+03
      4.20363846e+01 4.00844330e+02 -1.01915863e+02 -2.55316992e+03</_>
    <_>
      1.60564961e+04 -4.42347217e+03 -6.77954407e+02 4.19615631e+02
      -8.03421631e+02 1.37168054e+03 1.40158356e+02 -1.21972302e+03
      3.86768555e+02 1.46811658e+03 6.82043152e+02 2.74842560e+02
      -2.01831100e+02 -1.75160980e+02 -3.63400917e+01 -1.88226395e+02
      9.10964584e+01 -1.48757874e+02 -5.36680603e+02 -5.63462448e+01</_>
    <_>
      -7.03622607e+03 -2.44664844e+03 -3.94902271e+03 3.25212524e+02
      -3.28081860e+03 2.13648145e+03 -2.49448395e+02 1.74172620e+03
      1.33507825e+03 5.64876953e+02 4.85657684e+02 4.40963409e+02
      1.64914505e+02 -5.16606689e+02 9.22405212e+02 -8.77625916e+02
      -1.18064551e+03 -1.88899292e+03 1.29780957e+03 2.91142151e+02</_>
    <_>
      -2.77468896e+03 -2.87735547e+03 -1.72237646e+03 -3.18614404e+03
      -1.76617383e+03 -1.93160461e+03 -2.90179468e+03 1.94688062e+03
      7.19702087e+02 9.93612003e+00 3.32355200e+03 1.04104378e+02
      -7.29255905e+01 1.72705826e+02 -1.73530518e+03 -4.67004822e+02
      -8.53366623e+01 9.77159851e+02 4.16931946e+02 -3.18390656e+02</_>
    <_>
      3.77589325e+02 -5.60584180e+03 -6.79032059e+01 -2.09346118e+03
      -1.36852527e+03 8.43112915e+02 -1.60988623e+03 -2.14769974e+02
      -1.21755664e+03 1.35695337e+03 9.80809814e+02 6.32538528e+01
      -7.74052490e+02 1.81041382e+03 -9.07397278e+02 -5.10947174e+02
      9.26973083e+02 8.85931946e+02 1.13393384e+03 -1.41598462e+03</_>
    <_>
      -8.16913867e+03 -2.46966504e+03 -3.39925122e+03 6.04015381e+02
      -2.64255811e+03 1.17694971e+03 1.52674731e+03 1.01617142e+02
      -1.68519446e+03 2.08153946e+02 -9.98381348e+02 4.10112946e+02
      -6.78302429e+02 -5.86763191e+01 -9.94773621e+02 -1.17214233e+03
      6.95702332e+02 -9.31976509e+00 -1.06900659e+03 -3.35603821e+02</_>
    <_>
      -6.25543994e+03 -7.75717920e+03 1.75394318e+02 -2.46773389e+03
      -2.51644507e+03 1.90404407e+03 5.31447327e+02 -1.96627942e+03
      -2.36134595e+03 -8.94125854e+02 1.06234180e+03 -2.74928003e+03
      -1.55250702e+02 1.52382300e+03 -7.93461182e+02 3.72079651e+02
      2.92485321e+02 -4.30840363e+02 1.74668213e+03 -8.73036743e+02</_>
    <_>
      1.13426709e+04 -5.07121387e+03 -3.18996411e+03 -2.71500763e+02
      -2.30892871e+03 1.15305872e+03 -7.62368469e+01 1.42404587e+02
      -1.36734756e+02 1.30860437e+03 1.37710718e+03 -2.58624878e+02
      -1.07162415e+03 9.14385864e+02 -4.10587708e+02 -1.08022131e+03
      4.07121429e+02 2.22118683e+02 8.76183472e+02 7.20967352e-01</_>
    <_>
      -1.25680742e+04 -6.96261865e+03 -3.39268250e+02 -9.76226501e+02
      -4.22359375e+02 1.09731750e+03 3.47807251e+03 -1.70664270e+03
      -3.13176636e+02 -4.07876984e+02 6.43508484e+02 1.25561304e+03
      -1.13199699e+02 -1.57328967e+03 -5.64206047e+01 -9.48276520e+01
      -1.70752762e+02 2.66781079e+03 -6.05835510e+02 3.91550560e+01</_>
    <_>
      -1.38154961e+04 9.95450745e+02 -1.34487842e+03 -1.44410156e+03
      -2.72838281e+03 -2.33791943e+03 -2.75953552e+02 -6.31351196e+02
      1.19465538e+02 -1.24410620e+03 -1.84096729e+03 -9.17613037e+02
      9.99852051e+02 -7.44231201e+02 2.19422943e+02 8.02146790e+02
      -1.07976967e+02 -4.79192047e+02 1.18008957e+02 -1.23083386e+03</_>
    <_>
      -1.39297227e+04 -4.03913599e+03 -6.08786499e+02 -1.72786426e+03
      -2.66686499e+03 1.10717993e+03 2.79064868e+03 -1.72698560e+03
      4.77278404e+01 -5.07713684e+02 -6.08897766e+02 -3.67541687e+02
      4.27981415e+02 -1.86226514e+03 -8.37789856e+02 1.42706055e+03
      6.39051025e+02 1.49642334e+03 -6.20534119e+02 -3.72525024e+02</_>
    <_>
      -7.01739502e+03 -3.26137299e+02 -1.25790051e+03 -4.39261865e+03
      -4.26300195e+03 -1.82636475e+03 -3.62420685e+02 5.62851563e+02
      2.54499976e+03 1.14438843e+03 1.43024490e+02 -1.76244678e+03
      1.48736902e+03 -1.51115735e+03 6.15782738e+01 -5.65543274e+02
      -2.54661316e+02 -9.29671448e+02 2.04860425e+03 -2.60674530e+02</_>
    <_>
      -6.77783838e+03 -1.61086157e+03 -4.60677460e+02 -3.43617139e+03
      -2.83315649e+03 -3.38262207e+03 -2.49622876e+03 -1.26276660e+03
      7.77443787e+02 1.22301526e+03 2.41026221e+03 -1.75439282e+03
      1.05922437e+03 7.62396484e+02 -3.93303284e+02 -4.38038116e+02
      9.21072144e+02 -1.33802222e+03 1.88690332e+03 -2.68935822e+02</_>
    <_>
      1.43214053e+04 -5.39525732e+03 -2.86016016e+03 7.40538391e+02
      -8.88844482e+02 2.96702075e+03 2.50745529e+02 -6.22487671e+02
      -3.72859100e+02 1.44911523e+03 1.69150269e+03 7.44143372e+02
      -5.91501953e+02 5.58945313e+02 4.99015289e+02 -8.28879883e+02
      3.73019440e+02 6.23557129e+02 2.90067047e+02 4.50775238e+02</_>
    <_>
      -1.93333655e+03 -3.96303735e+03 -3.57546753e+03 -1.13719246e+02
      -1.32401501e+03 4.64953796e+02 -3.78815765e+02 1.83430920e+03
      -1.00311322e+03 4.56471802e+02 6.30879822e+02 -6.75236084e+02
      -3.42664490e+01 -5.82041321e+02 1.79031631e+02 -3.30817505e+02
      1.15263501e+03 1.06911731e+03 -7.25471924e+02 1.70674576e+02</_>
    <_>
      7.35094873e+03 -1.82606311e+03 -1.21776489e+03 -1.71841418e+03
      -2.65545972e+03 8.70610657e+02 4.48524628e+02 -8.21251892e+02
      1.10710681e+03 2.48446991e+02 2.97407867e+02 -1.20670923e+03
      2.25578125e+02 -1.24115845e+03 -3.03616974e+02 4.43408905e+02
      -1.00408612e+03 -1.35557324e+03 8.64162781e+02 1.19941307e+02</_>
    <_>
      -2.57521045e+03 -3.47004834e+03 1.93192883e+03 -2.26388257e+03
      -2.49716333e+03 5.05688904e+02 -2.33372510e+03 -1.57834912e+03
      2.88570557e+02 3.47481903e+02 6.09591675e+02 1.88316910e+02
      1.06755005e+03 9.80865784e+01 -1.17406372e+03 -8.15616577e+02
      9.24700073e+02 -2.26525101e+02 1.39168777e+02 -1.92939636e+03</_>
    <_>
      -4.20034863e+03 -1.23786658e+03 -3.14179248e+03 -1.04483521e+03
      -2.17370630e+03 -1.92703784e+03 -2.34720239e+03 2.40795020e+03
      1.77216911e+01 -2.64604523e+02 2.42998486e+03 1.10591162e+03
      -8.67719727e+02 2.74379395e+02 -1.86159814e+03 -1.90637390e+03
      6.48991089e+02 5.54711365e+02 5.21896667e+02 6.84645691e+02</_>
    <_>
      -7.13899561e+03 6.35074756e+03 2.20107132e+02 1.79481604e+03
      1.49111243e+03 -4.92064606e+02 9.85678223e+02 1.17858044e+03
      3.56549683e+02 -2.74487549e+03 -4.23006058e+01 1.76161609e+03
      1.66023950e+03 9.35741577e+01 3.93041534e+01 1.92085437e+03
      -1.18420081e+03 -7.49938782e+02 -2.26464819e+03 3.49805939e+02</_>
    <_>
      -1.06620789e+03 2.27497314e+03 -4.72351837e+02 -6.95184766e+03
      -4.96909180e+02 -5.81050684e+03 1.21074780e+03 -3.37435571e+03
      -4.60793793e+02 9.14866516e+02 8.92345215e+02 9.76283936e+02
      -1.15420642e+03 2.92666168e+02 -2.45634473e+03 -3.49397156e+02
      2.71968140e+02 -4.03299408e+02 -1.27388684e+03 -5.86708191e+02</_>
    <_>
      5.38629102e+03 1.60687561e+03 -7.40056763e+02 3.41016138e+03
      -7.27072525e+01 -6.06817444e+02 4.83998138e+02 -9.27362793e+02
      1.16493823e+03 1.07358936e+03 1.51656418e+02 5.58721497e+02
      2.37432968e+02 2.58575104e+02 -6.67092346e+02 7.74497131e+02
      5.42850403e+02 4.19422302e+01 -8.69797058e+02 2.78774170e+02</_>
    <_>
      1.29325244e+03 2.85562720e+03 -2.23876294e+03 -2.77740527e+03
      -5.40075989e+02 -2.56554102e+03 -1.24442236e+03 1.28336133e+03
      -5.43247192e+02 1.92943262e+03 1.26274426e+03 3.23112915e+02
      9.00426025e+02 1.08433667e+03 3.24681458e+02 -4.40193848e+02
      1.65417725e+02 1.69349902e+03 -8.20458130e+02 1.13665820e+03</_>
    <_>
      -4.74068506e+03 9.92556445e+03 4.81115039e+03 3.44734814e+03
      -7.55631531e+02 2.43506567e+03 1.21409998e+03 1.75948035e+03
      -2.23656763e+03 -5.66411682e+02 -2.51605743e+02 2.70452368e+03
      2.90926685e+03 2.88352081e+02 6.44733276e+02 4.68675201e+02
      5.44685791e+02 -1.38875732e+01 -1.78285632e+03 1.38897192e+03</_>
    <_>
      -3.00904297e+03 1.74280237e+03 -1.43701172e+03 3.05258301e+03
      -1.77213898e+02 -2.17221191e+02 -5.52622070e+02 -3.03126038e+02
      1.62564307e+03 7.49014465e+02 -1.78502490e+03 4.01985199e+02
      -2.24220779e+02 7.69658203e+02 -1.86808441e+02 6.07654297e+02
      9.74089233e+02 -2.85994385e+02 -1.03286572e+03 -3.20489960e+02</_>
    <_>
      4.49495898e+03 4.12875244e+03 1.80270142e+03 3.30963989e+02
      -1.11049243e+03 2.70401825e+02 1.76972290e+03 3.79196777e+02
      -7.86181107e+01 -1.68351990e+03 1.54272156e+03 9.60309082e+02
      1.34503210e+03 -2.39519882e+00 7.08692566e+02 4.37671844e+02
      -4.26501678e+02 -1.12942436e+02 -1.61064209e+03 8.48116699e+02</_>
    <_>
      -3.24362946e+01 5.34306458e+02 1.37868506e+03 -4.58721289e+03
      -1.12887549e+03 -9.67504761e+02 -4.50902252e+02 3.12746552e+02
      -6.02749786e+01 -5.53902649e+02 -3.82545868e+02 1.04718188e+03
      -2.01054291e+02 6.45142456e+02 5.85695923e+02 1.27933545e+03
      6.84331177e+02 3.04351746e+02 1.30438794e+03 -3.96771454e+02</_>
    <_>
      -1.07172305e+04 4.03254053e+03 -3.34510474e+03 -1.13867249e+03
      1.30008087e+02 -1.30938171e+03 5.26389282e+02 3.32860742e+03
      6.63608093e+02 3.79396400e+01 -7.83647705e+02 9.06619324e+02
      -1.81098206e+03 -3.43226929e+01 8.62225891e+02 1.44389709e+03
      -9.58618103e+02 -6.47320984e+02 1.29224304e+02 -3.61337982e+02</_>
    <_>
      -5.61045166e+03 6.47331787e+03 3.43907080e+03 1.63664001e+03
      -2.70270630e+02 -1.45837781e+03 -3.34737378e+03 -7.24843506e+02
      5.31252686e+02 1.41689343e+03 -2.48653345e+03 9.67181641e+02
      2.15950269e+03 1.18566724e+03 1.42489441e+02 -9.60689697e+01
      -1.59802234e+03 -1.13226959e+02 -1.05283081e+03 3.34735413e+02</_>
    <_>
      1.41891748e+03 -6.07495070e+00 -9.83416077e+02 6.04472778e+02
      7.17489441e+02 -8.78238586e+02 4.67700012e+02 -3.19221588e+02
      7.13214111e+02 1.58353867e+02 -1.57572412e+03 -3.31174316e+02
      -1.37495325e+03 9.70175018e+01 9.78185577e+01 5.77942749e+02
      -6.59275436e+01 -5.58944946e+02 -1.38155444e+03 -6.54385529e+01</_>
    <_>
      2.85604224e+03 -1.95281604e+03 -9.95334961e+02 3.15404395e+03
      -2.34457935e+03 2.86864893e+03 1.68187244e+03 -1.11106239e+02
      7.38483337e+02 1.24638220e+03 7.21880493e+02 6.75395630e+02
      -1.30416602e+03 -2.61058311e+01 -8.70134094e+02 -6.73676147e+01
      -5.88807068e+02 -5.29829834e+02 6.38337860e+01 -6.80472778e+02</_>
    <_>
      1.44656799e+03 3.07638989e+03 -2.66264673e+03 6.36696960e+02
      -2.48259888e+03 -2.04790942e+03 -1.82801282e+03 1.95606738e+03
      -2.44427539e+03 -6.40170959e+02 9.11149048e+02 8.42343018e+02
      -9.25255859e+02 3.13289215e+02 -8.32583557e+02 8.09386169e+02
      -2.41470852e+01 8.88774353e+02 2.37168121e+02 -2.38167542e+02</_>
    <_>
      2.81708374e+03 4.13500397e+02 -2.47886255e+03 2.43719678e+03
      -1.46865137e+03 2.25874219e+03 9.28294678e+02 4.41954224e+02
      -1.69674963e+03 1.38936633e+03 -5.91792053e+02 8.49070129e+02
      -3.84531799e+02 -1.73738022e+01 -1.18819861e+03 1.15100842e+03
      1.25857201e+02 1.12828015e+03 -4.46347473e+02 -5.53133728e+02</_>
    <_>
      7.37155566e+03 5.98098340e+03 -5.39701514e+03 1.82314905e+03
      -1.49525757e+03 -2.04852588e+03 -2.25899463e+03 4.05874609e+03
      -2.65357910e+03 2.78837842e+03 -6.00761292e+02 1.46110156e+03
      -1.33116528e+03 3.12853668e+02 1.19720654e+03 9.28669189e+02
      -1.17561623e+02 2.20354004e+02 -5.15627197e+02 2.11607189e+01</_>
    <_>
      3.58903418e+03 -1.15264624e+03 1.17456030e+03 5.51471631e+03
      2.27208008e+03 3.41871948e+02 1.02540076e+03 -2.44374710e+02
      -9.74229431e+02 5.06411224e+02 1.38192090e+03 2.06553906e+03
      -1.20791125e+03 -8.82371887e+02 1.36229626e+03 9.47245789e+02
      -6.14773621e+02 1.11594617e+03 -8.63519958e+02 -4.79969727e+02</_>
    <_>
      -3.56929370e+03 3.67815161e+03 4.11817285e+03 3.86041162e+03
      -1.61032178e+03 1.20159778e+03 -2.17795923e+03 -2.13714157e+02
      -2.93355652e+02 -1.69710303e+03 -1.28224146e+03 6.99679749e+02
      8.52417908e+02 2.23350732e+03 -3.01368439e+02 -1.13270630e+03
      1.06828394e+03 -6.30849487e+02 -1.35373865e+03 1.13479004e+03</_>
    <_>
      4.35452002e+03 1.46851982e+04 -5.20298975e+03 2.76636572e+03
      -5.08784326e+03 1.82062537e+03 -1.03549951e+03 -4.69521191e+03
      -2.38895923e+03 -5.83704605e+01 -1.10078357e+03 -4.83437549e+03
      -1.99443567e+03 -2.11523315e+03 1.13435815e+03 6.79395081e+02
      9.90757324e+02 3.62749805e+03 -1.42084167e+03 -8.84923523e+02</_>
    <_>
      8.61248474e+02 1.39825205e+04 -4.85837939e+03 3.66430737e+03
      -5.18423145e+03 2.55269556e+03 -3.54579201e+01 -3.16182520e+03
      -3.43777808e+03 2.66993286e+02 -5.64308319e+01 -5.99705994e+02
      -2.68585059e+03 -2.66412280e+03 1.42967542e+03 1.82966199e+03
      -2.97806860e+03 2.87223853e+03 -6.42194092e+02 -7.49902405e+02</_>
    <_>
      2.75621167e+03 1.10873428e+04 -7.48557520e+03 4.37132324e+03
      8.88039551e+01 7.72166309e+03 -1.26117395e+03 -6.50011230e+02
      1.64461511e+03 -7.80094543e+02 7.52251526e+02 5.34245728e+02
      -2.90669531e+03 -5.63496704e+02 2.43236230e+03 6.26604126e+02
      -1.72430225e+03 2.43748120e+03 -1.00441022e+03 9.50032471e+02</_>
    <_>
      1.16689395e+04 -8.81489319e+02 -8.03606201e+03 2.30427872e+02
      2.52865747e+03 -5.14945435e+02 1.71323230e+03 1.95107056e+02
      2.32969507e+03 -7.72352783e+02 -1.74518152e+03 -3.56975708e+03
      3.65894318e+02 1.27692969e+03 -8.28165405e+02 -1.22116748e+03
      -2.77756462e+01 1.36445508e+03 6.13631348e+02 -1.25564600e+03</_>
    <_>
      9.59615039e+03 3.53850952e+02 -6.02632910e+03 8.08351379e+02
      9.02629089e+02 -2.12278174e+03 -6.30982056e+02 1.57728687e+03
      4.80356781e+02 -2.73081592e+03 -1.99993433e+03 -1.74052991e+03
      4.86129456e+02 7.74250183e+02 -1.45060425e+03 -7.88778381e+02
      -7.92400269e+02 -1.31084717e+03 1.05058327e+01 -1.98574609e+03</_>
    <_>
      -1.37101636e+03 5.97116064e+03 -3.93740015e+03 -3.99326172e+03
      3.15249780e+03 1.32058948e+03 -9.10750244e+02 -3.82033789e+03
      4.40319678e+03 -7.91973022e+02 1.08142822e+03 8.30426758e+02
      -3.19785492e+02 -1.76268152e+03 2.49504126e+03 -9.53499878e+02
      -3.94411035e+03 6.03081641e+03 3.08069427e+02 1.19821338e+03</_>
    <_>
      1.44813955e+04 3.93641650e+03 -4.41918945e+03 5.47310608e+02
      -5.62071106e+02 -6.93103125e+03 -1.74314648e+03 -9.60153809e+02
      -7.01718262e+02 -3.10285474e+03 -4.89272314e+03 -2.26567480e+03
      1.65209351e+03 2.43784225e+02 -1.63615088e+03 -3.32463043e+02
      -8.66295700e+01 -9.26784607e+02 1.96190955e+03 -8.24800964e+02</_>
    <_>
      -1.70066187e+03 3.01237769e+03 2.72257568e+03 -4.59456934e+03
      7.81147803e+03 5.24882715e+03 -1.27187842e+03 6.37489319e+02
      6.96002808e+01 3.35895215e+03 -2.75657410e+02 -1.21776939e+02
      4.52921051e+02 9.64731201e+02 1.74444971e+03 -1.57400195e+03
      -9.24499817e+01 -1.89506897e+03 1.67823792e+02 7.79051331e+02</_>
    <_>
      -4.71990771e+03 1.18743281e+04 -2.07999341e+03 -3.37863794e+03
      -7.64741821e+02 -1.68574878e+03 -2.58402271e+03 -3.71054370e+03
      -1.79966797e+02 1.52160205e+03 1.46457565e+02 -7.14932312e+02
      -9.53532715e+02 -4.65783508e+02 -3.05386200e+02 -1.24267749e+03
      -1.83112463e+03 3.83023364e+03 -6.32363464e+02 -1.75444116e+03</_>
    <_>
      2.71726880e+03 3.98231494e+03 -3.00103931e+03 2.50999854e+03
      2.93744831e+01 -1.14040369e+03 8.96367249e+02 3.40608569e+03
      -1.65073523e+03 -4.74675586e+03 -1.97278235e+03 1.25057361e+03
      -1.29954077e+03 -2.25009326e+03 1.23194031e+03 -2.41080591e+03
      -3.22321069e+03 -4.29000702e+02 1.00673047e+03 -8.09419983e+02</_>
    <_>
      7.11951758e+03 1.94091833e+03 -4.71299121e+03 2.49856888e+02
      -5.52816833e+02 -2.15298340e+03 4.95520654e+03 1.05907288e+03
      3.38165405e+03 1.09573212e+02 -4.13732031e+03 -2.37304663e+03
      -9.39963745e+02 -1.46003284e+03 1.17678406e+03 2.56047803e+03
      1.01481708e+03 3.85233154e+02 -1.04083960e+03 -1.27803906e+03</_>
    <_>
      -1.34244531e+03 2.53633374e+03 -6.05238232e+03 -4.43083936e+03
      2.87459106e+03 1.84122961e+03 3.26996631e+03 1.28775122e+03
      5.14376904e+03 -1.85438989e+03 1.07511182e+03 -9.94827637e+02
      -3.81628711e+03 -1.50722644e+03 1.27460625e+02 5.57700134e+02
      -8.44733582e+02 4.99499817e+02 -5.60124756e+02 -2.75219917e+01</_>
    <_>
      -1.87935254e+03 -1.14350964e+03 -6.25354639e+03 4.41126831e+02
      2.24277222e+03 1.25394543e+03 1.63890198e+03 4.33806689e+03
      3.03637573e+03 9.12261902e+02 2.16244727e+03 -3.68819043e+03
      5.69104431e+02 2.76395923e+03 -7.24272888e+02 -4.69195923e+02
      -8.25166138e+02 -8.44281860e+02 8.41536499e+02 -1.26340564e+03</_>
    <_>
      3.09372388e+03 -2.17928564e+03 -4.66744727e+03 -6.55055176e+03
      3.81506567e+03 4.75083496e+03 -6.17161133e+02 -1.70804700e+03
      4.81787646e+03 1.02339490e+03 3.62373169e+03 -2.28165796e+03
      -5.07125641e+02 2.32837448e+02 -1.10935156e+03 -2.44614990e+03
      -2.12181152e+03 1.30226294e+03 -1.22070300e+03 7.90750793e+02</_>
    <_>
      6.71967236e+03 -1.27235400e+03 -3.84863257e+03 -6.66203174e+03
      1.84799646e+03 1.27993762e+03 1.48713232e+03 -7.36751465e+02
      3.65884180e+03 -2.85818506e+03 9.75840332e+02 -1.59419266e+02
      1.47502548e+02 -2.66022412e+03 -1.61585938e+03 -6.97061523e+02
      4.58550354e+02 1.67479202e+02 9.85003601e+02 4.82305389e+02</_>
    <_>
      -7.30462158e+02 1.19171594e+03 -5.24306348e+03 1.81217896e+02
      4.79542236e+03 -1.29944775e+03 4.77813623e+03 2.28024683e+03
      2.83609009e+03 -3.22318054e+02 5.30970230e+01 -2.57965039e+03
      -2.03418176e+03 3.47354980e+03 7.33399780e+02 -8.00589844e+02
      1.03726244e+01 -7.08327515e+02 3.28663940e+02 -1.69612622e+03</_>
    <_>
      1.50336255e+03 9.84912842e+02 -4.21356055e+03 -8.75019629e+03
      4.04152612e+03 1.34967236e+03 1.75870264e+03 -3.30442480e+03
      2.99596509e+03 -4.43424316e+03 2.44996216e+03 -7.16464661e+02
      8.86891305e-01 -1.65924011e+03 -1.87807715e+03 -1.23825464e+03
      -4.79394684e+01 -1.10443225e+03 -2.80656982e+02 1.70587427e+03</_>
    <_>
      -5.43446143e+03 -3.16783667e+03 -3.02786279e+03 -5.94713013e+02
      -1.05571423e+03 5.14903748e+02 -2.04909888e+03 2.26507495e+03
      -4.09501373e+02 9.00922729e+02 1.21675549e+03 -1.03285352e+03
      1.75252222e+03 -1.48027686e+03 1.12877332e+03 5.23369324e+02
      -6.69211914e+02 9.33827637e+02 -9.35065674e+02 -2.23327759e+02</_>
    <_>
      -1.00086240e+04 6.36512817e+02 -3.92032007e+03 -3.58309766e+03
      2.61262744e+03 -2.60679419e+03 2.63055127e+03 2.45811816e+03
      1.95883350e+03 3.54659241e+02 3.08986786e+02 -2.80998706e+03
      2.76626392e+03 1.55373877e+03 -1.10368811e+03 1.00724384e+03
      -9.10729675e+02 -9.11718994e+02 4.06635399e+01 -6.98885742e+02</_>
    <_>
      4.90250092e+02 3.88592896e+03 -4.87426270e+03 -1.22251147e+03
      2.79911224e+02 -7.31402441e+03 -2.21607941e+02 4.22071729e+03
      3.78420929e+02 -3.14855298e+03 3.15406641e+03 1.08846069e+03
      -1.15917419e+03 1.80803735e+03 -2.30160815e+03 -1.53706726e+03
      -3.18657471e+02 3.63005005e+02 -2.65912061e+03 1.30233972e+03</_>
    <_>
      -1.09367207e+04 1.51729050e+02 -7.13730713e+02 2.27408911e+03
      4.64986572e+03 -2.77890088e+03 8.45466248e+02 -6.71578796e+02
      1.30262680e+02 9.83396057e+02 1.35719559e+02 -5.06071350e+02
      -2.62166962e+02 -7.24921143e+02 2.55517896e+03 8.94929016e+02
      -7.10642273e+02 -5.88986450e+02 -5.30851563e+02 2.46933618e+03</_>
    <_>
      6.52932031e+03 7.86855530e+02 -3.29491968e+03 1.06496606e+03
      4.77951563e+03 -4.23137354e+03 2.01131378e+02 2.07890894e+03
      -2.85448877e+03 -7.38453271e+03 -5.19088379e+03 -1.94397018e+02
      2.46754639e+03 1.38199182e+03 -6.05072021e+02 -7.39842163e+02
      1.62999988e+03 1.36199265e+01 3.29840283e+03 3.59923926e+03</_>
    <_>
      -4.60866650e+03 -2.99512842e+03 -1.46543091e+03 3.31249847e+02
      2.21428809e+03 4.64755371e+02 -2.03271521e+03 2.40013379e+03
      -3.54468628e+02 9.93153503e+02 4.64472870e+02 -1.07554858e+03
      2.66410736e+02 -2.92070404e+02 9.48194031e+02 1.10647743e+02
      -1.34227478e+02 -5.72944214e+02 -1.12366821e+03 -1.24119484e+02</_>
    <_>
      -2.10703308e+02 -3.30019434e+03 -3.61907446e+03 2.61188452e+03
      3.65180103e+03 -1.68448706e+03 5.04982910e+03 6.11262695e+02
      1.04009863e+03 -8.90346924e+02 1.29496240e+03 -1.35584973e+03
      1.42852234e+03 2.63666504e+03 1.42671875e+03 -3.47606293e+02
      -8.52735657e+02 7.76398254e+02 -9.68149902e+02 -9.11079865e+01</_>
    <_>
      -1.84317725e+03 -2.88018726e+03 -2.52027637e+03 2.83884473e+03
      4.52444629e+03 -4.79333398e+03 -1.09496826e+03 1.76459021e+03
      -1.03685046e+03 -2.16539429e+03 4.23584404e+01 -1.24319226e+03
      1.43340015e+03 1.61317932e+03 1.67322510e+03 8.35896606e+02
      -9.62810181e+02 8.61844254e+01 7.80438416e+02 -8.05936279e+02</_>
    <_>
      8.41422852e+03 -4.29934229e+03 -3.68645117e+03 3.14822705e+03
      3.78052417e+03 -3.78682666e+03 -9.84868813e+00 1.17478320e+03
      -1.20492523e+02 -2.02622717e+03 8.96287292e+02 -1.09296960e+03
      1.70538599e+03 1.57486914e+03 1.28304834e+03 -4.77567474e+02
      -8.89401550e+02 8.87454956e+02 -1.13204086e+02 -1.08766125e+03</_>
    <_>
      1.22061416e+04 -3.25182813e+03 -4.15428711e+03 9.99950317e+02
      2.27278906e+03 -8.14521713e+01 3.96977051e+03 4.04168121e+02
      3.02537085e+03 2.13725739e+02 -2.86850586e+02 -2.58377472e+02
      -9.53976440e+02 1.26087366e+03 2.78165161e+02 -1.29627829e+01
      -1.72820541e+02 -4.84078033e+02 -1.65769849e+03 -4.64533844e+02</_>
    <_>
      -5.37741748e+03 -3.70488672e+03 -3.00268945e+03 2.73249634e+03
      2.68532495e+03 -1.06681030e+03 2.53176318e+03 -7.20913147e+02
      8.93067566e+02 9.03194946e+02 3.71927026e+03 -2.19845508e+03
      1.50853088e+03 1.16551514e+03 2.42045825e+03 -1.58343079e+02
      -2.54025223e+02 8.54429199e+02 -1.49605029e+03 1.99701465e+03</_>
    <_>
      -1.45218164e+03 -3.32673926e+03 -4.10510693e+03 2.53884521e+03
      4.31480664e+03 -2.74606543e+03 4.01027246e+03 8.93951035e+01
      -1.51207855e+02 -1.10027075e+03 1.40820374e+03 -7.67711060e+02
      2.16924316e+03 2.64872217e+03 1.85107947e+03 -7.40885620e+02
      -1.50311682e+03 1.08446619e+03 -1.68161047e+03 -3.57096222e+02</_>
    <_>
      6.92707520e+03 -3.10493066e+03 2.94136566e+02 -2.36003708e+02
      1.47145276e+03 -1.03475195e+03 7.50599594e+01 -7.30106384e+02
      -1.52944153e+02 6.97432617e+02 5.66509521e+02 -1.65445911e+03
      1.89163098e+03 5.77576782e+02 3.72328308e+02 1.38960291e+03
      -2.34832962e+02 -5.11313690e+02 -5.26025085e+02 -2.46319153e+02</_>
    <_>
      1.13121953e+04 -1.01287866e+03 -6.70540283e+02 -3.72691528e+02
      -1.12986176e+02 -2.45661035e+03 -1.00084674e+03 1.43382889e+02
      -3.10920502e+02 -8.13415283e+02 -1.32041711e+03 -1.39386804e+03
      4.34761230e+02 -1.73802136e+03 -4.88559418e+02 -6.91898987e+02
      -1.81306543e+03 -4.88277679e+02 9.44002502e+02 -3.86062012e+02</_>
    <_>
      8.19744434e+03 -3.89543433e+03 -1.35187512e+03 -4.79832422e+03
      2.47035083e+03 3.41245142e+03 8.87707825e+02 -1.35199524e+03
      7.44952942e+02 -7.35333313e+02 -3.06221863e+02 7.24478699e+02
      1.60143481e+03 -1.54855469e+03 3.56863556e+02 -3.26998932e+02
      9.47826477e+02 -2.31777374e+02 -5.96420349e+02 -4.72420105e+02</_>
    <_>
      3.42337158e+03 -4.24610107e+03 7.68100281e+02 -1.00118732e+03
      2.31458032e+03 2.09525635e+03 -2.72539331e+03 2.01387878e+03
      -1.33550220e+03 6.10189514e+02 -2.54314667e+02 -5.65539490e+02
      5.79306885e+02 -3.77257813e+02 4.01648560e+02 1.33754547e+02
      -4.68884613e+02 -5.06807739e+02 -3.16045502e+02 -6.35136963e+02</_>
    <_>
      5.52944336e+03 -4.49141748e+03 5.79372559e+02 -8.07715393e+02
      -2.28420135e+02 1.48499487e+03 -3.16936719e+03 8.48161743e+02
      -7.73859314e+02 -1.20356470e+03 -3.66990021e+02 2.37697479e+02
      -4.14763336e+01 -1.27692468e+03 3.78491554e+01 3.79670982e+01
      2.34189545e+02 7.01014221e+02 -3.40172089e+02 2.70946320e+02</_>
    <_>
      6.40067822e+03 2.87344678e+03 2.53598465e+02 -6.28037012e+03
      1.69181934e+03 5.78322510e+02 -1.09176880e+03 3.61108093e+02
      -1.64153796e+03 1.78116724e+03 1.77372034e+03 9.07338104e+01
      1.47924408e+02 1.09643481e+03 9.98378906e+02 -3.07070752e+03
      1.24511877e+03 1.41255115e+03 -2.55085785e+02 1.98939563e+03</_>
    <_>
      8.07419189e+03 -3.13836328e+03 -5.32248242e+03 2.19893213e+03
      2.82442969e+03 -1.86008826e+03 2.00518494e+03 6.42193054e+02
      5.62556030e+02 -1.57723792e+03 9.01880188e+02 -1.29520667e+03
      1.23897437e+03 3.10847095e+03 2.27435715e+02 -8.26976318e+01
      -8.23080444e+02 -2.87511841e+02 9.40794067e+01 -4.77917847e+02</_>
    <_>
      8.74193359e+03 -1.41869812e+03 -1.81645447e+03 -2.91019385e+03
      2.60745044e+03 -3.46299243e+03 1.86253552e+03 -7.73448608e+02
      7.70802612e+02 -5.68687866e+02 -6.23980286e+02 -1.38476355e+03
      1.92537671e+03 7.65362427e+02 -8.13394714e+02 -1.33210645e+03
      -1.24723709e+02 1.13029468e+03 -6.55485229e+02 -4.84153534e+02</_>
    <_>
      2.87830054e+03 -1.74408850e+03 -1.36951172e+03 3.50975391e+03
      -2.37053955e+03 3.08780273e+03 1.73423950e+03 -1.38070017e-01
      9.50141052e+02 1.49896619e+03 6.27528442e+02 7.59747559e+02
      -1.32392175e+03 -1.85667862e+02 -7.07804565e+02 -1.24697418e+02
      -7.70539307e+02 -7.03363159e+02 -3.39512360e+02 -7.95332520e+02</_>
    <_>
      2.13231909e+03 2.77806616e+03 -3.44857104e+03 1.85129968e+03
      -3.32203906e+03 -1.92314600e+03 -1.68976099e+03 1.74923206e+03
      -1.35473730e+03 -8.40108398e+02 1.65964001e+03 7.00784607e+02
      -9.53648743e+02 2.22590790e+01 -7.17084290e+02 -1.18127594e+02
      1.02504425e+02 2.17399551e+02 1.77990662e+02 6.78199158e+02</_>
    <_>
      2.56614990e+03 2.18514801e+02 -2.35812891e+03 2.51597705e+03
      -1.80923645e+03 2.38759375e+03 1.09907043e+03 3.72163025e+02
      -1.26517969e+03 1.24289392e+03 -5.90296326e+02 8.51389099e+02
      -4.44729156e+02 -1.09135103e+01 -1.22006311e+03 9.61730713e+02
      -7.87572403e+01 9.23738159e+02 -5.60216370e+02 -3.17986267e+02</_>
    <_>
      7.77163574e+03 4.79949854e+03 -4.86072217e+03 1.84285461e+03
      -1.73000061e+03 -1.87198413e+03 -2.05177295e+03 4.19697900e+03
      -1.68848877e+03 1.95236511e+03 -1.14078674e+03 1.75903784e+03
      -1.82549304e+03 -3.90888336e+02 5.96617676e+02 4.61088989e+02
      -7.08630447e+01 -1.24201584e+02 -5.39560059e+02 -2.01238037e+02</_>
    <_>
      5.84236768e+03 2.64546191e+03 -2.95499121e+03 1.49743921e+03
      -4.43764697e+03 -2.50399707e+03 -2.20030713e+03 1.39838184e+03
      -6.88966431e+02 -6.65345825e+02 1.05127771e+03 1.40002124e+03
      -4.81769348e+02 -1.01476123e+03 -9.40939270e+02 2.81452332e+02
      1.53733566e+02 -2.48974655e+02 -3.80544678e+02 4.68759857e+02</_>
    <_>
      -1.68859485e+03 8.31517188e+03 2.91142017e+03 5.13709082e+03
      -2.27747168e+03 1.04250073e+03 -6.28724304e+02 9.90606873e+02
      -3.01002417e+03 6.03042114e+02 -8.68695068e+02 2.43034790e+03
      3.57759351e+03 -1.52810913e+02 -6.08098267e+02 -1.30222122e+02
      1.45334485e+03 1.98411499e+02 -8.45008972e+02 5.34581177e+02</_>
    <_>
      1.26614854e+04 -1.17713013e+03 -4.33510498e+03 -6.20235352e+02
      -2.37544342e+02 7.31862305e+02 -4.68003357e+02 2.35595972e+03
      -1.94937427e+03 5.28706177e+02 1.41723892e+02 -1.24122913e+03
      -6.44434692e+02 2.57154510e+02 -2.12768359e+03 6.76433444e-01
      1.25050453e+02 8.46942505e+02 1.55064987e+02 1.51339819e+03</_>
    <_>
      5.37485107e+03 1.26113828e+04 -7.31195459e+03 4.70632416e+02
      -1.27130811e+03 3.89279395e+03 -1.98947083e+03 -3.40066504e+03
      -2.49036304e+03 -2.69209375e+03 1.32645923e+03 -1.19677466e+03
      -7.95348999e+02 1.78415918e+03 -1.41728040e+03 3.18542755e+02
      1.20228992e+03 -1.27073352e+03 -4.32576141e+02 6.77585205e+02</_>
    <_>
      1.19312510e+04 -5.70443311e+03 -3.49238989e+03 -4.13189026e+02
      3.37779858e+03 2.63901929e+03 -1.36206702e+03 5.20132141e+02
      -2.25617737e+02 -4.19041595e+01 -3.90615356e+02 -1.36234485e+03
      1.82769958e+03 1.41251917e+03 -3.10122253e+02 -8.54767517e+02
      -5.92210693e+02 -5.10841400e+02 2.35333344e+02 -5.92032837e+02</_>
    <_>
      2.72569482e+03 3.73934497e+03 4.45211639e+02 -4.03639307e+03
      4.24679688e+03 1.64986719e+03 7.10233078e+01 -1.43091431e+03
      1.14679237e+02 4.07596039e+02 -3.52853589e+03 1.04119568e+03
      1.03641785e+03 -3.37259613e+02 1.10689783e+03 -2.74940405e+03
      5.12887512e+02 -1.21841406e+03 1.09996423e-01 -4.28995911e+02</_>
    <_>
      -5.74874561e+03 5.27091895e+03 5.12644141e+03 -3.51505859e+02
      -1.52526230e+02 4.09483185e+01 1.27145239e+03 5.39332568e+03
      -2.29038745e+03 2.40655609e+02 -3.20174866e+02 -3.07395874e+03
      1.16366711e+03 -6.22754333e+02 -1.10339771e+03 1.22473596e+03
      -7.09566650e+02 1.04821021e+03 3.33910693e+03 2.23507227e+03</_>
    <_>
      -4.29961523e+03 9.23056543e+03 6.50022949e+02 -4.87828516e+03
      4.91279639e+03 8.80618057e+01 -1.25353406e+03 -1.63089563e+03
      -2.49137222e+02 1.07798108e+03 -2.05241943e+03 3.26997070e+02
      -1.69062976e+03 -4.35081940e+02 1.15798291e+03 -2.85765112e+03
      9.21927429e+02 -3.83425122e+03 1.11503860e+02 4.49153229e+02</_>
    <_>
      -5.15044287e+03 3.18655957e+03 2.73628296e+03 -1.10700403e+03
      5.23556104e+03 3.05759937e+03 2.49479834e+03 4.67051660e+03
      -3.86996948e+02 1.69409424e+03 -3.04442554e+03 5.92341492e+02
      -2.53018457e+03 -9.83373169e+02 -2.08446362e+03 -2.59460541e+02
      -1.18028320e+03 -7.45135803e+01 -8.32455261e+02 3.11544385e+03</_>
    <_>
      1.70558594e+04 -4.53471191e+02 3.74143250e+02 5.73358093e+02
      -8.54242798e+02 7.84163284e+01 4.37709473e+03 9.98209839e+02
      2.45471436e+03 1.72855579e+03 6.89299438e+02 5.25392036e+01
      -2.17610400e+03 -1.79216217e+02 1.93502151e+02 9.02684143e+02
      6.24212158e+02 -4.89753143e+02 -9.19007080e+02 1.51282455e+02</_>
    <_>
      -6.53305908e+03 -2.25418408e+03 1.40800806e+03 -1.89051453e+03
      4.78062134e+02 2.03517993e+03 -8.38810059e+02 1.43579639e+03
      -1.75687573e+03 2.56056824e+01 -1.23800928e+03 1.27865625e+03
      -4.63987335e+02 6.99009094e+02 7.56440857e+02 7.52639160e+02
      1.38279309e+03 1.04308325e+03 -3.60662384e+02 -6.45248352e+02</_>
    <_>
      8.95590454e+02 1.78846973e+03 2.72917456e+03 -6.62821191e+03
      3.45377124e+03 -4.43924170e+03 2.10665308e+03 -3.04860840e+03
      -6.63591614e+02 1.30025635e+03 1.50351624e+03 1.18070996e+03
      1.01760339e+03 1.98886707e+03 -1.06448328e+03 3.52438989e+03
      1.02353050e+02 -1.77833344e+02 -1.19242407e+03 8.25653198e+02</_>
    <_>
      -4.06515161e+03 8.20515137e+02 -3.54956226e+03 -5.68751855e+03
      3.63915137e+03 2.21352075e+03 2.54515137e+03 2.21896851e+02
      2.40013867e+03 -2.88733618e+03 1.05086389e+03 1.51509277e+03
      6.93659119e+02 -1.22765283e+03 -1.88579773e+03 1.15926770e+03
      1.72896899e+03 -1.44941760e+03 3.70456879e+02 -2.76665710e+02</_>
    <_>
      -5.36012756e+02 1.75645483e+03 6.47870850e+03 -4.00448853e+02
      -2.06395605e+03 3.34163110e+03 1.23951729e+02 3.51293091e+03
      2.47326855e+03 -2.72233594e+03 1.23331641e+03 -1.57470227e+03
      -5.77571533e+02 2.46948315e+03 2.36561386e+02 -9.97607971e+02
      1.53839539e+03 3.03331318e+01 -3.66201752e+02 -9.93890686e+02</_>
    <_>
      -4.85554932e+03 -2.14743774e+03 -2.42940430e+03 -4.20127539e+03
      1.82511157e+03 2.42815039e+03 -1.81341064e+03 3.15471118e+03
      -1.01314435e+03 -3.67304779e+02 1.11598706e+03 -3.44070129e+02
      2.31942896e+03 -9.21236572e+02 1.44381409e+03 9.90483948e+02
      8.10484131e+02 1.52192932e+03 -1.68012894e+02 -1.21712256e+03</_>
    <_>
      -3.81630762e+03 -2.71526294e+03 -2.32209619e+03 -6.55753296e+02
      -1.95600128e+02 2.39013599e+03 -2.02354663e+03 3.35816821e+03
      5.52341187e+02 -3.97634491e+02 1.21588806e+03 -1.45855566e+03
      6.32884277e+02 -2.85221533e+03 2.10445728e+03 -7.83553101e+02
      -1.21824670e+03 -2.50070114e+02 5.96739685e+02 -1.39425034e+02</_>
    <_>
      2.38067407e+03 -1.48936987e+03 5.16542090e+03 -7.45701367e+03
      3.22412964e+03 1.70727081e+02 2.35519629e+03 -4.91828027e+03
      -2.88265796e+03 7.57519348e+02 -1.70525305e+03 9.28233032e+02
      1.58102991e+03 1.08552039e+03 5.30237610e+02 2.02150977e+03
      7.55193329e+01 -1.16694237e+02 1.29895691e+02 -7.87555786e+02</_>
    <_>
      -6.34816309e+03 4.36126172e+03 4.24048193e+03 8.24530273e+02
      -4.56911041e+02 1.77770447e+03 -1.46019617e+03 1.08522693e+03
      3.20574097e+03 -1.85680823e+03 -1.74033496e+03 1.73899292e+03
      2.41598267e+03 3.70837329e+03 1.50727344e+03 6.02217896e+02
      6.69277283e+02 2.45488257e+03 -2.52535596e+03 -7.56235962e+01</_>
    <_>
      8.96306348e+03 -2.34759293e+02 8.61624023e+03 -1.16764526e+03
      -3.35993140e+03 -1.02707764e+03 3.46890845e+03 -1.20105688e+03
      -3.12759521e+03 -1.20671051e+02 -1.09449219e+02 -1.11876245e+03
      -1.28395740e+03 -6.59776550e+02 -6.65144043e+02 -5.16697021e+02
      -5.54445984e+02 1.45184296e+02 -4.87587524e+02 1.78253782e+00</_>
    <_>
      5.18449023e+03 -3.56420703e+03 1.17765784e+03 -5.45333301e+03
      3.58057892e+02 2.38187427e+03 -1.43837439e+03 5.34804382e+02
      -1.81176674e+00 -1.06339697e+03 -8.89607544e+01 6.37016785e+02
      3.21155472e+01 -2.27062134e+03 8.04505493e+02 1.49259082e+03
      2.40269012e+02 1.07792041e+03 8.03787231e+02 -1.37816541e+03</_>
    <_>
      7.80450928e+02 6.89543457e+03 6.27789502e+03 2.20610156e+03
      -4.75211914e+03 -6.04418457e+02 4.67303906e+03 1.85940198e+03
      -3.20036133e+03 -2.43304175e+03 4.71313965e+03 1.74973755e+02
      2.48459570e+03 -3.32098047e+03 1.92091724e+03 -5.45345764e+02
      1.81130811e+03 -2.19039111e+03 -1.35778967e+03 -9.08760376e+02</_>
    <_>
      2.61858887e+03 1.82714783e+03 4.45251416e+03 -6.29405127e+03
      3.57008789e+02 -3.79710352e+03 -9.48599426e+02 7.92435852e+02
      -7.27840576e+02 -1.11723303e+03 1.45288538e+03 2.16506421e+03
      -2.42248682e+03 4.98547760e+02 -1.48492651e+03 -4.91400604e+02
      -1.89908496e+03 1.00766852e+03 2.30277756e+02 6.56570984e+02</_>
    <_>
      4.94885303e+03 -6.07803802e+01 -1.31166724e+03 -5.12292773e+03
      2.61070825e+03 1.63042346e+03 -3.30561719e+03 1.42154810e+03
      -9.70505005e+02 2.14204199e+03 1.68186914e+03 -3.40997528e+02
      5.37554443e+02 -1.99316467e+02 1.85333630e+03 -3.09505200e+03
      1.25779749e+03 3.04743256e+02 2.51211960e+02 9.09133545e+02</_>
    <_>
      -3.39545093e+03 -1.21581494e+03 -4.31479834e+03 1.41922998e+03
      3.87602417e+03 -6.45885803e+02 2.67306592e+03 2.29522852e+03
      -1.06226086e+03 -3.28066772e+02 2.60807275e+03 -1.22588049e+03
      1.26754834e+03 3.41223584e+03 -1.65021790e+02 -3.66421295e+02
      -1.77299854e+03 -8.47908813e+02 -7.67269836e+02 -2.73520355e+02</_>
    <_>
      6.90949121e+03 -3.95603729e+02 3.94845361e+03 -3.83858789e+03
      -1.89942297e+03 -5.71931213e+02 -1.74014099e+02 -1.08315381e+03
      1.16284631e+03 -2.87453766e+02 -8.34237915e+02 2.48448563e+02
      -2.33921509e+03 7.64187866e+02 3.40645813e+02 -1.86769861e+03
      -1.13892021e+02 1.44039209e+03 -9.10177231e+01 5.54722229e+02</_>
    <_>
      -1.17777832e+03 3.93881561e+02 9.44565137e+03 -1.08745923e+03
      -8.22088379e+02 2.98221973e+03 1.12132178e+03 -1.32913904e+03
      -5.19162659e+02 -4.85469971e+03 1.33933020e+03 -4.09718872e+02
      -8.78150513e+02 2.44679736e+03 5.39062805e+02 6.11640198e+02
      -2.68458960e+03 5.53869812e+02 1.23081917e+02 -3.39222748e+02</_>
    <_>
      -2.50264258e+03 4.90794531e+03 6.68812988e+03 -3.48405713e+03
      -1.77038989e+03 5.88118774e+02 -2.28395068e+03 2.94021667e+02
      3.52416431e+03 -4.36390234e+03 7.76441528e+02 8.04246948e+02
      -1.46630554e+03 -7.49722229e+02 2.54275562e+03 7.24291077e+02
      -1.90848328e+03 -3.61826569e+02 -4.04893677e+02 -6.42696167e+02</_>
    <_>
      5.15567322e+02 1.23233301e+03 5.86878857e+03 -6.46902222e+02
      -3.54007251e+03 -2.11690479e+03 2.23767676e+03 -2.21014526e+03
      1.30150989e+03 1.72440076e+03 -1.44016968e+03 -1.23097681e+03
      -1.85721741e+03 1.11348132e+03 1.71598132e+03 -1.94582214e+02
      -1.25818146e+02 3.23571381e+02 -1.84307251e+03 -9.61908691e+02</_>
    <_>
      5.89122986e+02 -6.49617627e+03 3.39119556e+03 4.64745215e+03
      6.25595557e+03 1.11956238e+03 2.78816254e+02 -1.75778732e+02
      -3.19330396e+03 -1.53643652e+03 3.77562720e+03 -9.83887634e+02
      -7.32184570e+02 3.26706848e+02 3.76331085e+02 -5.48601318e+02
      7.07498901e+02 8.27257813e+02 5.39047180e+02 -1.26027319e+03</_>
    <_>
      3.11565161e+03 -4.17280078e+03 6.54892432e+03 1.15139172e+03
      5.89803528e+02 2.14319629e+03 -2.61655029e+03 1.47219641e+03
      -6.87877197e+02 -1.15614029e+02 -1.14251160e+03 -2.31224878e+03
      -1.23366895e+03 -4.49664764e+02 -1.54783496e+03 8.66806885e+02
      7.59252502e+02 -2.34493027e+02 2.54420883e+02 -2.99866272e+02</_>
    <_>
      1.45171289e+04 -7.15147095e+02 1.98317358e+03 -3.72927155e+02
      -1.90832458e+03 3.06628815e+02 1.21532739e+03 1.40083899e+03
      1.95137793e+03 3.17586937e+01 1.06406702e+03 8.55365295e+02
      2.98775116e+02 6.66010254e+02 6.56324280e+02 -7.05031311e+02
      4.47713745e+02 2.85831604e+02 2.47155930e+02 -1.56901184e+02</_>
    <_>
      -7.80877637e+03 -6.30711816e+03 4.27124072e+03 2.36807056e+03
      3.27697461e+03 1.66522461e+03 -2.23414648e+03 1.80048050e+02
      -1.90011426e+03 8.22391296e+02 1.60417053e+03 3.36405060e+02
      -1.74351196e+03 -1.97730237e+03 -7.00153748e+02 -1.39735681e+03
      -1.81117871e+03 1.02486572e+03 -1.98301599e+03 7.31351074e+02</_>
    <_>
      -9.65371973e+03 -7.84154419e+02 -3.25457642e+03 1.20857397e+03
      2.97043427e+02 -3.12003760e+03 -1.07616772e+03 1.15966577e+03
      -1.45673828e+03 -3.55102234e+02 2.06654248e+03 -1.71207031e+03
      1.03144031e+03 -1.44392261e+03 1.58360876e+03 -6.97832642e+02
      -2.95946045e+03 -8.70024902e+02 -7.68921997e+02 9.67179321e+02</_>
    <_>
      -1.14875137e+04 8.79401855e+02 8.37327576e+02 -2.33056055e+03
      -2.67054565e+02 -2.09889404e+03 -1.46886572e+03 1.31799890e+03
      -6.00790344e+02 -8.58857178e+02 -1.54332227e+03 -2.06638989e+03
      -1.65162521e+02 -1.88224243e+03 1.07360193e+03 8.80152527e+02
      -4.32414642e+02 -8.29625610e+02 -1.04669128e+03 -6.69505432e+02</_>
    <_>
      -7.78224658e+03 2.93993726e+03 2.88189111e+03 9.25939355e+03
      4.57818457e+03 2.04756177e+03 1.04106787e+03 -1.70599329e+03
      -1.59614404e+03 -1.68225671e+03 1.08973242e+03 -7.52974731e+02
      -1.42287561e+03 -1.10587646e+03 -1.07176917e+03 -2.30095068e+03
      -7.27270996e+02 -1.67142163e+03 2.54315381e+03 -3.71307739e+03</_>
    <_>
      3.86559357e+02 3.42939233e+03 -2.72797339e+03 -2.30703674e+02
      1.65256287e+03 -8.24804688e+03 -2.18830469e+03 9.00511169e+01
      1.70335059e+03 -2.04974072e+03 1.33395416e+02 3.89303125e+03
      -1.48678638e+03 -1.00399414e+03 -2.24123828e+03 -2.80672058e+02
      5.95051514e+02 1.19596497e+03 -1.11002515e+03 -1.57405225e+03</_>
    <_>
      -2.06774805e+03 6.32955469e+03 4.30197412e+03 -2.26121631e+03
      -1.58460400e+03 -1.43043726e+03 1.12254480e+03 1.64774902e+03
      2.21857690e+03 -1.93966721e+02 -5.22066895e+02 -2.07396948e+03
      1.53726099e+03 -1.35974536e+03 -6.07617249e+02 -2.13684863e+03
      -5.35929749e+02 1.37762476e+03 1.93135696e+02 1.22777466e+03</_>
    <_>
      6.84870703e+03 -8.71040649e+02 7.24303406e+02 5.30325830e+03
      4.47300293e+03 -2.27366602e+03 8.04317932e+01 2.25984717e+03
      -2.00035559e+03 -2.87085913e+03 -1.27631628e+03 4.16054639e+03
      2.89313873e+02 -2.89690613e+02 7.14843201e+02 -2.19308936e+03
      6.05741943e+02 1.51650769e+03 2.83811719e+03 -5.82076378e+01</_>
    <_>
      -6.82047852e+03 1.68467847e+03 -1.44618347e+02 8.54379700e+02
      8.17667236e+02 -1.98858386e+03 -1.92544104e+03 6.68342224e+02
      1.92431995e+03 8.61161682e+02 4.90329834e+02 -4.66403351e+02
      -3.16342804e+02 -1.03698889e+03 7.63440308e+02 1.36697791e+03
      -3.94545593e+02 -6.82178894e+02 -4.40935699e+02 3.28274292e+02</_>
    <_>
      -5.36280713e+03 -6.02728394e+02 -5.95551880e+02 4.87042285e+03
      4.24022217e+03 -2.73700049e+03 1.50712024e+03 -1.26016943e+03
      -5.62477295e+02 6.75271683e+01 2.04346057e+03 -5.98835945e+01
      -1.04683679e+03 -1.69962082e+02 2.63232056e+03 3.74170197e+02
      1.19344348e+03 -1.19050659e+03 -1.15295540e+02 2.15162183e+03</_>
    <_>
      7.45190625e+03 1.74905505e+03 3.92598877e+02 5.02678076e+03
      2.60311737e+02 -1.11352820e+03 2.20873547e+01 -3.27315887e+02
      3.97547607e+03 4.84893213e+03 2.73983179e+03 2.98876147e+03
      2.48325537e+03 -1.18940178e+02 -1.04975049e+03 7.36363037e+02
      -1.94845618e+03 5.26844116e+02 1.18759155e+03 -1.50451758e+03</_>
    <_>
      -4.97604980e+03 1.00082581e+03 -2.23336182e+02 6.27156055e+03
      3.31643140e+03 5.43281128e+02 -1.71511340e+03 -3.12326355e+02
      1.15427368e+03 -8.73813477e+01 4.80881409e+02 1.06256909e+03
      -5.26033325e+02 -3.10978485e+02 -1.24016785e+03 -3.67535858e+02
      -1.74925378e+03 -9.01604431e+02 1.63296631e+03 7.21652893e+02</_>
    <_>
      8.42466016e+03 -3.09895947e+03 -1.68061310e+02 1.27181982e+03
      1.70411902e+03 -3.43482788e+03 2.85367090e+03 -6.57042847e+02
      -1.35369287e+03 -2.33728516e+03 -1.98691309e+03 -1.61638916e+02
      1.05045178e+03 -7.21338577e+01 -9.61731384e+02 -8.26369507e+02
      9.07007294e+01 4.71192657e+02 -1.89283960e+03 2.64563904e+02</_>
    <_>
      -3.77441138e+03 2.32168774e+03 -1.86981094e+02 3.46191479e+03
      4.39824121e+03 -2.52042480e+03 4.48947998e+02 -1.41063208e+03
      3.24740845e+03 3.09722412e+02 2.67238599e+03 2.82915088e+03
      -1.27481030e+03 9.43235840e+02 2.41467578e+03 1.08507764e+03
      1.90439978e+03 8.95571411e+02 1.29991235e+03 -3.52572632e+02</_>
    <_>
      -1.27145984e+03 -1.88523291e+03 -4.17948822e+02 4.49315283e+03
      1.91623950e+03 -7.49148926e+02 -2.41975879e+03 -1.96089050e+02
      1.77927100e+03 3.50064240e+02 1.08211938e+03 7.13090393e+02
      -7.55181885e+02 -1.04334631e+03 3.23100967e+01 4.75350159e+02
      -6.44855835e+02 -1.23057654e+03 -8.16287415e+02 1.54544177e+03</_>
    <_>
      1.95614609e+02 -3.07666772e+03 -2.02520911e+03 -8.24637268e+02
      2.83877686e+03 4.47056244e+02 -2.83903906e+03 2.84777612e+03
      -1.33530481e+03 -9.50732498e+01 -1.36244324e+03 3.73461578e+02
      2.30714038e+03 -9.17836731e+02 8.64796326e+02 -6.13386002e+01
      -2.52317368e+02 1.77439789e+02 -1.53464386e+02 -1.15051624e+03</_>
    <_>
      -2.14678296e+03 6.16819031e+02 2.99659424e+03 6.03774561e+03
      9.00122986e+02 -1.01792181e+03 -2.08440576e+03 -8.02386292e+02
      2.36630811e+03 4.74623657e+02 -7.99540405e+02 1.24420923e+03
      2.25766187e+03 7.90368080e+00 -1.52194702e+03 -1.14382004e+02
      -9.74338379e+02 -5.26418823e+02 2.48701465e+03 1.96305652e+03</_>
    <_>
      8.70215820e+03 -3.15455493e+03 1.56574524e+03 5.03627979e+03
      1.82035437e+03 -1.17142432e+03 -2.21375732e+03 -1.54102014e+03
      2.11593848e+03 3.97315399e+02 2.20752563e+01 3.33756775e+02
      -7.64426851e+00 -8.36785034e+02 4.40828522e+02 3.26253632e+02
      -2.84943451e+02 -1.04251076e+02 1.46446814e+03 1.42694214e+02</_>
    <_>
      -1.34937170e+03 1.06107947e+03 2.66915576e+03 3.48338623e+03
      -3.32987122e+02 4.27571960e+02 -2.25204663e+03 8.61859985e+02
      2.76659229e+03 8.05453186e+01 -1.23564905e+03 -6.50530579e+02
      2.27404321e+03 -7.29965439e+01 -1.95410632e+03 4.08875153e+02
      -2.41127823e+02 -5.47816406e+02 6.35864601e+01 6.59528809e+02</_>
    <_>
      1.01463164e+04 1.34234656e+03 2.58974805e+03 4.06896680e+03
      -3.32020337e+03 -2.03926709e+03 2.11059839e+03 -2.31895825e+03
      1.89579553e+03 2.09584839e+03 -2.66225830e+03 1.10810657e+03
      4.79877100e+03 -2.82577661e+03 1.30428589e+03 8.05676880e+02
      -2.65534155e+03 -1.19747475e+02 1.02460815e+03 2.23274023e+03</_>
    <_>
      2.27586475e+03 -3.28663477e+03 2.10964551e+03 -3.61781299e+03
      3.31250122e+03 1.55159619e+03 -2.69841089e+03 2.08211792e+03
      -3.65585791e+03 1.02710205e+03 -1.41362720e+03 3.65719086e+02
      8.48734741e+02 -2.11292145e+02 -1.29386804e+03 -3.51847595e+02
      -1.97533594e+03 7.88302231e+01 -8.47830811e+02 -1.64877734e+03</_>
    <_>
      1.38037197e+04 -5.99893311e+02 2.69389624e+03 1.42279761e+03
      -3.07403857e+03 1.13136584e+03 2.49961377e+03 5.77578918e+02
      -2.78140137e+02 -2.95331543e+02 2.07721436e+03 1.76982971e+02
      4.31597198e+02 -1.38766479e+03 1.37782300e+03 -7.70247742e+02
      3.60542450e+02 -1.03600456e+02 -4.98893219e+02 -1.84497437e+02</_>
    <_>
      6.67043555e+03 7.38383423e+02 5.81145898e+03 4.58974152e+02
      -2.06439429e+03 1.77075317e+03 -1.46679895e+03 1.18742805e+02
      1.56825464e+03 -3.16802148e+03 3.05400635e+02 1.85314307e+03
      9.23282471e+02 1.23961084e+03 1.03928284e+03 -5.89379883e+02
      4.71223572e+02 -1.94678787e+02 -1.23309448e+03 -1.37560532e+02</_>
    <_>
      -5.11248291e+03 -4.48536963e+03 -3.53616211e+02 5.97894287e+02
      2.29258862e+03 -2.51067764e+02 -2.73949390e+03 2.01955310e+03
      -1.21346741e+03 -4.76348816e+02 8.30726440e+02 -6.68696411e+02
      4.30036926e+02 -9.76422119e+02 4.52573364e+02 4.48014008e+02
      4.49359711e+02 1.70872757e+02 -4.76588928e+02 7.01628906e+02</_>
    <_>
      6.84819336e+03 -3.46991895e+03 4.48525543e+02 1.31417395e+03
      5.51395874e+02 3.98272308e+02 -3.63867920e+03 1.30784949e+03
      7.41354675e+02 4.41511444e+02 -3.24468658e+02 -4.62029846e+02
      -1.54248947e+02 -1.17247705e+03 5.92981071e+01 9.21304077e+02
      -5.86544006e+02 1.29771006e+00 -2.61166626e+02 2.71075478e+01</_>
    <_>
      4.85839990e+03 1.13639785e+04 -7.91019678e+03 8.84180115e+02
      -2.57706030e+03 3.27122974e+03 -2.54679932e+03 -2.65860327e+03
      -2.14291797e+03 -4.45932465e+02 -2.17664597e+02 -2.66727808e+03
      8.19918762e+02 2.92472729e+03 -1.27275696e+03 9.72324295e+01
      1.10242029e+03 -1.64129138e+03 -3.89019318e+02 1.40854602e+03</_>
    <_>
      3.40545313e+03 3.14179614e+03 9.71498337e+01 -4.12359180e+03
      4.08245142e+03 1.79531641e+03 -5.04815399e+02 -1.33375635e+03
      2.14767059e+02 3.91830139e+02 -3.58689502e+03 8.77563110e+02
      1.34710156e+03 -7.39770752e+02 8.97831665e+02 -2.76987988e+03
      5.46734924e+02 -1.11321802e+03 -3.23781921e+02 -3.95695740e+02</_>
    <_>
      -4.05454736e+03 2.53175952e+03 2.09364551e+03 -5.72754700e+02
      4.95596143e+03 2.87256348e+03 1.39380554e+03 4.75399268e+03
      -1.27464371e+02 2.26216016e+03 -3.39645288e+03 3.12809021e+02
      -2.27864380e+03 -1.37236047e+03 -2.55553540e+03 2.07316010e+02
      -1.08164771e+03 -5.08882477e+02 -1.22346289e+03 3.24365259e+03</_>
    <_>
      7.04520166e+03 1.25562817e+03 -5.59798145e+03 -5.79968567e+02
      -6.56546707e+01 -1.63498999e+03 3.46247876e+03 4.85142853e+02
      3.61770728e+03 4.04846405e+02 -2.60033911e+03 -2.06657202e+03
      -9.63381226e+02 -1.97857800e+03 1.22898657e+03 2.58575220e+03
      6.84658752e+02 7.00883850e+02 -9.29099915e+02 -1.57331287e+03</_>
    <_>
      8.59732742e+01 1.90253564e+03 3.19308594e+03 -7.61908301e+03
      2.66527686e+03 -3.31206470e+03 1.87319763e+03 -2.00467419e+03
      -8.02060547e+02 -3.76274872e+02 1.24372498e+03 2.48501074e+03
      4.86909637e+02 2.01697400e+03 -2.98424530e+02 3.37870020e+03
      1.63585373e+02 1.53562881e+02 4.39042053e+02 2.74710907e+02</_>
    <_>
      -3.28721753e+03 1.44530457e+03 -3.08346045e+03 -5.84884668e+03
      3.35522388e+03 1.83795605e+03 2.64812036e+03 -2.18006805e+02
      2.50406958e+03 -3.35851196e+03 4.68138245e+02 1.12100366e+03
      4.13468353e+02 -1.50232532e+03 -1.79964136e+03 1.49829199e+03
      1.63061279e+03 -1.75450842e+03 1.17019849e+03 3.76071136e+02</_>
    <_>
      -5.40467090e+03 5.63560974e+02 -4.76767041e+03 -4.66146924e+03
      2.25408594e+03 1.23918103e+03 1.81760486e+03 7.66188843e+02
      3.06458350e+03 -1.22130432e+03 7.32753113e+02 -3.26364563e+02
      -3.72524452e+01 -9.44018311e+02 -2.29263696e+03 -7.18129211e+02
      3.11724414e+03 2.94691620e+02 -4.10459106e+02 1.24744434e+03</_>
    <_>
      -7.70582617e+03 4.04736304e+03 3.63269263e+03 -4.72238922e+01
      -7.38591125e+02 8.46868958e+02 -2.85416724e+03 3.24305573e+02
      3.60653564e+03 -1.64041565e+03 -2.02148291e+03 1.25191394e+03
      1.51349536e+03 4.22691016e+03 1.58395801e+03 1.62671423e+03
      -5.82994263e+02 8.76904175e+02 -1.42568372e+03 1.22459404e+02</_>
    <_>
      7.99169238e+03 -8.87551636e+02 8.23572949e+03 2.59774647e+01
      -4.02103833e+03 -1.94003677e+02 1.70412744e+03 -5.99209229e+02
      -1.94739392e+03 1.05518616e+03 -4.34052643e+02 -1.67347083e+03
      -1.00200848e+03 -1.50007202e+03 -1.36106384e+03 -7.97000610e+02
      -3.97356171e+02 -8.73692871e+02 -4.04662140e+02 3.90299866e+02</_>
    <_>
      9.78215027e+02 7.11846484e+03 6.05085352e+03 1.68612390e+03
      -4.85297070e+03 -8.61339111e+02 4.58001855e+03 2.30051123e+03
      -3.35816699e+03 -3.38604175e+03 4.08244458e+03 -1.63826019e+02
      2.84101367e+03 -2.71383350e+03 2.24911304e+03 -8.07015808e+02
      2.28495825e+03 -2.34308838e+03 -1.39339172e+03 -6.79526794e+02</_>
    <_>
      -1.04319092e+03 1.32378979e+03 9.10307422e+03 -1.19114856e+03
      -2.23642334e+03 3.71343384e+03 6.23758507e+01 -1.27239343e+03
      9.55661011e+01 -4.99006543e+03 3.41462067e+02 -6.69873169e+02
      -6.13186523e+02 2.73056616e+03 3.05776337e+02 -5.30429871e+02
      -3.02528784e+03 -5.17639771e+02 5.73781395e+01 3.49128998e+02</_>
    <_>
      -8.07766602e+03 1.57282166e+03 3.92273022e+03 5.65542334e+03
      5.10309229e+03 -7.55371765e+02 -2.96834137e+02 -3.60547021e+03
      1.21247192e+03 7.35687988e+02 4.59825012e+02 1.83876465e+02
      -1.08698462e+03 -1.70795313e+03 -6.60542542e+02 -8.84630981e+02
      -5.79179993e+02 -7.77235901e+02 2.71870972e+03 -3.03336597e+03</_>
    <_>
      -6.32111279e+03 7.63666602e+03 2.25385815e+03 6.18863086e+03
      2.18539795e+03 2.28016577e+03 -2.44316879e+02 -5.53404968e+02
      -1.59702783e+03 2.04012244e+03 3.12811572e+03 2.24903174e+03
      1.80519531e+03 1.12284717e+03 -2.22781396e+03 7.13660156e+02
      1.58590073e+02 2.53225806e+03 9.48512390e+02 -8.17947266e+02</_>
    <_>
      8.19606250e+03 -2.40482080e+03 -4.31051697e+02 1.57205920e+03
      1.47368335e+03 -5.09571973e+03 1.88266650e+03 -8.20268555e+02
      -1.31148254e+03 -2.62381689e+03 -2.08750513e+03 7.34883606e+02
      6.64711182e+02 -7.06873047e+02 -1.19890881e+03 -9.11764648e+02
      8.93960190e+01 6.83475159e+02 -1.76146301e+03 -5.85577393e+02</_>
    <_>
      -1.99620886e+03 -1.02547180e+03 5.90338989e+02 6.09821094e+03
      4.37264111e+03 -1.07641760e+03 -6.70972633e+00 -5.03211963e+03
      -2.36174545e+02 2.50877247e+01 1.39583679e+03 3.68579987e+02
      -1.14683447e+03 -2.30670700e+02 -2.19818668e+01 -1.74449738e+02
      -1.16255768e+02 -1.63452686e+03 -9.38759705e+02 -1.54669861e+02</_>
    <_>
      1.17754170e+04 -6.77342102e+02 2.37950342e+03 3.23244629e+03
      -8.19321777e+02 -7.51327271e+02 5.13545776e+02 -2.52785522e+03
      5.43507263e+02 9.63865845e+02 1.09726501e+03 1.06383495e+01
      2.28150330e+02 -7.81809692e+02 -3.79098633e+02 2.20852692e+02
      8.88240738e+01 -6.47122620e+02 -1.02634792e+01 6.93473694e+02</_>
    <_>
      8.48829004e+03 2.39447876e+03 2.68993433e+03 2.97499292e+03
      -3.20015405e+03 -3.39891602e+03 2.38992578e+03 -2.77408447e+03
      1.41398230e+03 2.32096606e+03 -3.04408813e+03 5.32811279e+02
      4.86718457e+03 -1.97365295e+03 1.60552307e+03 2.14565735e+02
      -2.51310327e+03 6.53592072e+01 1.02745837e+03 2.19278735e+03</_>
    <_>
      2.86197412e+03 -3.48340479e+03 1.92812170e+03 -3.20008911e+03
      3.13263892e+03 2.44594238e+02 -1.95957568e+03 9.22207886e+02
      -3.73967334e+03 1.80017944e+03 -5.63349121e+02 -6.97776306e+02
      1.40050952e+03 -1.93986740e+02 -1.56232092e+03 -1.89759628e+02
      -2.51389575e+03 4.77644501e+02 -1.97516711e+03 -1.55331189e+03</_>
    <_>
      6.73034180e+03 -2.76835034e+03 2.32741113e+03 6.97357788e+02
      1.47513626e+02 2.35252396e+02 -1.85991504e+03 -3.45237579e+02
      2.02408264e+02 7.00009216e+02 4.48751587e+02 -1.13145837e+03
      -3.78129364e+02 -2.05147266e+03 -5.49614502e+02 1.02533911e+03
      -8.23237915e+02 -9.16993347e+02 -1.16530518e+03 1.13214270e+03</_>
    <_>
      -1.21259094e+03 -3.38431860e+03 3.87614209e+03 4.01134204e+03
      1.26804419e+03 -1.99464270e+03 -2.69441626e+03 -1.62593005e+03
      -6.51527039e+02 -1.23293991e+02 1.97250320e+02 -6.22342590e+02
      -1.86521997e+03 -2.53594757e+02 -1.34791406e+03 1.15396594e+03
      1.10513000e+03 -1.70005859e+03 -1.02959558e+03 8.58169983e+02</_>
    <_>
      3.42777588e+03 -1.75194409e+03 -6.67509277e+02 2.35829639e+03
      -2.25617627e+03 2.79772266e+03 1.39536902e+03 -3.34445221e+02
      -4.06532669e+01 6.59444824e+02 9.02604736e+02 6.30239792e+01
      -1.05912634e+03 -4.23195129e+02 -1.28421436e+03 4.41343781e+02
      -5.94220772e+01 3.67500885e+02 -2.44650116e+02 -6.95572571e+02</_>
    <_>
      2.71193237e+03 5.11761133e+03 -3.55819238e+03 -5.52407349e+02
      -1.91646521e+03 -1.47742957e+03 -2.00386243e+03 1.84220618e+03
      -3.85477759e+03 5.17010254e+02 4.57685028e+02 -5.16182251e+02
      6.11345398e+02 4.38378357e+02 -5.18703918e+02 2.32711475e+03
      3.09368103e+02 2.29121167e+03 6.57346924e+02 1.14608223e+02</_>
    <_>
      7.65014697e+03 7.36039844e+03 -5.12840381e+03 1.37799780e+03
      -1.00590826e+03 -2.30464868e+03 -1.89792310e+03 4.31580322e+03
      -2.23545068e+03 3.56171777e+03 -9.10833801e+02 1.19849475e+03
      -1.26908740e+03 6.99205017e+02 1.74643176e+03 1.61729932e+03
      1.41938110e+02 5.14807861e+02 -1.20022934e+02 -6.91774231e+02</_>
    <_>
      6.34207178e+03 3.53358789e+03 -2.38937817e+03 9.49709549e+01
      -3.77754321e+03 -3.43778833e+03 -2.13416675e+03 1.51789539e+03
      -2.10101147e+03 -3.09776733e+02 5.22038574e+02 5.73060364e+02
      -4.72764832e+02 -1.11089429e+03 -7.24173218e+02 7.60884033e+02
      2.15998642e+02 6.82240906e+02 -4.24506653e+02 -1.84872070e+02</_>
    <_>
      -1.04432458e+03 8.22555176e+03 3.47635986e+03 4.02802637e+03
      -2.87616992e+03 4.52756805e+02 6.90108704e+02 1.49749854e+03
      -2.39221533e+03 -3.93835144e+02 -1.07386499e+03 1.94391760e+03
      3.14713574e+03 -8.19740112e+02 1.05610400e+03 -7.50788498e+01
      1.30953723e+03 -4.94539604e+01 -1.04356824e+03 3.29990463e+01</_>
    <_>
      8.49083887e+03 1.20375303e+04 -7.79005273e+03 -5.22021362e+02
      -2.14252100e+03 3.70843994e+03 -2.66686597e+03 -3.79932788e+03
      -1.72334326e+03 -9.16077454e+02 3.09690033e+02 -3.78469312e+03
      -3.29889374e+02 6.43028687e+02 -4.49089264e+02 8.10079651e+02
      1.04461475e+03 9.94441956e+02 3.12757349e+03 9.71142700e+02</_>
    <_>
      4.62960059e+03 1.33463096e+04 -7.60916455e+03 1.57147412e+03
      -3.01271338e+03 4.31362891e+03 -1.64890820e+03 -3.94859253e+03
      -2.07733032e+03 -2.46581885e+03 -3.53916534e+02 -1.59272656e+03
      -1.76970496e+03 1.34519458e+03 -4.09243256e+02 2.60858459e+02
      -5.89112610e+02 -5.28691162e+02 2.82395111e+02 8.27273010e+02</_>
    <_>
      4.32803223e+03 7.40092627e+03 -6.69337109e+03 6.08829895e+02
      3.74417163e+03 8.41276172e+03 7.54309769e+01 7.25457764e+02
      9.41141357e+02 -8.19302185e+02 1.15619568e+03 1.13238123e+03
      6.69137146e+02 3.21738953e+02 1.13762183e+03 2.38758569e+03
      1.50165503e+03 -6.32734741e+02 4.43384277e+02 8.35931274e+02</_>
    <_>
      9.89181348e+03 -1.10460242e+03 -3.07164502e+03 6.71348511e+02
      2.27704224e+03 -8.82901062e+02 -2.62255249e+03 3.09116943e+03
      5.30593201e+02 -6.55733276e+02 -1.63161096e+03 -2.04963882e+02
      2.07888696e+03 2.11206467e+02 -2.09752533e+02 3.61385345e+01
      -2.00448044e+02 -1.85578394e+03 -8.22669678e+02 -2.04238831e+03</_>
    <_>
      2.42828467e+03 3.03962476e+03 -4.27464355e+02 -3.86263696e+03
      4.11690967e+03 2.29677563e+03 -9.04162354e+02 -1.26009143e+03
      5.23664001e+02 1.18784340e+02 -3.51159180e+03 6.11957520e+02
      1.43249707e+03 -1.15627563e+03 9.14147095e+02 -2.88523560e+03
      3.97422028e+02 -1.13139685e+03 -3.53191101e+02 -5.18263794e+02</_>
    <_>
      -2.66302197e+03 3.52919458e+03 7.31355371e+03 -1.96300769e+03
      1.64815576e+03 2.23296338e+03 5.23009424e+03 4.92695264e+03
      -2.29168384e+03 3.66693091e+03 7.95756836e+02 -1.12451929e+03
      -1.18523755e+03 -3.95275513e+02 -2.61453149e+03 1.29146057e+03
      -9.87329285e+02 8.11095337e+02 5.72118103e+02 5.91070618e+02</_>
    <_>
      -4.96731934e+03 6.05320361e+03 4.48842676e+03 -1.50587012e+03
      8.09886719e+02 5.47754272e+02 9.68847168e+02 5.48797168e+03
      -2.21510547e+03 5.13441528e+02 -8.80623230e+02 -3.21298389e+03
      9.46131409e+02 -2.37725052e+02 -1.54078589e+03 1.29812854e+03
      -6.88217773e+01 8.99997437e+02 2.95887109e+03 1.87361804e+03</_>
    <_>
      -7.80035889e+03 5.73204541e+03 -4.41064453e+03 -3.83532471e+03
      2.22768408e+03 -1.06306122e+02 -9.65760620e+02 -1.90467761e+03
      3.70884094e+02 9.19440369e+02 -3.57230621e+02 -2.27597803e+03
      1.73230750e+03 -6.53696716e+02 -1.55720251e+03 -1.38144006e+03
      -2.40876450e+02 -1.03107597e+02 -7.50202698e+02 -1.31846912e+03</_>
    <_>
      -3.65111621e+03 1.35270801e+04 -8.51472778e+02 -5.55163135e+03
      -3.31253143e+02 -2.85308521e+03 -3.23433289e+02 -2.32356909e+03
      -1.84935388e+03 3.35286865e+03 -4.08032501e+02 1.83977097e+02
      -7.00544250e+02 2.05277686e+03 4.19738068e+02 -1.67741375e+01
      5.92649963e+02 -1.87769153e+03 -1.19230713e+03 -1.31783923e+03</_>
    <_>
      -3.45582349e+03 8.98208594e+03 -1.79413757e+01 -4.32183984e+03
      4.28540186e+03 7.20311584e+02 -1.52024829e+03 -1.57069116e+03
      -2.02541550e+02 7.70422852e+02 -2.33577051e+03 6.83445068e+02
      -1.68798120e+03 -1.23033081e+03 1.36251807e+03 -3.27154541e+03
      1.17366711e+03 -2.99196704e+03 -3.83743011e+02 4.02352692e+02</_>
    <_>
      7.12790186e+03 1.34848303e+03 -5.68551709e+03 -7.84630508e+01
      5.87805138e+01 -7.61221924e+02 3.47707886e+03 9.63898254e+02
      3.55704834e+03 4.77149597e+02 -2.31534692e+03 -1.96402808e+03
      -1.22817786e+03 -2.24675928e+03 9.01934204e+02 2.58563232e+03
      5.74707397e+02 4.74094910e+02 -1.13851038e+03 -1.67351917e+03</_>
    <_>
      -5.30361084e+03 -1.65653369e+03 1.76194836e+03 -2.37463257e+03
      2.52152939e+02 1.89474133e+03 -3.55669922e+02 1.12493506e+03
      -9.39638855e+02 -7.61581055e+02 -1.82304553e+03 1.07597498e+03
      1.11829895e+02 1.12231433e+03 8.24792786e+02 1.56258704e+03
      2.03401184e+03 1.53184668e+03 6.80482910e+02 -9.15042236e+02</_>
    <_>
      -1.95424988e+03 -2.33420093e+03 3.81778748e+02 -7.04642334e+03
      -3.44912646e+03 -1.32473120e+03 -2.52873825e+02 -5.19992310e+02
      2.11881787e+03 4.07076843e+02 -1.23473991e+02 -1.53860864e+03
      8.65235840e+02 -1.49349158e+03 -1.20696582e+03 -1.16241284e+03
      1.81453198e+03 1.00717255e+03 3.07141357e+03 3.83861450e+02</_>
    <_>
      -3.43333887e+03 1.06617297e+03 -3.41951587e+03 -5.43958740e+03
      3.73509351e+03 2.06634033e+03 2.79914185e+03 -6.67484360e+01
      3.01346948e+03 -3.16020923e+03 2.47094864e+02 3.79442444e+02
      -9.93140259e+01 -1.75945313e+03 -1.95390710e+03 1.20080396e+03
      2.25100098e+03 -8.81112183e+02 3.21503693e+02 9.62019592e+02</_>
    <_>
      -1.68068921e+03 6.20626099e+02 5.62460107e+03 2.64524561e+03
      -2.45119653e+03 2.92596704e+03 -1.12408691e+03 2.97459741e+03
      3.72220801e+03 -2.11923386e+02 -1.01838745e+03 -2.31742188e+03
      5.69522583e+02 1.95142419e+03 -1.16904407e+03 -9.66988098e+02
      2.50375635e+03 -2.61284088e+02 -5.89902527e+02 -6.84349854e+02</_>
    <_>
      -4.51814600e+03 -2.11349707e+03 -2.72039771e+03 -3.33555884e+03
      1.99301318e+03 2.30247241e+03 -1.91960986e+03 3.15286255e+03
      -9.26197327e+02 1.47444870e+02 9.07907959e+02 -1.35342285e+03
      2.66985889e+03 -1.15474561e+03 8.17315796e+02 6.97469116e+02
      1.11577466e+03 1.27451184e+03 -7.07727722e+02 -1.02260016e+03</_>
    <_>
      2.09185327e+03 -1.60226685e+03 4.63453564e+03 -7.87345410e+03
      3.67368677e+03 6.84864624e+02 2.37564771e+03 -5.04833154e+03
      -2.28512622e+03 4.10441864e+02 -2.16812744e+03 9.69519653e+02
      1.86606604e+03 3.83899353e+02 2.57252502e+02 1.85189490e+03
      1.08389575e+03 4.89442810e+02 5.96221802e+02 -9.80366028e+02</_>
    <_>
      -4.78851660e+03 2.49299927e+03 4.26914063e+03 -7.23800278e+01
      -6.04693115e+02 1.89892883e+03 -2.41892578e+03 7.42023682e+02
      3.78849902e+03 -2.98944019e+03 -1.83420508e+03 1.78985693e+03
      1.01445325e+03 3.85324707e+03 1.95800854e+03 1.44489172e+03
      5.32576782e+02 2.15165991e+03 -1.77557898e+03 -8.90318481e+02</_>
    <_>
      -3.71993018e+03 -3.15055957e+03 3.18654810e+03 -4.02238708e+02
      -1.61747595e+03 1.29825073e+03 -4.78889551e+03 3.50263794e+02
      2.03062378e+03 -2.27510913e+03 -4.68929657e+02 -1.34110620e+03
      1.32924072e+02 -1.05952539e+03 -1.55502344e+03 -7.28892822e+02
      -3.76095337e+02 -1.71962570e+02 -3.04963159e+03 -1.34653821e+03</_>
    <_>
      -5.15063916e+03 9.42328003e+02 2.26448193e+03 6.80476416e+03
      3.12980859e+03 -8.50494873e+02 6.00863647e+02 -2.54092920e+03
      2.31733887e+02 8.81102356e+02 2.28940112e+03 5.59308899e+02
      -2.82390442e+02 -1.14528406e+03 -1.54108081e+03 1.80803696e+02
      1.16604260e+03 -7.04460693e+02 -2.69522064e+02 -9.08132507e+02</_>
    <_>
      8.10194580e+03 -1.15729895e+03 8.63397656e+03 -1.11658630e+03
      -3.33943506e+03 -1.89551773e+02 2.39529565e+03 -1.35267990e+02
      -2.50901221e+03 5.10072906e+02 -8.91758972e+02 -1.06861023e+03
      -1.06622205e+03 -1.35219312e+03 -8.15054565e+02 -4.86613251e+02
      -3.29895386e+02 -2.04648621e+02 -1.93656219e+02 5.00501343e+02</_>
    <_>
      1.74343835e+03 -3.59320239e+03 2.19552734e+03 -8.79635352e+03
      3.28553662e+03 3.39715112e+03 -2.88095970e+01 -1.88858240e+03
      -6.59114136e+02 1.75966919e+03 2.55555710e+02 1.32058801e+03
      2.22307690e+03 -6.32637390e+02 -2.81520325e+02 -1.49672839e+03
      1.67099255e+03 1.47887256e+03 -1.47340503e+03 8.34601288e+01</_>
    <_>
      5.76949072e+03 -2.84010791e+03 8.62184570e+02 -6.39025537e+03
      6.00624939e+02 2.15876978e+03 -4.63001801e+02 -4.06997009e+02
      3.54646484e+02 -1.38662976e+03 -3.26035461e+02 9.97879761e+02
      2.41175095e+02 -1.74627087e+03 3.30286652e+02 1.80568164e+03
      9.65154846e+02 9.97639099e+02 2.33151367e+03 -1.19987476e+03</_>
    <_>
      5.98667542e+02 6.18063916e+03 7.06450537e+03 1.68436011e+03
      -4.46328516e+03 -1.57559570e+02 4.12933008e+03 2.92130908e+03
      -2.46639038e+03 -3.45297876e+03 3.37142358e+03 -6.14730408e+02
      2.88930933e+03 -1.51869971e+03 1.29848987e+03 -8.21901733e+02
      2.63659619e+03 -1.78795190e+03 -9.48070557e+02 -1.26953041e+02</_>
    <_>
      3.46545288e+03 1.18319104e+03 4.17119336e+03 -6.33466113e+03
      1.11364868e+02 -3.11312402e+03 -1.21173792e+03 6.63465149e+02
      -1.11789734e+03 -1.15875720e+03 1.52027908e+02 1.18103503e+03
      -1.81442395e+03 2.82514648e+02 -1.90494128e+03 -9.26821411e+02
      -6.07999817e+02 1.78454346e+03 1.23038948e+00 8.09837830e+02</_>
    <_>
      5.44389795e+03 1.03048973e+02 -1.23436157e+03 -4.94381055e+03
      2.30514014e+03 1.51580261e+03 -3.24331763e+03 9.61688599e+02
      -8.86753296e+02 2.12733887e+03 1.04445654e+03 -1.12641650e+03
      1.18411633e+03 -6.39204529e+02 1.55319214e+03 -3.35008911e+03
      1.90329407e+03 8.37914856e+02 -1.24569629e+03 1.07034680e+03</_>
    <_>
      -2.61613379e+03 -1.11310718e+03 -4.62378857e+03 1.55988647e+03
      4.20752344e+03 -9.15915161e+02 3.27212598e+03 1.96216553e+03
      -8.11683533e+02 -1.20223328e+02 2.97067017e+03 -1.50475500e+03
      1.45869873e+03 3.51383936e+03 -4.35278961e+02 1.00493879e+01
      -1.66097168e+03 -1.04429541e+03 -9.05523438e+02 -2.29599808e+02</_>
    <_>
      4.29600922e+02 -1.58080054e+03 2.05161230e+03 -8.88408496e+03
      4.53692773e+03 6.22647461e+02 -5.24606750e+02 -9.88851318e+02
      -1.69720984e+03 -2.18307715e+03 -8.49743286e+02 1.83239319e+03
      7.54150208e+02 -1.51761218e+03 -1.59591797e+02 2.76173145e+03
      2.74103589e+03 2.58075619e+01 1.01228705e+03 -1.44114099e+03</_>
    <_>
      -1.01133704e+03 -4.44674316e+02 8.71405762e+03 -1.19664038e+03
      -8.71139343e+02 3.41403247e+03 1.69460022e+02 -9.35385986e+02
      -1.40124832e+02 -5.25030762e+03 1.08029907e+02 -1.35183899e+02
      -1.01410529e+03 2.29971655e+03 9.19794861e+02 1.03307507e+03
      -1.69151257e+03 4.37692749e+02 6.43285950e+02 -4.88939453e+02</_>
    <_>
      -1.95899695e+03 3.06225928e+03 5.85418213e+03 -3.32858813e+03
      -2.00404077e+03 6.72140991e+02 -2.88541504e+03 6.43560669e+02
      3.09535986e+03 -4.26560645e+03 -1.57721954e+02 6.38156616e+02
      -1.38070569e+03 -1.84139282e+03 2.06562817e+03 9.26497864e+02
      -5.28173950e+02 -4.94188690e+02 -8.66193867e+00 -9.98908386e+02</_>
    <_>
      3.90142822e+02 -7.08708069e+02 5.48552539e+03 -1.44160425e+03
      -3.31350488e+03 -1.78938330e+03 1.78011389e+03 -1.85890845e+03
      8.92763977e+01 2.48427905e+03 -1.84718188e+03 -7.98837219e+02
      -1.04242200e+03 6.93412964e+02 2.36693994e+03 2.07239059e+02
      1.57497485e+03 1.13024207e+03 -1.38006873e+03 -1.43470715e+03</_>
    <_>
      3.15194263e+03 -4.82575635e+03 5.68117627e+03 6.92884583e+02
      9.65663574e+02 2.20347144e+03 -2.89419189e+03 1.51203992e+03
      -1.13118286e+03 3.81512329e+02 -1.59324158e+03 -2.75444824e+03
      -1.21719897e+03 -7.45291870e+02 -1.59572253e+03 1.05829602e+03
      9.27011841e+02 -1.25091537e+02 -4.60269257e+02 -2.24638153e+02</_>
    <_>
      7.64691943e+03 9.61509949e+02 3.21589282e+03 -6.89798096e+02
      -2.88182983e+03 -5.82075256e+02 6.34664551e+02 3.03520166e+03
      1.94825330e+03 3.70052704e+02 9.88286514e+01 -1.00539902e+02
      1.22265747e+03 1.78909058e+02 3.91769287e+02 -1.34633691e+03
      1.38028760e+03 -8.73242569e+01 5.53742615e+02 -4.22236542e+02</_>
    <_>
      -5.11249609e+03 6.61824414e+03 6.53539502e+03 -6.82292542e+02
      -4.70173486e+03 -2.26325439e+03 3.26953796e+02 1.03371326e+03
      1.12667090e+03 2.45366943e+03 1.51114111e+03 -7.49039612e+02
      -1.66775036e+01 -1.75960022e+03 -9.58229980e+01 -1.40785315e+03
      -7.10578796e+02 -2.91112427e+02 -1.50150854e+03 -1.16624353e+03</_>
    <_>
      -7.53896240e+03 1.42636084e+03 2.69507788e+03 9.05656445e+03
      4.69570361e+03 2.09095288e+03 1.28810059e+03 -1.63212231e+03
      -1.83003052e+03 -1.51862659e+03 1.53431030e+03 -6.72965393e+02
      -2.04944653e+03 -1.49838635e+03 -1.11680371e+03 -2.19766650e+03
      -1.90506616e+03 -2.04534058e+03 1.68392590e+03 -3.32260425e+03</_>
    <_>
      -6.63492139e+03 7.84678613e+03 3.58369067e+03 7.72436865e+03
      2.77116064e+03 3.57565186e+03 1.14745313e+03 -3.01365585e+01
      3.44109680e+02 3.34259717e+03 2.36817603e+03 1.08404785e+03
      3.00580688e+03 -3.06596375e+02 -2.03249524e+03 1.89144189e+03
      -3.30925598e+01 3.90499756e+02 2.24264282e+03 -1.39368506e+03</_>
    <_>
      3.21005798e+02 3.44093945e+03 -3.32294409e+03 -2.42162491e+02
      1.47565564e+03 -8.09636865e+03 -1.63722278e+03 7.46298340e+02
      3.26252045e+02 -2.81989673e+03 1.19178809e+03 4.05620630e+03
      -2.47209155e+03 -1.14554822e+03 -1.81554907e+03 -1.04850195e+03
      1.81020813e+01 1.39979065e+03 -1.80633179e+03 -1.43154248e+03</_>
    <_>
      -1.03609355e+04 3.75663721e+03 2.09914502e+03 5.07129492e+03
      1.82351135e+03 -1.53163354e+03 5.69403931e+02 -1.93263416e+03
      1.83014307e+03 2.29645703e+03 -1.81064563e+03 6.21611261e+00
      1.66459155e+03 3.03112579e+02 -3.54116235e+03 -3.73512543e+02
      4.47662415e+02 -1.13715723e+03 5.05461090e+02 -7.21366516e+02</_>
    <_>
      -6.61061914e+03 7.27777002e+03 2.46078857e+03 6.54603955e+03
      2.26320776e+03 2.13713843e+03 -4.60545990e+02 -1.18150757e+03
      -1.49584180e+03 2.17299487e+03 1.99405322e+03 2.00961292e+03
      2.76405298e+03 1.24810205e+03 -3.34817432e+03 1.53125134e+03
      -4.23097839e+01 1.84766699e+03 4.89386017e+02 -9.66486328e+02</_>
    <_>
      -1.64694916e+02 1.73482275e+03 -1.06928210e+03 1.86891663e+03
      3.54897241e+03 -2.03240527e+03 3.28941577e+03 -8.97301636e+02
      -1.14156799e+03 -3.20855347e+03 -8.72814560e+00 2.03337683e+03
      -7.09239990e+02 3.76068878e+02 2.03318579e+03 -1.85869714e+03
      1.14462964e+03 2.40817993e+03 2.21590063e+03 1.31163013e+03</_>
    <_>
      7.27276611e+03 -2.06976514e+03 -1.04696716e+03 3.64578442e+03
      2.68285376e+03 -5.46773877e+03 6.24971252e+02 -1.29507874e+03
      -3.75859375e+02 -1.86438306e+03 -1.93179614e+03 -2.67790253e+02
      2.75244202e+02 -5.68142212e+02 -4.76373199e+02 -4.43144836e+02
      -7.99294556e+02 -5.82758362e+02 7.51557556e+02 -4.62967834e+02</_>
    <_>
      3.13222778e+03 -4.73760254e+03 -8.54732666e+02 2.52911060e+03
      9.69134033e+02 -1.34613623e+03 1.73132458e+03 -1.57404932e+03
      -2.60719409e+03 -1.10382056e+03 -3.17416000e+01 -1.77217444e+03
      6.83051331e+02 3.24798370e+02 -1.78366318e+02 3.05324890e+02
      -1.16271326e+03 -6.02017639e+02 -1.71028650e+03 8.52172852e+02</_>
    <_>
      -4.92169287e+03 -3.21974414e+03 8.10125671e+02 1.37371765e+03
      1.38602502e+03 -1.96066980e+03 -3.27636475e+03 3.46020203e+02
      1.29566064e+03 1.85313977e+03 1.83996655e+03 -1.38268054e+03
      2.89983459e+02 -1.97151025e+03 5.87638672e+02 1.80073608e+03
      -3.29436554e+02 -8.55859680e+02 -1.68507764e+03 5.82068787e+02</_>
    <_>
      -4.18244580e+03 -6.58861694e+02 -2.13775055e+02 4.15905762e+03
      5.23821338e+03 -2.89598999e+03 2.46225537e+03 -1.11439819e+03
      -1.72353247e+03 3.46606934e+02 2.59872241e+03 -2.74280640e+02
      -6.58469788e+02 -1.90451553e+02 1.87243616e+03 3.77817200e+02
      6.00908447e+02 -8.12923889e+02 -1.09562964e+03 2.52339185e+03</_>
    <_>
      7.32770752e+03 1.53337976e+03 5.94836975e+02 5.20102539e+03
      1.96504297e+03 -1.57303833e+03 6.23298279e+02 -8.03158752e+02
      3.38980151e+03 4.19466943e+03 3.64512891e+03 3.67588550e+03
      1.96010059e+03 1.72972202e+01 -1.48202515e+03 1.24887683e+03
      -1.90874658e+03 -7.68589401e+01 6.90844910e+02 -2.48629443e+03</_>
    <_>
      -3.87751733e+03 1.50828650e+03 -6.10590149e+02 6.73782861e+03
      5.26990186e+03 -1.44372351e+03 8.72141968e+02 -2.21522778e+03
      -8.85096283e+01 -1.20948816e+03 1.97199292e+03 1.80873242e+03
      -9.24425659e+02 -2.02795013e+02 -4.64070984e+02 -2.01530991e+02
      -6.79759827e+02 -4.72915436e+02 1.01706262e+03 -9.06384888e+01</_>
    <_>
      -4.65280640e+02 -1.66338257e+03 -8.96779480e+02 4.92258496e+03
      2.80910425e+03 -1.87431824e+03 -7.92279175e+02 -1.46583472e+03
      5.72567139e+02 5.27142517e+02 2.39550244e+03 6.29953918e+02
      -7.91645752e+02 -1.51450989e+03 -2.64105896e+02 5.54295776e+02
      -1.11679578e+03 -1.82132312e+03 -1.16733264e+03 1.42155737e+03</_>
    <_>
      3.41422852e+02 -3.26995801e+03 -3.31453662e+03 -7.10244064e+01
      3.10712817e+03 2.12174637e+02 -2.04439795e+03 2.80042700e+03
      -1.21720129e+03 -1.74830292e+02 -1.20544189e+03 -4.48720337e+02
      2.86217310e+03 -4.84613373e+02 1.57519470e+02 -3.33261963e+02
      -1.33705399e+02 -3.42878571e+01 -9.79628662e+02 -7.91120300e+02</_>
    <_>
      -1.85968433e+03 -8.81832703e+02 2.35108545e+03 5.71211523e+03
      1.04859900e+03 -1.68067578e+03 -2.96364941e+03 -4.80740997e+02
      2.05367334e+03 6.11566467e+02 -1.16207397e+03 5.66065796e+02
      1.40446545e+03 -5.80355896e+02 -2.15872241e+03 -2.57917786e+02
      -9.32020508e+02 -7.75610352e+02 1.59590918e+03 2.13352295e+03</_>
    <_>
      -6.65582373e+03 6.38711914e+02 1.61683643e+03 3.50008716e+03
      4.00334167e+02 9.85257446e+02 -2.07002466e+03 1.03041333e+03
      1.77883398e+03 2.41935242e+02 -2.07066089e+03 2.37009689e+02
      -9.21164612e+02 -7.10427734e+02 -1.04470361e+03 -8.81204102e+02
      5.57419312e+02 9.61575928e+01 -1.74732825e+03 3.68426025e+02</_>
    <_>
      2.42736108e+03 -6.44283643e+03 1.05615771e+03 5.49655859e+03
      1.37653577e+03 2.28102563e+03 -1.91331128e+03 -1.74057037e+02
      2.01277451e+02 8.05602112e+02 -1.25077014e+03 -4.62162598e+02
      -8.73630554e+02 -1.46393823e+03 -9.89768829e+01 5.69044128e+02
      3.26797241e+02 -1.04921582e+03 -1.80729419e+03 1.32088464e+03</_>
    <_>
      8.87695801e+03 3.05707977e+02 3.16191724e+03 4.76250488e+03
      -1.74053955e+03 -3.54030029e+03 1.92017627e+03 -2.46519434e+03
      1.57530273e+03 1.70844373e+03 -1.73135388e+03 1.96314624e+03
      4.32229395e+03 -1.64283899e+03 -2.62399139e+02 1.49383984e+03
      -1.48367456e+03 -1.56474219e+03 2.03468433e+03 1.60263220e+03</_>
    <_>
      2.45673657e+03 -3.09164600e+03 5.99243164e+02 -4.05692114e+03
      4.18790137e+03 1.52242993e+03 -2.13348413e+03 1.42083704e+03
      -3.48548730e+03 1.00246942e+03 -9.56817627e+02 -1.74390579e+02
      2.39341357e+03 -5.05337463e+02 -2.00105115e+03 -5.47965759e+02
      -1.82797986e+03 3.67458588e+02 -1.99578992e+03 -1.62952136e+03</_>
    <_>
      7.96734277e+03 -2.96231763e+03 3.99574561e+03 -3.12019800e+03
      4.47438599e+02 2.71142725e+03 8.35946716e+02 -1.13857104e+03
      -9.45328674e+02 -1.24028015e+03 -1.00645203e+03 2.70899017e+02
      -8.45029846e+02 -8.68181458e+01 2.45269272e+02 1.82561401e+03
      -9.32784424e+01 4.48536133e+02 6.34636963e+02 -6.18440186e+02</_>
    <_>
      1.30739883e+04 -9.64346313e+02 3.08147705e+03 1.05765710e+03
      -2.86789990e+03 1.32356079e+03 2.19225269e+03 1.17536804e+03
      -6.43134079e+01 -2.02128815e+02 1.50894751e+03 -1.53798340e+02
      6.09070557e+02 -8.07928040e+02 8.65620178e+02 -5.91283508e+02
      8.49107178e+02 1.05573090e+02 -2.07258270e+02 -9.96493301e+01</_>
    <_>
      4.60812061e+03 -1.20344536e+02 6.26534326e+03 6.49992615e+02
      -1.70478918e+03 2.20185498e+03 -2.95298462e+02 2.20793945e+03
      7.02258545e+02 -1.72236658e+03 -4.19975830e+02 -3.00211365e+02
      -3.58781006e+02 6.27364441e+02 -2.54776550e+02 -8.46156189e+02
      2.51387054e+02 4.35690430e+02 -6.25806519e+02 4.21992950e+02</_>
    <_>
      -4.78037305e+03 -4.88572168e+03 -7.67647888e+02 1.33032019e+03
      2.36098315e+03 -9.92692261e+02 -2.36994360e+03 1.64299158e+03
      -9.85086548e+02 3.50355377e+02 1.18250781e+03 -1.35672729e+03
      1.04084509e+03 -1.40392297e+03 -9.11074524e+01 8.11245178e+02
      -4.69266586e+01 -4.16639893e+02 -1.62570044e+03 1.11189685e+03</_>
    <_>
      5.43659668e+03 2.07244067e+03 4.18568945e+03 -4.67925635e+03
      -2.69210339e+01 -3.26569287e+03 3.18453296e+03 2.01527393e+03
      -1.32428076e+03 2.17963916e+03 1.17621729e+03 1.05010449e+03
      -3.56283691e+03 2.49228134e+02 -3.54674042e+02 -1.32487585e+03
      1.52751086e+03 1.83005096e+02 -1.18382434e+03 -8.25055969e+02</_>
    <_>
      7.24760254e+03 -4.16199756e+03 -1.29637476e+03 3.57190625e+03
      2.44544116e+03 -1.17479712e+03 -2.02261011e+03 -2.10686707e+02
      -2.00166641e+02 6.57939209e+02 1.11428491e+03 -2.48123764e+02
      3.47984161e+02 -5.01490356e+02 7.26844101e+01 1.36040063e+03
      -1.21978625e+03 -6.38713928e+02 -7.96996033e+02 6.75083496e+02</_>
    <_>
      -6.13610205e+03 2.80336792e+03 -4.88620415e+01 3.61992725e+03
      1.18944069e+02 3.18623706e+03 1.72183252e+03 1.96360437e+03
      -1.13585620e+03 -1.25405444e+03 -3.29946167e+03 1.26376266e+02
      -1.05706375e+02 7.66157898e+02 -8.02143982e+02 -9.99627014e+02
      3.46458954e+02 8.65677490e+02 -3.25879730e+02 9.09905701e+02</_>
    <_>
      8.96421777e+03 -2.49511475e+03 1.02702527e+03 -1.19778760e+03
      1.05376086e+03 -3.25843433e+03 1.22955066e+03 -1.42971802e+03
      -1.51629431e+03 1.25584058e+03 -6.83637756e+02 -2.31052856e+03
      4.14918732e+02 2.53007950e+02 2.08210449e+02 2.90619202e+02
      -8.43445496e+02 3.87184601e+02 -7.10980103e+02 -6.35681458e+02</_>
    <_>
      -2.31373627e+02 2.98943262e+03 3.60735107e+03 -1.75915161e+03
      -1.48509534e+03 -1.52034082e+03 -7.10519287e+02 4.00322314e+03
      3.47971411e+03 1.81197998e+03 2.64488403e+02 1.38441064e+03
      -1.99281726e+03 -8.61017395e+02 5.57777023e+00 -5.00704071e+02
      2.71556665e+03 -1.06672585e+02 -5.91639038e+02 -1.75427698e+03</_>
    <_>
      -1.50144055e+03 -4.90187842e+03 3.54631299e+03 2.52582935e+03
      1.72729419e+03 -1.71089343e+03 -3.09883057e+03 -1.45847412e+02
      -1.67191248e+03 -5.48614990e+02 -1.64623367e+02 -1.33337170e+03
      -1.42017139e+03 -5.90173889e+02 -1.53624536e+03 1.71190015e+03
      7.32155029e+02 -1.16919971e+03 -1.26922412e+03 1.25086707e+03</_>
    <_>
      5.06707471e+03 1.34653311e+04 -7.05600342e+03 1.21143799e+03
      -3.51119775e+03 3.67499683e+03 -2.12985962e+03 -4.35966064e+03
      -2.35631030e+03 -2.16352246e+03 4.95117249e+02 -1.30510901e+03
      -1.79753809e+03 7.87322144e+02 -1.62344031e+03 7.34006531e+02
      -7.26507874e+02 -4.71355072e+02 -1.83382141e+03 7.36764526e+02</_>
    <_>
      5.29444727e+03 8.61075293e+03 -5.42001416e+03 -3.88766602e+02
      3.11459644e+03 7.45518311e+03 5.39643669e+01 -1.04744836e+03
      8.28389465e+02 -6.68023071e+02 2.30649683e+03 2.36380811e+03
      1.02052191e+03 -2.01592810e+03 4.56754364e+02 2.08516602e+03
      1.19478760e+03 -4.77705475e+02 -3.76864441e+02 7.57242676e+02</_>
    <_>
      1.07391621e+04 -5.59550049e+02 -2.31709180e+03 -1.87408188e+02
      1.96042651e+03 -8.31804260e+02 -2.26541602e+03 3.02667163e+03
      7.49560425e+02 -3.27913086e+02 -1.62386353e+03 3.36940765e+01
      1.70495605e+03 -1.34271835e+02 3.97342651e+02 5.14806458e+02
      -6.12386818e+01 -1.85314294e+03 1.28035269e+01 -2.20996729e+03</_>
    <_>
      -2.82541187e+03 1.37620146e+04 -1.40361304e+03 -5.43195117e+03
      -2.43201523e+02 -2.70396289e+03 -3.41124054e+02 -1.94526819e+03
      -1.57575977e+03 3.59835205e+03 8.98394653e+02 7.00898499e+02
      -1.07561682e+03 2.57965601e+03 1.06318628e+03 2.77760658e+01
      -7.28520996e+02 -3.14109741e+03 2.03076889e+02 -1.38464380e+03</_>
    <_>
      -4.49433838e+03 3.23384619e+03 2.36897021e+03 -1.12106409e+03
      5.23459863e+03 3.13733252e+03 2.33235107e+03 4.66634668e+03
      -3.74261963e+02 2.05831274e+03 -2.74780737e+03 7.13631531e+02
      -2.55845923e+03 -1.08261975e+03 -1.85066589e+03 -4.21167664e+02
      -8.81755066e+02 -8.58724747e+01 -5.05826416e+02 3.58565015e+03</_>
    <_>
      -5.73624463e+03 1.29098352e+03 3.96894287e+03 3.16991870e+03
      -4.44629578e+02 2.59455414e+02 -2.09046729e+03 8.07565079e+01
      1.92925964e+03 1.51673889e+03 4.68212708e+02 -2.52953198e+03
      3.66022644e+02 -2.11921924e+03 -1.71888672e+03 1.13755783e+02
      -7.15998688e+01 -1.09002185e+03 -6.30989838e+01 -1.09801773e+02</_>
    <_>
      2.50415918e+03 -3.10924341e+03 5.86977356e+02 -8.93859570e+03
      3.33625952e+03 3.56595410e+03 -1.53090164e+02 -2.12567578e+03
      3.57945801e+02 2.45144116e+03 1.62025671e+03 9.54551880e+02
      2.38236768e+03 -2.02947113e+02 -9.53267578e+02 -2.66307227e+03
      1.30563248e+02 6.92994873e+02 -2.30360718e+03 2.46323059e+02</_>
    <_>
      -2.61605103e+03 -1.28860400e+03 -5.16031934e+03 8.45542603e+02
      3.45570752e+03 -4.94779144e+02 2.91858374e+03 2.07624854e+03
      -4.21029144e+02 4.96298523e+02 2.64860181e+03 -1.79969055e+03
      1.26898010e+03 4.15951709e+03 -3.23451965e+02 -6.46686218e+02
      -1.34291870e+03 -5.72996582e+02 -4.78994293e+02 -3.95683319e+02</_>
    <_>
      -7.30368262e+03 -6.18060742e+03 4.74130664e+03 2.39146240e+03
      3.51308423e+03 1.69251636e+03 -2.47832056e+03 -8.27468033e+01
      -1.33281921e+03 1.35967395e+03 1.23737646e+03 9.31242737e+02
      -2.09536060e+03 -1.60370398e+03 -2.55096954e+02 -1.21144788e+03
      -1.57066785e+03 1.62842041e+03 -2.06652759e+03 5.97849548e+02</_>
    <_>
      -8.63294922e+03 -1.16061499e+03 -3.65272876e+03 -5.79391052e+02
      -5.41560913e+02 -3.15639111e+03 -1.49338293e+03 9.95859924e+02
      -1.92182617e+03 6.44274353e+02 2.47278955e+03 -2.06386475e+03
      1.05707153e+03 -6.44498047e+02 1.58573010e+03 -4.74873413e+02
      -2.97739209e+03 4.06224274e+02 -3.07014099e+02 -3.79883423e+01</_>
    <_>
      -2.45610001e+02 1.80042981e+03 -1.00003687e+03 3.44996655e+03
      3.99240430e+03 -2.72883008e+03 2.09677075e+03 -1.94781079e+03
      -5.77375732e+02 -1.30840271e+03 1.00221092e+02 1.36902576e+03
      -9.59766296e+02 -4.08532196e+02 9.00931763e+02 -1.99378967e+03
      1.58574963e+03 2.57393677e+03 2.55696045e+03 6.08527344e+02</_>
    <_>
      -5.95013977e+02 -1.56106018e+02 -1.71030200e+03 1.63751758e+03
      3.60223175e+02 -1.67911926e+03 1.06765320e+03 -4.88073120e+02
      -1.47382349e+03 -6.70265686e+02 -7.63774719e+02 -1.10778296e+03
      -4.87975454e+00 3.81749725e+01 5.29279907e+02 7.02866699e+02
      -4.82670776e+02 -5.68693176e+02 -1.02996399e+03 3.95189392e+02</_>
    <_>
      8.24846268e+01 -2.88779492e+03 -1.30516699e+03 2.51068384e+03
      6.11567688e+02 -4.92766754e+02 -2.61108521e+03 9.24304871e+02
      8.35856628e+02 1.01216034e+03 7.73481750e+02 -9.21295105e+02
      -9.74945435e+02 -1.14950757e+03 8.25276306e+02 3.70158203e+02
      -2.76445709e+02 -5.29724426e+02 -5.59295410e+02 1.44513733e+03</_>
    <_>
      2.35230029e+03 -1.20490869e+03 -3.32723274e+01 -3.43608081e+03
      2.91169531e+03 7.86781311e+02 -2.30585815e+03 2.26710059e+03
      -1.40413437e+02 -1.14287683e+03 -1.07641797e+03 1.69650256e+03
      1.77318469e+03 -1.20482886e+03 1.98118567e+03 1.26390419e+02
      7.01018219e+01 1.53879684e+02 4.39640015e+02 -1.90462122e+03</_>
    <_>
      -7.14548584e+03 1.33088409e+02 1.87351208e+03 3.07585278e+03
      1.29799048e+03 -1.50149548e+03 -2.13335864e+03 -4.29641748e+03
      1.62596167e+03 2.29539307e+03 1.39574060e+03 -1.76420557e+03
      -9.39975464e+02 -7.23206909e+02 -3.33117004e+02 -2.99715662e+00
      5.59769470e+02 -9.99367126e+02 -5.29230042e+02 -8.38901672e+01</_>
    <_>
      1.89224475e+03 -2.59352563e+03 3.68198486e+03 6.02597705e+03
      1.41694336e+03 2.77282642e+03 -2.30444824e+03 -1.11891064e+03
      2.32379736e+03 1.24211853e+03 -1.73549109e+03 4.20010452e+01
      -5.23931030e+02 4.11354126e+02 -1.10773010e+03 2.28141800e+02
      3.87933594e+02 -3.61108521e+02 -2.97023224e+02 1.41908740e+03</_>
    <_>
      2.94839966e+03 -2.58969556e+03 1.18618835e+03 -4.11319727e+03
      4.24068652e+03 1.76651538e+03 -2.11114160e+03 1.27621460e+03
      -3.58241919e+03 1.75005469e+03 -1.28787427e+03 2.24881180e+02
      1.27218665e+03 2.01334259e+02 -9.84965149e+02 -2.79251495e+02
      -2.17619897e+03 -8.48226318e+01 -8.66574036e+02 -1.87598425e+03</_>
    <_>
      7.56674512e+03 3.04130188e+02 5.87124658e+03 -7.37865784e+02
      -2.30732886e+03 1.68130603e+03 -1.23113525e+03 1.43161453e+02
      1.50622693e+03 -3.00637329e+03 5.98391418e+02 1.59112891e+03
      1.17209190e+02 1.28384851e+03 8.05546814e+02 -7.04226135e+02
      -6.93398010e+02 -6.80917816e+01 -8.26284058e+02 3.73589587e+00</_>
    <_>
      -4.52129053e+03 -4.47432666e+03 -6.89114746e+02 -2.78019678e+03
      1.48754224e+03 8.91618958e+02 -2.71170093e+03 1.92289722e+03
      -1.49989673e+03 -2.28648663e+01 1.11134253e+03 -3.62640419e+01
      9.49441101e+02 -2.50854141e+02 4.98506012e+02 -2.00629501e+02
      8.86398621e+01 -9.42122681e+02 7.90615997e+01 -1.09426477e+03</_>
    <_>
      6.57443066e+03 -3.25054712e+03 1.71056519e+03 1.74374100e+02
      4.13920197e+02 7.65180786e+02 -2.29924487e+03 4.43670776e+02
      1.14186401e+02 5.28525574e+02 2.18144943e+02 -1.08090881e+03
      -4.24143463e+02 -1.19140173e+03 6.38876953e+02 1.15123242e+03
      -7.09005798e+02 -5.70636963e+02 3.59783516e+01 9.85945801e+02</_>
    <_>
      6.66831543e+03 -2.01232593e+03 1.36372705e+03 -1.82326953e+03
      1.36749670e+03 -3.47398169e+03 1.32615881e+03 -1.30787830e+03
      -1.63421960e+03 1.26065161e+03 -8.17204590e+02 -2.52083984e+03
      2.84050171e+02 6.75750000e+02 5.87372498e+02 4.54082565e+01
      -6.85435120e+02 6.69447876e+02 -5.19575745e+02 -6.13785706e+02</_>
    <_>
      -9.26469055e+02 2.98108667e+03 3.36021777e+03 -2.95345679e+03
      -1.30994788e+03 -1.88265320e+03 -1.58778662e+03 3.86614014e+03
      3.30981348e+03 2.58348438e+03 2.05834131e+03 1.98324658e+03
      -3.37364307e+03 -1.87383942e+02 8.95798569e+01 -3.67329559e+02
      3.19412292e+02 -1.09279065e+03 -2.10176025e+02 -7.63141479e+02</_>
    <_>
      -4.81067657e+02 -4.87419629e+03 3.77168188e+03 1.16523145e+03
      1.65611536e+03 -1.74043518e+03 -2.74397339e+03 -4.86517761e+02
      -1.87157007e+03 -7.98841476e+01 1.52996155e+02 -1.74895459e+03
      -1.78944751e+03 3.80400055e+02 -6.19708801e+02 1.73550464e+03
      8.70938354e+02 -1.13075562e+03 -5.86751892e+02 9.57019775e+02</_>
    <_>
      3.19646021e+03 -1.47644922e+03 -1.02547095e+03 2.79169092e+03
      -2.71186353e+03 2.88808960e+03 1.51323486e+03 -3.47479980e+02
      6.39099182e+02 1.13129224e+03 1.22427051e+03 6.20238892e+02
      -1.12805872e+03 -1.24231003e+02 -7.61875854e+02 8.54486923e+01
      -7.15304993e+02 -4.25276825e+02 -3.27595612e+02 -7.04299805e+02</_>
    <_>
      3.34501758e+03 9.24392578e+02 -2.70362573e+03 1.83283081e+03
      -1.55665967e+03 2.28000928e+03 1.85127612e+03 -5.54618645e+01
      -4.57520508e+02 1.41124695e+03 -1.16342859e+03 6.34303162e+02
      -1.67582764e+02 6.54355957e+02 -1.28051099e+03 8.91725586e+02
      1.57250488e+02 -1.01102018e+01 -1.45442642e+02 -3.21735901e+02</_>
    <_>
      7.72877051e+03 6.17104541e+03 -5.08823633e+03 1.56266455e+03
      -1.37110559e+03 -2.18111035e+03 -2.10661206e+03 3.77791016e+03
      -2.74502856e+03 3.11873608e+03 -4.15570801e+02 1.46857471e+03
      -1.39918640e+03 3.98292419e+02 1.18431335e+03 1.08603259e+03
      -3.04217651e+02 3.21725677e+02 -4.90213562e+02 -7.70597763e+01</_>
    <_>
      3.71128638e+03 3.00123633e+03 -2.83036011e+03 6.90718872e+02
      -4.22432813e+03 -3.01601831e+03 -2.39913599e+03 9.57963196e+02
      2.86104736e+02 -8.19675964e+02 1.66130469e+03 7.73580811e+02
      -2.63694641e+02 -1.70562149e+02 -1.13115820e+03 -5.13589973e+01
      5.64010437e+02 -2.62479706e+02 3.66572906e+02 -6.30961418e+01</_>
    <_>
      6.20207275e+03 3.15086255e+03 -2.58404761e+03 1.04252090e+02
      -3.96268188e+03 -3.10823413e+03 -2.39787500e+03 1.54087280e+03
      -2.22161328e+03 -3.38085480e+02 7.90351685e+02 9.36072449e+02
      -6.02003601e+02 -1.22891589e+03 -8.19020386e+02 8.97798462e+02
      -4.74832977e+02 3.51555267e+02 -5.51088562e+02 -1.97047485e+02</_>
    <_>
      1.00658594e+04 1.17322021e+04 -7.34387842e+03 -6.68374084e+02
      -1.91047522e+03 3.97714746e+03 -3.11344336e+03 -4.33047705e+03
      -1.99048230e+03 -8.37962570e+01 1.71381494e+03 -2.24567896e+03
      3.48102570e+02 2.92070099e+02 -1.34180554e+03 7.03992798e+02
      2.66051758e+02 7.01274719e+02 1.71155383e+03 2.57658783e+02</_>
    <_>
      5.56006299e+03 1.26410771e+04 -7.51944824e+03 5.85988464e+02
      -2.07477783e+03 4.98637061e+03 -2.96575562e+03 -3.24608154e+03
      -2.60291479e+03 -2.45141797e+03 1.19424670e+03 -8.20401123e+02
      -6.21907166e+02 1.56648682e+03 -1.69632581e+03 5.90260201e+01
      5.33411621e+02 -1.39741882e+03 -1.24105591e+03 4.47988708e+02</_>
    <_>
      4.87995996e+03 7.34145801e+03 -5.79233838e+03 2.39384247e+02
      2.97978711e+03 8.80350488e+03 -6.33861877e+02 3.07781067e+02
      2.60596191e+02 -1.42659616e+01 2.58489160e+03 2.24633960e+03
      1.12101111e+03 -1.45618579e+03 1.98248581e+02 2.17427539e+03
      6.42949951e+02 -8.88822021e+02 1.77608826e+02 1.78989807e+02</_>
    <_>
      1.28553379e+04 -4.44782227e+03 -1.40738696e+03 -1.18455920e+03
      3.49414111e+03 2.20957935e+03 -1.73692126e+03 2.40087967e+02
      -6.85987610e+02 1.04892346e+03 -1.25795947e+03 -1.28475037e+03
      1.57046924e+03 8.21629211e+02 9.52306458e+02 -8.85284790e+02
      -2.51428665e+02 -4.15137756e+02 3.35432434e+02 -7.16432983e+02</_>
    <_>
      1.10494717e+04 -1.16296667e+03 -3.03644971e+03 1.54350073e+03
      2.16270752e+03 -1.07354785e+03 -1.96881348e+03 2.26331909e+03
      7.83427063e+02 7.33888321e+01 -1.34908936e+03 -3.00096924e+02
      1.64355603e+03 7.31535400e+02 4.99445618e+02 1.11017639e+03
      2.77228760e+02 -1.64995215e+03 -2.47500107e+02 -1.67280908e+03</_>
    <_>
      4.68327637e+03 2.61000195e+03 3.47294800e+02 -3.23879834e+03
      3.16214526e+03 2.03636609e+03 3.96265564e+01 -3.06403595e+02
      1.00043877e+02 1.21161267e+03 -3.96999194e+03 6.65228577e+02
      8.26122437e+02 -3.26849304e+02 1.29305908e+03 -1.92335010e+03
      1.05239490e+03 -1.11896008e+03 2.89983215e+02 2.79861938e+02</_>
    <_>
      -4.07293066e+03 4.53053516e+03 6.26737695e+03 -1.77493628e+03
      -8.27567322e+02 1.10702222e+03 7.92045166e+03 3.83538818e+03
      -2.86160986e+03 2.62767139e+03 -1.99953857e+02 -2.17415063e+03
      -1.55713782e+03 1.63113159e+02 -2.12594800e+03 1.04281458e+03
      -4.87592407e+02 8.73580444e+02 1.22644165e+03 -5.11940582e+02</_>
    <_>
      -5.57322119e+03 6.37310107e+03 3.22967798e+03 -6.85683594e+02
      -9.47726379e+02 -3.12808266e+01 2.92478247e+03 5.13288623e+03
      -2.76210400e+03 5.13160820e+01 -1.30318164e+03 -3.51770605e+03
      6.64261627e+01 -2.61411316e+02 -7.63916870e+02 1.10685693e+03
      4.47137360e+02 2.31279297e+03 3.63916455e+03 1.57506042e+03</_>
    <_>
      -6.91778467e+03 8.24888281e+03 -2.38178516e+03 -5.36140625e+03
      1.88661169e+03 -4.92645447e+02 -4.51724457e+02 -3.59519043e+03
      1.40443665e+02 1.89894360e+03 -1.21455554e+03 1.31449255e+03
      -9.62276230e+01 -1.45243101e+01 1.19160791e+03 -1.04466980e+03
      5.66072540e+01 -1.31638171e+03 9.26938110e+02 -1.02529932e+03</_>
    <_>
