<?xml version="1.0"?>
<opencv_storage>
<opencv_ml_svm>
  <format>3</format>
  <svmType>C_SVC</svmType>
  <kernel>
    <type>LINEAR</type></kernel>
  <C>1.</C>
  <term_criteria><epsilon>1.1920928955078125e-07</epsilon>
    <iterations>1000</iterations></term_criteria>
  <var_count>20</var_count>
  <class_count>7</class_count>
  <class_labels type_id="opencv-matrix">
    <rows>7</rows>
    <cols>1</cols>
    <dt>i</dt>
    <data>
      0 1 2 3 4 5 6</data></class_labels>
  <sv_total>21</sv_total>
  <support_vectors>
    <_>
      -3.75769596e-04 -6.32549869e-04 -7.62775831e-04 7.08627224e-04
      3.01510609e-05 5.33521292e-04 1.07075008e-04 -3.16619116e-04
      -9.09411232e-04 3.04806395e-04 -1.20207260e-03 6.44078304e-04
      -5.20544068e-04 9.58219578e-04 -1.04878761e-03 2.60263740e-04
      2.31458514e-04 2.25753451e-04 1.07454299e-03 1.06501859e-03</_>
    <_>
      1.97480858e-05 -8.69852283e-06 1.61011576e-05 1.95475281e-04
      3.86980391e-05 2.06431978e-05 -6.59557772e-05 -1.23869482e-04
      -1.19862008e-04 1.40645701e-04 -7.38356030e-05 1.97500049e-04
      5.96576538e-05 5.66196059e-06 1.75754012e-05 -1.07084874e-04
      -5.24530014e-06 -6.61363010e-05 2.12265324e-04 3.68325345e-05</_>
    <_>
      -1.06871955e-03 -6.90757879e-05 -2.92413642e-05 9.15295037e-04
      -1.77024456e-04 -9.08049115e-05 -4.84330172e-04 -6.94122631e-04
      -1.18587539e-03 6.90319459e-04 -4.20627075e-05 1.03715877e-03
      2.03773074e-04 8.96692742e-04 4.11803223e-04 -4.90617880e-04
      -6.44386047e-04 -1.41612734e-04 8.32513906e-04 1.36772182e-03</_>
    <_>
      -7.20314798e-04 -2.48651311e-04 3.59650003e-05 8.66715389e-04
      -5.74152000e-05 -7.11845059e-04 -7.27455830e-04 -8.19541630e-04
      -7.47962971e-04 2.27854383e-04 -2.97491322e-04 9.72237263e-04
      1.91524334e-04 4.76885267e-04 6.28554379e-04 -5.65039867e-04
      3.47510737e-04 -9.52386996e-04 8.64647911e-04 1.13913487e-03</_>
    <_>
      -1.48296924e-04 -8.51426303e-05 4.78989296e-06 6.84837287e-05
      -3.59858132e-05 1.47715866e-04 -2.86707527e-05 6.95471343e-08
      -1.26555315e-05 -9.48604611e-06 -9.26017019e-05 1.97625064e-04
      1.34417278e-04 2.25335516e-05 -8.69357318e-05 1.61288190e-04
      1.78402843e-05 1.00394856e-04 5.81852473e-05 1.20983845e-04</_>
    <_>
      -7.53324479e-04 -6.44298780e-06 -5.79469925e-05 1.03249727e-03
      2.37744869e-04 4.16307412e-05 8.01592887e-06 -4.89625905e-04
      -2.60081259e-04 4.82757605e-04 1.79963274e-04 1.15854340e-03
      3.52662348e-04 -4.16768395e-04 -1.21992338e-03 -6.84979721e-04
      -5.27033641e-04 -1.21987972e-03 -1.15382869e-03 -6.28875336e-04</_>
    <_>
      -3.12703487e-05 3.27053385e-05 -3.16292826e-05 1.00126954e-06
      -2.30591122e-05 -1.57594204e-05 5.18091547e-05 -5.11635844e-05
      2.00403629e-05 -6.80588491e-05 -4.01561965e-06 -7.74894306e-06
      2.03957552e-05 3.02515800e-05 1.47949730e-04 6.07741167e-05
      3.07568298e-05 -4.93969719e-06 -7.49276369e-05 -1.41745651e-04</_>
    <_>
      2.05715951e-05 2.65352337e-05 6.94429982e-05 8.41788205e-05
      2.72247780e-05 1.22838801e-05 4.17261290e-05 -4.31837580e-05
      1.92687567e-05 -6.94787013e-06 5.22939081e-05 3.45279000e-06
      2.02518677e-05 -1.59991614e-05 1.10440174e-04 -6.70961745e-05
      5.97693943e-05 -5.34176397e-05 -6.77324861e-05 -9.56560034e-05</_>
    <_>
      1.37364295e-05 5.02302782e-06 -2.07183093e-05 6.48326313e-05
      6.46024200e-05 -5.15328211e-05 2.49737113e-05 3.97182203e-06
      -4.30554719e-05 -1.84910605e-05 2.20324455e-05 2.74013946e-05
      7.19431910e-06 -3.90917812e-05 1.22930142e-04 -1.59931897e-05
      4.38513780e-05 4.59185549e-06 -9.64870560e-06 -3.14489762e-06</_>
    <_>
      5.26474323e-05 -3.99245000e-05 7.41850308e-05 3.70405505e-05
      5.73752050e-06 -3.64841180e-05 -2.06861896e-05 7.53835629e-05
      2.06568147e-05 -8.84374967e-05 5.07904333e-05 9.67874657e-05
      6.40558283e-05 -2.23902716e-05 5.91163516e-05 9.33188403e-07
      3.88797671e-05 -4.32476772e-05 1.09026550e-05 -1.02181672e-04</_>
    <_>
      -6.93135808e-05 -3.16472469e-05 -4.97721267e-05 -1.11592753e-05
      -1.06823472e-05 -5.16018554e-06 4.53867142e-05 5.18962879e-05
      -2.77626204e-05 3.38165796e-06 6.23230153e-05 -2.66523330e-06
      7.67732490e-05 -8.81363121e-06 9.59642784e-05 -3.40825754e-05
      3.15691868e-05 -4.97565234e-05 -2.02338160e-05 -1.07780405e-04</_>
    <_>
      -6.40479848e-05 2.43843369e-05 -3.85651474e-05 -3.16313781e-05
      -4.70811665e-06 -4.50845873e-05 -4.08502865e-06 4.70976738e-05
      1.93938267e-05 4.38622010e-05 -3.18494058e-05 -2.72437701e-05
      -2.69161847e-05 2.89210748e-05 -4.16492958e-06 -7.42014381e-05
      -1.53999808e-05 -6.68334542e-06 -3.03295401e-05 4.19360003e-05</_>
    <_>
      6.85553459e-05 3.22495653e-05 3.34067977e-06 5.47182617e-06
      -1.66072132e-05 -3.86411157e-05 -6.61641388e-06 -4.71173589e-05
      5.08051344e-05 1.04903585e-04 4.01642101e-05 1.18603639e-05
      -7.39820825e-05 1.60631839e-06 3.07576702e-05 -3.67509674e-05
      -4.04490129e-05 4.08233564e-06 4.94042470e-05 5.13750092e-05</_>
    <_>
      -5.22491100e-05 -3.07127921e-05 -5.25459545e-05 -4.80108974e-05
      6.62860248e-06 -9.80597633e-07 5.33109633e-05 -1.49069201e-05
      1.99242168e-05 4.66367164e-05 6.74432886e-05 3.08331146e-05
      -5.39336816e-06 -4.10161774e-05 -2.53303024e-05 -2.20178208e-05
      -1.44749647e-05 4.52528620e-05 -6.53089228e-05 -4.38516327e-05</_>
    <_>
      4.74857625e-05 3.84158557e-05 1.13517845e-05 2.32586081e-05
      -4.54216060e-05 -8.30433055e-06 -2.37293825e-05 -3.55029661e-05
      1.72180917e-05 3.18373786e-05 -1.11326426e-06 7.23718222e-06
      -7.21724837e-06 -8.31787384e-06 -2.52414175e-05 -9.95238370e-05
      -1.42622621e-05 5.72232748e-05 -7.34715832e-06 -4.22636185e-05</_>
    <_>
      2.93554021e-05 5.85438756e-05 1.43526495e-05 6.99909215e-05
      -1.39776675e-05 2.85861643e-05 3.71708757e-06 2.26636639e-05
      -1.64497069e-05 1.66067207e-06 -3.58354773e-05 -3.89891684e-05
      -3.37613674e-05 7.60781259e-05 -2.19320900e-05 7.73986540e-06
      5.01705301e-07 -3.48796748e-05 3.23738241e-05 -4.10150496e-05</_>
    <_>
      4.28397398e-05 -3.07224363e-05 -8.47731571e-05 -8.10328784e-05
      1.50087280e-05 5.06543693e-05 1.70068540e-06 3.70129601e-05
      1.54142288e-06 4.83753101e-05 7.86312085e-05 4.33480855e-05
      -6.42260638e-05 1.76139929e-05 -5.64459115e-05 1.05834450e-04
      9.97519601e-06 1.25462349e-04 -2.55973573e-05 -6.77690623e-05</_>
    <_>
      -2.28540830e-05 -8.91999589e-05 -5.00115493e-05 1.92725402e-05
      2.45468254e-05 1.59188367e-05 -1.30515509e-05 -3.06352813e-05
      3.24177989e-07 -2.63528455e-05 2.71670488e-05 8.26480318e-05
      -2.17941779e-05 -1.32291589e-05 -1.06312924e-04 -7.24552156e-05
      5.31643200e-05 1.43938087e-05 -3.80429651e-06 -7.21049801e-05</_>
    <_>
      -3.65755404e-05 -4.94758133e-05 -4.17340198e-05 2.20508209e-05
      2.40630143e-05 3.21767293e-05 2.17624602e-05 1.61995795e-05
      3.03382512e-06 2.17310426e-05 -2.11399201e-05 1.87031892e-05
      1.74501547e-05 -4.51972446e-05 -1.33082485e-05 -4.79110668e-06
      5.65956179e-05 1.13908100e-04 -1.17003117e-04 -2.42187598e-05</_>
    <_>
      -4.85726014e-05 9.83147474e-05 1.65405454e-05 2.18235655e-05
      -5.42521957e-06 8.89848616e-06 4.37737581e-05 -8.51380628e-06
      4.12573099e-05 -5.29530625e-05 -2.44433832e-05 4.79871705e-05
      5.67711613e-05 -5.07116383e-05 -3.32562231e-05 -1.56795268e-05
      1.42966264e-05 1.11811878e-05 -4.64492878e-05 -6.35630713e-05</_>
    <_>
      -5.26192489e-05 -4.59751500e-05 -1.46744133e-05 -5.57984604e-05
      -6.40276858e-06 1.88946724e-05 6.53790357e-06 7.02508714e-06
      -3.11439035e-05 -2.41552716e-05 -4.46813465e-05 1.02266686e-05
      1.11951733e-04 -4.17325791e-05 1.73365097e-05 -7.84558652e-05
      7.53554048e-07 -4.96793546e-05 -1.76467402e-05 -5.23368108e-05</_></support_vectors>
  <uncompressed_sv_total>335</uncompressed_sv_total>
  <uncompressed_support_vectors>
    <_>
      -1.64185095e+03 3.94989478e+03 9.02420044e+02 3.90644775e+03
      5.42221533e+03 -1.77943396e+03 2.27496655e+03 -6.84580139e+02
      5.01294281e+02 -4.81362183e+02 1.13764294e+03 2.10078979e+02
      -1.87832532e+03 8.78148865e+02 1.86722504e+02 -4.78543518e+02
      1.83250635e+03 1.34083301e+03 1.72651196e+03 -2.13904221e+02</_>
    <_>
      -4.09169220e+02 2.30845435e+03 -3.90473486e+03 4.10082373e+03
      2.61516748e+03 -2.84907446e+03 -1.27854199e+03 -6.05321716e+02
      -3.62006982e+03 -5.57359558e+02 1.94526917e+03 -3.20885468e+02
      -2.03301978e+03 -7.13130127e+02 1.50942993e+03 1.11065613e+03
      -1.50467664e+03 -2.60704742e+02 1.55997534e+03 1.65706848e+02</_>
    <_>
      -6.46069531e+03 7.97965271e+02 -1.05789221e+03 -6.97527466e+02
      -2.74943188e+03 -1.00185463e+02 1.48248071e+03 -1.32052002e+03
      -6.13390564e+02 -1.80951721e+03 -1.34844470e+03 1.58504044e+02
      -6.29977661e+02 4.44600769e+02 -1.76819366e+02 1.97024121e+03
      1.09398608e+03 3.53693909e+02 -3.70678009e+02 8.48156860e+02</_>
    <_>
      -2.69532397e+03 -7.79243774e+02 -3.64463110e+03 4.37965698e+02
      1.18609290e+03 -1.08623230e+03 -1.32384900e+03 -6.28875488e+02
      1.80557587e+02 -1.07835632e+03 1.24369397e+03 3.35270203e+02
      -5.29515686e+02 -1.99988594e+01 4.97775452e+02 -1.37867920e+03
      1.45326392e+03 8.21242920e+02 -1.43234656e+03 -9.32825806e+02</_>
    <_>
      -4.00219312e+03 -5.93073975e+02 -2.76534717e+03 2.79960547e+03
      -1.80993530e+02 -6.37459412e+02 -2.38880176e+03 -3.31585425e+03
      1.78564835e+02 -8.01609131e+02 9.17242859e+02 -1.15055866e+01
      -1.32212112e+02 -1.23983252e+03 7.46232422e+02 3.87830627e+02
      9.91174316e+02 3.25873138e+02 -2.01820300e+03 7.44070557e+02</_>
    <_>
      -7.70633252e+03 3.56019458e+03 -1.10867078e+03 2.88127051e+03
      -5.15742126e+02 3.58354590e+03 7.46084961e+02 1.43861035e+03
      1.48339404e+03 9.66089661e+02 -6.88834656e+02 1.60267731e+02
      -4.59029724e+02 -5.02374512e+02 -8.02766846e+02 -5.53221497e+02
      -2.64044403e+02 -4.34718658e+02 1.01914771e+03 5.88660765e+00</_>
    <_>
      -3.25577661e+03 2.53833936e+03 -2.47125806e+03 2.81276953e+03
      2.22272119e+03 -9.45022278e+02 -2.48855133e+02 2.81685376e+03
      -6.96305847e+02 3.12270776e+03 1.33261792e+03 1.52294815e+02
      -8.63728699e+02 -7.33253845e+02 8.10938782e+02 4.81063080e+01
      4.68233307e+02 -4.28760162e+02 -3.46962341e+02 -6.05124084e+02</_>
    <_>
      -6.47666748e+03 2.90624786e+02 -2.23020654e+03 2.00275647e+03
      -7.45112549e+02 1.69096176e+02 -1.60027649e+02 -2.04933276e+03
      5.90607117e+02 3.39789276e+01 1.23601843e+03 -2.05554663e+03
      -1.23241138e+03 2.88146942e+02 -5.37980347e+02 4.34779346e-01
      7.56925842e+02 1.01342291e+03 -2.16975372e+02 8.16369781e+01</_>
    <_>
      -5.38446191e+03 3.60582349e+03 -1.63652576e+03 4.06841211e+03
      2.17942383e+03 6.61196777e+02 3.40260803e+02 2.11304840e+02
      -4.30487793e+02 4.14026520e+02 1.19241711e+03 -1.53655371e+03
      -2.61637573e+03 -3.70415802e+02 8.47839111e+02 -4.43858215e+02
      5.27291382e+02 1.84944592e+03 1.01763062e+03 1.70464767e+02</_>
    <_>
      -4.81801904e+03 5.19859912e+03 -1.76337585e+03 2.44302563e+03
      4.71947461e+03 1.89707092e+03 -2.30127295e+03 -2.43860291e+02
      1.36978137e+03 5.72110596e+01 -2.01267505e+03 1.00272308e+03
      -7.95715561e+01 -1.70718567e+03 -1.12622742e+03 1.16337439e+03
      1.04089868e+03 5.41052063e+02 -3.27557716e+01 -1.34248999e+03</_>
    <_>
      -2.28309424e+03 2.15777979e+03 -3.94252759e+03 4.51384326e+03
      4.19977570e+02 1.97397180e+03 -2.59681201e+03 2.14689966e+03
      -3.36588135e+02 -1.43360889e+03 2.10750171e+03 -2.99319946e+02
      6.46566223e+02 -1.04013037e+03 1.79343616e+03 -1.02865833e+03
      1.43194751e+03 1.08220862e+03 6.67508179e+02 -1.56519562e+02</_>
    <_>
      -2.89422241e+03 1.03766077e+03 -3.36584814e+03 2.89015186e+03
      1.90456604e+03 -5.55189392e+02 -3.57310669e+03 1.23017908e+03
      -1.60930200e+03 2.24943268e+02 2.32084814e+03 -7.23031311e+02
      -1.32123242e+03 6.27632690e+02 8.99880676e+01 -1.08717688e+03
      7.59209778e+02 1.28039673e+03 -4.89673676e+02 -8.95472473e+02</_>
    <_>
      -6.04653662e+03 1.10912231e+03 -2.28103760e+03 1.80501343e+03
      1.22225012e+03 1.60206665e+03 -2.87056366e+02 -2.76930151e+03
      2.83145508e+03 -2.87330688e+02 -1.06898352e+03 5.52744629e+02
      8.68796539e+01 1.71233959e+01 -2.24290674e+03 1.49564178e+02
      -2.65008881e+02 1.61094104e+03 -3.64018402e+02 -5.03203064e+02</_>
    <_>
      -6.22143701e+03 3.10385718e+03 -6.43099792e+02 1.63548987e+03
      -1.63569897e+03 -4.82513824e+02 7.04014709e+02 -1.45223792e+03
      -1.03604028e+03 1.34474744e+03 1.70844482e+03 1.23562632e+01
      -1.14034912e+03 1.17852966e+03 1.84698718e+03 1.32010269e+02
      -2.99239380e+02 1.76861377e+03 1.72834912e+03 -9.39679749e+02</_>
    <_>
      -6.33914795e+03 2.18990771e+03 9.40271759e+01 1.98910266e+03
      3.32219574e+02 4.80130371e+02 1.15895227e+03 1.74130569e+02
      -3.23313660e+02 3.17027405e+02 1.07783337e+03 -6.81396851e+02
      6.60049927e+02 -1.63862183e+02 9.35624878e+02 1.57251196e+03
      -2.12500244e+03 -3.90030945e+02 -5.03343384e+02 -2.48776443e+02</_>
    <_>
      -6.76100879e+03 1.44501099e+03 -8.78235229e+02 3.26534424e+02
      1.24502942e+03 7.29184204e+02 -2.86539520e+02 1.12255241e+02
      -6.75705750e+02 1.77599719e+03 1.14311905e+01 8.49403748e+02
      -4.33657379e+02 8.04541077e+02 -1.37308679e+03 -1.71164453e+03
      -4.15570465e+02 -5.26940857e+02 4.90193481e+02 -1.65116101e+03</_>
    <_>
      -1.19245337e+03 2.12390698e+03 -4.18098242e+03 4.03343628e+03
      -4.09020874e+02 6.37755737e+02 -1.89705151e+03 2.53827316e+02
      1.23827283e+03 -1.33208301e+03 2.19949756e+03 -1.73692126e+03
      1.23989490e+03 -1.64280859e+03 -5.52333191e+02 -2.51488135e+03
      1.91876660e+03 4.72493835e+02 1.61299170e+03 -2.25897751e+02</_>
    <_>
      -5.40424365e+03 2.64845581e+03 1.19943262e+03 3.05292145e+02
      -2.22725708e+03 1.42465881e+03 1.75805811e+03 7.88026367e+02
      -1.34077100e+03 -2.45106738e+03 -2.43257007e+03 -6.65195541e+01
      8.29508667e+02 1.86416321e+03 -1.14418787e+03 -1.82228357e+03
      6.91288757e+02 -9.01009064e+01 1.15702873e+02 -5.03018066e+02</_>
    <_>
      -3.80289941e+03 2.91339136e+03 -1.64682129e+02 3.41141699e+03
      2.31665674e+03 -1.07846326e+03 9.43281738e+02 2.28939795e+03
      -9.68073364e+02 3.20360889e+03 -1.76813660e+02 -2.89009266e+01
      -1.70461401e+03 -1.00439600e+03 1.21623340e+03 -5.15676636e+02
      -6.90218567e+02 2.12035583e+02 -8.08772430e+01 -2.08103687e+03</_>
    <_>
      2.90362793e+03 -3.35368677e+03 3.01771802e+03 -1.72211938e+03
      -2.81717578e+03 -4.71862366e+02 1.41260913e+03 -1.74724683e+03
      3.53412598e+03 3.55098901e+03 1.08040063e+03 3.60795898e+03
      1.46376855e+03 2.40920609e+02 -2.35375317e+03 -4.40964172e+02
      -1.29454361e+02 -2.05167993e+03 1.32603723e+03 1.09861438e+03</_>
    <_>
      3.05464209e+03 4.08670093e+03 -6.09091895e+03 -2.71023163e+02
      4.78026758e+03 1.62523157e+03 -4.66414160e+03 -2.01167017e+03
      -2.72748755e+03 1.98504639e+03 -1.49806873e+03 4.52409607e+02
      -9.37951660e+02 -1.95541541e+03 -1.29305469e+03 -1.05708569e+03
      -1.50355359e+03 -1.01116058e+03 -1.13930103e+03 7.02855148e+01</_>
    <_>
      1.03277344e+03 -5.04777734e+03 5.32070850e+03 -1.31080457e+03
      8.86049194e+02 -7.09531006e+02 -3.50739917e+03 8.60348633e+02
      -8.68104065e+02 -7.06812866e+02 9.98443176e+02 1.86122131e+03
      -2.38643018e+03 -1.16271875e+03 -1.65681458e+03 8.67821228e+02
      -1.81248132e+03 -2.79395020e+02 8.16509583e+02 2.60176819e+02</_>
    <_>
      2.48936328e+03 4.94144189e+03 -3.02435327e+03 2.15734302e+03
      3.89656201e+03 -2.09106274e+03 3.75825348e+01 1.91920227e+03
      -3.54437109e+03 1.18106116e+03 1.90812830e+03 2.00666101e+03
      -1.78067310e+03 1.88576941e+03 1.93307861e+03 1.33882678e+03
      -5.76884644e+02 -1.09288855e+03 2.73934204e+02 -1.62208850e+03</_>
    <_>
      8.33625098e+03 -4.98080420e+03 4.18807178e+03 1.76971887e+03
      -3.61641162e+03 -4.53376465e+02 2.77591870e+03 -2.09097144e+03
      2.19463852e+02 1.75817285e+03 4.52191620e+02 4.39400049e+03
      1.47946228e+03 8.95277954e+02 2.67402893e+02 1.17139816e+02
      -1.28925684e+03 -5.60870789e+02 8.17889465e+02 -7.47579346e+02</_>
    <_>
      -2.69381274e+03 -2.38261890e+03 3.96044727e+03 1.50794891e+02
      -1.05084827e+03 -5.75169006e+02 -2.76181104e+03 1.22056628e+03
      6.32797791e+02 -2.67558081e+03 -1.87725305e+03 7.29722534e+02
      -1.44718884e+03 1.05197586e+02 -7.29296631e+02 7.25549744e+02
      -2.16617432e+03 -8.56486328e+02 8.53856140e+02 -1.27792160e+02</_>
    <_>
      8.02529590e+03 -2.95201221e+03 -7.06852173e+02 2.01355139e+03
      -1.42063184e+03 1.82242822e+03 7.91537659e+02 -2.65451978e+03
      2.33314844e+03 3.33675269e+03 2.89448340e+03 2.78310522e+03
      8.77046753e+02 1.67590942e+03 2.51512589e+02 -5.75918518e+02
      -1.26845178e+03 -1.42226038e+03 1.74849377e+03 2.43548477e+02</_>
    <_>
      1.15705798e+03 4.79523163e+02 -6.97087061e+03 2.35533569e+03
      5.83142395e+02 -7.76128723e+02 -7.05260132e+02 -3.07198242e+02
      2.41446426e+02 9.88690674e+02 -1.51364563e+03 1.04399390e+03
      1.62824036e+02 9.07441895e+02 -8.12550110e+02 1.33425708e+03
      1.34769226e+03 1.00933722e+03 -2.25829971e+02 -4.83956970e+02</_>
    <_>
      -4.28298877e+03 3.14719800e+03 -7.79424210e+01 1.44511865e+03
      -1.17455273e+03 2.73636810e+02 2.69099658e+03 2.67453125e+03
      -4.01365540e+02 1.68378088e+03 -2.92493530e+03 -9.12827698e+02
      1.10221655e+03 9.54237305e+02 -9.29154785e+02 -1.24108911e+03
      -1.04376534e+02 -1.10842554e+03 8.44406677e+02 -6.72818481e+02</_>
    <_>
      4.80141113e+03 -4.20083496e+03 1.69139587e+03 1.07036267e+03
      -2.74920441e+02 -3.25535010e+03 -2.35699243e+03 1.31339844e+03
      -4.22225281e+02 -2.83586475e+03 -2.42700607e+02 3.27170386e+03
      -6.23779724e+02 6.13245789e+02 4.18913635e+02 -9.61703796e+02
      -3.03771973e+02 -3.04508057e+03 9.72080688e+02 -7.63235569e+00</_>
    <_>
      -3.77858203e+03 -1.36251367e+03 -1.66485498e+03 -2.27019458e+03
      4.79297150e+02 -4.35405273e+02 -9.14977722e+02 -4.73464355e+01
      1.13785095e+03 -2.17724194e+03 -2.70348584e+03 -1.56716650e+03
      -4.20963684e+02 1.90751373e+02 -9.97329163e+02 -5.24822632e+02
      -2.55662817e+03 -1.64032214e+03 4.63534973e+02 7.76575256e+02</_>
    <_>
      -3.82368726e+03 -2.07375684e+03 4.14627979e+03 3.52573169e+03
      -2.75010864e+03 1.31513550e+03 3.54912689e+02 5.55752068e+01
      -1.17795667e+03 4.71990021e+02 -2.60531769e+02 -1.38749829e+03
      -7.80150757e+02 -1.03648975e+03 -2.57488586e+02 -2.10782471e+03
      1.83448608e+03 3.10584930e+02 -1.49197681e+03 -1.26533350e+03</_>
    <_>
      2.28357837e+03 2.18646045e+03 3.29789600e+03 6.21630176e+03
      5.42572168e+03 -4.94121143e+03 3.52137476e+03 5.53601135e+02
      -1.35088354e+03 2.51727368e+03 -4.85674133e+02 -5.80306519e+02
      -1.18002356e+03 -4.90918549e+02 1.34739059e+02 1.34511890e+03
      2.55955762e+03 1.09618860e+03 -1.16907935e+03 1.37168604e+03</_>
    <_>
      -2.94011426e+03 3.38217407e+02 4.92226367e+03 3.62739404e+03
      -2.23955420e+03 -1.42194519e+03 2.94538965e+03 -2.15662769e+03
      -2.27434229e+03 -1.47413416e+03 -7.18198471e+01 -4.00987701e+02
      -9.03817078e+02 -2.03451038e+03 -1.25327429e+03 2.34946826e+03
      1.40724939e+03 -8.79352722e+02 -1.90013416e+03 -7.15782593e+02</_>
    <_>
      4.17132422e+03 5.71789111e+03 7.39355518e+03 5.42775830e+03
      4.82885693e+03 -3.57310522e+03 4.73680225e+03 2.57589673e+03
      -3.87034106e+03 -1.21123755e+03 -1.98789795e+03 1.12020027e+02
      2.66257114e+01 2.22862842e+03 -4.75078491e+02 -4.29246582e+02
      -3.08299927e+02 4.86352631e+02 1.30521820e+02 1.94880692e+02</_>
    <_>
      1.59222192e+03 2.16531445e+03 4.81986426e+03 7.54526172e+03
      6.14293945e+03 -3.16949634e+03 2.91388153e+02 1.56852441e+03
      1.08688281e+03 2.79453369e+03 -2.04320053e+02 7.26436584e+02
      -1.55343213e+03 -9.21536865e+02 5.90268677e+02 4.60863037e+02
      3.76682404e+02 1.85104663e+03 8.10568237e+02 1.57813538e+03</_>
    <_>
      -1.31514758e+03 -4.95299463e+03 3.51210522e+03 -3.95895703e+03
      -1.57603113e+03 -4.59046143e+02 1.36922327e+03 -1.58685754e+03
      -2.02221851e+03 1.42769275e+03 -1.44639417e+03 -5.78623901e+02
      2.56330371e+03 7.51935730e+02 1.62366470e+02 4.88680450e+02
      1.16438098e+03 -1.00243860e+03 -2.09399829e+03 5.61413086e+02</_>
    <_>
      2.46002783e+03 -6.16499072e+03 3.34124658e+03 2.28533179e+03
      -1.41526221e+03 -2.33506519e+03 1.26779222e+01 -4.54336365e+02
      2.43762524e+03 -7.17084579e+01 -8.72784729e+02 2.30936572e+03
      -2.64353467e+03 1.07274548e+03 1.07255356e+02 -9.75294876e+01
      -2.15901270e+03 -8.67993774e+02 4.03899628e+02 -9.03373962e+02</_>
    <_>
      1.20116221e+04 6.72878662e+03 8.57854688e+03 3.34245044e+03
      5.23151207e+01 -5.19641380e+01 -4.02572949e+03 -2.58272363e+03
      7.89851868e+02 -3.26795728e+03 1.85337494e+02 -4.58363818e+03
      2.35577954e+03 4.21092896e+02 4.94658539e+02 3.48764551e+03
      -4.07453690e+01 -1.44679639e+03 -6.73673645e+02 -7.59388245e+02</_>
    <_>
      1.11249277e+04 5.49747119e+03 1.01520547e+04 4.76581836e+03
      -1.00095618e+03 -7.17125977e+02 -2.48296167e+03 -3.70217334e+03
      -6.75822083e+02 -8.78347168e+02 -9.10616821e+02 -3.41153027e+03
      4.03477539e+03 2.42496109e+02 3.49244568e+02 1.57718896e+03
      2.06475854e+03 -3.00100024e+03 8.51131592e+02 -8.39259155e+02</_>
    <_>
      7.88192725e+03 7.52784326e+03 1.07992783e+04 7.18194214e+02
      -6.06844922e+03 -1.05655176e+03 -7.68511475e+02 1.30288843e+03
      1.59268066e+03 1.21256213e+03 -1.80633423e+03 -2.29762500e+03
      1.53826001e+03 2.25418091e+03 2.71462341e+02 8.01316101e+02
      -8.16312943e+01 -1.85709387e+03 5.50462891e+02 -7.00391357e+02</_>
    <_>
      2.14823804e+03 1.05408545e+04 3.15265649e+03 -4.19125732e+03
      1.60141772e+03 2.49380225e+03 1.01818993e+02 1.48382703e+03
      2.82020264e+03 -3.06889697e+03 1.52604419e+03 -1.47201563e+03
      -3.41489966e+03 -7.18909302e+02 9.74246216e+02 6.98866455e+02
      1.11280078e+03 5.38093384e+02 8.44996155e+02 3.58030975e+02</_>
    <_>
      1.20623462e+03 7.59825928e+03 1.96095813e+03 -2.26016162e+03
      2.51892334e+03 4.75632263e+02 1.41328625e+03 6.67708557e+02
      5.30256055e+03 -2.71709448e+03 5.33148071e+02 2.22735397e+02
      -1.57054956e+03 -1.15866821e+03 -9.68137878e+02 -9.70199951e+02
      8.69971497e+02 -1.77299548e+03 -2.37118237e+03 1.04464386e+02</_>
    <_>
      4.64390332e+03 6.74901514e+03 3.63156982e+02 -3.47860449e+03
      -3.33869702e+03 -1.78889801e+02 -5.44992041e+03 1.82889880e+03
      9.35750427e+02 1.44071924e+03 -1.03149756e+03 2.89140076e+02
      2.05244067e+03 9.98188904e+02 3.30433423e+03 1.51300500e+03
      2.43928149e+03 -3.54841064e+03 -3.66066376e+02 -6.36892029e+02</_>
    <_>
      8.28477539e+03 7.00864355e+03 3.31138281e+03 -1.98092920e+03
      6.45903564e+03 -3.52968140e+03 -1.73291748e+03 -1.44528687e+02
      4.13214893e+03 -4.88704346e+03 1.13675830e+03 -4.22000671e+02
      -1.14235840e+03 -2.09168481e+03 -3.77329559e+02 5.78318542e+02
      2.66755957e+03 5.39976257e+02 -1.55782617e+03 4.45279510e+02</_>
    <_>
      3.40992725e+03 1.82181018e+03 -2.95301050e+03 -4.78975000e+03
      -6.37889453e+03 -3.13459790e+03 1.56079614e+03 1.45945044e+03
      -2.52920850e+03 -9.27605164e+02 3.76218987e+01 4.94739342e+01
      -1.15964844e+03 1.46734863e+03 1.34615442e+03 -1.56258167e+03
      -1.18366614e+03 1.08428235e+03 4.93480164e+02 6.43713135e+02</_>
    <_>
      9.04217285e+03 5.57552393e+03 1.55689563e+03 1.16198889e+03
      -1.39167633e+02 -2.67924072e+03 -5.21775684e+03 4.50709686e+01
      -1.62786365e+03 -4.98179840e+02 -7.94264282e+02 -1.30372559e+03
      -8.02876511e+01 1.46203613e+01 2.42973877e+03 1.25553113e+03
      2.21112646e+03 -3.47118726e+03 -3.14517090e+03 -4.01679443e+02</_>
    <_>
      4.57653418e+03 2.65945386e+03 3.85632715e+03 -5.67361084e+02
      1.02222577e+03 6.08963013e+02 5.05877344e+03 -1.72197754e+03
      3.17232568e+03 3.20892456e+02 -2.69333789e+03 -1.38500110e+03
      2.61233423e+03 -1.73158179e+03 3.40631396e+03 -3.33176880e+03
      3.68911206e+03 -1.99600342e+03 2.20530228e+02 7.10683289e+02</_>
    <_>
      1.26174500e+03 6.32971436e+03 1.97029041e+03 -3.05669336e+03
      1.54033313e+03 8.24086914e+03 2.96392860e+01 4.54163672e+03
      1.60029260e+03 -4.88545557e+03 -3.60061523e+03 -7.95182953e+01
      3.53664795e+03 8.86291748e+02 -2.43946509e+03 2.90254565e+03
      1.03947662e+02 -4.16946808e+02 -7.87343140e+02 3.29250305e+02</_>
    <_>
      9.72420532e+02 7.90560400e+03 -4.09219360e+02 -3.47507813e+03
      -4.03821313e+03 4.97579443e+03 -1.03807410e+03 3.39406885e+03
      1.77606250e+03 2.29636572e+03 -2.32962061e+03 -2.85910693e+03
      1.85215393e+03 -7.39430847e+02 -1.53291306e+02 -4.43438232e+02
      -5.61566101e+02 -1.59692053e+03 1.48597137e+02 7.32623718e+02</_>
    <_>
      7.47255188e+02 7.38361084e+03 -1.39523926e+03 -2.85395361e+03
      -5.00825391e+03 3.24324982e+02 -3.00828979e+03 2.40000708e+03
      -1.12827311e+01 1.92665588e+03 2.81128491e+03 -2.38240991e+03
      -1.97086035e+03 -3.94604073e+01 9.99538025e+02 -3.69697235e+02
      -9.67841568e+01 -2.36487720e+03 3.12977539e+02 -1.66911365e+03</_>
    <_>
      2.13186768e+03 8.21783594e+03 -4.97966309e+03 -2.11430005e+03
      -1.59392566e+03 2.07972754e+03 -1.97043579e+03 1.44598792e+03
      3.36047510e+03 1.67989856e+03 6.70070068e+02 5.62612305e+01
      7.27033081e+02 -3.47858984e+03 4.21748718e+02 -9.98191071e+01
      6.31432617e+02 1.97892761e+03 -6.25375854e+02 -4.64937408e+02</_>
    <_>
      -2.01058060e+02 4.93765381e+03 1.36242700e+03 -6.01402490e+03
      5.37399536e+02 6.01517041e+03 1.77918164e+03 1.95486792e+03
      4.94042786e+02 -2.97570744e+01 -5.61571838e+02 -1.75517151e+03
      -3.56249243e+03 1.40664307e+03 3.01815369e+02 -1.40263403e+03
      1.25089319e+03 1.84359039e+02 1.59685822e+02 1.12219470e+03</_>
    <_>
      2.54918188e+03 8.42726074e+03 -4.75298438e+03 -3.90534766e+03
      -2.47930542e+03 1.48297290e+03 -3.51309595e+03 -8.97861877e+02
      3.54244458e+03 2.82964722e+03 1.14541846e+03 -5.78024841e+02
      -8.06028290e+01 -2.35766553e+03 -7.10821304e+01 -1.33219812e+03
      -8.24393127e+02 8.96192932e+02 -5.02669128e+02 5.42697510e+02</_>
    <_>
      -5.52046924e+03 1.75360388e+03 -1.51919317e+01 1.60780115e+03
      -3.72958771e+02 -6.34791016e+02 7.38255554e+02 2.15714746e+03
      -5.90487305e+02 4.05389061e+01 2.48611279e+03 3.35201569e+02
      2.46293652e+03 3.39516937e+02 5.90071144e+01 1.05758289e+03
      -1.36918311e+03 -1.38954187e+03 -6.54926270e+02 1.65345337e+03</_>
    <_>
      -4.61128027e+03 4.74055908e+03 -2.63046240e+03 -2.94789673e+03
      6.72497177e+01 3.35592432e+03 6.60582825e+02 3.04553491e+03
      8.69615631e+01 -2.73680206e+02 4.49469287e+03 2.10233398e+02
      -2.52821533e+03 -3.78474518e+02 -1.15225354e+03 -1.09253638e+03
      1.23212756e+03 -1.17490955e+03 -4.34074951e+02 6.96451904e+02</_>
    <_>
      3.04050537e+03 6.34557373e+03 1.17838159e+03 -9.63356567e+02
      7.73669092e+03 2.21317090e+03 1.78947534e+03 2.11765820e+03
      1.57281995e+03 5.62320605e+03 -6.32992798e+02 4.20898743e+02
      -2.62391602e+03 -2.32939941e+02 1.16121533e+03 -2.27283310e+02
      -2.61264380e+03 -2.93778564e+03 5.87094055e+02 -2.12240723e+02</_>
    <_>
      -5.49319043e+03 -2.28116846e+03 2.70067139e+03 -6.05527393e+03
      4.74439453e+02 1.53852777e+01 -1.14360596e+03 -2.94723892e+01
      -1.63785559e+03 4.25909851e+02 2.03558716e+02 -4.28025787e+02
      1.66610632e+03 2.23206958e+03 1.26393135e+02 -1.18511731e+03
      -4.96629639e+01 8.30413452e+02 1.66646130e+03 -1.72976221e+03</_>
    <_>
      2.90914453e+03 3.69622461e+03 1.34701392e+03 -5.26034277e+03
      5.26917285e+03 -7.77620911e+02 4.86574170e+03 -3.12642505e+03
      5.17152979e+03 -1.48317822e+03 -7.89249390e+02 2.30001099e+03
      -1.53482654e+03 -7.52243469e+02 1.15847046e+03 1.32153186e+03
      2.50660461e+02 1.62623718e+03 2.66351978e+03 -5.94472046e+02</_>
    <_>
      -4.94028271e+03 1.93539649e-01 -4.27338898e+02 -1.64822314e+03
      -2.28131699e+02 -1.50847559e+03 1.82082275e+03 2.17183545e+03
      -7.13310181e+02 -2.62427399e+02 1.15395288e+03 -8.09063660e+02
      1.13995837e+03 1.01452502e+03 1.91644852e+02 -6.26692383e+02
      -1.18642554e+03 -4.15725494e+02 -4.69065948e+02 -7.53763428e+01</_>
    <_>
      -4.18850049e+03 1.55669568e+03 1.99291882e+03 -5.69336523e+03
      1.61054871e+03 5.69432471e+03 1.41071436e+03 -5.91304871e+02
      3.64440857e+02 1.27726538e+03 1.83851135e+03 7.13697876e+02
      -1.48533508e+03 2.37253247e+03 3.65039551e+02 -4.70999390e+02
      1.35134253e+03 -8.14951538e+02 -8.87645386e+02 2.64215393e+02</_>
    <_>
      -3.53809668e+03 5.66223106e+01 1.18499744e+03 -5.10977197e+03
      5.66109229e+03 -3.29300629e+02 2.21732373e+03 2.52566109e+01
      1.61895337e+03 1.42562149e+02 7.93614746e+02 3.61268372e+02
      4.51534912e+02 2.03088855e+03 1.90320015e+01 -1.05374054e+02
      1.99893738e+03 1.30480621e+02 -4.51077127e+00 1.24877930e+03</_>
    <_>
      -3.59813550e+03 1.36242065e+03 9.86587769e+02 -5.77196045e+03
      6.11467285e+03 9.01164307e+02 2.31654614e+03 -6.77424088e+01
      2.36474585e+03 5.00125854e+02 2.16275830e+03 1.23294006e+03
      2.16574127e+02 2.65764673e+03 1.04118433e+03 -2.28584991e+02
      2.22220605e+03 -1.79311096e+02 -1.48332239e+03 7.20636292e+02</_>
    <_>
      -1.95093127e+03 5.09535596e+03 8.47082397e+02 -6.82685205e+03
      6.85699219e+02 6.77517383e+03 9.41751648e+02 2.88772949e+03
      1.34369470e+03 -9.02651184e+02 -1.00170819e+03 -2.04271927e+02
      -2.16622437e+03 1.44270837e+03 -8.57681641e+02 -1.79412817e+03
      3.98801819e+02 -5.99200012e+02 -8.25393188e+02 -1.10954468e+02</_>
    <_>
      -5.37962988e+03 4.21709015e+02 2.67924268e+03 -3.85522632e+03
      5.86085938e+02 2.86376660e+03 -8.58191223e+02 1.30648621e+02
      -1.36428662e+03 1.71204102e+03 3.39390137e+03 -3.44828613e+02
      -1.76708771e+02 2.70896729e+03 3.16048737e+02 4.94485855e+00
      -8.87090881e+02 -5.79534851e+02 2.62577419e+01 2.88736420e+02</_>
    <_>
      -1.36753198e+03 -1.00364069e+03 -3.22155298e+03 -3.31598926e+03
      2.27147681e+03 -9.42345337e+02 -7.81024551e+01 -1.16779366e+02
      -2.48646336e+01 -1.69404358e+03 4.10248486e+03 5.31409485e+02
      -1.36898220e-01 1.88027209e+03 -1.88273975e+03 -3.01315430e+02
      1.22764197e+03 4.14410706e+02 -1.22390735e+03 5.26820679e+02</_>
    <_>
      2.64768848e+03 1.10302893e+03 -3.34053784e+03 -8.00460938e+02
      4.95708350e+03 -1.93896252e+03 4.64543823e+02 1.62498840e+02
      2.61856372e+03 -3.23100293e+03 1.90892175e+03 -1.85946094e+03
      1.57441785e+03 -2.34998340e+03 2.10638867e+03 -1.58042114e+03
      2.71415771e+03 7.63555450e+01 1.51830469e+03 2.14189478e+03</_>
    <_>
      -6.23946350e+02 5.11560547e+03 -5.47307422e+03 -3.20372070e+03
      -4.56188135e+03 -7.25853271e+02 1.56458511e+02 -9.71578857e+02
      1.20359131e+03 -4.68273102e+02 1.20586682e+03 2.22184863e+03
      1.06557007e+03 -8.25115234e+02 5.61625000e+02 2.09145676e+02
      -5.72093018e+02 1.65960242e+03 -4.66363647e+02 4.92808716e+02</_>
    <_>
      -2.38786206e+03 -5.85707275e+02 -2.99004199e+03 -1.85962231e+03
      -5.42341125e+02 -3.59973389e+03 3.35342114e+03 4.63144867e+02
      -1.02750175e+02 -1.19434680e+03 7.05627441e+02 -2.76834290e+02
      9.21621033e+02 7.55092041e+02 -2.34888290e+02 3.78692985e+00
      -1.36701706e+02 -8.22537048e+02 -5.20911682e+02 -1.19622955e+02</_>
    <_>
      -2.90129150e+03 -8.70540405e+02 -3.17508691e+03 8.80565613e+02
      7.59264282e+02 -3.75944995e+03 1.32188550e+03 4.10788116e+02
      2.81556494e+03 3.48700833e+00 -4.44452972e+02 3.99797974e+01
      1.18200635e+03 -7.72286743e+02 -6.50366898e+01 5.90017090e+02
      -9.47387268e+02 -4.76932831e+02 -7.47544434e+02 -1.63437952e+03</_>
    <_>
      6.75460303e+03 5.19224268e+03 -5.17638379e+03 -4.66432861e+02
      1.37435181e+02 -2.17454150e+03 5.62680481e+02 -3.34929077e+02
      -2.98248999e+03 1.06193799e+03 9.99233154e+02 1.37791809e+02
      -1.39173877e+03 1.44828650e+03 2.07885791e+03 8.91153076e+02
      -3.09249146e+03 -2.86997314e+02 8.33393860e+02 -6.98510803e+02</_>
    <_>
      -3.13342969e+03 4.67545947e+03 1.59969666e+03 -5.38121631e+03
      4.11126563e+03 3.24410547e+03 2.12593115e+03 -2.84440918e+02
      1.94235522e+03 4.10726563e+02 2.45742114e+03 1.27354285e+03
      -2.77258398e+03 2.13658276e+03 -1.62411163e+02 -5.90120605e+02
      1.88315076e+03 -5.90064270e+02 1.21605043e+01 1.95875757e+03</_>
    <_>
      2.14196289e+03 4.78221973e+03 -4.53334668e+03 -5.26188086e+03
      4.59662305e+03 2.33200024e+03 -6.85128418e+02 -3.47205414e+02
      1.46094458e+03 -1.60004175e+03 2.46079443e+03 1.50375684e+03
      -2.96525464e+03 -8.55362610e+02 1.62555115e+03 8.16127502e+02
      1.06045898e+03 -8.57659851e+02 -2.62678253e+02 -6.47977982e+01</_>
    <_>
      -3.88047998e+03 -1.84301514e+03 5.02029834e+03 3.49004395e+03
      -3.07452856e+03 1.51009705e+03 5.12447937e+02 3.50115356e+02
      -1.25671472e+03 2.82834778e+02 -3.89216248e+02 -1.29885498e+03
      -4.80816223e+02 -9.80605225e+02 -2.35391800e+02 -2.48562231e+03
      1.39168140e+03 -1.48541733e+02 -1.46307983e+03 -1.33065613e+03</_>
    <_>
      1.15544702e+03 2.42157837e+03 5.59731885e+03 7.00395898e+03
      5.79574707e+03 -3.63654565e+03 2.36028760e+03 1.09407361e+03
      -2.35704788e+02 3.50449072e+03 1.63595032e+02 -8.09875854e+02
      -1.20274646e+03 -5.88828430e+02 1.03016907e+03 -5.26912575e+01
      1.12811072e+03 9.90625244e+02 2.45796143e+02 1.72395000e+01</_>
    <_>
      -3.22188184e+03 -1.62716919e+02 4.95584375e+03 3.91634180e+03
      -2.52267041e+03 -9.30474548e+02 2.58814648e+03 -1.85027905e+03
      -1.77105835e+03 -1.21417590e+03 -3.47175873e+02 -4.99582062e+02
      -9.26068176e+02 -2.09364868e+03 -1.02036536e+03 1.68939490e+03
      1.54603662e+03 -1.23316492e+03 -1.85829590e+03 -1.22973132e+03</_>
    <_>
      3.60294238e+03 4.81794238e+03 7.14487451e+03 5.71252588e+03
      4.10256885e+03 -3.23939185e+03 4.96513428e+03 3.35492822e+03
      -1.75921216e+03 -9.81665222e+02 -3.09550562e+03 8.37731323e+01
      2.76227417e+02 3.63802124e+02 -1.25766640e+01 -1.16410852e+03
      -6.83544373e+02 7.68583191e+02 -4.61222168e+02 -8.98492188e+02</_>
    <_>
      2.88826343e+03 1.62732849e+03 4.49420459e+03 8.80152637e+03
      6.01635303e+03 -2.86689111e+03 4.38571869e+02 1.28086316e+03
      1.05815845e+03 2.48233496e+03 3.28750343e+01 7.94949646e+02
      1.26793030e+03 -2.16261621e+03 8.93447113e+00 -4.63165833e+02
      1.49555771e+02 5.29292969e+02 6.85194946e+02 1.66866528e+03</_>
    <_>
      7.43029639e+03 -4.19939258e+03 7.06831982e+03 3.34860352e+03
      -9.33081787e+02 -1.62491345e+03 1.81168005e+03 -1.83817603e+03
      -1.15639539e+03 -9.95529663e+02 5.79289001e+02 4.58434082e+03
      6.89825562e+02 -4.30432983e+02 4.07390869e+02 8.30449768e+02
      -1.24830505e+03 3.85645580e+00 -1.74704620e+02 -1.86300867e+03</_>
    <_>
      6.56757202e+02 6.55617139e+03 -2.09368088e+02 1.39778064e+03
      3.08301245e+03 -8.54690308e+02 4.95389990e+03 2.97895203e+02
      1.54890228e+02 -4.69550972e+01 1.84877527e+03 -2.33134424e+03
      -3.37131812e+03 -3.04473022e+03 -7.30701538e+02 8.31301147e+02
      -2.13367676e+02 9.82016418e+02 2.39526270e+03 -1.46502502e+03</_>
    <_>
      1.05145762e+04 1.01724248e+04 7.35058447e+03 1.79105066e+03
      -1.38493982e+03 -2.59754370e+03 -1.46904553e+03 -3.90354834e+03
      3.01568384e+03 1.56784033e+03 6.80359070e+02 -2.34035791e+03
      -1.91686743e+03 7.79424988e+02 -2.48367139e+03 -5.31180115e+02
      -1.80419287e+03 1.15280737e+03 -4.72935638e+02 -2.24064194e+02</_>
    <_>
      -2.48443384e+03 4.82319580e+03 -1.91627429e+03 -4.24897363e+03
      7.45192566e+01 -1.76763000e+03 3.23035083e+03 -7.38316162e+02
      1.38262085e+03 -2.27103833e+03 2.42309155e+03 1.43690466e+03
      -1.93375671e+03 9.17177124e+02 -1.38518799e+02 -5.52547485e+02
      5.61150818e+02 -4.79939087e+02 -6.34422668e+02 3.38274078e+02</_>
    <_>
      5.88421436e+03 3.54689014e+03 -3.57760107e+03 -4.61161426e+03
      -3.41663452e+03 -2.45212915e+03 -7.96829529e+02 -1.48855066e+03
      -2.80432465e+02 -3.70148340e+03 -2.04741260e+03 2.54395947e+03
      6.09031334e+01 -1.63950089e+02 2.50703906e+03 -2.54069629e+03
      -6.43949829e+02 9.36582031e+02 -1.56854565e+03 5.33835938e+02</_>
    <_>
      4.86153418e+03 -4.25418066e+03 -1.37264539e+03 1.13592578e+03
      -1.73007605e+03 6.78167877e+01 5.79306055e+03 7.97453232e+01
      -6.47171631e+02 -4.63738098e+02 2.28126709e+03 -1.43151599e+03
      8.14360962e+01 -1.45324451e+03 6.18370552e+01 6.36092712e+02
      1.87259143e+03 9.53270447e+02 1.09865662e+03 -1.55957458e+03</_>
    <_>
      8.19835352e+03 3.23629150e+03 -2.41390015e+03 -4.06096436e+03
      -4.13872656e+03 -3.82307397e+03 -1.32015100e+03 -7.92775940e+02
      -1.57920032e+03 -8.00363525e+02 -2.29535400e+03 -8.79296814e+02
      -1.09243294e+02 7.25588837e+01 2.73384448e+03 -3.85941870e+03
      -4.53610413e+02 1.89509961e+03 -1.25901709e+03 1.14924463e+03</_>
    <_>
      5.71889941e+03 9.98216980e+02 4.80010156e+03 -1.42605066e+03
      -9.16523315e+02 7.53551178e+01 1.37646228e+03 -3.36006641e+03
      3.83149707e+03 7.10952393e+02 -1.22455542e+03 -2.27890967e+03
      1.14007889e+02 -9.03881897e+02 5.09952301e+02 -1.00421198e+03
      3.70683081e+03 -1.39206311e+03 -1.68724869e+02 -3.48965546e+02</_>
    <_>
      2.68342896e+03 -1.22059436e+03 -1.34290515e+03 -3.48825366e+03
      -5.04950195e+03 -2.72811707e+02 5.41171875e+03 1.28909937e+03
      -1.95811414e+03 -9.62045227e+02 -2.60938770e+03 -1.35154712e+03
      -1.17391016e+03 -2.96998438e+03 8.20873840e+02 -1.30828113e+03
      -6.87539490e+02 -8.97814209e+02 2.36018872e+03 -4.68090546e+02</_>
    <_>
      8.16616113e+03 -1.56504456e+03 -2.52505762e+03 -9.88013000e+02
      1.09512732e+03 9.36369531e+03 1.77856860e+03 3.17513257e+03
      -1.47750769e+03 -1.69059708e+02 -2.05278613e+03 -2.25557178e+03
      -6.12300293e+02 8.60700439e+02 -2.42952295e+03 -7.41568481e+02
      -1.09095593e+03 1.68161426e+03 3.01722626e+02 7.39754456e+02</_>
    <_>
      -3.82181616e+03 -1.13055688e+03 -2.68682153e+03 7.96473022e+02
      -2.51713892e+03 -1.66296021e+03 1.77391187e+03 -9.50833618e+02
      -4.74946320e+02 2.32098755e+02 -1.21401782e+03 6.79066101e+02
      -3.12857056e+02 5.41153320e+02 -2.29123596e+02 1.96820264e+03
      -4.35318970e+02 2.44304779e+02 -1.40365097e+02 1.32637161e+02</_>
    <_>
      4.74539551e+03 1.58845654e+03 -6.74383203e+03 -3.92118994e+03
      2.20987305e+03 9.41792542e+02 -2.66964136e+03 -1.88847546e+03
      -3.17330127e+03 1.33822192e+03 4.67309601e+02 1.66728540e+03
      -7.77180969e+02 4.78271759e+02 -4.04888354e+03 1.02714514e+03
      -5.46383728e+02 -1.16780286e+03 1.32983057e+03 -6.31458435e+02</_>
    <_>
      -6.99455505e+02 6.03886133e+03 -3.19160327e+03 -3.27805640e+03
      -4.56987744e+03 1.76424585e+03 -3.62909790e+02 1.39531952e+02
      1.88120117e+03 3.12105078e+03 2.84297943e+02 1.16952319e+03
      4.70878021e+02 -2.79725488e+03 -1.70279089e+03 4.26909208e+00
      -3.21948151e+02 3.06922705e+03 -9.09882202e+02 1.00285352e+03</_>
    <_>
      4.20020264e+03 -4.76263770e+03 -1.84575537e+03 2.60244043e+03
      -3.38377759e+03 1.24981213e+03 1.81055103e+03 1.71651843e+03
      3.58278784e+03 1.64036096e+03 3.79164795e+02 -8.52427368e+02
      -2.42181152e+03 1.66946497e+03 1.05901848e+02 4.95510925e+02
      -6.51336304e+02 1.44144836e+02 -1.82374780e+03 5.81851807e+02</_>
    <_>
      -3.38559863e+03 3.71487183e+03 -3.03350732e+03 -4.16892365e+02
      -2.68304028e+03 -2.24817114e+03 2.58121094e+03 1.21002368e+03
      1.93472794e+02 6.89892212e+02 2.58901978e+03 1.03796570e+03
      1.87480127e+03 8.58213013e+02 4.63592987e+02 2.61884741e+03
      -7.88187500e+02 -5.27363037e+02 -6.63048706e+01 -5.31000366e+02</_>
    <_>
      -4.03642383e+03 1.47527295e+03 -4.86098480e+02 1.20625598e+03
      -1.93459021e+03 -9.02927246e+02 1.66913379e+03 2.58910376e+03
      1.00462665e+03 5.63508972e+02 2.46719556e+03 -1.47242114e+03
      3.36288086e+03 5.01098022e+01 1.81702747e+03 -4.23719727e+02
      -1.00614618e+03 -1.00670197e+03 5.50072327e+02 3.52653656e+02</_>
    <_>
      2.12929028e+03 1.99809888e+03 -7.48015674e+03 -3.36216943e+03
      -7.96915222e+02 -7.74306641e+02 -9.37211365e+02 -1.74859534e+03
      -1.01856927e+03 2.77406836e+03 8.83287964e+01 9.91888885e+01
      9.18663330e+02 -1.70412598e+03 -1.94121826e+03 1.54086157e+03
      -3.57295868e+02 -2.72231506e+02 2.35434766e+03 1.28724231e+03</_>
    <_>
      3.07277271e+03 1.71215500e+02 -6.91934277e+03 -3.16966455e+03
      -1.42954297e+03 -7.33195923e+02 -1.57171338e+03 -4.73171289e+03
      -1.93699182e+03 -1.52002417e+03 -3.99040680e+01 1.62736389e+03
      -1.93160477e+02 3.29299561e+02 -1.83729578e+03 7.76407349e+02
      1.80785583e+03 4.84547852e+02 6.92597290e+02 2.54027283e+02</_>
    <_>
      2.71257324e+03 -4.61867383e+03 5.93995544e+02 1.04113208e+03
      -3.97020142e+03 -4.80277374e+02 -1.98554092e+02 1.96542944e+03
      3.43539819e+03 2.38444641e+02 -6.11024475e+02 4.31925928e+03
      -1.96750879e+03 3.70783398e+03 1.57613373e+02 2.26716187e+03
      3.84326447e+02 -1.77773792e+03 -4.63688049e+02 -1.84835828e+03</_>
    <_>
      7.24033887e+03 -5.92000781e+03 -4.76818018e+03 2.17182983e+03
      2.48475903e+03 2.68935913e+03 1.16402405e+03 -3.89465918e+03
      -1.10637329e+03 -6.92573059e+02 -9.96552368e+02 -2.38390723e+03
      6.90111633e+02 -7.38197083e+02 -1.01102484e+03 -2.71277008e+02
      -8.22995422e+02 -1.29893640e+03 3.90572327e+02 -5.80706543e+02</_>
    <_>
      -2.32851212e+02 1.72950317e+03 -7.38836719e+03 4.57740784e+02
      -1.90010107e+03 -1.82358691e+03 7.47774719e+02 4.85692841e+02
      1.11674646e+03 4.96641083e+02 -3.11488586e+02 1.83959824e+02
      3.19950220e+03 -6.61506531e+02 -9.45216553e+02 2.21422070e+03
      8.34508789e+02 -1.98315552e+02 -6.47581177e+02 -2.29138916e+02</_>
    <_>
      8.86764844e+03 -4.26442236e+03 1.96296045e+03 3.98063403e+03
      3.73059143e+02 4.72230957e+03 2.86695850e+03 -3.62658105e+03
      4.13166313e+01 3.44727832e+03 3.33272314e+03 2.64680450e+02
      4.29674902e+03 8.34721451e+01 9.70531311e+02 -1.40366440e+01
      -1.87313953e+03 9.43734436e+02 3.55660591e+01 -6.31062088e+01</_>
    <_>
      4.99858789e+03 1.44463943e+02 -6.38893018e+03 2.63881321e+01
      2.99692334e+03 -4.89653870e+02 4.20329376e+02 2.88840790e+02
      -8.98157410e+02 3.90203833e+03 -2.88917603e+03 -2.18326300e-01
      -6.44845032e+02 -1.11358765e+03 -2.89547333e+02 -6.49834778e+02
      9.17143784e+01 -2.39441309e+03 5.99861816e+02 1.96553040e+02</_>
    <_>
      2.57582813e+03 4.98769434e+03 -4.22048145e+03 -1.24573535e+03
      -1.94515411e+02 -3.46886450e+03 1.18563098e+03 1.27043506e+03
      -2.36163721e+03 7.03736511e+02 1.42342297e+03 5.45261116e+01
      -4.01823578e+02 8.96638611e+02 2.76502271e+03 -1.70159821e+02
      -2.53584009e+03 8.46648071e+02 2.11828101e+03 -3.30755615e+02</_>
    <_>
      -3.93248291e+03 2.77115161e+03 1.94957446e+03 -4.22096094e+03
      8.53929810e+02 2.67196997e+03 3.19265479e+03 -8.07901367e+02
      -1.00343445e+03 2.15017017e+03 2.75232031e+03 3.66985687e+02
      -2.52802222e+03 1.42483411e+03 -8.75698013e+01 -9.14617615e+02
      6.66959778e+02 -2.13591455e+03 5.09376709e+02 2.83274414e+03</_>
    <_>
      4.62766113e+03 -2.03118274e+03 -6.42079736e+03 1.86489380e+03
      8.02389038e+02 5.03570129e+02 -2.47115308e+03 -1.85543930e+02
      1.23920093e+03 -1.05278000e+02 -2.75427637e+03 -1.74397888e+03
      -1.50199463e+03 1.40277115e+02 1.86720398e+03 -1.27060143e+02
      6.04391296e+02 -4.57836975e+02 -3.50615997e+02 -2.74967725e+03</_>
    <_>
      3.65100464e+03 -5.66258838e+03 -2.48776343e+03 3.95861542e+02
      -3.28237329e+03 6.06030151e+02 3.23790558e+02 -2.58171167e+03
      2.72514014e+03 2.81748779e+03 -3.18719360e+02 -9.05772522e+02
      -5.23095642e+02 1.25313574e+03 -7.04092529e+02 2.64710541e+02
      1.83166333e+03 -1.38064233e+03 2.29496964e+02 1.69643933e+03</_>
    <_>
      6.10810645e+03 -3.46560815e+03 -3.56776099e+03 2.20767969e+03
      -3.06699756e+03 -8.60388428e+02 -1.55646423e+03 1.48847815e+03
      4.32333350e+03 2.99627075e+03 -1.52868030e+03 -4.00654358e+02
      1.92632324e+03 1.67084094e+03 2.33192566e+02 -6.24255188e+02
      1.15275403e+03 -1.51847864e+03 6.26537720e+02 3.75296783e+02</_>
    <_>
      4.06878662e+03 -5.32146973e+03 -2.88652295e+03 2.25415454e+03
      1.35011755e+03 3.07277490e+03 -3.28158252e+03 -1.21312476e+03
      -7.48439575e+02 -2.24153687e+03 -1.92535950e+03 -1.18700342e+03
      2.04035934e+02 2.18861694e+03 -5.31846069e+02 -2.94264851e+01
      -6.56735840e+02 -1.74171851e+03 -1.16871924e+03 -3.83891449e+02</_>
    <_>
      -3.35228491e+03 -3.94615356e+03 1.00880847e+03 -5.27030176e+03
      7.01592163e+02 -5.54887634e+02 2.46772412e+03 -1.95374646e+03
      -1.61361588e+02 2.73795313e+03 7.56904968e+02 -1.53429517e+03
      2.95926270e+02 6.32210205e+02 -1.05177650e+02 7.98377258e+02
      2.15736130e+02 9.06717041e+02 -1.72735132e+03 1.16388965e+03</_>
    <_>
      -2.55988464e+02 -6.01109424e+03 -2.29298560e+03 -3.34395386e+02
      -8.23290039e+02 -2.50410449e+03 2.28515991e+03 1.48811755e+03
      9.73630493e+02 -1.20545117e+03 -4.18504791e+02 -2.55912573e+03
      -3.29510834e+02 -1.08459460e+03 -1.36383752e+03 5.20200623e+02
      -5.84841553e+02 4.97401001e+02 -6.98181824e+02 9.39250469e+00</_>
    <_>
      6.93504834e+03 -3.24602417e+03 -4.60740869e+03 2.53942676e+03
      7.44720459e+02 3.47263721e+03 2.04309460e+03 3.33774854e+03
      1.55360144e+03 1.37893787e+03 4.01724930e+01 1.38985791e+03
      -1.51685034e+03 1.50290503e+03 3.19575439e+02 -1.01014081e+03
      6.05277138e+01 1.38645544e+03 -2.23085181e+03 -1.65829224e+03</_>
    <_>
      -6.02656934e+03 -4.14990967e+03 -8.01589127e+01 -1.93334741e+03
      -1.10707959e+03 -3.25067700e+03 1.07701660e+03 1.13665710e+03
      -1.39046497e+03 1.59034705e+03 -2.11760208e+02 -1.32650745e+03
      3.75232452e+02 -7.13933350e+02 1.97321460e+03 -5.05229248e+02
      -1.39617126e+03 -2.48083276e+03 -2.21280289e+01 -1.62800751e+02</_>
    <_>
      -5.50694580e+03 1.14830518e+03 2.39769580e+03 -1.27499146e+03
      2.26669263e+03 -6.45901001e+02 8.92670227e+02 9.90340210e+02
      -3.00167786e+02 9.50919006e+02 3.31802881e+03 -1.12995044e+03
      2.24386206e+03 6.83297729e+02 6.37861572e+02 -2.71397070e+03
      -4.94549896e+02 -2.21835596e+03 7.92673187e+01 6.61977295e+02</_>
    <_>
      -3.72402246e+03 -1.33368115e+03 -4.40883984e+03 9.66818115e+02
      -2.12081955e+02 -2.47991138e+03 4.90014008e+02 1.13920764e+03
      1.15447998e+03 -1.48745923e+03 9.06222412e+02 -1.73558801e+03
      2.44116040e+03 1.69298340e+02 1.10164661e+03 -8.29347324e+00
      -7.66290100e+02 -6.88956726e+02 -9.68391541e+02 5.51416748e+02</_>
    <_>
      -1.01905280e+03 -5.17809912e+03 8.59892383e+03 -5.38144287e+03
      -1.67918958e+03 -1.13560022e+03 1.19394524e+02 -1.67889624e+03
      -2.55398880e+02 2.83494702e+03 -3.11070526e+02 -1.40183386e+03
      3.37336639e+02 -1.56463428e+03 9.16221558e+02 -6.75797852e+02
      1.85902490e+03 -1.80865707e+02 -7.67527222e+02 1.67314453e+03</_>
    <_>
      2.31947754e+03 2.66867261e+03 7.65696716e+02 -3.55472778e+03
      8.11902881e+03 -1.08296875e+03 -2.57847021e+03 2.30770483e+03
      1.17230054e+03 4.31237695e+03 -4.51029492e+03 3.02311890e+03
      7.84055042e+00 -2.65447485e+03 4.14802094e+02 1.44502905e+03
      -1.67060596e+03 -1.35076965e+03 1.29278290e+02 1.00446063e+03</_>
    <_>
      7.82968750e+03 -2.92554175e+03 -2.48809009e+03 1.58822595e+03
      -7.09928284e+02 2.68052319e+03 -3.59603607e+02 1.60308398e+03
      1.11274561e+03 -9.96015198e+02 2.25050806e+03 -6.86564209e+02
      -4.74842285e+02 -1.99691711e+03 3.53557275e+03 4.30915070e+02
      -8.39888794e+02 -1.15530420e+03 9.61871033e+02 -1.73475269e+03</_>
    <_>
      2.10880029e+03 -2.81801636e+03 3.61396948e+03 -4.87291895e+03
      3.48749854e+03 -5.97117493e+02 4.24671680e+03 -1.15108252e+03
      8.51878418e+02 1.36356543e+03 -3.06745044e+03 2.09170728e+03
      7.70018555e+02 -1.20878906e+03 2.49400562e+03 7.38191101e+02
      1.69814417e+03 1.54505469e+03 4.76306915e+02 -5.74247253e+02</_>
    <_>
      -4.30105371e+03 -1.86001282e+03 1.93880029e+03 -3.00949121e+03
      2.80881079e+03 -3.44202728e+02 -9.39934444e+00 -3.37050781e+03
      8.45715088e+02 -7.24108658e+01 6.49169800e+02 -1.40813696e+03
      1.15580579e+03 6.80634644e+02 -1.57100085e+03 -1.95327295e+03
      -1.98037390e+03 -6.63712708e+02 1.63391830e+02 -7.49295282e+00</_>
    <_>
      -2.88154785e+03 -3.05556763e+03 -3.92760864e+02 -6.87037598e+02
      5.23673706e+02 -2.23970630e+03 -2.61651074e+03 4.26738232e+03
      -6.21333069e+02 8.06820190e+02 1.00452795e+03 -1.01876086e+03
      1.88074475e+03 6.81512756e+02 -3.86790039e+02 -9.55825989e+02
      -2.66204071e+02 7.07322617e+01 1.03608475e+02 -6.15982971e+02</_>
    <_>
      -2.95032104e+03 -2.42327222e+03 4.22687695e+03 -5.59319971e+03
      1.50216187e+03 8.07326294e+02 -6.25631226e+02 -1.23356531e+03
      -1.48886707e+03 2.18004248e+03 3.56711548e+02 -1.22455249e+03
      1.23259839e+03 2.37855957e+03 -5.16805153e+01 -8.08920532e+02
      -5.88021973e+02 2.33880249e+03 8.51143127e+02 -2.15491309e+03</_>
    <_>
      4.49108936e+03 -2.54774072e+03 5.82355078e+03 -9.21127197e+02
      1.14623657e+02 1.68551843e+03 -2.68501611e+03 5.81427783e+03
      -5.23618799e+03 6.88138184e+02 1.79795764e+03 4.37726221e+03
      6.19757690e+02 -9.92323730e+02 -1.72414380e+03 -1.33122668e+03
      2.39225610e+03 -2.00754196e+02 -9.82125183e+02 1.53925171e+03</_>
    <_>
      -1.36904248e+03 -2.91553076e+03 6.49160156e+03 -3.42765796e+03
      -8.08995850e+02 -2.23909717e+03 -5.34944153e+02 1.39385925e+03
      -1.03016823e+02 1.31978772e+03 -1.45607086e+02 -3.30058350e+02
      -4.83067749e+02 -1.48006396e+03 5.82011719e+02 -1.92602234e+03
      1.39792273e+03 -2.70034729e+02 2.65747046e+03 -2.30031174e+02</_>
    <_>
      -2.80632996e+02 -8.38523376e+02 -1.72457813e+03 -5.21430420e+03
      6.13910010e+03 2.90360425e+03 1.59277319e+03 -4.04856201e+03
      2.99261670e+03 -1.34521448e+03 -6.72098267e+02 2.05076050e+03
      -1.17215308e+03 -1.46856287e+03 -2.62701843e+02 -2.56460693e+02
      -1.82213733e+03 -7.72666260e+02 -1.20287402e+03 -7.24110657e+02</_>
    <_>
      -5.28977356e+01 -1.28839258e+03 3.70900952e+03 -6.19347119e+03
      6.27169418e+01 1.22584839e+03 -3.31576953e+03 2.78699902e+03
      -2.04747449e+03 4.26664063e+03 -2.22847510e+03 1.13691187e+03
      8.94283997e+02 2.86260986e+03 8.93524475e+02 2.05136475e+03
      1.44192859e+03 2.08058057e+03 7.84946838e+02 -6.52049622e+02</_>
    <_>
      -3.42897925e+03 -2.99067773e+03 3.65461060e+03 -2.55979004e+03
      1.31363342e+02 -2.05172192e+03 -1.83801245e+03 2.85457739e+03
      -2.09169937e+02 1.68349280e+03 -1.39713867e+02 -1.15852881e+03
      1.28271912e+03 -4.48024719e+02 -1.97108963e+02 -1.82277087e+03
      -1.18422253e+03 -7.81249817e+02 1.54951855e+03 -1.80389270e+03</_>
    <_>
      -3.42220117e+03 1.83145447e+03 -1.78029077e+03 -2.22085815e+03
      1.05232959e+03 -3.16833813e+03 3.50745313e+03 1.04639343e+03
      7.18184204e+02 -1.30993445e+03 8.42227234e+02 2.52225122e+03
      2.04750073e+03 9.17038879e+01 9.92166382e+02 4.27650452e+02
      -3.34473915e+01 -7.01331177e+02 1.66874802e+02 -3.73165253e+02</_>
    <_>
      1.04821472e+03 -6.09611865e+03 4.44054248e+03 -1.50005774e+03
      8.51045959e+02 -1.01742346e+03 -2.14896558e+03 1.34145313e+03
      7.11306274e+02 -8.26303101e+02 6.02447693e+02 2.21381030e+03
      -1.12847070e+03 -2.01120239e+03 3.53287506e+02 -9.87851929e+02
      1.05036084e+03 1.32541296e+03 2.35162476e+03 1.13892236e+03</_>
    <_>
      -5.22622070e+02 -5.90054199e+03 2.59501416e+03 -3.55632397e+03
      2.66154834e+03 -2.31954492e+03 -2.79510962e+03 1.79074072e+03
      1.44360803e+03 -1.18096472e+03 -6.51289490e+02 -2.11450287e+02
      9.12345825e+02 -3.90682434e+02 4.41938110e+02 -9.76310730e+02
      1.29866858e+03 2.10835254e+03 5.84932495e+02 1.73149963e+03</_>
    <_>
      1.03165625e+03 -5.38226416e+03 2.59556104e+03 -4.89970436e+01
      -1.32629919e+03 -1.04335413e+03 -9.21545288e+02 2.63521387e+03
      2.38809985e+03 -2.27054736e+03 2.08447485e+03 1.16387085e+03
      -1.63774084e+03 -2.15418774e+03 -6.25924561e+02 -1.67761475e+02
      -4.31298859e+02 -4.89489716e+02 1.80964783e+03 -3.35543488e+02</_>
    <_>
      7.78329297e+03 -4.03716748e+03 2.78884399e+03 2.13915918e+03
      2.87784863e+03 4.47247656e+03 -2.23005518e+03 -9.84337891e+02
      -1.05339026e+03 -5.38695361e+03 2.20593188e+03 4.48078418e+03
      3.93195996e+03 -1.39011768e+03 -2.19288742e+02 -1.81831018e+03
      5.97265320e+02 1.38581715e+01 3.26619238e+03 -3.65586212e+02</_>
    <_>
      -4.41490173e+02 6.14357788e+02 -4.65597754e+03 -2.04721521e+03
      -2.16499847e+02 -4.10681494e+03 4.11855713e+03 -6.34537415e+02
      -1.23690625e+03 -1.06624451e+03 -1.12883080e+02 8.81908508e+02
      9.37363815e+01 -1.32410645e+03 -4.42580170e+02 -2.96514709e+02
      6.96641296e+02 -1.74489685e+03 -3.31282623e+02 7.02400146e+02</_>
    <_>
      6.85353418e+03 -4.96937158e+03 -8.63747681e+02 3.74317749e+03
      3.52750610e+02 4.84618506e+03 2.25475806e+03 -2.79118384e+03
      1.30828979e+03 9.96547729e+02 3.00297461e+03 -7.66483582e+02
      3.03781592e+03 1.11945740e+03 2.15970361e+03 -8.56917908e+02
      -1.48389233e+03 8.71032959e+02 -1.20092200e+03 6.31257874e+02</_>
    <_>
      5.10391504e+03 -6.57550537e+03 -1.54537122e+03 1.85337769e+03
      -1.28265857e+03 5.04773651e+02 1.81305884e+03 4.66698517e+02
      3.05146680e+03 1.18886023e+03 -2.88408997e+02 -3.65388062e+02
      -1.17594751e+03 9.81041748e+02 8.46938171e+01 -6.31667114e+02
      1.68690918e+02 -1.93335495e+02 -1.35382947e+03 9.71407288e+02</_>
    <_>
      5.51356689e+03 -5.87248389e+03 -2.04741528e+03 2.44275122e+03
      -1.24622546e+03 -1.52458142e+03 -1.73724243e+02 8.86427689e+01
      4.88605225e+03 1.98198999e+03 -1.01032666e+03 3.21646460e+03
      -4.36058533e+02 2.06105420e+03 1.40265107e+00 -7.77348999e+02
      -3.53541321e+02 8.37860966e+00 -1.54693127e+03 -3.57688904e+01</_>
    <_>
      -5.46132422e+03 -1.28512134e+03 -8.89073608e+02 -1.70623596e+03
      5.00534302e+02 -2.24960498e+03 1.55456396e+03 8.87239746e+02
      4.25124878e+02 8.53860291e+02 1.01501361e+03 -6.44561707e+02
      1.14241663e+03 1.40047852e+02 -5.53174934e+01 7.20190002e+02
      -9.94247253e+02 -7.02193298e+02 -2.72582367e+02 -2.51350366e+03</_>
    <_>
      -2.63735077e+02 -4.76766016e+03 -2.65755713e+03 -2.85684570e+02
      -9.58088608e+01 -2.68599951e+03 -2.70254669e+02 1.73100159e+03
      1.25459851e+03 -4.27450623e+02 8.23626648e+02 -1.78989209e+03
      1.48732483e+03 -6.07850098e+02 -9.90399719e+02 -1.35353467e+03
      4.90066437e+02 -6.26007767e+01 4.87606323e+02 -1.58569714e+03</_>
    <_>
      -1.50161133e+03 -2.30986816e+03 -1.38490527e+03 -5.09407074e+02
      1.77939111e+03 -3.94693677e+03 8.14172119e+02 3.41880859e+03
      1.52334094e+03 -1.26968982e+03 9.75674896e+01 -1.26967859e+03
      1.69127832e+03 -2.33342072e+02 -3.78869659e+02 -6.01236633e+02
      6.95292664e+02 -4.13651062e+02 -2.90972260e+02 -9.62154297e+02</_>
    <_>
      8.94470215e+03 9.85174609e+03 7.53479102e+03 3.11555884e+03
      -1.42471207e+02 -2.22803271e+03 -1.36486255e+03 -2.46904053e+03
      1.93195264e+03 -1.99804065e+03 1.81876135e+03 -1.79060583e+03
      -3.17308740e+03 1.32214954e+03 -2.34884424e+03 -6.60629822e+02
      -1.89248889e+03 8.60002136e+02 1.15318726e+03 -1.58008386e+03</_>
    <_>
      5.51569287e+03 3.95265039e+03 -3.66269360e+03 -4.45316406e+03
      -3.36316846e+03 -2.99738721e+03 -7.96424438e+02 -1.05622949e+03
      1.05301685e+01 -3.82417285e+03 -1.59403406e+03 2.76660059e+03
      2.99209930e+02 -4.43884857e+02 2.44693408e+03 -2.41428149e+03
      -9.36804504e+02 6.74934998e+02 -1.72909680e+03 8.30193787e+01</_>
    <_>
      2.14026880e+03 -9.02418457e+02 -5.68638489e+02 -3.41007349e+03
      -4.38406787e+03 -9.15879517e+02 5.29310498e+03 2.19643823e+03
      -2.16919458e+03 -1.80339282e+03 -2.39686279e+03 -1.54528406e+03
      -8.62504944e+02 -3.46881519e+03 -1.21653381e+02 -1.42653979e+03
      -9.44454407e+02 -8.65264648e+02 2.20111133e+03 -7.44336975e+02</_>
    <_>
      8.72515991e+02 7.46358057e+03 1.40508643e+03 -3.29743115e+03
      6.21857971e+02 6.93697168e+03 -1.44682996e+03 5.19579395e+03
      1.33062903e+03 -3.96739697e+03 -2.78809204e+03 -5.00056671e+02
      4.20773779e+03 7.59016418e+02 -1.79553638e+03 3.85565112e+03
      -3.31821625e+02 -1.21172437e+03 4.08793182e+02 6.14740601e+02</_>
    <_>
      4.65284424e+03 1.60888586e+03 -7.53074023e+03 -2.60541187e+03
      1.04005579e+03 6.69925354e+02 -1.71506287e+03 -2.08104321e+03
      -2.00901294e+03 2.51019409e+03 -9.37919861e+02 2.13951514e+03
      -2.24304565e+02 9.17248108e+02 -3.43628345e+03 9.94027588e+02
      7.88854980e+02 -4.79670471e+02 1.02171570e+03 -9.39955200e+02</_>
    <_>
      3.91570282e+02 5.92902148e+03 -3.55610767e+03 -3.17092505e+03
      -4.26014551e+03 2.06038794e+03 -9.46458069e+02 -1.37117401e+02
      2.41464282e+03 2.84084131e+03 -3.15559082e+01 8.76859619e+02
      6.05166260e+02 -2.80940991e+03 -1.89901709e+03 -3.59897003e+02
      4.58148003e+01 3.63414868e+03 -5.48125000e+02 9.82548706e+02</_>
    <_>
      -2.06948169e+03 6.35462646e+03 -2.13483545e+03 -1.84058545e+03
      -3.32850635e+03 2.52141357e+03 -1.08114673e+03 1.60375610e+03
      1.59541309e+03 1.86187183e+03 7.80512451e+02 -5.60652039e+02
      -1.57332483e+03 -2.54465991e+03 4.72395477e+01 9.70424561e+02
      -2.04516577e+03 2.27680518e+03 -1.53417822e+03 -1.94982666e+03</_>
    <_>
      1.77371680e+03 -3.98763525e+03 -7.46521225e+01 1.55749597e+03
      -3.17252856e+03 -1.53699512e+03 -1.33927234e+03 2.72650732e+03
      3.60662280e+03 -5.70502567e+00 -9.32325378e+02 3.34207080e+03
      -2.50150928e+03 3.94146167e+03 -8.80784363e+02 1.12693213e+03
      1.41769128e+03 -1.77644141e+03 1.80609705e+03 -1.73671521e+03</_>
    <_>
      5.71697754e+03 -7.07734521e+03 -3.76374609e+03 3.18395898e+03
      1.57352026e+03 1.81334863e+03 8.48702271e+02 -1.88866028e+03
      -8.91355652e+02 -1.59434644e+03 -5.48340942e+02 -2.59055664e+03
      7.86204163e+02 -1.76532861e+03 -9.34697937e+02 -1.06488306e+03
      -1.62577441e+03 -4.71167664e+02 4.34116173e+01 2.29163986e+02</_>
    <_>
      8.98892969e+03 -3.69570752e+03 1.58277002e+03 4.01413257e+03
      6.41306152e+02 4.82730713e+03 3.33073438e+03 -3.66628589e+03
      8.45279724e+02 3.14311743e+03 3.15505469e+03 4.90411316e+02
      3.80531909e+03 5.87232849e+02 1.21905737e+03 6.91560211e+01
      -2.00393372e+03 1.21518274e+03 1.45472427e+02 -8.56381798e+00</_>
    <_>
      4.11732764e+03 -5.21911133e+03 -2.05039453e+03 1.82855359e+03
      -3.53213623e+03 2.30816589e+02 -6.40593719e+01 -2.20197754e+03
      3.52044751e+03 1.81436243e+03 -5.21748108e+02 -8.02520325e+02
      -1.03047046e+03 1.19457471e+03 -2.89578369e+02 -7.35617798e+02
      1.10527905e+03 -1.79412256e+03 7.44045654e+02 1.16055261e+03</_>
    <_>
      -7.65836853e+02 -5.09955762e+03 4.47388379e+03 -6.11190088e+03
      -4.94392212e+02 -1.53491943e+03 -3.35949683e+03 1.48821884e+02
      -1.75120276e+03 1.95191956e+03 -7.32285767e+02 -4.26191467e+02
      1.24785962e+03 -1.37857446e+03 2.46511841e+02 -5.94429138e+02
      1.83124207e+03 2.76540558e+02 -1.19486877e+03 1.45284082e+03</_>
    <_>
      4.05711255e+03 -3.68332593e+03 7.82102832e+03 -2.13069189e+03
      -3.32652246e+03 -1.55992554e+03 -4.35524750e+02 -8.15244995e+02
      -4.41248047e+03 2.38629150e+03 9.84440002e+02 2.26371509e+03
      -8.40641357e+02 -8.08067444e+02 -1.67651392e+03 2.08146875e+03
      1.21883557e+03 -9.04570740e+02 -1.39005933e+03 -1.75223914e+03</_>
    <_>
      3.25310669e+02 -4.68783051e+02 -1.05361548e+03 -4.61670361e+03
      8.00903418e+03 2.13119165e+03 8.99416565e+02 -3.39879272e+03
      2.99887769e+03 -5.45409363e+02 -1.91048499e+03 2.82961743e+03
      -2.26879532e+02 -2.46460669e+03 2.00604065e+02 3.35032562e+02
      -1.36971570e+03 -1.03165442e+03 -1.87643091e+03 -1.06651443e+02</_>
    <_>
      -1.64758923e+03 -3.28249805e+03 4.94462939e+03 -6.05038232e+03
      9.26014282e+02 -1.17455298e+03 -3.55288965e+03 -2.37790381e+03
      -6.29424194e+02 1.59437219e+03 -2.50844727e+02 -9.40643066e+02
      5.89820984e+02 1.54189774e+02 -1.07552197e+03 -1.82879224e+03
      -2.35322250e+02 2.03883957e+02 -5.91318726e+02 -1.24269568e+03</_>
    <_>
      4.40164795e+03 -7.02115674e+03 1.50525989e+03 -9.71044678e+02
      2.59551953e+03 -1.88589844e+02 -3.63373950e+03 -1.10594092e+03
      -8.39425903e+02 -5.80094566e+01 1.94489087e+03 -2.62193115e+02
      2.77121338e+02 -1.12073047e+03 -3.00424530e+02 -1.27271667e+03
      4.98166199e+02 1.84265222e+03 8.62737305e+02 1.54045502e+02</_>
    <_>
      8.06893066e+03 -3.19389038e+03 2.15993066e+03 1.52063086e+03
      3.87939941e+03 4.55480469e+03 -2.39130151e+03 -1.28173425e+03
      -1.36276416e+03 -5.44616992e+03 1.88306348e+03 4.21916211e+03
      3.22027148e+03 -5.36342590e+02 2.09509384e+02 -1.74840027e+03
      5.22048767e+02 -9.29757996e+01 2.99679102e+03 -4.58346558e+02</_>
    <_>
      -5.22865417e+02 5.00632477e+02 -4.49419775e+03 -2.46791821e+03
      9.06814819e+02 -3.42124805e+03 3.00371704e+03 -1.17038342e+03
      -2.03544287e+03 -1.16087061e+03 1.28709314e+03 5.88770752e+02
      1.71335888e+01 -1.31318066e+03 -8.84343933e+02 -2.44110550e+02
      3.64685883e+02 -2.78159180e+03 -4.75398895e+02 5.86005554e+02</_>
    <_>
      -2.68084564e+02 -4.41784863e+03 -2.87625903e+03 -5.09539032e+02
      5.47566101e+02 -2.74095947e+03 -7.00781433e+02 1.34341077e+03
      6.46365662e+02 -9.64361816e+02 1.51253589e+03 -2.62852124e+03
      1.94839624e+03 -1.27936328e+03 -1.65265161e+03 -1.47600549e+03
      -1.03406021e+02 -3.79657898e+02 -3.36391876e+02 -1.85638586e+03</_>
    <_>
      -2.33944189e+03 -5.60320313e+03 1.38614795e+03 -2.23154688e+03
      2.41138379e+03 -2.36624512e+03 -1.09932031e+03 3.22777527e+02
      -2.35469925e+02 4.88005310e+02 -8.42444702e+02 -1.63483765e+03
      4.26103592e+01 -5.49441162e+02 -2.55995117e+03 -6.06919983e+02
      -2.03629468e+03 5.84108093e+02 -4.67872040e+02 -1.20755829e+02</_>
    <_>
      -3.03575684e+03 -1.91345496e+03 2.88533081e+03 3.54811353e+03
      -2.35919971e+03 7.81292786e+02 4.54896484e+02 -6.62301819e+02
      -3.85248413e+02 4.37127319e+02 6.31465576e+02 -1.72464575e+03
      -4.28434235e+02 -1.47284790e+03 -6.64026672e+02 -2.99332886e+02
      1.62748499e+03 3.46429657e+02 -2.91095679e+03 -1.34051440e+03</_>
    <_>
      5.33424463e+03 5.03995654e+03 2.81085693e+03 5.40764746e+03
      5.15304150e+03 -4.86090674e+03 3.33128125e+03 -8.73055054e+02
      -2.11582520e+03 -5.18281250e+02 2.04222253e+03 -4.62598480e+02
      -5.97822144e+02 4.90213165e+02 -4.62401428e+02 4.44224414e+03
      2.67417993e+03 7.42489929e+02 -1.99696274e+01 -5.88305725e+02</_>
    <_>
      6.26550098e+03 5.75932861e+03 6.34594678e+03 4.83625830e+03
      4.74837695e+03 -2.58662866e+03 4.33974121e+03 3.07626294e+03
      -4.45115967e+03 -2.02015588e+03 -1.72086914e+03 2.67023285e+02
      3.37917786e+02 3.45900073e+03 -1.15135095e+03 1.24574084e+03
      2.45162323e+02 5.06292816e+02 -4.04911865e+02 7.18481201e+02</_>
    <_>
      5.31076465e+03 2.51954858e+03 1.64264966e+03 7.70152637e+03
      7.77035840e+03 -2.96997168e+03 1.06969019e+03 -1.59834579e+02
      -2.32406616e+01 9.65412903e+02 3.70757996e+02 -1.87898224e+02
      1.60457910e+03 -2.11319873e+03 -2.88333130e+02 1.84133167e+03
      3.33515259e+02 2.13096146e+02 -1.16067310e+03 1.97068323e+03</_>
    <_>
      8.55903906e+03 -4.49989111e+03 5.26338818e+03 3.77774878e+03
      -5.11174988e+02 2.71070709e+01 2.41754590e+03 -2.31583887e+03
      2.58740082e+02 -9.56850769e+02 4.31863373e+02 4.06486353e+03
      1.98400928e+03 5.43386475e+02 1.14282703e+03 9.21385803e+02
      -1.22729102e+03 2.21034454e+02 6.51071655e+02 -9.73476624e+02</_>
    <_>
      1.04799004e+04 1.06630342e+04 5.61588184e+03 1.87667175e+03
      -6.27261414e+02 -1.43422961e+03 -2.63650317e+03 -1.50362427e+03
      2.01007251e+03 -1.48101855e+03 1.42660559e+03 -2.92471265e+03
      -8.83415710e+02 4.08119385e+02 -5.75585083e+02 1.45065784e+03
      2.52702026e+02 1.66403918e+03 8.84749329e+02 -1.38690735e+02</_>
    <_>
      1.08525957e+04 9.64357422e+03 8.71790625e+03 3.07038110e+03
      -1.53768176e+03 -1.89869727e+03 -2.18820508e+03 -3.53331421e+03
      3.04574512e+03 -5.18596863e+02 -4.28714355e+02 -3.15878101e+03
      -1.16617322e+03 1.03724109e+03 -1.67941956e+03 -8.24758606e+02
      4.29357071e+01 3.01580994e+02 -3.00535069e+01 -4.05886261e+02</_>
    <_>
      5.73894531e+03 8.40796387e+03 6.11788281e+03 -2.16854541e+03
      -7.36269971e+03 -6.04742798e+02 1.96413623e+03 1.06380591e+03
      1.35058081e+03 1.58698279e+03 3.20650269e+02 8.72067139e+02
      7.28662109e+02 2.03896741e+03 -1.73839392e+03 1.03074512e+03
      -1.69688025e+03 2.89073657e+03 1.79665601e+03 9.57228027e+02</_>
    <_>
      1.44857043e+03 3.91824805e+03 -4.75375000e+02 -3.42379468e+03
      1.86068176e+03 -3.67948242e+03 4.81803516e+03 2.44389673e+03
      2.65923853e+03 -3.53057080e+03 1.14820850e+03 2.51980884e+03
      1.27409070e+03 1.67646509e+03 -1.35342297e+03 -2.02809485e+03
      -8.52993225e+02 -3.49274559e+01 -1.51654431e+03 -1.15228357e+03</_>
    <_>
      4.80194629e+03 4.15377588e+03 -2.93895215e+03 -4.36732520e+03
      -3.65060425e+03 -3.02956128e+03 -9.75406921e+02 -6.94791504e+02
      5.92378052e+02 -3.85962158e+03 -1.16241504e+03 2.41394629e+03
      6.86138550e+02 -5.85045898e+02 2.50168945e+03 -2.40220728e+03
      -8.90037109e+02 7.27228943e+02 -2.09831982e+03 -2.62091694e+01</_>
    <_>
      5.14235645e+03 -3.86408545e+03 -3.00916724e+03 -4.80748169e+02
      -3.66684521e+03 2.83623071e+03 5.55870850e+03 -2.43182922e+02
      -4.47112451e+03 3.24558014e+02 3.78009430e+02 -1.66771948e+03
      -8.37981445e+02 -2.03561304e+03 -1.45386401e+03 7.57410217e+02
      6.15932251e+02 -9.71659607e+02 -6.45212830e+02 -1.65337524e+03</_>
    <_>
      5.71836572e+03 -2.69474561e+03 -1.97441516e+03 4.37502594e+02
      -2.31865332e+03 -5.16034058e+02 5.89723242e+03 1.45860382e+02
      -6.98973389e+02 -1.06933960e+03 1.81205530e+03 -1.62822949e+03
      -7.55156067e+02 -1.52352856e+03 -3.86556488e+02 6.29440552e+02
      1.49833484e+03 1.35917578e+03 8.83292908e+02 -2.09096997e+03</_>
    <_>
      4.24021973e+02 6.36769971e+03 -9.29939346e+01 -2.03492065e+03
      -2.46026025e+03 -1.83193176e+03 -2.34939087e+03 7.67300720e+02
      -2.82125366e+02 -1.51703589e+03 3.40527124e+03 -8.33961365e+02
      -1.10672290e+03 -2.05674609e+03 1.06367139e+03 -9.35130157e+01
      3.31131683e+02 -1.68973914e+03 -1.85166675e+03 -1.03119275e+03</_>
    <_>
      1.13937891e+04 5.56645166e+03 -7.69543518e+02 9.72732788e+02
      -8.95156403e+01 -7.47933533e+02 -3.11156250e+03 -2.24989233e+03
      -4.28097461e+03 -9.75631165e+02 -1.26006677e+03 1.79639175e+02
      -8.86842834e+02 2.77027808e+03 -8.64613464e+02 -9.35382446e+02
      -1.75250220e+03 -1.40909515e+02 -2.31494897e+03 2.33079053e+03</_>
    <_>
      8.04320068e+03 3.80055200e+03 -1.42806348e+03 -3.40465918e+03
      -4.35850244e+03 -3.96638086e+03 -1.38018896e+03 -7.10815186e+02
      -1.15845422e+03 -1.20033740e+03 -2.76712329e+03 -5.18326416e+02
      6.67865173e+02 -1.22250137e+02 3.25779053e+03 -3.44185376e+03
      -6.67001831e+02 1.68634607e+03 -2.07427197e+03 1.60159088e+02</_>
    <_>
      6.71387634e+02 7.42952051e+03 2.15859326e+03 -3.08532080e+03
      6.02076988e+01 6.69884570e+03 -8.79618530e+02 5.81116895e+03
      1.17776257e+03 -4.07339404e+03 -2.83107520e+03 -6.99040039e+02
      4.29732910e+03 1.31095337e+02 -1.91641846e+03 3.56681470e+03
      -3.96247589e+02 -1.41853760e+03 3.65570953e+02 7.19641418e+02</_>
    <_>
      -2.61318604e+03 -1.00485352e+03 -3.22559375e+03 7.01091248e+02
      -2.45127295e+03 -9.88630493e+02 1.37890002e+03 -1.09786719e+03
      3.22998718e+02 -4.03259811e+01 -1.13475366e+03 1.12187341e+03
      -4.98279205e+02 7.11611633e+02 -8.53569580e+02 2.72094824e+03
      6.32496826e+02 8.39308716e+02 -3.90448029e+02 -3.38310608e+02</_>
    <_>
      -5.20277344e+02 2.29255835e+03 -5.85277197e+03 3.01741553e+03
      5.89577332e+02 1.63288672e+03 -2.68415063e+03 1.08622937e+03
      4.86894226e+02 -6.06876404e+02 8.03940247e+02 -4.03404755e+02
      -3.40625702e+02 -2.11638403e+03 1.74688147e+03 1.12655725e+03
      6.45566833e+02 1.21728235e+03 2.05610428e+02 -3.01676074e+03</_>
    <_>
      -1.68681412e+02 5.84139697e+03 -2.97670996e+03 -3.65165894e+03
      -4.45875293e+03 2.29232642e+03 -9.65203186e+02 4.22175812e+02
      2.44470239e+03 2.46368701e+03 -1.25434738e+02 6.47538376e+01
      4.41887115e+02 -3.04948657e+03 -1.42856641e+03 2.69727325e+02
      -9.16498657e+02 3.13869434e+03 -9.52152588e+02 6.54863220e+02</_>
    <_>
      2.11049805e+03 -5.70354541e+03 8.20488770e+02 2.48673853e+03
      -2.61590576e+03 7.44851685e+02 8.04565857e+02 3.45054443e+03
      2.61610547e+03 -1.64472839e+03 7.20427124e+02 -8.86091232e+01
      -3.01637061e+03 3.45744263e+02 -2.18636780e+02 6.05705505e+02
      -1.46743689e+03 6.42385681e+02 -1.79985376e+03 -1.13390839e+02</_>
    <_>
      -3.40728101e+03 3.63686084e+03 -2.27240088e+03 -7.91710815e+02
      -2.37495996e+03 -2.11832227e+03 2.50824194e+03 1.51514771e+03
      -1.00679147e+00 2.37333736e+01 3.40923047e+03 6.44797119e+02
      1.41992810e+03 5.63126709e+02 3.21677612e+02 2.31242627e+03
      -1.34294080e+03 -6.95153931e+02 -4.26977844e+01 -1.23921082e+03</_>
    <_>
      1.84578894e+03 2.80393042e+03 -7.07427295e+03 -2.17399463e+03
      -1.54821240e+03 -1.24094678e+03 -4.62365692e+02 -2.57907324e+03
      -1.49581360e+02 2.50972949e+03 1.08681854e+02 3.02963409e+02
      1.02318066e+03 -1.79723181e+03 -2.13600439e+03 2.21784473e+03
      -4.22002899e+02 6.27562744e+02 2.08353369e+03 1.51769287e+03</_>
    <_>
      2.93965454e+03 7.90572693e+02 -6.83500732e+03 -3.51941162e+03
      -1.90059802e+03 -6.56294006e+02 -1.77697522e+03 -4.31021338e+03
      -1.55465906e+03 -1.60763977e+03 -1.48988770e+02 1.83824573e+03
      -1.27838593e+02 -3.51314819e+02 -1.46894897e+03 1.46616602e+03
      1.61502759e+03 1.13008496e+03 6.92598572e+02 6.16347778e+02</_>
    <_>
      2.00901624e+03 -3.67034058e+03 -6.79764404e+02 1.09881641e+03
      -3.35270264e+03 -9.67530945e+02 -7.76590088e+02 2.19590771e+03
      4.28597705e+03 6.26963623e+02 -1.59619043e+03 3.21427368e+03
      -1.77326733e+03 3.57567041e+03 -7.84799194e+02 2.18924707e+03
      1.09831494e+03 -1.26934802e+03 6.01714821e+01 -1.50764771e+03</_>
    <_>
      -1.87405139e+03 -2.53534497e+03 -1.48089490e+03 1.72963037e+03
      -2.94032684e+02 -2.79055908e+03 -9.14734497e+02 2.28376904e+03
      3.72904272e+03 1.69477676e+02 3.88111145e+02 -5.72171822e+01
      -1.07962524e+02 -1.24093994e+03 -4.86878723e+02 -1.45371490e+02
      -2.01933154e+03 -2.06584668e+03 -1.29696545e+03 -1.60792389e+02</_>
    <_>
      -6.11670959e+02 -5.63340674e+03 5.88974268e+03 -4.08922632e+03
      -4.49163147e+02 2.84043823e+02 -2.25858228e+03 -5.49136963e+02
      -1.65842175e+03 2.12114917e+03 9.27394958e+02 -4.52853851e+02
      1.20960121e+02 -1.43800830e+03 -1.20421277e+03 3.64158020e+02
      -8.37019226e+02 1.19936682e+03 -7.72229614e+02 3.65493378e+02</_>
    <_>
      5.91928418e+03 -6.43349316e+03 -4.94279150e+03 2.44818311e+03
      1.57129883e+03 1.89388757e+03 1.74513232e+03 -2.47581787e+03
      -1.04707629e+03 -1.47480347e+03 -1.22215759e+03 -2.17091602e+03
      1.05567529e+03 -1.20478699e+03 -9.82462585e+02 -3.89552124e+02
      -1.02062604e+03 -4.99089722e+02 1.80180740e+02 -6.11926697e+02</_>
    <_>
      7.29381653e+02 2.99745850e+03 -6.24194189e+03 -2.04946997e+03
      -3.59764258e+03 -1.41580640e+03 -5.08110321e+02 -1.12253955e+03
      -2.34848413e+03 1.39918472e+02 1.47131714e+03 1.52230811e+03
      -2.91887573e+02 -2.93332031e+02 5.95304932e+02 1.85522925e+03
      -1.10932971e+03 5.54470398e+02 -4.48983826e+02 -1.06043567e+03</_>
    <_>
      1.00768451e+03 2.86070142e+03 -7.64429102e+03 -1.14373962e+02
      -1.82228308e+03 -9.15887146e+02 -8.76290283e+01 -2.20037491e+02
      9.33594666e+02 4.18690460e+02 -4.65245972e+02 6.83705444e+02
      2.23071265e+03 -1.16143640e+03 -1.30151538e+03 2.59435181e+03
      1.63950244e+03 1.18129883e+03 1.24636314e+02 -2.00672165e+02</_>
    <_>
      8.51882324e+03 -4.82981787e+03 9.29388977e+02 3.87155151e+03
      -2.85986543e+00 4.33401855e+03 3.51963452e+03 -2.64875488e+03
      1.40676111e+03 2.69073608e+03 3.09848779e+03 6.73409363e+02
      2.13173267e+03 4.19515228e+02 9.03746765e+02 2.45402176e+02
      -1.87884094e+03 1.62615222e+03 -7.69364807e+02 3.52210815e+02</_>
    <_>
      4.71466064e+03 4.67457581e+02 -6.39814160e+03 2.01875977e+02
      3.13393823e+03 -7.70745300e+02 6.87317627e+02 -1.79632950e+02
      -1.33239914e+02 2.07903540e+03 -2.64178491e+03 1.69574768e+02
      -1.23706189e+03 -1.66262695e+03 6.87791595e+01 4.94561157e+02
      -5.24474243e+02 -1.79226782e+03 2.20224167e+02 -2.93532043e+02</_>
    <_>
      3.00819727e+03 5.04344043e+03 -3.97851294e+03 -1.35516833e+03
      -1.16755653e+02 -3.27394434e+03 7.64136658e+02 9.32288757e+02
      -1.73683350e+03 -1.20093170e+02 1.76202869e+03 2.48225983e+02
      -4.74340973e+02 6.70085449e+02 2.66346802e+03 4.65142029e+02
      -3.61894263e+03 5.04220581e+02 1.70405981e+03 -1.27973608e+03</_>
    <_>
      -3.48718970e+03 3.12475830e+03 1.99780872e+03 -4.76849072e+03
      1.02424902e+03 3.27874365e+03 2.81815234e+03 -7.85724548e+02
      -1.22423901e+03 2.09929639e+03 3.28434204e+03 3.30379730e+02
      -2.74761133e+03 1.29710974e+03 -3.14420410e+02 -7.27054993e+02
      5.93260132e+02 -2.05437402e+03 8.91164978e+02 2.68967065e+03</_>
    <_>
      1.62901746e+03 3.02248022e+03 -7.95793359e+03 -3.06261328e+03
      -1.20970190e+03 -2.12233423e+03 6.25784119e+02 -1.82444751e+03
      4.44806000e+02 9.84629517e+02 -9.48816589e+02 1.45641223e+03
      1.07387720e+03 -1.39130444e+03 -1.98338953e+03 2.37899512e+03
      1.89385269e+02 2.44689917e+03 7.78895996e+02 1.13092834e+03</_>
    <_>
      2.70667969e+03 -5.17644482e+03 -2.52443799e+03 7.71875732e+02
      -3.33452686e+03 -4.83818293e+00 5.30198547e+02 -1.99028113e+03
      3.31109570e+03 2.05495410e+03 -1.11356567e+03 -7.52426758e+02
      -2.63380188e+02 1.27309399e+03 -9.00065491e+02 3.71270538e+02
      1.74916113e+03 -5.24250610e+02 -1.15215355e+02 1.64926636e+03</_>
    <_>
      4.55483496e+03 -2.91281787e+03 -3.71310571e+03 2.58220532e+03
      -2.33987524e+03 -1.21309412e+03 -1.23743274e+03 1.72559985e+03
      4.49967529e+03 1.71424316e+03 -1.75872058e+03 -3.11561218e+02
      2.50753027e+03 7.60992798e+02 -1.63838482e+01 -1.21671684e+02
      4.98412842e+02 2.20606065e+00 -5.12507935e+02 4.47023468e+02</_>
    <_>
      2.08851587e+03 -4.55549121e+03 -3.66183643e+03 2.15869336e+03
      1.22707471e+03 2.25089697e+03 -2.38206665e+03 -1.48599133e+03
      -1.78904297e+03 -2.72442798e+03 -1.57553308e+03 -2.33060364e+02
      8.56775024e+02 2.40788721e+03 -4.39610657e+02 1.26119983e+03
      -1.02248352e+03 -6.32919312e+02 -2.04418506e+03 -6.78845215e+02</_>
    <_>
      -9.44909241e+02 -5.06616797e+03 -2.54680518e+03 -6.01037415e+02
      -5.67140381e+02 -2.82642065e+03 2.55597363e+03 1.39753271e+03
      5.64084778e+02 -1.96182959e+03 -3.00362061e+02 -2.86943774e+03
      -8.55791855e+01 -1.17152087e+03 -1.64723584e+03 8.71202332e+02
      -1.11358765e+03 2.39932709e+02 -8.54347290e+02 -5.63756485e+01</_>
    <_>
      5.85656152e+03 -2.83112256e+03 -2.92036084e+03 3.09204785e+03
      1.26805005e+03 3.07383130e+03 2.31998877e+03 3.83734204e+03
      8.61010437e+02 -4.61945099e+02 5.55540527e+02 1.08881836e+03
      -9.72310364e+02 4.69750031e+02 7.91629089e+02 -9.56584229e+02
      -5.33218079e+02 1.70345020e+03 -2.87849146e+03 -1.88002966e+03</_>
    <_>
      6.54593750e+03 -5.30632373e+03 -1.18242102e+03 4.88700391e+03
      2.15164642e+02 1.92788464e+03 -1.26609937e+03 1.42079358e+03
      -2.28180688e+03 -1.63486500e+01 8.78952026e+02 -3.98356659e+02
      1.36044238e+03 -9.21592834e+02 1.14298779e+03 -8.10610718e+02
      -1.20430542e+03 -2.26075781e+03 -1.49788147e+03 -3.31573303e+02</_>
    <_>
      -1.76808398e+03 -5.13038770e+03 8.06047119e+03 -5.36793506e+03
      -1.25550757e+03 -8.80692688e+02 5.63254150e+02 -1.60558691e+03
      -5.14710754e+02 2.83439551e+03 -1.12838326e+02 -1.83102429e+03
      9.60321045e+02 -1.56389539e+03 -3.99028137e+02 -1.95572510e+03
      1.58926428e+03 -8.46263000e+02 -1.26247375e+03 1.06231848e+03</_>
    <_>
      4.48123145e+03 -5.65427588e+03 8.63090137e+03 -2.61046045e+03
      -4.24426904e+03 -7.10160034e+02 -3.72560791e+02 1.13819324e+03
      -4.15125830e+03 1.27575452e+03 2.78244897e+03 2.58782886e+03
      4.20880005e+02 -2.10924609e+03 -2.16410962e+03 1.12052588e+03
      2.29314014e+03 2.53042694e+02 -5.55504395e+02 9.03267761e+02</_>
    <_>
      2.23897241e+03 3.58662500e+03 1.00464764e+03 -3.02604004e+03
      8.26919238e+03 -6.55789246e+02 -1.21000342e+03 6.53244019e+02
      1.16429468e+03 5.98487793e+03 -4.79466455e+03 1.86312720e+03
      4.33864044e+02 -1.97254980e+03 1.34335510e+03 8.30592957e+02
      -1.93335034e+03 -2.42831519e+03 -7.01700684e+02 5.59217041e+02</_>
    <_>
      -1.01158258e+03 -5.52364893e+03 6.32303125e+03 -3.17427856e+03
      -1.06375745e+03 -5.30268738e+02 -2.91658105e+03 4.12077789e+02
      -2.28465186e+03 -2.14531372e+03 7.27085144e+02 2.07992969e+03
      -2.39491016e+03 -3.69305664e+03 -1.66859717e+03 -2.65910797e+02
      -7.32045593e+02 -5.54289551e+02 2.42515228e+02 -8.73195068e+02</_>
    <_>
      3.68254492e+03 -4.46840137e+03 8.33352539e+03 -2.41572339e+03
      -2.96047192e+03 -2.07939453e+03 -1.02896484e+03 -1.00526831e+03
      -3.68129688e+03 1.22396765e+03 1.74853870e+03 3.36392163e+03
      -1.22654639e+03 -1.65182935e+03 -3.05712280e+03 2.02314063e+03
      8.95440247e+02 -7.39972046e+02 -8.91029602e+02 -3.72169312e+02</_>
    <_>
      1.00758875e+03 -5.59496875e+03 -8.74334412e+02 2.18031470e+03
      -2.16661328e+03 -3.35876892e+02 -3.04320038e+02 2.87458643e+03
      2.50617529e+03 -1.60257275e+03 -2.70842255e+02 2.45110428e+02
      -1.41111743e+03 -7.12379211e+02 2.86004578e+02 1.19794983e+03
      -1.01123608e+03 6.88452072e+01 -1.23267480e+03 2.19046677e+02</_>
    <_>
      1.29543555e+03 2.49502029e+02 1.99651245e+03 -5.41472070e+03
      7.24307373e+02 2.79064624e+03 4.31271332e+02 -3.99812793e+03
      1.23357397e+03 2.25702124e+03 -2.41989990e+03 4.84627380e+01
      -1.23419142e+01 1.39019250e+03 4.64910107e+03 2.05217700e+03
      1.64568091e+03 1.78966663e+03 1.49555554e+03 -1.46417639e+03</_>
    <_>
      -5.82830688e+02 -1.80553027e+03 2.62900757e+03 -6.29566992e+03
      7.11539209e+03 4.37612396e+02 3.90880432e+02 -1.51382153e+03
      2.26783325e+03 -6.81516724e+02 -9.41839233e+02 -5.25957718e+01
      8.98722458e+01 -1.23051575e+03 -3.75784363e+02 -1.17021973e+03
      8.00536865e+02 1.14525281e+03 -5.26772766e+02 -5.28246338e+02</_>
    <_>
      -4.98081836e+03 -9.10361938e+02 8.65186279e+02 -3.45555469e+03
      3.23094263e+03 1.07745471e+03 9.94110046e+02 -3.83465039e+03
      5.00139404e+02 -4.48113312e+02 2.09244214e+03 -8.83074646e+02
      4.30422943e+02 5.01356049e+02 -2.10828345e+03 -1.67969263e+03
      -2.04177124e+03 -1.82104102e+03 -9.79399490e+01 -3.37686523e+02</_>
    <_>
      -3.64479370e+03 -2.64208325e+03 -3.89916901e+02 -1.39341943e+03
      1.34481885e+03 -2.16486206e+03 -1.69784192e+03 3.68721899e+03
      -1.17914185e+03 7.32814392e+02 2.04517993e+03 -1.21877820e+03
      2.31165771e+03 5.33480164e+02 -1.38597961e+03 -4.98270477e+02
      -1.07744275e+03 -5.43069641e+02 -7.52218811e+02 -1.37596411e+03</_>
    <_>
      -1.91223083e+03 -2.10027710e+03 3.12094629e+03 -6.57569238e+03
      1.63641235e+03 1.21497217e+03 1.41717041e+02 -2.11808179e+03
      -2.25428198e+03 2.65442334e+03 1.03345166e+03 -1.48031360e+03
      1.08390125e+03 1.74810925e+03 -4.53557739e+02 -9.93637634e+02
      -1.01076868e+03 1.15020959e+03 2.06334671e+02 -2.94527148e+03</_>
    <_>
      4.21071875e+03 -2.49355103e+03 5.52182422e+03 -3.01845703e+03
      3.11500397e+02 1.50289575e+03 -2.41446265e+03 4.94395410e+03
      -5.38399414e+03 2.49555957e+03 1.05723706e+03 4.09858594e+03
      6.73025696e+02 -1.20076282e+03 -3.10233081e+03 -1.33901453e+03
      2.61615381e+03 -2.17767014e+02 -1.88748633e+03 1.84050464e+03</_>
    <_>
      -4.46784576e+02 -2.54869507e+03 6.72930762e+03 -6.57141992e+03
      7.96937439e+02 -4.80638947e+02 -1.27510291e+03 -1.58823291e+03
      -4.60036713e+02 3.49920557e+03 -6.76169617e+02 4.82283707e+01
      3.51139832e+02 -6.61441467e+02 1.61702484e+02 -1.00820435e+03
      1.29935925e+03 4.30004547e+02 9.03157776e+02 -1.02484216e+03</_>
    <_>
      -3.40513770e+03 -2.61162646e+03 4.77267871e+03 -5.02727295e+03
      4.98315369e+02 6.41726563e+02 -1.84250256e+03 -2.81277710e+03
      -1.94859360e+02 1.90512805e+03 1.31909961e+03 -1.31843140e+03
      1.43949988e+03 -1.59492493e+02 -1.59627954e+03 -1.95628491e+03
      -4.11179840e+02 -7.83643494e+02 -3.55213379e+02 -1.32355725e+03</_>
    <_>
      -2.95430151e+03 -2.41655884e+03 4.30133447e+03 -4.05729321e+03
      1.38581128e+03 -1.03048450e+03 -2.26337671e+03 9.90659363e+02
      -1.39055566e+03 2.88765796e+03 6.35336670e+02 -1.43077344e+03
      2.15328223e+03 -7.39986450e+02 -1.18981909e+03 -2.81949976e+03
      -1.10172290e+03 -7.02410950e+02 1.02634241e+03 -1.75393347e+03</_>
    <_>
      -3.93664746e+03 2.72830029e+03 -7.69217468e+02 -2.94789136e+03
      1.45431592e+03 -2.02782019e+03 3.71088940e+03 6.73855286e+02
      8.88270752e+02 -1.51078003e+03 1.85726917e+03 2.50560278e+03
      1.22759631e+03 -1.57189209e+02 6.49117065e+02 2.02541245e+02
      -2.65484100e+02 -1.05206238e+03 -1.97697708e+02 -1.48026147e+03</_>
    <_>
      -2.94229431e+02 -5.67235889e+03 3.64492212e+03 -1.68642908e+03
      2.01099805e+03 -1.54260864e+03 -1.81908508e+03 1.83408435e+03
      1.03625732e+03 -1.17963123e+03 1.62434586e+02 9.31104431e+02
      -8.94204041e+02 -2.45581592e+03 -5.43806763e+01 -1.62631628e+03
      4.98737610e+02 1.23074658e+03 1.25988953e+03 5.18724823e+01</_>
    <_>
      -2.09097925e+03 -4.49693115e+03 2.88260791e+03 -6.21519623e+01
      -2.47496631e+03 -1.43570190e+03 -4.68340240e+02 2.45040625e+03
      7.45920532e+02 -1.14707764e+03 -1.57889368e+03 -3.42269165e+02
      -9.32427063e+02 -1.35803662e+03 3.74114166e+02 -5.02217896e+02
      -1.42688586e+03 -4.68567566e+02 -1.60625537e+03 -9.46755188e+02</_>
    <_>
      -5.05766309e+03 -4.56058936e+03 2.74060132e+03 -1.92362878e+03
      -7.62516113e+02 -1.75037585e+03 4.15473999e+02 5.37812744e+02
      1.08043494e+03 -1.71618298e+03 -4.96076324e+02 -1.56058081e+03
      1.09792212e+03 -5.55268250e+02 -9.04469910e+02 -8.89423096e+02
      -1.53355652e+03 3.18679016e+02 -2.85565521e+02 -1.69721155e+03</_>
    <_>
      -2.07223221e+02 -4.90711523e+03 2.90729126e+03 -8.97131287e+02
      -1.35007416e+02 -1.16088733e+03 -1.32773511e+03 2.61522510e+03
      1.33557776e+03 -2.41181689e+03 2.42255664e+03 4.18871765e+02
      -7.93395813e+02 -2.89698267e+03 -1.21000916e+03 -1.38876453e+03
      -5.80555420e+02 1.51822006e+02 1.32385901e+03 -4.12272797e+02</_>
    <_>
      6.01561426e+03 -5.54885156e+03 2.53617676e+03 3.78112335e+01
      4.25617236e+03 3.78581372e+03 -2.40124414e+03 -3.40251953e+02
      -1.28565234e+03 -3.15839844e+03 1.03951306e+03 4.71823438e+03
      2.15713965e+03 -2.10538403e+03 -2.02092273e+03 -2.01556726e+03
      9.10758118e+02 2.30437964e+03 2.04983813e+03 1.36082031e+03</_>
    <_>
      -5.25704468e+02 2.30556567e+03 -4.29605322e+03 -3.07924438e+03
      -5.05492859e+02 -3.78275977e+03 3.61283691e+03 -9.62539734e+02
      -1.17396069e+03 -1.14802905e+03 1.51867993e+03 1.61874792e+03
      -1.77786346e+02 -1.87396729e+03 -4.58821930e+02 1.03638260e+02
      -3.47890396e+01 -2.24182349e+03 -2.88264771e+02 -2.39147232e+02</_>
    <_>
      1.81232690e+03 -1.77892444e+03 -5.96881104e+03 -6.44252075e+02
      -3.32501953e+03 -8.60523376e+02 1.30429834e+03 -2.34320898e+03
      6.56677246e+02 -4.54338593e+02 -1.42535291e+03 -9.86910889e+02
      6.09704346e+02 -1.09067574e+02 -2.06531689e+03 1.92182556e+03
      2.24826660e+03 2.21552353e+02 5.16006104e+02 5.46477234e+02</_>
    <_>
      6.01580518e+03 -5.38722705e+03 -1.95055005e+03 3.35709375e+03
      -1.05153389e+02 4.49258496e+03 3.00828418e+03 -1.55430090e+03
      1.32657007e+03 1.74272293e+02 2.66827173e+03 -6.82381165e+02
      1.41290613e+03 9.30451233e+02 1.13739880e+03 -4.35904602e+02
      -9.36478516e+02 1.35338525e+03 -2.72063818e+03 5.86921997e+02</_>
    <_>
      4.24067480e+03 -6.36949414e+03 -1.89172668e+03 2.00324841e+03
      -1.35919751e+03 -1.58716135e+01 2.17843457e+03 7.10964050e+02
      2.63041675e+03 -3.17156715e+01 -5.59726746e+02 -7.87795044e+02
      -1.40371082e+03 3.84167450e+02 -1.21704498e+02 -5.48980164e+02
      -3.75624359e+02 -1.96228622e+02 -1.94561072e+03 1.65944626e+02</_>
    <_>
      5.06433398e+03 -5.86550879e+03 -2.19855469e+03 2.84465381e+03
      -8.70197083e+02 -1.54490796e+03 -4.71299210e+01 2.61590424e+02
      5.05895459e+03 6.91070251e+02 -1.25907690e+03 2.80354565e+03
      -7.73112366e+02 1.83394592e+03 2.23743469e+02 -1.00263000e+02
      -8.19799316e+02 7.75327942e+02 -2.27949487e+03 9.18071823e+01</_>
    <_>
      -5.60980420e+03 -1.15421997e+03 -3.38477722e+02 -2.14469263e+03
      1.11982288e+03 -1.65371704e+03 9.36490234e+02 1.02720093e+03
      -1.69407349e+02 5.59091064e+02 1.96515515e+03 -7.79916687e+02
      1.14556726e+03 -1.39001083e+02 -7.58891113e+02 1.33481262e+02
      -1.30042480e+03 -1.18392554e+03 -1.65761673e+02 -3.02061572e+03</_>
    <_>
      -1.45842163e+03 -4.17531494e+03 -2.43500903e+03 -9.68422546e+02
      3.33126251e+02 -3.10942944e+03 4.86246246e+02 1.49313354e+03
      8.45544556e+02 -9.34314453e+02 1.17402600e+03 -1.73036377e+03
      1.63140588e+03 -8.37540588e+02 -1.99322961e+03 -7.78886230e+02
      -3.52021332e+02 -4.85982422e+02 -5.64363281e+02 -2.24151245e+03</_>
    <_>
      6.44926660e+03 -1.03809921e+02 -5.75929053e+03 -1.73295383e+01
      3.06575024e+03 3.19680542e+03 2.06040674e+03 -9.89175415e+01
      -4.31325537e+03 1.78337134e+03 -3.08013916e+03 -1.51814575e+03
      -7.55121033e+02 -4.56221222e+02 -6.75211548e+02 2.25147812e+02
      -2.43026514e+03 -6.56592712e+02 -1.35734375e+03 5.89611435e+01</_>
    <_>
      -3.28739697e+03 -1.67944495e+03 1.33395044e+03 -3.91986963e+03
      3.61870239e+03 -2.70698389e+03 2.90806519e+02 1.26029590e+03
      -8.62183228e+01 -1.51133316e+02 1.19242151e+03 -6.84115540e+02
      2.14045044e+03 4.77346588e+02 -1.47571716e+03 -1.56289026e+03
      6.09910645e+02 -1.08404944e+03 2.25438446e+02 -1.20990662e+03</_>
    <_>
      -6.00618530e+02 -1.82544421e+03 4.64258008e+03 -6.17498360e+01
      -4.44984814e+03 1.54963086e+03 2.90426343e+03 -2.27657251e+03
      1.49053284e+03 -2.20107739e+03 -1.72235254e+03 -2.20916580e+02
      -1.54161450e+03 -3.86282104e+02 3.46866577e+02 5.47725769e+02
      -1.10859570e+03 -1.18528162e+03 -9.33788513e+02 -2.71123975e+03</_>
    <_>
      1.25216003e+03 -4.24884277e+02 -5.16729590e+03 -3.29997803e+03
      5.56334375e+03 8.05652466e+02 -2.08816650e+02 -2.40879517e+03
      -1.45266260e+03 -2.74352100e+03 1.53460205e+03 -1.59206372e+03
      -1.41171906e+02 9.73720337e+02 -6.32073364e+02 5.88204117e+01
      9.50001770e+02 -8.54004395e+02 -9.69767944e+02 -3.30370300e+02</_>
    <_>
      4.51699365e+03 -2.12172852e+03 -2.86469458e+03 2.45514014e+03
      -2.68398438e+02 1.44789941e+03 1.72979260e+03 6.02851172e+03
      -1.72078381e+03 1.00785291e+03 -2.58181470e+03 3.47831879e+02
      3.75375700e+00 -7.35460022e+02 2.60871399e+02 2.25902405e+02
      -8.29212097e+02 1.85630615e+03 -3.64526465e+03 -1.37318835e+03</_>
    <_>
      -3.37872437e+03 -4.59751270e+03 -3.41495850e+02 -2.14834912e+03
      2.38839844e+03 -2.76842163e+03 5.92685120e+02 3.43894409e+02
      3.24841095e+02 1.95793945e+02 -2.51694504e+02 -1.88365515e+03
      4.27576080e+02 -8.67989685e+02 -2.62139087e+03 -3.36835594e+01
      -2.06427490e+03 -1.77760086e+02 -1.68811508e+02 -1.06649011e+03</_>
    <_>
      1.11106855e+04 9.49048242e+03 8.11684619e+03 3.48625244e+03
      -1.14152295e+03 -2.15254419e+03 -2.87945361e+03 -3.84041382e+03
      2.82905200e+03 3.60198639e+02 -2.57653351e+02 -3.02268555e+03
      -8.26600159e+02 1.91192078e+02 -2.95716187e+03 -5.08902344e+02
      -1.81142627e+03 -1.81163318e+03 -3.44254944e+02 -6.26221191e+02</_>
    <_>
      7.41634619e+03 8.25517090e+03 4.97804590e+03 -1.81613684e+03
      -7.30137891e+03 -1.04193665e+03 1.02385422e+02 4.56296997e+02
      8.36292358e+02 3.35281299e+03 8.75303589e+02 1.48293933e+03
      2.68135547e+03 -1.96017059e+02 -1.68416919e+03 5.98479797e+02
      -2.20497046e+03 2.31738550e+03 7.58317871e+02 9.80677307e+02</_>
    <_>
      2.82144385e+03 3.56236206e+03 -1.94400049e+03 -3.09933130e+03
      1.35994568e+03 -3.68428906e+03 4.93973682e+03 2.87507837e+03
      2.16303467e+03 -3.61798560e+03 5.37400024e+02 2.16239551e+03
      1.91686633e+03 1.95312427e+03 -1.29344189e+03 -1.84089966e+03
      -2.94087646e+02 1.34362512e+03 -1.30706360e+03 4.84829224e+02</_>
    <_>
      1.16732666e+04 6.17714014e+03 -4.44701385e+02 1.14938367e+03
      6.90531311e+01 -7.17725403e+02 -3.06167188e+03 -1.55428491e+03
      -5.05094336e+03 3.41716522e+02 -1.15860107e+03 -7.59786224e+01
      -5.96159973e+02 3.42518115e+03 -9.94779724e+02 -2.86298047e+03
      -2.08959824e+02 -3.78300209e+01 -1.12621289e+03 2.65780005e+03</_>
    <_>
      2.77614941e+03 -7.66005310e+02 -9.71766418e+02 -3.41594385e+03
      -4.99553320e+03 -1.60930649e+02 5.22316504e+03 1.42816797e+03
      -2.40252173e+03 -1.01765112e+03 -2.61407520e+03 -1.41522986e+03
      -1.05043176e+03 -2.92864990e+03 1.21946936e+03 -1.07512207e+03
      -1.02360907e+03 -5.02313019e+02 3.08342871e+03 3.83430664e+02</_>
    <_>
      4.45220001e+02 -6.03481787e+03 1.80507312e+03 5.08036163e+02
      -1.39700830e+03 -8.63961487e+02 -1.68683252e+03 2.97889258e+03
      1.27274048e+02 -1.03615222e+03 2.85756006e+03 -2.01466663e+03
      1.58438797e+02 -2.30353198e+03 8.04504776e+01 3.58484268e+01
      -1.27462939e+03 4.85352875e+02 8.77930237e+02 2.40690454e+03</_>
    <_>
      8.92963745e+02 4.33181348e+03 -5.72722070e+03 -2.30301587e+03
      -3.83495581e+03 -1.24096716e+03 -1.35078064e+03 -6.00969849e+02
      -2.55012231e+03 5.17861694e+02 2.43829590e+03 1.43063525e+03
      -8.38882507e+02 -4.35818481e+02 6.18768494e+02 4.57756042e+02
      -1.21644751e+03 -4.13107361e+02 -5.67833740e+02 -1.20977991e+03</_>
    <_>
      -3.72164526e+03 3.91935059e+03 1.77006250e+03 -3.83039746e+03
      8.82231445e+02 3.29350195e+03 2.58192871e+03 -2.81223358e+02
      -1.46295593e+03 1.42991064e+03 3.28933911e+03 1.84928772e+02
      -3.57230054e+03 1.58072852e+03 4.89719200e+01 -6.34940430e+02
      8.70045105e+02 -1.56975049e+03 4.76550781e+02 2.71838208e+03</_>
    <_>
      -5.65602881e+03 -4.33286621e+03 -1.64944580e+02 -1.83451819e+03
      -1.22009094e+03 -3.09441919e+03 3.43990570e+02 1.42732434e+03
      -1.98937146e+03 1.37629419e+03 -1.00006238e+03 -8.75294312e+02
      1.82899933e+02 -2.34428650e+02 2.29845728e+03 1.69229294e+02
      -1.22683545e+03 -2.28575024e+03 2.92801147e+02 1.28983618e+03</_>
    <_>
      -4.89350977e+03 2.40355859e+03 4.79732758e+02 4.27379272e+02
      2.64959790e+03 -7.10076965e+02 -1.46477066e+02 8.27579651e+02
      -1.49044751e+03 5.41361267e+02 3.37665918e+03 -1.56910876e+03
      1.63639087e+03 9.49452393e+02 1.24986389e+03 -1.39924255e+03
      3.02356293e+02 -2.40945874e+03 -3.89944191e+01 1.72369080e+03</_>
    <_>
      1.31469092e+03 -5.49661194e+02 3.74821191e+03 -6.09299609e+03
      1.52330103e+03 1.81977026e+03 -1.07868921e+03 -2.75023608e+03
      -3.32764069e+02 1.36581165e+03 -2.21750586e+03 -6.32623596e+02
      -1.83621521e+02 -1.40697775e+01 4.83415527e+03 2.84580151e+03
      1.15755688e+03 1.80867053e+03 1.64414880e+03 -1.34048987e+03</_>
    <_>
      -5.12241992e+03 -6.06059021e+02 8.50124573e+02 -2.11705664e+03
      2.84099438e+03 1.17879219e+02 8.25424377e+02 -3.11802344e+03
      7.27111633e+02 -1.21247546e+03 8.63118347e+02 -1.24952979e+03
      8.01190369e+02 1.39415381e+03 -1.16268921e+03 -1.35354370e+03
      -2.01454285e+03 -9.94373840e+02 1.99362030e+01 1.28561951e+02</_>
    <_>
      -4.42736377e+03 -1.24595508e+03 1.61939880e+03 -6.12926941e+02
      8.67095764e+02 -1.93083594e+03 -7.05963684e+02 3.07803101e+03
      -4.24359344e+02 3.51263062e+02 4.32560089e+02 -2.61046777e+03
      1.74524634e+03 5.62313049e+02 8.60099243e+02 -8.13382996e+02
      -1.74293542e+03 -3.51509003e+02 1.30882898e+03 -7.23169434e+02</_>
    <_>
      1.65180222e+02 1.88622363e+03 -4.61905127e+03 -2.03823059e+03
      3.73084688e+00 -3.05302563e+03 2.64803809e+03 1.26550256e+03
      1.28749158e+03 -3.84398689e+01 -4.73475800e+02 3.39189893e+03
      2.86127173e+03 4.60403473e+02 1.18138330e+03 4.88499542e+02
      1.10972815e+03 5.08596558e+02 -2.01456741e+02 7.09783691e+02</_>
    <_>
      -1.69501489e+03 -3.61882397e+03 2.33825195e+03 -2.05338623e+03
      3.24263550e+02 -1.51067419e+03 -5.09114551e+03 8.93922913e+02
      -1.80714453e+03 -5.51355713e+02 1.35619177e+03 -1.98632886e+03
      -1.76929810e+02 -1.19615913e+02 5.51202583e+01 1.13328354e+02
      -1.32951416e+03 -4.25494843e+02 8.91256226e+02 8.31524597e+02</_>
    <_>
      -1.08350635e+03 -6.37546631e+03 3.72459009e+03 -1.92952527e+03
      -2.11086304e+03 -2.00959973e+03 -1.35359387e+03 1.77371619e+03
      1.05552673e+03 -2.15507813e+03 -1.02298987e+03 -1.50722397e+02
      -1.57257434e+03 -6.89227051e+02 -6.44871094e+02 -2.12692871e+01
      -1.11557129e+03 3.43940216e+02 1.55695911e+03 1.23926697e+02</_>
    <_>
      1.16529793e+02 1.97732544e+03 -4.49502930e+03 -3.02316040e+03
      -7.99394531e+02 -4.06202783e+03 3.62123975e+03 -9.14257568e+02
      -2.03839526e+03 -1.41021838e+03 4.68633209e+02 1.22033569e+03
      -4.92293854e+01 -1.00884552e+03 -4.72878784e+02 -4.12922577e+02
      1.02228638e+03 -1.66802173e+03 -8.38619919e+01 1.39504126e+03</_>
    <_>
      5.71246387e+03 -5.44955273e+03 -3.61405249e+03 2.84503687e+03
      -9.61873108e+02 -1.27966724e+03 -3.42939728e+02 2.29226410e+02
      4.62787549e+03 2.30169409e+03 -1.28179944e+03 2.09576392e+03
      -6.62691223e+02 1.78232446e+03 -5.37518158e+01 -1.29370166e+03
      4.51007416e+02 -7.79456665e+02 -9.57716431e+02 -1.28356857e+02</_>
    <_>
      -4.71239307e+03 7.50799500e+02 -3.17704053e+03 -4.07773285e+02
      -3.69246338e+02 -2.22260742e+03 1.33796069e+03 5.54219177e+02
      -3.01281242e+01 9.88929382e+02 1.16980420e+03 2.01591034e+02
      6.62233276e+02 3.06722992e+02 -3.14938995e+02 1.77649719e+02
      -7.67501526e+02 -3.83531891e+02 -2.66424164e+02 -9.59476563e+02</_>
    <_>
      -1.27615747e+03 -3.47382544e+03 -3.37373828e+03 -5.16099182e+02
      1.99116318e+02 -3.08434106e+03 2.62402557e+02 1.58301892e+03
      7.12901550e+02 -1.14285974e+03 1.02763989e+03 -2.40719824e+03
      1.91484106e+03 3.56655579e+02 -8.86797852e+02 -6.35742737e+02
      6.34062317e+02 -9.34562802e-01 5.34573853e+02 -1.10953918e+03</_>
    <_>
      1.26798108e+03 -3.12047241e+02 -5.38511963e+03 -3.22646753e+03
      5.00413086e+03 8.71199646e+02 -1.07627487e+02 -2.11265234e+03
      -1.63749329e+03 -2.56816650e+03 1.13225574e+03 -1.72480115e+03
      -4.85985474e+02 1.72575549e+03 -1.65715349e+00 2.18232910e+02
      8.64679626e+02 -5.75690613e+02 -1.17591321e+03 6.72008057e+01</_>
    <_>
      4.08864600e+03 -1.25890100e+03 -3.71384570e+03 2.68736792e+03
      -1.82661148e+02 4.53681458e+02 7.63789001e+02 6.24517285e+03
      -3.15945239e+03 2.94770288e+03 -2.77703003e+03 -8.25455200e+02
      -4.54736938e+02 -7.01674805e+01 4.05818520e+01 -2.09142651e+03
      -6.05895157e+01 5.43938538e+02 -6.51455139e+02 -1.36329456e+03</_>
    <_>
      -2.92750464e+03 -4.20153076e+03 -1.72992432e+03 -1.93260242e+03
      2.46604761e+03 -2.45289136e+03 2.57512543e+02 -2.90658035e+01
      -2.22627640e+02 9.41820145e+01 -3.62017975e+02 -2.29168188e+03
      -8.98057098e+01 4.37952393e+02 -2.01219690e+03 4.26153534e+02
      -2.00214172e+03 2.56081329e+02 7.17157166e+02 8.91747925e+02</_>
    <_>
      -3.24025781e+03 -1.90296228e+03 3.99425415e+03 4.27853369e+03
      -2.74559912e+03 1.07894934e+03 -4.24870796e+01 -2.69529476e+01
      -1.10450159e+03 9.94346802e+02 3.38123047e+02 -1.42172864e+03
      -4.96318329e+02 -7.46253906e+02 -5.26822449e+02 -2.13422339e+03
      1.72457288e+03 -1.12199562e+02 -1.92029187e+03 -1.40761658e+03</_>
    <_>
      -2.09769189e+03 1.53900781e+03 4.44339648e+03 3.29468530e+03
      -3.35086475e+03 4.59790161e+02 1.65796680e+03 -2.12894434e+03
      -1.74291711e+03 -2.67569800e+03 -4.35252533e+02 -2.06302166e+01
      -2.80223145e+03 -2.15277539e+03 -1.61875232e+03 5.65490173e+02
      2.32986499e+03 -6.11082191e+01 -6.12911316e+02 -2.07566089e+03</_>
    <_>
      4.83259229e+03 5.38546338e+03 6.71749805e+03 5.43110400e+03
      5.06952637e+03 -3.59898975e+03 4.19243457e+03 2.43189990e+03
      -4.63710645e+03 -8.84471069e+02 -1.71434839e+03 8.69351101e+00
      -2.94842663e+01 2.65907275e+03 -7.94442139e+02 -7.38202515e+02
      8.07025986e+01 2.91386688e+02 -3.53349342e+01 -1.73559601e+02</_>
    <_>
      3.15158203e+03 2.67196460e+03 3.14258569e+03 8.33165820e+03
      6.50158447e+03 -2.85517236e+03 -8.94469116e+02 2.25675342e+03
      6.80214722e+02 3.10295020e+03 6.60390625e+02 4.43776947e+02
      -1.21473633e+03 -1.28618286e+03 5.40387268e+02 -2.44051941e+02
      1.14460010e+03 1.19219641e+03 6.32499390e+02 5.85632446e+02</_>
    <_>
      4.33023877e+03 2.63356396e+03 1.73022949e+03 8.12657666e+03
      7.12312158e+03 -3.65110913e+03 1.09327246e+03 -2.03473160e+02
      -7.49890060e+01 1.77001013e+03 3.92309570e+02 -2.02864914e+02
      2.14089014e+03 -2.10733228e+03 -6.04916931e+02 7.04857422e+02
      1.05436438e+03 -7.44099426e+02 -5.95782349e+02 2.00728430e+03</_>
    <_>
      1.04766631e+04 1.07484902e+04 5.13089258e+03 2.00599402e+03
      -1.07344641e+03 -2.11225439e+03 -3.26049341e+03 -1.35534497e+03
      8.30395020e+02 1.79751282e+02 2.15405005e+03 -1.65938489e+03
      -4.56978241e+02 -5.74489685e+02 -1.25814185e+03 7.84175903e+02
      -5.14451660e+02 -1.88234512e+02 1.23765190e+02 1.03132217e+02</_>
    <_>
      1.03367754e+04 1.01241885e+04 7.61258105e+03 2.89435156e+03
      -2.07545117e+03 -3.29132886e+03 -1.41246704e+03 -3.31606055e+03
      2.93216675e+03 1.13885229e+03 5.09976013e+02 -1.81650085e+03
      -1.73203394e+03 3.79819580e+02 -2.62621338e+03 -6.32066223e+02
      -2.53162988e+03 -3.75257996e+02 -1.91573135e+02 -1.22210625e+02</_>
    <_>
      5.82983252e+03 7.75471826e+03 5.74099170e+03 -9.92444946e+02
      -7.83720166e+03 -1.64799902e+03 1.44877466e+03 1.20364722e+03
      -2.81822906e+02 3.08563550e+03 1.20411475e+03 1.14868994e+03
      2.10696777e+03 4.93674622e+01 -1.70269727e+03 5.46430481e+02
      -1.51131824e+03 1.67125598e+03 1.62620313e+03 8.66698792e+02</_>
